{
  "name": "webgpu-sr2x-8ch",
  "layers": {
    "conv2d_tf": {
      "name": "conv2d_tf",
      "type": "conv",
      "inputs": [
        "input_1_tf"
      ],
      "output": "conv2d_tf",
      "weights": [
        -0.05012490972876549,
        -0.34879592061042786,
        0.013868450187146664,
        0.16110655665397644,
        0.04005248844623566,
        0.3026089668273926,
        -0.1288585662841797,
        -0.013873928226530552,
        -0.029485950246453285,
        0.009012594819068909,
        0.27053940296173096,
        -0.014879550784826279,
        0.0,
        0.0,
        0.0,
        0.0,
        0.3013441264629364,
        0.2165675014257431,
        -0.1962285339832306,
        -0.24153800308704376,
        0.21755757927894592,
        0.09690650552511215,
        -0.0068016271106898785,
        0.42610692977905273,
        0.18723006546497345,
        -0.033673252910375595,
        0.013800114393234253,
        0.06753436475992203,
        0.0,
        0.0,
        0.0,
        0.0,
        0.4476326107978821,
        -0.37489742040634155,
        0.18990904092788696,
        -0.05732707306742668,
        0.1849489063024521,
        0.06376974284648895,
        -0.10088538378477097,
        -0.23898133635520935,
        -0.35265597701072693,
        0.22143736481666565,
        0.01134289801120758,
        0.46284425258636475,
        0.0,
        0.0,
        0.0,
        0.0,
        0.2873268723487854,
        0.20723766088485718,
        -0.2089928388595581,
        -0.6756075024604797,
        -0.11691133677959442,
        0.43539780378341675,
        -0.415862113237381,
        -0.11801386624574661,
        -0.30442726612091064,
        0.23738671839237213,
        0.3636590540409088,
        -0.047472842037677765,
        0.0,
        0.0,
        0.0,
        0.0,
        0.513617992401123,
        0.17451809346675873,
        0.010174604132771492,
        -0.180541530251503,
        -0.0756257027387619,
        0.4448380768299103,
        -0.508080780506134,
        0.45672574639320374,
        0.35615506768226624,
        -0.007538432255387306,
        -0.5025311708450317,
        -0.43238431215286255,
        0.0,
        0.0,
        0.0,
        0.0,
        0.241852805018425,
        0.46736928820610046,
        0.019648587331175804,
        0.1595643311738968,
        -0.3600267767906189,
        0.01798459328711033,
        0.24097488820552826,
        -0.017364852130413055,
        -0.05734759196639061,
        -0.4195357859134674,
        -0.09458030015230179,
        -0.10032309591770172,
        0.0,
        0.0,
        0.0,
        0.0,
        0.07647283375263214,
        -0.028198787942528725,
        0.17458583414554596,
        -0.0234907828271389,
        -0.08673876523971558,
        -0.018673419952392578,
        0.05021535977721214,
        0.46255096793174744,
        0.0696745440363884,
        -0.06678642332553864,
        -0.07108723372220993,
        0.46345221996307373,
        0.0,
        0.0,
        0.0,
        0.0,
        -0.23850318789482117,
        -0.03156429901719093,
        -0.026960143819451332,
        0.46034786105155945,
        0.051126349717378616,
        -0.13154719769954681,
        0.13649079203605652,
        0.153355211019516,
        0.05736926570534706,
        0.2278694361448288,
        -0.2888118326663971,
        -0.23884256184101105,
        0.0,
        0.0,
        0.0,
        0.0,
        -0.04205199331045151,
        -0.3030768632888794,
        0.027989644557237625,
        0.20696687698364258,
        0.06653594970703125,
        0.40641477704048157,
        -0.18694129586219788,
        -0.2225063592195511,
        0.11474637687206268,
        -0.14669018983840942,
        0.18134860694408417,
        -0.1694432646036148,
        0.0,
        0.0,
        0.0,
        0.0
      ],
      "bias": [
        -0.13312512636184692,
        -0.08663911372423172,
        0.17542169988155365,
        -0.09044699370861053
      ]
    },
    "conv2d_tf1": {
      "name": "conv2d_tf1",
      "type": "conv",
      "inputs": [
        "input_1_tf"
      ],
      "output": "conv2d_tf1",
      "weights": [
        -0.16699270904064178,
        0.13326393067836761,
        0.09718187898397446,
        -0.07977272570133209,
        0.17905199527740479,
        -0.36797046661376953,
        -0.03300395607948303,
        0.05371272936463356,
        0.09885434061288834,
        -0.3399161696434021,
        -0.15364839136600494,
        0.1261245310306549,
        0.0,
        0.0,
        0.0,
        0.0,
        -0.2505297064781189,
        -0.19624891877174377,
        0.023272007703781128,
        0.2051631212234497,
        -0.003949211910367012,
        -0.4036855399608612,
        0.20786891877651215,
        0.13556163012981415,
        0.07314500957727432,
        -0.04925468564033508,
        0.21692290902137756,
        -0.3301842510700226,
        0.0,
        0.0,
        0.0,
        0.0,
        0.11857542395591736,
        -0.3082481622695923,
        -0.16900117695331573,
        -0.2724834978580475,
        0.13089406490325928,
        0.29803407192230225,
        0.21042460203170776,
        -0.4186170697212219,
        -0.08546094596385956,
        -0.1267670840024948,
        -0.12610328197479248,
        0.10633474588394165,
        0.0,
        0.0,
        0.0,
        0.0,
        0.2666206955909729,
        -0.27329137921333313,
        -0.2208036333322525,
        0.3223448395729065,
        -0.37037423253059387,
        -0.22055211663246155,
        -0.2953166365623474,
        -0.12810365855693817,
        -0.25949546694755554,
        0.1000242680311203,
        0.04163023456931114,
        -0.10759040713310242,
        0.0,
        0.0,
        0.0,
        0.0,
        0.5476351976394653,
        0.18668018281459808,
        -0.2961050271987915,
        0.15492556989192963,
        -0.10344183444976807,
        -0.1644710898399353,
        -0.40649494528770447,
        -0.22671812772750854,
        0.18703582882881165,
        0.28625738620758057,
        -0.3735930621623993,
        -0.34902969002723694,
        0.0,
        0.0,
        0.0,
        0.0,
        -0.12308398634195328,
        0.18756188452243805,
        0.054040197283029556,
        -0.12248992919921875,
        -0.14369454979896545,
        0.16134220361709595,
        0.17375309765338898,
        -0.08248575031757355,
        0.0570826418697834,
        -0.051276251673698425,
        -0.00903488788753748,
        -0.07240448892116547,
        0.0,
        0.0,
        0.0,
        0.0,
        -0.5173021554946899,
        -0.07420848309993744,
        -0.19827605783939362,
        0.10212600976228714,
        -0.4086171090602875,
        0.21548062562942505,
        0.2071615606546402,
        0.10938095301389694,
        -0.07320132851600647,
        0.2207271009683609,
        0.20582762360572815,
        -0.12617690861225128,
        0.0,
        0.0,
        0.0,
        0.0,
        0.12970995903015137,
        0.33069562911987305,
        -0.09326514601707458,
        -0.08720128238201141,
        0.2849758565425873,
        0.1223253384232521,
        -0.17064069211483002,
        0.40284258127212524,
        0.20570676028728485,
        -0.09536987543106079,
        -0.05262114107608795,
        -0.18677808344364166,
        0.0,
        0.0,
        0.0,
        0.0,
        -0.02358492836356163,
        -0.06267782300710678,
        -0.31971976161003113,
        -0.23666660487651825,
        0.1954452395439148,
        0.06736131757497787,
        0.0919753685593605,
        0.22767777740955353,
        -0.19040387868881226,
        -0.06969751417636871,
        0.205534890294075,
        0.05801710486412048,
        0.0,
        0.0,
        0.0,
        0.0
      ],
      "bias": [
        -0.1036456823348999,
        0.04068577662110329,
        0.05813170224428177,
        0.09605585783720016
      ]
    },
    "conv2d_1_tf": {
      "name": "conv2d_1_tf",
      "type": "conv",
      "inputs": [
        "conv2d_tf",
        "conv2d_tf1"
      ],
      "output": "conv2d_1_tf",
      "weights": [
        -0.006206154823303223,
        -0.13158904016017914,
        0.01715201884508133,
        -0.009701361879706383,
        -0.0677616074681282,
        0.034383419901132584,
        -0.001592915621586144,
        -0.025997988879680634,
        0.03996582701802254,
        -0.17453061044216156,
        -0.08054082840681076,
        -0.06283237785100937,
        0.06817807257175446,
        -0.009740704670548439,
        0.006935738027095795,
        -0.06158700957894325,
        -0.0670560896396637,
        -0.1275852620601654,
        -0.05837341398000717,
        0.06012735888361931,
        0.12026539444923401,
        0.011810502037405968,
        -5.259694444248453e-05,
        -0.007028017193078995,
        0.23005758225917816,
        -0.047512397170066833,
        0.05821149796247482,
        -0.02095334418118,
        0.08255906403064728,
        0.0050352043472230434,
        -0.03549669310450554,
        0.01412282045930624,
        -0.03391005098819733,
        0.030354654416441917,
        0.009640764445066452,
        -0.028364673256874084,
        -0.12334863841533661,
        -0.1118425577878952,
        0.034239962697029114,
        0.005306964740157127,
        0.09802497178316116,
        -0.061197392642498016,
        0.12125017493963242,
        0.04739798977971077,
        -0.05723300576210022,
        -0.11686420440673828,
        0.018840210512280464,
        -0.11720279604196548,
        -0.01394354086369276,
        0.04962235689163208,
        0.14730627834796906,
        0.14501076936721802,
        0.06543845683336258,
        0.026734616607427597,
        -0.15310679376125336,
        0.17239812016487122,
        0.27915412187576294,
        -0.24107691645622253,
        -0.026535453274846077,
        -0.028116805478930473,
        0.171254962682724,
        -0.05465027689933777,
        0.028165748342871666,
        -0.11138303577899933,
        0.04198318347334862,
        0.03148103877902031,
        -0.19194386899471283,
        -0.04403369873762131,
        0.008839121088385582,
        -0.09076531231403351,
        -0.12096426635980606,
        -0.06112510338425636,
        0.03781513497233391,
        0.25262460112571716,
        0.11276711523532867,
        -0.2600500285625458,
        -0.03475913405418396,
        -0.16146311163902283,
        -0.02300129272043705,
        0.11717076599597931,
        0.04326259717345238,
        -0.039494141936302185,
        0.17399002611637115,
        -0.07107673585414886,
        -0.008318942971527576,
        0.17481426894664764,
        -0.09812196344137192,
        0.031070128083229065,
        -0.2566883862018585,
        0.042581018060445786,
        -0.0027043872978538275,
        0.0890403762459755,
        -0.04984975978732109,
        0.15918581187725067,
        0.19140423834323883,
        0.004319163970649242,
        -0.000726140511687845,
        0.006068143993616104,
        -0.009284904226660728,
        0.017915192991495132,
        0.0076295011676847935,
        -0.0012547550722956657,
        0.033860865980386734,
        0.13284502923488617,
        0.09939353168010712,
        -0.03646589443087578,
        -0.120369091629982,
        -0.15771012008190155,
        -0.025319550186395645,
        0.07692408561706543,
        -0.03839370235800743,
        -0.20282673835754395,
        0.12502063810825348,
        -0.13115082681179047,
        -0.04231094941496849,
        0.21573784947395325,
        0.05584777519106865,
        0.08039505779743195,
        0.00443898793309927,
        0.05044809728860855,
        0.13782748579978943,
        0.0035401175264269114,
        -0.09694403409957886,
        -0.18788519501686096,
        -0.09151916205883026,
        -0.07408390939235687,
        -0.06790628284215927,
        0.15904806554317474,
        0.11881964653730392,
        0.03953561186790466,
        -0.06506931036710739,
        -0.14022396504878998,
        -0.14507143199443817,
        -0.09134620428085327,
        -0.1067606508731842,
        -0.08455584943294525,
        -0.30777478218078613,
        -0.05203000083565712,
        -0.07641599327325821,
        -0.2297717183828354,
        -0.0036301135551184416,
        0.040534839034080505,
        -0.0024909975472837687,
        -0.1354813575744629,
        0.0015061094891279936,
        -0.04026602953672409,
        -0.2475961297750473,
        0.07778404653072357,
        0.10478505492210388,
        -0.046961668878793716,
        0.13340553641319275,
        -0.0871012955904007,
        -0.1651965230703354,
        0.20076186954975128,
        0.20496857166290283,
        0.23939119279384613,
        -0.0211966410279274,
        0.055088553577661514,
        0.16130667924880981,
        0.04775962978601456,
        -0.174531951546669,
        -0.10655248165130615,
        -0.1202809140086174,
        0.08273377269506454,
        -0.25131890177726746,
        -0.2351853996515274,
        -0.20151349902153015,
        0.1361120641231537,
        -0.0172448568046093,
        0.12597662210464478,
        0.094627246260643,
        -0.05711561441421509,
        0.03809288144111633,
        -0.2257034033536911,
        -0.18781518936157227,
        0.14927750825881958,
        0.0032555176876485348,
        -0.08955612033605576,
        0.23146112263202667,
        0.3000478744506836,
        -0.052608221769332886,
        -0.08373688906431198,
        -0.025010570883750916,
        -0.12571576237678528,
        -0.2113964855670929,
        -0.017599215731024742,
        -0.08741403371095657,
        -0.07712960988283157,
        0.02959897741675377,
        -0.059923529624938965,
        0.019363202154636383,
        0.08262255042791367,
        0.1696724146604538,
        -0.024642668664455414,
        0.10245036333799362,
        0.0451531708240509,
        -0.10398615151643753,
        0.002230721293017268,
        -0.02276526764035225,
        0.02105024829506874,
        -0.099873848259449,
        0.2821955680847168,
        0.05277187004685402,
        0.15220800042152405,
        -0.15110424160957336,
        -0.03970285877585411,
        0.12348423898220062,
        -0.2512211799621582,
        0.07871703803539276,
        0.0018351490143686533,
        0.06153373047709465,
        0.03939295932650566,
        0.2236914187669754,
        -0.05284672975540161,
        -0.09534239768981934,
        -0.20889262855052948,
        -0.04674125090241432,
        0.33663007616996765,
        0.02567555196583271,
        -0.23080267012119293,
        -0.01551733911037445,
        -0.010986454784870148,
        -0.16474613547325134,
        -0.07938118278980255,
        0.07614513486623764,
        -0.0778624564409256,
        0.011440442875027657,
        0.08907762914896011,
        0.10861379653215408,
        -0.1393018215894699,
        0.2404850870370865,
        -0.12945161759853363,
        0.011917135678231716,
        0.13317511975765228,
        0.24861569702625275,
        -0.2572122812271118,
        0.21018294990062714,
        -0.029772546142339706,
        0.09523855894804001,
        0.0007694487576372921,
        -0.060028158128261566,
        -0.03875548020005226,
        0.05984387919306755,
        -0.1780507117509842,
        0.07331375777721405,
        -0.08725614845752716,
        0.056148480623960495,
        0.0698273554444313,
        -0.08493201434612274,
        0.2631753981113434,
        0.08488927036523819,
        0.2830648422241211,
        -0.04026888683438301,
        0.17695023119449615,
        -0.03401602804660797,
        -0.0668172538280487,
        0.024879995733499527,
        -0.10584516078233719,
        0.06572525203227997,
        0.08812648057937622,
        0.21949657797813416,
        0.1380430907011032,
        0.12455136328935623,
        -0.07235497981309891,
        -0.003934171516448259,
        0.1935347318649292,
        -0.04260118678212166,
        -0.4055638909339905,
        0.02347848191857338,
        -0.07414113730192184,
        -0.13549885153770447,
        -0.1165008470416069,
        0.08881568908691406,
        0.08114711940288544,
        0.07484482228755951,
        0.022796807810664177,
        0.030330348759889603,
        0.05175916105508804,
        0.007410326041281223,
        -0.0063341595232486725,
        0.28103452920913696,
        0.08947840332984924,
        0.002493463922291994,
        -0.18069887161254883,
        -0.07887792587280273,
        -0.02617938257753849,
        0.06623406708240509,
        -0.005731561221182346,
        -0.15045617520809174,
        0.16974614560604095,
        0.07499755173921585,
        0.14977215230464935,
        0.19544748961925507,
        -0.1455342173576355,
        -0.285296767950058,
        -0.16131547093391418,
        0.0018490756629034877,
        0.10670002549886703,
        -0.04969697445631027,
        0.06036801263689995,
        -0.0723126009106636,
        0.14034593105316162,
        -0.1557312309741974,
        0.15662223100662231,
        -0.0019996617920696735,
        0.1007637232542038,
        0.0955943688750267,
        -0.050288084894418716,
        0.09571501612663269,
        -0.14202578365802765,
        0.000365629093721509,
        -0.11501897871494293,
        -0.01808253303170204,
        0.021419242024421692,
        -0.08797825127840042,
        -0.06799061596393585,
        -0.06938548386096954,
        -0.07653667777776718,
        0.0405757762491703,
        0.027955861762166023,
        -0.08094630390405655,
        -0.006719615776091814,
        -0.056511808186769485,
        0.021535303443670273,
        0.49293315410614014,
        0.09805632382631302,
        0.0012559978058561683,
        0.0745316669344902,
        0.1156812384724617,
        0.03827681392431259,
        -0.1976233720779419,
        -0.04717851057648659,
        0.23025824129581451,
        0.06734595447778702,
        0.012699062936007977,
        0.039335887879133224,
        -0.015376273542642593,
        0.11357066035270691,
        -0.13686348497867584,
        0.05546949803829193,
        0.12739591300487518,
        -0.008341201581060886,
        0.1838865727186203,
        -0.359165221452713,
        0.04910340905189514,
        -0.05207471549510956,
        0.019176896661520004,
        -0.15448133647441864,
        -0.12377725541591644,
        0.11795730143785477,
        -0.004582722205668688,
        0.13068342208862305,
        0.1239473894238472,
        -0.08076412975788116,
        0.37588250637054443,
        0.01937750354409218,
        -0.30693721771240234,
        0.3216152787208557,
        0.38788849115371704,
        -0.3859514892101288,
        -0.007489943411201239,
        -0.22065865993499756,
        -0.1769079566001892,
        0.12038825452327728,
        -0.20453816652297974,
        0.07802081853151321,
        0.08819214999675751,
        0.021479828283190727,
        -0.21822158992290497,
        0.029617076739668846,
        0.0036256317980587482,
        0.021352389827370644,
        -0.11032029986381531,
        0.1886594146490097,
        0.40813687443733215,
        -0.0750989317893982,
        0.16383546590805054,
        0.0051620351150631905,
        -0.0029194129165261984,
        0.09104660153388977,
        -0.05153066664934158,
        -0.17734698951244354,
        -0.1338295191526413,
        0.03742736205458641,
        -0.08369582146406174,
        0.409045547246933,
        0.22231623530387878,
        0.23133204877376556,
        -0.027109675109386444,
        -0.1902998834848404,
        -0.34611475467681885,
        -0.27527695894241333,
        -0.004572632722556591,
        -0.01987599767744541,
        -0.0629836842417717,
        -0.035804618149995804,
        0.03241605684161186,
        -0.06876517087221146,
        0.019780650734901428,
        0.17045482993125916,
        0.3947012424468994,
        0.3837429881095886,
        0.1246166080236435,
        -0.3934805989265442,
        -0.39224568009376526,
        -0.2582244575023651,
        0.19313107430934906,
        0.02263847552239895,
        -0.22706153988838196,
        0.07058960944414139,
        0.11669808626174927,
        0.10508489608764648,
        0.04657077416777611,
        0.04286062344908714,
        0.06738830357789993,
        -0.21354395151138306,
        -0.20242160558700562,
        0.006379881873726845,
        0.0036329140421003103,
        0.05345778912305832,
        -0.23475994169712067,
        0.08107209950685501,
        -0.11297138035297394,
        0.08852235227823257,
        0.15615399181842804,
        -0.008575649932026863,
        0.09072397649288177,
        0.22900620102882385,
        0.05208198353648186,
        -0.10003280639648438,
        0.06102364510297775,
        0.24875091016292572,
        0.05714280903339386,
        -0.020889459177851677,
        0.07654043287038803,
        -0.06222189962863922,
        -0.057641856372356415,
        0.013737519271671772,
        -0.03212074562907219,
        0.061906736344099045,
        0.12448646128177643,
        -0.07447749376296997,
        -0.07503441721200943,
        -0.1363832950592041,
        0.07335159182548523,
        -0.041736721992492676,
        -0.007010686676949263,
        0.06657855957746506,
        -0.057747576385736465,
        0.10916109383106232,
        0.16371186077594757,
        0.007213004399091005,
        0.05533581227064133,
        0.13799327611923218,
        0.0240036491304636,
        -0.1347511112689972,
        -0.060627907514572144,
        -0.026265673339366913,
        -0.003825724357739091,
        0.020872781053185463,
        0.07982926815748215,
        0.13646745681762695,
        0.25129371881484985,
        0.017975319176912308,
        -0.0263831689953804,
        0.03642037883400917,
        0.02001853473484516,
        0.005741811823099852,
        0.10968614369630814,
        0.011601821519434452,
        -0.05409980192780495,
        0.06283862888813019,
        0.12201195955276489,
        -0.03416803479194641,
        0.1028251051902771,
        0.07142515480518341,
        0.05721050128340721,
        -0.007549306843429804,
        -0.04955977573990822,
        0.03740512952208519,
        -0.06381750851869583,
        0.09444494545459747,
        -0.032275088131427765,
        0.002276950515806675,
        0.006728897336870432,
        -0.03526754304766655,
        -0.01635633409023285,
        -0.007815754041075706,
        0.04068921133875847,
        -0.2008718103170395,
        0.09344936907291412,
        0.020140230655670166,
        -0.13940991461277008,
        -0.11750984191894531,
        -0.2359437793493271,
        -0.040953196585178375,
        -0.16767743229866028,
        0.2882152497768402,
        0.031289856880903244,
        0.06444954127073288,
        -0.1681188941001892,
        0.011949985288083553,
        -0.059010520577430725,
        0.0405762679874897,
        0.02621670812368393,
        -0.16010580956935883,
        -0.175419881939888,
        -0.025588199496269226,
        -0.17812864482402802,
        0.02578509971499443,
        -0.03455580025911331,
        -0.14190888404846191,
        -0.06842990964651108,
        -0.08930740505456924,
        -0.09697294980287552,
        0.07441277801990509,
        -0.0627594068646431,
        0.1072850152850151,
        -0.0215168334543705,
        0.2568500339984894,
        0.16736456751823425,
        0.06196921318769455,
        -0.10535150021314621,
        -0.02731980010867119,
        -0.012418696656823158,
        0.01802682690322399,
        -0.016723431646823883,
        0.058793384581804276,
        0.018587609753012657,
        -0.06876708567142487,
        0.033009640872478485,
        0.13196347653865814,
        -0.05126160755753517,
        0.09775710105895996,
        -0.05792025104165077,
        -0.14649604260921478,
        0.026141125708818436,
        -0.0750618427991867,
        -0.02377154305577278,
        -0.09006292372941971,
        0.04497090354561806,
        -0.06072467938065529,
        0.04225870594382286,
        0.05808914080262184,
        0.0654342845082283,
        0.016951121389865875,
        0.06100616976618767,
        -0.054803796112537384,
        -0.08445486426353455,
        -0.14346317946910858,
        -0.11673153936862946,
        -0.10848692804574966,
        -0.0238321665674448,
        0.11494222283363342,
        0.14601367712020874,
        0.18288995325565338,
        0.20555031299591064,
        -0.04574869945645332,
        0.03734586760401726,
        0.023889990523457527,
        -0.07530912756919861,
        -0.054451070725917816,
        -0.07330199331045151,
        -0.049169331789016724,
        -0.13351339101791382,
        -0.16327431797981262,
        -0.05015537887811661,
        0.11514053493738174,
        -0.25241321325302124,
        -0.020161164924502373,
        -0.07945811748504639,
        -0.11918837577104568,
        0.07972624152898788,
        -0.015998363494873047,
        -0.05933689326047897,
        0.13668160140514374
      ],
      "bias": [
        -0.015735257416963577,
        0.08176178485155106,
        -0.08872932940721512,
        0.13216909766197205
      ]
    },
    "conv2d_1_tf1": {
      "name": "conv2d_1_tf1",
      "type": "conv",
      "inputs": [
        "conv2d_tf",
        "conv2d_tf1"
      ],
      "output": "conv2d_1_tf1",
      "weights": [
        0.01231934130191803,
        -0.006559187546372414,
        0.02359745465219021,
        -0.11905618011951447,
        -0.06624313443899155,
        -0.17437925934791565,
        -0.0693201795220375,
        -0.00987174641340971,
        0.22852109372615814,
        -0.021393753588199615,
        -0.07298517972230911,
        -0.08979538828134537,
        0.0719335749745369,
        -0.13382281363010406,
        -0.048449862748384476,
        0.00556162791326642,
        0.022218503057956696,
        -0.05656439810991287,
        0.005290835164487362,
        0.08596348017454147,
        0.10318997502326965,
        0.02605193294584751,
        -0.13002455234527588,
        0.1587410569190979,
        -0.040902163833379745,
        -0.16395658254623413,
        -0.08229009807109833,
        0.27970096468925476,
        0.2728295624256134,
        0.014176403172314167,
        -0.013872498646378517,
        -0.18070438504219055,
        -0.04905729368329048,
        0.03002287819981575,
        0.04639449715614319,
        -0.08101870119571686,
        0.03349345922470093,
        0.09106796234846115,
        0.12640762329101562,
        0.015193212777376175,
        0.12281684577465057,
        -0.12128406763076782,
        -0.08336938172578812,
        -0.09498313069343567,
        -0.1531676948070526,
        -0.03991319611668587,
        -0.13540330529212952,
        0.09909538924694061,
        0.049766235053539276,
        0.15288108587265015,
        -0.052807923406362534,
        0.20268943905830383,
        0.02292083390057087,
        0.034894004464149475,
        -0.05371139943599701,
        -0.20134755969047546,
        -0.02065342105925083,
        0.24729317426681519,
        -0.3079788088798523,
        0.05527334287762642,
        0.10302356630563736,
        0.07265882939100266,
        0.03650753200054169,
        -0.2177152931690216,
        -0.1057291105389595,
        0.047986555844545364,
        0.014991446398198605,
        -0.14693787693977356,
        0.21633899211883545,
        0.004637818317860365,
        -0.059473488479852676,
        -0.1703844666481018,
        -0.19834230840206146,
        0.3502129912376404,
        0.21218104660511017,
        0.0025541838258504868,
        0.012820852920413017,
        0.2545550465583801,
        -0.0892680436372757,
        0.09659164398908615,
        -0.11357374489307404,
        -0.08622905611991882,
        0.19936999678611755,
        0.059974998235702515,
        -0.12121355533599854,
        -0.20785552263259888,
        0.009308851324021816,
        0.07386483997106552,
        0.13099855184555054,
        0.15080174803733826,
        0.0837373435497284,
        0.27459466457366943,
        -0.1162925735116005,
        0.03582562506198883,
        0.08198121935129166,
        0.10971685498952866,
        0.13048772513866425,
        -0.1888187825679779,
        -0.003950658719986677,
        -0.12804126739501953,
        -0.14220324158668518,
        0.08062282204627991,
        0.10412495583295822,
        0.18326343595981598,
        0.03721006214618683,
        -0.18732285499572754,
        -0.22988392412662506,
        -0.001439326093532145,
        0.1339813619852066,
        -0.06870041787624359,
        -0.03179655224084854,
        0.12033971399068832,
        0.024307336658239365,
        -0.10239151120185852,
        0.06238337978720665,
        0.11278241872787476,
        -0.15743744373321533,
        -0.035999592393636703,
        0.13660390675067902,
        0.18009048700332642,
        -0.03940820321440697,
        0.242498517036438,
        -0.033527325838804245,
        -0.20755760371685028,
        -0.012209780514240265,
        -0.027908386662602425,
        -0.10449144244194031,
        -0.12188559025526047,
        0.007029255852103233,
        0.019268808886408806,
        -0.10117385536432266,
        -0.17395031452178955,
        -0.078031525015831,
        0.026971617713570595,
        -0.03199438750743866,
        0.07076018303632736,
        0.27499574422836304,
        0.1283809095621109,
        -0.021517397835850716,
        0.055308107286691666,
        -0.10129381716251373,
        0.09132172167301178,
        -0.0498756505548954,
        -0.13349881768226624,
        -0.007327449973672628,
        0.045934099704027176,
        0.04770577698945999,
        -0.15434499084949493,
        -0.0850585401058197,
        0.017802279442548752,
        -0.026639800518751144,
        0.018212754279375076,
        -0.44659340381622314,
        0.2509501278400421,
        -0.025005659088492393,
        0.1200590506196022,
        -0.13695412874221802,
        -0.0905742347240448,
        -0.15417088568210602,
        0.09162387996912003,
        0.1401207149028778,
        0.15929757058620453,
        -0.07675029337406158,
        -0.21357540786266327,
        0.22658859193325043,
        -0.09711474180221558,
        -0.07932639122009277,
        -0.1318514049053192,
        -0.3598352074623108,
        -0.0008323212387040257,
        -0.03981133922934532,
        0.07175219058990479,
        0.02289910614490509,
        -0.2619946599006653,
        -0.0949796661734581,
        -0.15429766476154327,
        0.2698790729045868,
        0.16882292926311493,
        0.479537695646286,
        -0.05658687278628349,
        0.11933592706918716,
        0.164961040019989,
        -0.08999460190534592,
        0.17546486854553223,
        -0.16841647028923035,
        0.015269975177943707,
        -0.25955870747566223,
        -0.15059436857700348,
        0.03371463716030121,
        -0.020640617236495018,
        -0.07910151779651642,
        -0.02517511509358883,
        -0.21323634684085846,
        0.2249738872051239,
        -0.133570596575737,
        0.07917752116918564,
        0.012169740162789822,
        0.14012449979782104,
        -0.18011188507080078,
        -0.017454596236348152,
        -0.4282398819923401,
        0.08463389426469803,
        -0.30256474018096924,
        0.37025395035743713,
        0.00909074954688549,
        0.3211601674556732,
        -0.07239554077386856,
        0.08135133981704712,
        -0.22691039741039276,
        -0.1672312617301941,
        -0.03982246667146683,
        0.0426434688270092,
        0.13676363229751587,
        0.1651262640953064,
        -0.052006132900714874,
        0.03336776793003082,
        0.10319162160158157,
        0.14905278384685516,
        0.31963130831718445,
        0.08049673587083817,
        -0.15883231163024902,
        0.0270796250551939,
        -0.03246460482478142,
        0.1230013445019722,
        0.06749515235424042,
        0.1049652025103569,
        0.1865972876548767,
        -0.02128291130065918,
        -0.026235254481434822,
        0.21000032126903534,
        0.18767815828323364,
        0.04612221568822861,
        -0.028801409527659416,
        -0.0003876191913150251,
        -0.22680334746837616,
        0.03520938381552696,
        0.10132055729627609,
        -0.12640543282032013,
        0.20326121151447296,
        -0.010640120133757591,
        0.1698640137910843,
        0.10993950814008713,
        -0.15485310554504395,
        0.05146217346191406,
        -0.10344954580068588,
        -0.042615510523319244,
        0.05745889991521835,
        0.1562088280916214,
        0.0383421927690506,
        -0.2523726522922516,
        0.2544553279876709,
        0.03682409226894379,
        -0.04560026898980141,
        -0.03429147228598595,
        0.5667029023170471,
        0.2634808421134949,
        -0.20275303721427917,
        0.26542213559150696,
        -0.0724591612815857,
        0.1678517609834671,
        0.14801165461540222,
        0.14074112474918365,
        -0.020434774458408356,
        0.07027921825647354,
        0.07470829039812088,
        -0.07876081019639969,
        -0.4182518422603607,
        0.08864681422710419,
        0.0017058986704796553,
        0.09117189049720764,
        -0.20736843347549438,
        -0.1464967280626297,
        -0.0788041278719902,
        -0.11609143763780594,
        -0.1014309823513031,
        0.017017332836985588,
        0.03563854843378067,
        0.11200796812772751,
        -0.10057131946086884,
        0.04366572946310043,
        0.3233262896537781,
        -0.1073862761259079,
        -0.2886854410171509,
        -0.10869991034269333,
        0.06374876946210861,
        0.03978026658296585,
        -0.037215813994407654,
        -0.12365062534809113,
        -0.20523247122764587,
        0.22340133786201477,
        -0.0011327338870614767,
        0.05750298127532005,
        0.36000773310661316,
        0.05201119929552078,
        0.2806309163570404,
        0.03492508456110954,
        -0.05243825539946556,
        -0.07269827276468277,
        0.13734975457191467,
        0.01866385154426098,
        -0.0007544258842244744,
        -0.07258599251508713,
        0.16139766573905945,
        -0.015408181585371494,
        -0.07021725922822952,
        0.19635967910289764,
        -0.0039992304518818855,
        -0.04347347095608711,
        -0.043352484703063965,
        -0.18283484876155853,
        0.03458605706691742,
        -0.09299828112125397,
        -0.0029297955334186554,
        0.10630295425653458,
        0.17085929214954376,
        0.012660783715546131,
        -0.1617031991481781,
        0.2824556231498718,
        0.039062902331352234,
        0.036289509385824203,
        -0.24472573399543762,
        0.06659890711307526,
        0.09700138121843338,
        0.0182801503688097,
        -0.03503601253032684,
        -0.24529653787612915,
        -0.06283365190029144,
        0.41894468665122986,
        -0.038692373782396317,
        0.02221912518143654,
        0.14005248248577118,
        0.04942326247692108,
        0.06721366196870804,
        -0.0072439201176166534,
        0.1844806969165802,
        -0.06618642807006836,
        -0.13178236782550812,
        -0.07456524670124054,
        -0.06800692528486252,
        0.0003258231736253947,
        0.0420127734541893,
        0.06504908949136734,
        -0.038218654692173004,
        0.20873357355594635,
        -0.060322221368551254,
        0.09940435737371445,
        0.14391687512397766,
        0.06253374367952347,
        -0.18172569572925568,
        -0.020551396533846855,
        -0.045371804386377335,
        0.19288165867328644,
        0.13228966295719147,
        -0.08592341095209122,
        0.1656087189912796,
        0.04939425364136696,
        -0.36277854442596436,
        0.334202378988266,
        0.33276471495628357,
        -0.1875484734773636,
        -0.123751699924469,
        -0.039305586367845535,
        -0.02501877397298813,
        -0.11707490682601929,
        -0.10576798766851425,
        -0.12443181127309799,
        0.133197620511055,
        -0.09316090494394302,
        0.026304032653570175,
        -0.16508793830871582,
        -0.1384952813386917,
        -0.16918633878231049,
        -0.09320653975009918,
        0.019582930952310562,
        0.16339188814163208,
        0.33747103810310364,
        -0.17328444123268127,
        -0.2173675298690796,
        -0.026910142973065376,
        0.007492699194699526,
        0.23760883510112762,
        -0.19630630314350128,
        -0.008601517416536808,
        0.02861892804503441,
        -0.047900713980197906,
        0.09663420915603638,
        0.05586986988782883,
        0.36292678117752075,
        0.08629554510116577,
        0.10015776008367538,
        -0.13389843702316284,
        -0.38507819175720215,
        0.07624699175357819,
        0.14620700478553772,
        0.010349775664508343,
        -0.07577602565288544,
        -0.17873463034629822,
        0.012169091030955315,
        -0.02195105515420437,
        -0.1039634421467781,
        -0.11952503025531769,
        -0.17679661512374878,
        0.0222128015011549,
        0.07480838149785995,
        -0.1617375612258911,
        0.16157378256320953,
        -0.0011342248180881143,
        -0.5647261738777161,
        -0.07241589576005936,
        0.022858142852783203,
        -0.02070779725909233,
        0.0013887799577787519,
        0.0640174001455307,
        0.04129113629460335,
        0.15841494500637054,
        0.007299213204532862,
        -0.062299974262714386,
        -0.13134530186653137,
        -0.05155095085501671,
        -0.03179170563817024,
        0.4463336765766144,
        0.4044807553291321,
        -0.19118888676166534,
        -0.16154704988002777,
        -0.1391446441411972,
        0.13337236642837524,
        -0.18624643981456757,
        -0.12243159860372543,
        0.06128329783678055,
        -0.031566254794597626,
        0.1893407553434372,
        0.19227087497711182,
        0.061373405158519745,
        0.2082679271697998,
        -0.02517371065914631,
        0.06336196511983871,
        0.014548520557582378,
        0.05088648572564125,
        -0.009483754634857178,
        0.010515394620597363,
        0.1646323800086975,
        0.06617658585309982,
        -0.16124588251113892,
        -0.06966611742973328,
        0.0440828762948513,
        0.07407477498054504,
        -0.09193188697099686,
        -0.0703585147857666,
        0.05443962290883064,
        -0.17612941563129425,
        0.17911016941070557,
        0.23342618346214294,
        -0.10340657830238342,
        0.053773198276758194,
        0.03553170710802078,
        0.1252368539571762,
        0.1780095100402832,
        0.061970070004463196,
        -0.16325685381889343,
        0.0981723740696907,
        -0.00811031460762024,
        0.06763032078742981,
        0.11888222396373749,
        0.08699306845664978,
        0.032309699803590775,
        -0.1923311948776245,
        -0.022269990295171738,
        -0.010294605977833271,
        -0.032348185777664185,
        -0.04626176133751869,
        -0.07947328686714172,
        -0.05298721417784691,
        -0.07516846805810928,
        0.06638830900192261,
        0.13826514780521393,
        -0.16808351874351501,
        0.07032997161149979,
        -5.11241851199884e-05,
        0.07170966267585754,
        0.03102388232946396,
        0.09849011152982712,
        -0.04995568096637726,
        -0.020512497052550316,
        0.06392689794301987,
        -0.08923584967851639,
        -0.12289893627166748,
        0.11825423687696457,
        -0.028816398233175278,
        0.1898161768913269,
        0.06801872700452805,
        0.0021431557834148407,
        -0.023339273408055305,
        0.22351618111133575,
        -0.042047083377838135,
        0.07030867040157318,
        -0.0694439709186554,
        0.2001836597919464,
        0.15249419212341309,
        0.17307868599891663,
        -0.08833925426006317,
        -0.05776960402727127,
        -0.1728949099779129,
        0.102569580078125,
        -0.06960781663656235,
        -0.10020200908184052,
        -0.07027127593755722,
        0.0658775195479393,
        -0.08308982849121094,
        0.11630529165267944,
        -0.030386174097657204,
        -0.16420191526412964,
        0.0244224201887846,
        -0.08499808609485626,
        -0.16084466874599457,
        0.04412252455949783,
        -0.049205195158720016,
        0.12876537442207336,
        -0.05677908658981323,
        -0.25804516673088074,
        0.10701074451208115,
        -0.03115537390112877,
        -0.060008704662323,
        0.14982974529266357,
        -0.007778123486787081,
        0.0045571899972856045,
        0.08108363300561905,
        -0.18345466256141663,
        -0.11720765382051468,
        -0.06217965856194496,
        0.07191015034914017,
        0.022647978737950325,
        -0.10590825229883194,
        0.05781899765133858,
        0.12939788401126862,
        -0.25485411286354065,
        -0.06637264788150787,
        -0.19097912311553955,
        0.22877420485019684,
        -0.047546740621328354,
        0.16370096802711487,
        -0.17543046176433563,
        -0.09013114124536514,
        -0.02748447097837925,
        -0.05108249932527542,
        -0.09408095479011536,
        0.10986964404582977,
        -0.0577104277908802,
        -0.17007654905319214,
        -0.1604377180337906,
        -0.09342251718044281,
        -0.0741083100438118,
        -0.1646137684583664,
        -0.015002851374447346,
        0.050443537533283234,
        -0.01905425637960434,
        0.16507890820503235,
        -0.013757780194282532,
        0.04241423308849335,
        0.20210205018520355,
        0.11846988648176193,
        -0.12169298529624939,
        0.034026436507701874,
        0.030656177550554276,
        0.05640732869505882,
        -0.13341695070266724,
        0.03119780123233795,
        0.008384056389331818,
        0.02940003201365471,
        -0.14181143045425415,
        -0.10580432415008545,
        0.04791572317481041,
        0.1880999058485031,
        -0.1900460571050644,
        -0.01261847373098135,
        -0.04823148623108864,
        0.050774816423654556
      ],
      "bias": [
        0.004667660221457481,
        0.05182741582393646,
        0.013078652322292328,
        -0.03860386088490486
      ]
    },
    "conv2d_2_tf": {
      "name": "conv2d_2_tf",
      "type": "conv",
      "inputs": [
        "conv2d_1_tf",
        "conv2d_1_tf1"
      ],
      "output": "conv2d_2_tf",
      "weights": [
        -0.1027294248342514,
        -0.14994965493679047,
        0.0051059238612651825,
        0.0860210433602333,
        -0.13514232635498047,
        0.20214363932609558,
        -0.03348314389586449,
        0.060164179652929306,
        0.16743819415569305,
        -0.09501583129167557,
        -0.026544906198978424,
        -0.011170842684805393,
        0.16106756031513214,
        0.05793193727731705,
        -0.0814233124256134,
        -0.18043610453605652,
        -0.0037693839985877275,
        -0.10216771066188812,
        0.04170700162649155,
        0.013266244903206825,
        0.25034213066101074,
        -0.11644762754440308,
        -0.34214094281196594,
        0.053636714816093445,
        0.11778519302606583,
        -0.165898859500885,
        0.006504356861114502,
        0.09997526556253433,
        -0.09055950492620468,
        0.1779964566230774,
        0.09402178227901459,
        0.06297425180673599,
        0.08789816498756409,
        0.10215304046869278,
        -0.05165967345237732,
        -0.013954520225524902,
        -0.024707064032554626,
        0.14414054155349731,
        -0.08311596512794495,
        -0.14671248197555542,
        -0.0468737967312336,
        0.010791459120810032,
        0.15493284165859222,
        0.08309637010097504,
        -0.003708622418344021,
        -0.15291033685207367,
        -0.06380236148834229,
        -0.11300020664930344,
        -0.09230247884988785,
        -0.010292734950780869,
        0.12223782390356064,
        0.11260094493627548,
        -0.042250048369169235,
        -0.08202458918094635,
        -0.15082938969135284,
        0.1541273444890976,
        0.1243012472987175,
        -0.0341109074652195,
        -0.05291425809264183,
        0.0232932697981596,
        0.13016638159751892,
        0.02153168059885502,
        -0.003119471250101924,
        -0.09046494215726852,
        0.014335117302834988,
        0.043309684842824936,
        -0.14440317451953888,
        -0.010089607909321785,
        0.027172718197107315,
        -0.32941263914108276,
        -0.12250357121229172,
        -0.10690312832593918,
        0.13519132137298584,
        -0.20130479335784912,
        0.20780985057353973,
        -0.24315820634365082,
        -0.06017355993390083,
        -0.19000297784805298,
        -0.0471046008169651,
        0.10789903253316879,
        0.04409317299723625,
        -0.054896801710128784,
        0.1358046680688858,
        -0.1698673963546753,
        0.17515888810157776,
        0.023575443774461746,
        -0.06751425564289093,
        0.1165057122707367,
        -0.03826336935162544,
        -0.11808210611343384,
        -0.03541688248515129,
        -0.3453366756439209,
        -0.20147210359573364,
        0.021188674494624138,
        0.08324930816888809,
        0.1124228909611702,
        -0.11701621115207672,
        0.0015897010453045368,
        -0.05094413831830025,
        0.04077379032969475,
        -0.12107352167367935,
        0.18170969188213348,
        0.02244543842971325,
        -0.026458965614438057,
        -0.1996660828590393,
        -0.26190170645713806,
        0.1272912323474884,
        0.1326981633901596,
        -0.04555797576904297,
        0.037018220871686935,
        -0.08450116962194443,
        -0.13113684952259064,
        0.007787744980305433,
        -0.11489991843700409,
        -0.11778508126735687,
        0.08167485147714615,
        0.16708333790302277,
        0.05640396103262901,
        -0.08941823244094849,
        0.002304447814822197,
        0.17891912162303925,
        -0.649953305721283,
        0.05611889064311981,
        -0.3744472563266754,
        -0.08047030866146088,
        0.011274806223809719,
        0.007304519880563021,
        0.1424972265958786,
        0.04625726491212845,
        0.06256357580423355,
        0.045051537454128265,
        -0.0041502173990011215,
        -0.054924819618463516,
        0.05610764026641846,
        0.04347577318549156,
        -0.040446728467941284,
        -0.14965201914310455,
        -0.26172930002212524,
        0.13338254392147064,
        -0.37121298909187317,
        0.06349442154169083,
        0.04661192372441292,
        0.14410319924354553,
        -0.06553008407354355,
        -0.06735856831073761,
        0.01029229536652565,
        -0.05034257099032402,
        -0.09909625351428986,
        -0.06123868748545647,
        0.0805828645825386,
        0.10580534487962723,
        -0.05174970254302025,
        0.1578826904296875,
        0.043281812220811844,
        0.01425523404031992,
        0.09185592830181122,
        0.037406500428915024,
        0.028434736654162407,
        -0.02774732932448387,
        0.18939879536628723,
        0.03576603904366493,
        -0.11160711199045181,
        -0.012269235216081142,
        0.14059314131736755,
        -0.03732404112815857,
        0.01525625865906477,
        -0.06450869888067245,
        0.0029372365679591894,
        0.001932533923536539,
        0.08293642848730087,
        0.18030673265457153,
        0.04195890203118324,
        -0.11170625686645508,
        0.04710516706109047,
        0.2976846992969513,
        0.13125856220722198,
        0.06555846333503723,
        -0.13670885562896729,
        -0.14197182655334473,
        0.06873723864555359,
        0.10692930221557617,
        0.12569695711135864,
        0.16968274116516113,
        0.04495333880186081,
        -0.09238357841968536,
        0.022107670083642006,
        0.09807411581277847,
        -0.028168322518467903,
        0.07399708777666092,
        0.024891318753361702,
        0.3191177248954773,
        0.13213574886322021,
        0.06805683672428131,
        -0.058032821863889694,
        0.04611744359135628,
        0.06002243608236313,
        -0.005448554176837206,
        0.11068834364414215,
        -0.03170054033398628,
        0.07441383600234985,
        -0.15176285803318024,
        -0.060669105499982834,
        -0.06750153750181198,
        0.12614485621452332,
        -0.03052661567926407,
        -0.1389521360397339,
        -0.006867570336908102,
        0.03545914962887764,
        -0.03670678287744522,
        -0.258923202753067,
        0.00429542874917388,
        -0.3782117962837219,
        0.22148022055625916,
        -0.15410780906677246,
        -0.1810683161020279,
        -0.20575028657913208,
        0.1850498616695404,
        -0.15855179727077484,
        -0.1189701184630394,
        -0.030800489708781242,
        -0.07555604726076126,
        -0.05496003478765488,
        -0.07843361794948578,
        0.1091766506433487,
        -0.05411386862397194,
        0.1896999329328537,
        0.12387854605913162,
        -0.002998304320499301,
        0.02855663187801838,
        -0.053535930812358856,
        -0.0007306667394004762,
        -0.09164191037416458,
        -0.04958321899175644,
        -0.0007955165929161012,
        0.020948810502886772,
        -0.08384068310260773,
        0.11621220409870148,
        -0.14556683599948883,
        0.1343439519405365,
        -0.03455229103565216,
        0.02716013789176941,
        -0.12916754186153412,
        -0.12077496945858002,
        -0.16211259365081787,
        0.019122717902064323,
        0.12011299282312393,
        -0.0020032895263284445,
        -0.0785147175192833,
        0.1006549820303917,
        0.05743459239602089,
        0.12017511576414108,
        -0.14666490256786346,
        0.07961908727884293,
        0.07991297543048859,
        -0.15527285635471344,
        0.10699816793203354,
        -0.12755443155765533,
        0.10256267338991165,
        0.02772511914372444,
        0.2231806367635727,
        -0.12084312736988068,
        -0.04115951061248779,
        0.07180321961641312,
        -0.058056965470314026,
        0.15707097947597504,
        -0.0562097392976284,
        0.17747992277145386,
        -0.26891815662384033,
        0.0003734714991878718,
        0.09910959750413895,
        -0.0653998926281929,
        -0.06356921792030334,
        0.07774627208709717,
        0.039363179355859756,
        -0.05507402494549751,
        -0.019757205620408058,
        0.09279386699199677,
        -0.009755033999681473,
        0.09021317213773727,
        0.08091118186712265,
        0.055650174617767334,
        -0.11218222230672836,
        -0.12742210924625397,
        -0.04175026714801788,
        -0.03541938215494156,
        0.22508780658245087,
        -0.020481590181589127,
        0.01302836462855339,
        0.02051980048418045,
        0.0966293141245842,
        -0.13903746008872986,
        0.07519053667783737,
        0.06610763072967529,
        -0.10354460775852203,
        -0.04427824169397354,
        -0.058914557099342346,
        0.030223025009036064,
        0.013756206259131432,
        -0.030178971588611603,
        0.18029795587062836,
        -0.031237540766596794,
        0.019191326573491096,
        0.15934723615646362,
        0.24378354847431183,
        -0.10498324036598206,
        0.021354706957936287,
        -0.1047547236084938,
        -0.07548447698354721,
        -0.15229961276054382,
        0.20478032529354095,
        0.09790614992380142,
        -0.023802954703569412,
        -0.08787687867879868,
        0.00791759230196476,
        -0.09753147512674332,
        -0.03258523344993591,
        -0.15124087035655975,
        -0.13715845346450806,
        -0.1571623980998993,
        -0.16391272842884064,
        -0.03734864667057991,
        0.1355132907629013,
        -0.08167826384305954,
        -0.047430627048015594,
        0.09347967058420181,
        -0.12401078641414642,
        -0.29289019107818604,
        0.1706879884004593,
        0.034928541630506516,
        -0.007271631620824337,
        -0.22646725177764893,
        -0.12662668526172638,
        0.007002073805779219,
        0.06756467372179031,
        -0.04884689673781395,
        -0.02699151448905468,
        0.012064597569406033,
        -0.2034161388874054,
        0.10648425668478012,
        -0.07035600394010544,
        0.2458886206150055,
        0.1307959407567978,
        0.08737482875585556,
        0.007787363603711128,
        0.2298162579536438,
        -0.12151450663805008,
        0.09979362040758133,
        -0.12422684580087662,
        -0.06406985223293304,
        -0.4685063362121582,
        -0.10022525489330292,
        -0.013188300654292107,
        -0.08442239463329315,
        -0.026760971173644066,
        0.28165191411972046,
        -0.05063381418585777,
        -0.11747276782989502,
        0.1647801250219345,
        -0.15987542271614075,
        0.13155575096607208,
        -0.04521714895963669,
        -0.11493828892707825,
        -0.04607667401432991,
        0.15977796912193298,
        -0.10164225846529007,
        -0.10253960639238358,
        0.04902876168489456,
        -0.15425606071949005,
        -0.10550260543823242,
        0.07176405936479568,
        0.0560910589993,
        0.18389250338077545,
        -0.2668999135494232,
        -0.023717889562249184,
        0.02050160802900791,
        -0.10368018597364426,
        0.008283788338303566,
        0.061008892953395844,
        0.001608222140930593,
        0.01938626915216446,
        -0.04193313047289848,
        -0.15637251734733582,
        0.2156088650226593,
        -0.16656361520290375,
        0.13742288947105408,
        -0.02817327342927456,
        -0.01810351572930813,
        -0.07916761934757233,
        0.11761696636676788,
        -0.03942170739173889,
        0.023966364562511444,
        7.54608990973793e-05,
        0.2730640470981598,
        -0.03851786628365517,
        -0.008658191189169884,
        0.0011280400212854147,
        -0.08165508508682251,
        -0.16981521248817444,
        0.05704575777053833,
        0.21653884649276733,
        -0.022646091878414154,
        0.12936396896839142,
        0.15286675095558167,
        0.005132867023348808,
        -0.1438593864440918,
        -0.02670927718281746,
        0.1217503696680069,
        0.02126709371805191,
        -0.23206289112567902,
        0.17126432061195374,
        0.1780102401971817,
        0.2108762413263321,
        0.10427728295326233,
        -0.3612331449985504,
        0.07136048376560211,
        -0.12522071599960327,
        0.01864161342382431,
        0.09993491321802139,
        -0.051989875733852386,
        0.07644196599721909,
        0.029149075970053673,
        0.10503066331148148,
        -0.08317884057760239,
        -0.014682353474199772,
        0.17651249468326569,
        -0.10381429642438889,
        0.08944717049598694,
        0.20399543642997742,
        -0.007811590563505888,
        -0.2183978110551834,
        -0.1293255239725113,
        -0.1960637867450714,
        0.010906817391514778,
        -0.007501548156142235,
        0.05427169054746628,
        -0.016191501170396805,
        0.07154948264360428,
        -0.010495969094336033,
        -0.03998015448451042,
        -0.13185536861419678,
        -0.10830198228359222,
        -0.010233513079583645,
        0.134468674659729,
        -0.10150454938411713,
        -0.13939201831817627,
        -0.09162143617868423,
        0.011363285593688488,
        -0.043831635266542435,
        -0.08276733756065369,
        0.07895298302173615,
        0.029680030420422554,
        0.1366855353116989,
        -0.037703268229961395,
        -0.08320048451423645,
        0.027519524097442627,
        -0.18515130877494812,
        0.15237414836883545,
        -0.1828460544347763,
        -0.1799420416355133,
        -0.1784050166606903,
        0.11567366123199463,
        -0.16516566276550293,
        -0.057410676032304764,
        -0.07944311201572418,
        0.017450671643018723,
        0.10612226277589798,
        0.0827440470457077,
        0.003250377019867301,
        0.21352681517601013,
        -0.1317870318889618,
        -0.012897846288979053,
        -0.10271921008825302,
        0.044280070811510086,
        0.03964344039559364,
        0.059388063848018646,
        -0.04308561235666275,
        -0.006356348283588886,
        0.005351759493350983,
        -0.2033875584602356,
        -0.12683320045471191,
        -0.014139982871711254,
        0.11628949642181396,
        -0.008814562112092972,
        -0.0914158746600151,
        0.2115650624036789,
        -0.030898401513695717,
        -0.10209319740533829,
        0.04253247380256653,
        0.17914125323295593,
        -0.05316761136054993,
        0.07931337505578995,
        -0.137674942612648,
        0.036670878529548645,
        -0.08397094905376434,
        -0.09376196563243866,
        -0.028121467679739,
        -0.3092348277568817,
        0.20323294401168823,
        0.043704282492399216,
        0.21545416116714478,
        -0.20755316317081451,
        0.07104303687810898,
        0.17492862045764923,
        0.15994970500469208,
        -0.1470516175031662,
        0.056947048753499985,
        0.1667064130306244,
        0.16607625782489777,
        -0.24576658010482788,
        0.09351290017366409,
        0.14593161642551422,
        0.1728275716304779,
        0.012976919300854206,
        -0.11533249169588089,
        -0.12986253201961517,
        0.09623736888170242,
        -0.013969991356134415,
        0.2780395448207855,
        0.03777245059609413,
        0.16767416894435883,
        0.0547666996717453,
        0.17178915441036224,
        -0.0829290896654129,
        -0.07413410395383835,
        0.06944835186004639,
        0.45056575536727905,
        0.03706640377640724,
        0.2300303876399994,
        -0.009227176196873188,
        -0.03085329197347164,
        0.0758780688047409,
        0.20659489929676056,
        -0.05945175513625145,
        0.02499435469508171,
        0.052257973700761795,
        0.042554501444101334,
        0.034749824553728104,
        0.15668848156929016,
        -0.09112176299095154,
        0.07836020737886429,
        -0.00761142885312438,
        -0.09139326214790344,
        0.15367162227630615,
        -0.09239202737808228,
        0.0757201537489891,
        -0.11180981993675232,
        0.011834406293928623,
        -0.11248166114091873,
        0.07431843876838684,
        -0.006728414446115494,
        -0.10058586299419403,
        -0.0545227974653244,
        -0.01356969028711319,
        0.1505468338727951,
        -0.15062378346920013,
        0.23591308295726776,
        0.03145921230316162,
        -0.03215226158499718,
        0.15113696455955505,
        0.13329076766967773,
        -0.12998412549495697,
        0.017881587147712708,
        -0.033563099801540375,
        -0.0036271256394684315,
        -0.04751499369740486,
        -0.016674304381012917,
        -0.029862158000469208,
        -0.11256911605596542,
        -0.15394285321235657,
        0.17245520651340485,
        -0.03827960044145584,
        -0.044649120420217514,
        0.11277797818183899,
        0.0926399827003479,
        -0.07159679383039474,
        0.020593546330928802
      ],
      "bias": [
        -0.024629216641187668,
        0.09056708961725235,
        -0.10112912207841873,
        -0.06315042823553085
      ]
    },
    "conv2d_2_tf1": {
      "name": "conv2d_2_tf1",
      "type": "conv",
      "inputs": [
        "conv2d_1_tf",
        "conv2d_1_tf1"
      ],
      "output": "conv2d_2_tf1",
      "weights": [
        -0.0043152570724487305,
        0.03581804037094116,
        0.026422355324029922,
        0.010693976655602455,
        0.053723275661468506,
        -0.08042176812887192,
        -0.008127042092382908,
        0.06658326089382172,
        0.12955772876739502,
        -0.0772208571434021,
        0.006539106369018555,
        0.054104406386613846,
        0.09138168394565582,
        -0.19667623937129974,
        -0.06193898245692253,
        0.07939019799232483,
        0.030576059594750404,
        0.014662015251815319,
        0.007378033362329006,
        0.09043487906455994,
        -0.04832153767347336,
        0.0886172354221344,
        -0.17440354824066162,
        0.08601439744234085,
        0.23302970826625824,
        -0.3173043727874756,
        -0.04550740867853165,
        0.01053229346871376,
        0.30483031272888184,
        0.0581708587706089,
        0.01258308719843626,
        -0.11749923974275589,
        -0.005862598307430744,
        0.12330886721611023,
        0.10829256474971771,
        -0.04538616165518761,
        0.1859009712934494,
        0.1037072166800499,
        0.16380570828914642,
        -0.20301896333694458,
        -0.07631195336580276,
        -0.005184391047805548,
        -0.1223398819565773,
        -0.22486881911754608,
        -0.2098965048789978,
        -0.06591212749481201,
        -0.14050458371639252,
        0.15135237574577332,
        0.11080332845449448,
        0.12660862505435944,
        -0.09561899304389954,
        0.07439793646335602,
        -0.13446396589279175,
        0.006962969433516264,
        0.216322660446167,
        0.012794924899935722,
        -0.14543668925762177,
        -0.17555640637874603,
        -0.03795686736702919,
        -0.08988434076309204,
        0.006399494595825672,
        0.05761361122131348,
        -0.004649667534977198,
        -0.1523636132478714,
        -0.02953456901013851,
        -0.014452644623816013,
        -0.07912620157003403,
        -0.15477529168128967,
        -0.07789856940507889,
        0.09087646007537842,
        0.030688820406794548,
        -0.025748079642653465,
        -0.03223554790019989,
        -0.012449022382497787,
        -0.39210209250450134,
        0.11671464145183563,
        0.10854645818471909,
        0.17674370110034943,
        -0.07896570861339569,
        0.011681334115564823,
        -0.04836849868297577,
        -0.06090463325381279,
        0.16584549844264984,
        -0.027179278433322906,
        -0.09679479151964188,
        0.24303583800792694,
        0.22412073612213135,
        0.1476323902606964,
        0.3209015727043152,
        0.3212951123714447,
        0.14310353994369507,
        -0.032338764518499374,
        -0.19888901710510254,
        0.04324909299612045,
        0.1259903609752655,
        -0.00993943028151989,
        0.09891525655984879,
        -0.12254563719034195,
        0.012991773895919323,
        -0.09954811632633209,
        0.012494547292590141,
        -0.01471039280295372,
        -0.05415191501379013,
        0.04319949820637703,
        -0.14580705761909485,
        -0.008898374624550343,
        -0.1216839998960495,
        0.03532826155424118,
        0.12042927742004395,
        -0.22930604219436646,
        -0.015087508596479893,
        0.13379132747650146,
        -0.01788162998855114,
        -0.1923626810312271,
        -0.07107134163379669,
        0.12304076552391052,
        -0.15782895684242249,
        -0.15502916276454926,
        0.004819616675376892,
        0.038379136472940445,
        0.0506625659763813,
        -0.11439120769500732,
        -0.09230608493089676,
        0.08543138951063156,
        0.0486999973654747,
        0.07324448972940445,
        -0.08193446695804596,
        -0.020674800500273705,
        -0.09686429798603058,
        -0.018584223464131355,
        -0.13841691613197327,
        -0.041103120893239975,
        -0.1960689276456833,
        0.050633758306503296,
        -0.178763285279274,
        -0.04601375758647919,
        0.042149923741817474,
        -0.23728753626346588,
        0.14715337753295898,
        0.09049637615680695,
        -0.06722500920295715,
        0.17199614644050598,
        -0.012314122170209885,
        -0.04693133383989334,
        -0.17854264378547668,
        0.12311132997274399,
        -0.14834065735340118,
        0.09190549701452255,
        -0.06874687224626541,
        -0.04472575709223747,
        0.06288110464811325,
        -0.042875830084085464,
        -0.0944567397236824,
        -0.00496412068605423,
        0.02547837235033512,
        0.05193750560283661,
        -0.1355438530445099,
        0.013579007238149643,
        0.0392012819647789,
        0.0732211023569107,
        0.06627732515335083,
        0.008988959714770317,
        -0.04303017258644104,
        0.11915075033903122,
        0.1649271547794342,
        -0.1388651430606842,
        -0.16145944595336914,
        -0.1226554811000824,
        0.15736886858940125,
        -0.031502630561590195,
        -0.009202257730066776,
        -0.07824154198169708,
        0.12447354197502136,
        0.06973150372505188,
        0.19969093799591064,
        -0.10576381534337997,
        0.02212553285062313,
        0.11271307617425919,
        0.17071956396102905,
        -0.05575753003358841,
        -0.08315535634756088,
        -0.12370170652866364,
        0.04126783087849617,
        -0.11247193068265915,
        -0.006089311558753252,
        0.12275338172912598,
        0.08976076543331146,
        0.05871130898594856,
        -0.10331511497497559,
        0.06675706058740616,
        -0.04165009409189224,
        -0.13780470192432404,
        -0.12195686250925064,
        0.15625375509262085,
        -0.1233522891998291,
        -0.0009541774052195251,
        -0.02362719736993313,
        0.10239391773939133,
        0.016909830272197723,
        -0.09627782553434372,
        0.03824925050139427,
        0.13321474194526672,
        0.026247447356581688,
        0.013104910962283611,
        -0.01204275619238615,
        0.005457534454762936,
        -0.06655174493789673,
        -0.10171269625425339,
        0.10287552326917648,
        -0.11973195523023605,
        -0.04617573693394661,
        0.0841149389743805,
        0.16301728785037994,
        0.14756149053573608,
        -0.07383913546800613,
        0.14770017564296722,
        0.14134331047534943,
        -0.19015929102897644,
        0.012477001175284386,
        -0.04895910620689392,
        -0.05377643555402756,
        -0.19107688963413239,
        0.006993405055254698,
        0.06542879343032837,
        -0.08886271715164185,
        0.2511615753173828,
        -0.1304335743188858,
        0.18954268097877502,
        -0.19913113117218018,
        0.14701679348945618,
        -0.015586481429636478,
        -0.02993086166679859,
        -0.1354520320892334,
        -0.11192578077316284,
        -0.08704038709402084,
        0.012105331756174564,
        0.1101444885134697,
        -0.07774064689874649,
        0.22707821428775787,
        0.06606500595808029,
        -0.05373893678188324,
        0.046429675072431564,
        -0.04747095704078674,
        0.13799330592155457,
        -0.06538842618465424,
        -0.04831930249929428,
        0.03708483278751373,
        -0.01776956394314766,
        -0.014552970416843891,
        -0.024436060339212418,
        0.009419658221304417,
        -0.09072041511535645,
        0.17434407770633698,
        -0.19343358278274536,
        -0.06919652223587036,
        0.13774874806404114,
        0.1347874104976654,
        0.02560313045978546,
        0.16941571235656738,
        -0.0459858663380146,
        0.017737992107868195,
        0.10526663064956665,
        0.12255078554153442,
        0.08536235243082047,
        -0.1408771425485611,
        0.08662146329879761,
        -0.0881895124912262,
        0.050494711846113205,
        -0.0019494198495522141,
        -0.14887341856956482,
        -0.11635251343250275,
        -0.07159855961799622,
        0.05233527719974518,
        0.09129021316766739,
        -0.04631680250167847,
        -0.0813627764582634,
        -0.25552141666412354,
        0.1117851510643959,
        0.02907898835837841,
        0.1330978125333786,
        0.03528999909758568,
        0.17187805473804474,
        -0.042964402586221695,
        0.09002476930618286,
        -0.10231238603591919,
        0.22359760105609894,
        -0.03431173786520958,
        0.0653214082121849,
        -0.17333053052425385,
        0.07446727156639099,
        0.08224595338106155,
        0.004273891448974609,
        -0.05333087965846062,
        -0.1143791675567627,
        0.04481939971446991,
        -0.004102657549083233,
        -0.0013595513300970197,
        -0.12340326607227325,
        0.07871748507022858,
        -0.015696479007601738,
        -0.15195082128047943,
        0.21521373093128204,
        0.24129702150821686,
        -0.12096624076366425,
        0.016987979412078857,
        -0.031038424000144005,
        -0.12973663210868835,
        -0.0056511708535254,
        0.07063461095094681,
        0.16192923486232758,
        -0.01796901226043701,
        0.05412854999303818,
        -0.022521764039993286,
        0.15603038668632507,
        0.2062162607908249,
        0.062341589480638504,
        -0.4056425988674164,
        0.08027620613574982,
        -0.3872721195220947,
        0.2001447230577469,
        0.06574495881795883,
        -0.11522852629423141,
        -0.10520189255475998,
        0.05039544776082039,
        -0.011905519291758537,
        -0.11921066790819168,
        -0.07657838612794876,
        0.11929032951593399,
        -0.021377136930823326,
        -0.027099883183836937,
        0.1560063660144806,
        0.17096619307994843,
        0.356520414352417,
        -0.06173451244831085,
        0.33189618587493896,
        0.007936221547424793,
        -0.14254772663116455,
        0.03542385250329971,
        -0.04518405720591545,
        0.01317236851900816,
        0.008613823913037777,
        0.028690123930573463,
        -0.10731734335422516,
        0.00967578124254942,
        -0.0837201401591301,
        -0.0013788319192826748,
        0.16512884199619293,
        -0.008383030071854591,
        -0.03961852192878723,
        -0.07957364618778229,
        0.04085493087768555,
        -0.16137568652629852,
        0.14309906959533691,
        -0.0032174475491046906,
        0.027017664164304733,
        0.15174302458763123,
        -0.02741028182208538,
        0.19657306373119354,
        0.06523486226797104,
        -0.06769681721925735,
        -0.07967616617679596,
        0.04453655332326889,
        0.05381433665752411,
        0.008506608195602894,
        0.10832002013921738,
        -0.17708753049373627,
        -0.3179096281528473,
        -0.041466124355793,
        0.05995136871933937,
        -0.023314272984862328,
        -0.05834643170237541,
        -0.0629514679312706,
        0.03857245668768883,
        -0.13536155223846436,
        0.046604182571172714,
        -0.08692070096731186,
        -0.18008007109165192,
        -0.17350907623767853,
        0.00991072691977024,
        0.11287707090377808,
        0.31209906935691833,
        -0.19033655524253845,
        -0.18963348865509033,
        0.06022133678197861,
        0.008403869345784187,
        0.05377292260527611,
        -0.05989903211593628,
        0.06284228712320328,
        -0.04214764013886452,
        -0.02312248758971691,
        -0.03965425118803978,
        -0.1578643023967743,
        0.11989046633243561,
        0.03536653518676758,
        0.022449994459748268,
        -0.10842879116535187,
        -0.23485472798347473,
        0.26748186349868774,
        0.12086983770132065,
        -0.06747616082429886,
        0.11123958230018616,
        -0.04352642223238945,
        0.2427794635295868,
        -0.04639386758208275,
        0.008317997679114342,
        0.09215044975280762,
        0.14181460440158844,
        0.0991140753030777,
        0.006851325277239084,
        -0.008223533630371094,
        0.09077677130699158,
        0.05020535737276077,
        0.24815170466899872,
        -0.5106608867645264,
        0.12503908574581146,
        0.025986671447753906,
        -0.035147346556186676,
        -0.05544361099600792,
        -0.04788171499967575,
        0.09150492399930954,
        0.1284475177526474,
        -0.050925757735967636,
        -0.016993196681141853,
        0.007954208180308342,
        -0.16327494382858276,
        0.1671600192785263,
        -0.1994030624628067,
        -0.15012721717357635,
        0.13900305330753326,
        -0.30652618408203125,
        -0.07029881328344345,
        0.17535090446472168,
        0.1649491786956787,
        -0.027756650000810623,
        -0.020280491560697556,
        -0.020687848329544067,
        0.1685081571340561,
        0.04829837381839752,
        -0.041434548795223236,
        -0.07088441401720047,
        0.04909774288535118,
        -0.06651640683412552,
        -0.05546748638153076,
        0.13111256062984467,
        0.2758267819881439,
        0.05897410213947296,
        -0.010801193304359913,
        0.09535611420869827,
        -0.18241648375988007,
        -0.1822296679019928,
        0.03326697275042534,
        0.15620802342891693,
        -0.11908970028162003,
        0.1542927622795105,
        0.03976381570100784,
        -0.04735325276851654,
        -0.07746738195419312,
        -0.08139046281576157,
        -0.002864028559997678,
        0.04267846792936325,
        -0.15932607650756836,
        -0.33088845014572144,
        0.1692679226398468,
        0.14991770684719086,
        0.004792314488440752,
        -0.07472434639930725,
        -0.0969107523560524,
        0.03320479020476341,
        -0.12365636229515076,
        0.08158852159976959,
        0.04206407070159912,
        -0.12652689218521118,
        -0.04213400557637215,
        -0.07067663222551346,
        -0.13855524361133575,
        0.02472183108329773,
        0.04516267776489258,
        -0.342428058385849,
        0.20853406190872192,
        -0.05615191534161568,
        0.0958547443151474,
        -0.020464183762669563,
        0.0353810116648674,
        0.02829095907509327,
        -0.021695848554372787,
        -0.12841671705245972,
        0.11415719985961914,
        -0.12836717069149017,
        -0.019856808707118034,
        -0.036435116082429886,
        -0.07590700685977936,
        0.10035965591669083,
        0.3195875883102417,
        -0.023069553077220917,
        0.1532054990530014,
        0.09679434448480606,
        0.145044207572937,
        0.05319589376449585,
        0.10956113040447235,
        -0.10950687527656555,
        -0.05148101970553398,
        0.031163781881332397,
        0.19287054240703583,
        -0.20932914316654205,
        -0.034933216869831085,
        -0.021778041496872902,
        0.0811280906200409,
        -0.02378050610423088,
        0.27269887924194336,
        0.12292584031820297,
        0.14923103153705597,
        0.025760285556316376,
        0.0067010619677603245,
        -0.11413842439651489,
        0.07262302935123444,
        -0.12488128989934921,
        -0.0685819759964943,
        0.0524982251226902,
        -0.17537067830562592,
        -0.043136198073625565,
        -0.06739416718482971,
        0.05435211956501007,
        0.07904647290706635,
        -0.013150271028280258,
        -0.09810499101877213,
        0.10369511693716049,
        -0.3081672489643097,
        -0.13391368091106415,
        0.041038867086172104,
        0.05508751794695854,
        0.03574085235595703,
        -0.16380146145820618,
        -0.0779309943318367,
        0.026062896475195885,
        -0.08111634105443954,
        0.11273703724145889,
        0.05073118209838867,
        0.02485012635588646,
        -0.09640389680862427,
        0.1981762796640396,
        -0.04517332464456558,
        0.14481402933597565,
        0.06122855097055435,
        0.06030341610312462,
        -0.07824738323688507,
        -0.12580113112926483,
        -0.0670834481716156,
        -0.18829014897346497,
        -0.22876593470573425,
        -0.06830507516860962,
        -0.051010843366384506,
        -0.11673811078071594,
        0.13623252511024475,
        -0.16340669989585876,
        0.07533285021781921,
        -0.008917245082557201,
        -0.04658922180533409,
        0.06060395389795303,
        0.20696857571601868,
        0.14800624549388885,
        -0.0024894922971725464,
        -0.011889512650668621,
        0.08699176460504532,
        0.21284598112106323,
        0.10723163932561874,
        -0.0577361136674881,
        -0.08485905826091766,
        -0.14888091385364532,
        -0.06401211023330688,
        -0.17918631434440613,
        -0.08367453515529633,
        0.04334476590156555,
        -0.032511427998542786,
        -0.044760432094335556,
        -0.032981619238853455,
        0.1927877962589264
      ],
      "bias": [
        -0.1346563845872879,
        0.16084107756614685,
        -0.03675255551934242,
        0.1777237057685852
      ]
    },
    "conv2d_3_tf": {
      "name": "conv2d_3_tf",
      "type": "conv",
      "inputs": [
        "conv2d_2_tf",
        "conv2d_2_tf1"
      ],
      "output": "conv2d_3_tf",
      "weights": [
        0.0747915729880333,
        -0.28635865449905396,
        0.002975596347823739,
        -0.0998414009809494,
        -0.011213728226721287,
        0.043586645275354385,
        -0.010261381044983864,
        0.049141742289066315,
        0.019728921353816986,
        0.05376110598444939,
        0.06518535315990448,
        -0.011235246434807777,
        0.0721464455127716,
        0.10576659440994263,
        -0.13041479885578156,
        -0.18222586810588837,
        0.05544011667370796,
        -0.07548529654741287,
        0.011415649205446243,
        -0.12225151807069778,
        0.13761486113071442,
        -0.00039484372246079147,
        -0.052989158779382706,
        0.035313088446855545,
        -0.035798754543066025,
        -0.12422358244657516,
        0.03192143142223358,
        0.05207031965255737,
        0.05841523036360741,
        0.1416066735982895,
        0.00919626746326685,
        0.006625557783991098,
        0.10245097428560257,
        -0.0013944123638793826,
        -0.15100671350955963,
        0.05289134010672569,
        -0.09685765206813812,
        -0.06535510718822479,
        0.042564813047647476,
        0.018820907920598984,
        0.03168586269021034,
        -0.005483834072947502,
        0.17749521136283875,
        0.058991678059101105,
        0.013631748966872692,
        -0.13923242688179016,
        0.0029381930362433195,
        -0.11242365837097168,
        0.04979808256030083,
        -0.02291104756295681,
        0.03226711228489876,
        0.20683857798576355,
        0.10261521488428116,
        0.19228196144104004,
        -0.0726446881890297,
        -0.21133831143379211,
        0.2458331286907196,
        -0.10118381679058075,
        0.2255428284406662,
        0.08771464228630066,
        0.0874653160572052,
        0.19529582560062408,
        -0.021996555849909782,
        -0.11429841816425323,
        0.08261975646018982,
        0.10139606148004532,
        0.06261515617370605,
        -0.05263078585267067,
        -0.03570336475968361,
        -0.03349900618195534,
        -0.09829115122556686,
        -0.08097489923238754,
        0.19289536774158478,
        0.045364800840616226,
        -0.011840177699923515,
        0.05927613377571106,
        -0.007176396436989307,
        -0.30666008591651917,
        -0.07760265469551086,
        0.0248958021402359,
        0.15116673707962036,
        -0.14829926192760468,
        0.0045887199230492115,
        -0.23111219704151154,
        0.045243293046951294,
        0.09130480140447617,
        -0.11453582346439362,
        -0.031018082052469254,
        -0.09921683371067047,
        -0.12229986488819122,
        0.1571744829416275,
        0.0808136835694313,
        -0.06923026591539383,
        -0.052991606295108795,
        0.10578339546918869,
        0.04167645424604416,
        -0.012950779870152473,
        0.20485147833824158,
        0.024402953684329987,
        0.086341492831707,
        -0.01479282695800066,
        -0.007361557334661484,
        0.02269640564918518,
        -0.03156167268753052,
        -0.015838177874684334,
        -0.16644157469272614,
        0.09332317113876343,
        0.02370084822177887,
        -0.11354871094226837,
        0.0017927134176716208,
        -0.0710282102227211,
        -0.08109431713819504,
        0.04394599050283432,
        -0.06991364806890488,
        0.007540450431406498,
        0.10072160512208939,
        -0.06826687604188919,
        0.01002772618085146,
        -0.008424213156104088,
        -0.042428549379110336,
        0.023356685414910316,
        -0.21149659156799316,
        0.03263523057103157,
        -0.10843592882156372,
        -0.049563609063625336,
        0.017954636365175247,
        -0.06936833262443542,
        0.13411153852939606,
        0.11916150152683258,
        -0.028806783258914948,
        -0.14590460062026978,
        -0.17734117805957794,
        -0.0842919647693634,
        -0.1010347455739975,
        -0.10425161570310593,
        -0.05312372371554375,
        -0.26065555214881897,
        0.006023195572197437,
        0.07165243476629257,
        -0.07047368586063385,
        0.17253126204013824,
        0.13433587551116943,
        0.12583856284618378,
        -0.08823955804109573,
        -0.16609010100364685,
        0.11547345668077469,
        -0.03515245392918587,
        -0.3647453784942627,
        -0.048911187797784805,
        0.015766017138957977,
        0.20391212403774261,
        -0.04388263449072838,
        0.04812932759523392,
        0.01404169388115406,
        0.04529949277639389,
        0.098846934735775,
        -0.09366917610168457,
        0.053051382303237915,
        -0.020909352228045464,
        0.05754874646663666,
        0.2580874562263489,
        -0.17561930418014526,
        -0.3110246956348419,
        0.09099643677473068,
        -0.1265663355588913,
        -0.03366170451045036,
        -0.08507309854030609,
        -0.05845411866903305,
        0.08604453504085541,
        0.006460712756961584,
        0.03425243869423866,
        0.07253894209861755,
        -0.15609551966190338,
        -0.043516386300325394,
        0.02281787432730198,
        0.08154991269111633,
        -0.09770297259092331,
        -0.10609517991542816,
        -0.018093911930918694,
        0.000772573403082788,
        0.11114074289798737,
        0.04395974427461624,
        0.071052186191082,
        0.046408168971538544,
        -0.03635382652282715,
        -0.02029642090201378,
        0.16568727791309357,
        -0.019168414175510406,
        0.022264104336500168,
        0.018863633275032043,
        0.05107637494802475,
        0.018093524500727654,
        -0.31087422370910645,
        0.04939920827746391,
        0.06048373505473137,
        -0.026442913338541985,
        0.025972016155719757,
        0.14757709205150604,
        0.1679048389196396,
        -0.05584128201007843,
        -0.17582868039608002,
        0.03472598269581795,
        0.07910188287496567,
        0.1420980989933014,
        -0.018013576045632362,
        -0.1583455502986908,
        -0.07329872995615005,
        0.23404422402381897,
        0.18535858392715454,
        -0.02304416336119175,
        -0.0946277529001236,
        -0.32234254479408264,
        0.20050424337387085,
        0.05419231951236725,
        -0.25212398171424866,
        -0.13776063919067383,
        0.09756677597761154,
        -0.127971351146698,
        -0.09960464388132095,
        -0.03178989514708519,
        -0.32921674847602844,
        0.060034725815057755,
        -0.05718889459967613,
        0.1764039248228073,
        -0.18412582576274872,
        -0.15020903944969177,
        0.016135161742568016,
        0.029897795990109444,
        -0.29949942231178284,
        0.010181856341660023,
        0.061382975429296494,
        -0.0480043925344944,
        0.061579249799251556,
        -0.0517331138253212,
        -0.03194250538945198,
        -0.03873862326145172,
        0.16284477710723877,
        -0.003096747910603881,
        0.1839006543159485,
        -0.00650212774053216,
        -0.10725045949220657,
        0.19262626767158508,
        0.28452450037002563,
        -0.04926200583577156,
        -0.10553363710641861,
        0.1407509595155716,
        0.11541619151830673,
        -0.12899254262447357,
        0.15586094558238983,
        0.12866461277008057,
        0.2147025316953659,
        -0.1928449124097824,
        0.08793268352746964,
        0.2091679722070694,
        -0.12634307146072388,
        0.12728020548820496,
        -0.005447527393698692,
        -0.21767576038837433,
        -0.0806652083992958,
        0.11649369448423386,
        -0.015518478117883205,
        -0.10408742725849152,
        0.0326748825609684,
        -0.006964374799281359,
        0.1219189241528511,
        -0.04866889491677284,
        0.17643755674362183,
        -0.20069104433059692,
        0.026365024968981743,
        0.004463141784071922,
        0.020842956379055977,
        -0.09757053852081299,
        0.20417623221874237,
        0.06591850519180298,
        -0.011366147547960281,
        -0.19050733745098114,
        0.0735180452466011,
        0.10948534309864044,
        0.0429571270942688,
        0.11350572109222412,
        -0.07522890716791153,
        -0.11687073856592178,
        -0.08501129597425461,
        -0.06001187115907669,
        -0.04043179377913475,
        0.169244185090065,
        0.12053936719894409,
        -0.08365793526172638,
        0.07251255214214325,
        0.19949547946453094,
        0.12640982866287231,
        0.07034401595592499,
        -0.08522795140743256,
        0.1403656005859375,
        -0.015767499804496765,
        -0.0770581066608429,
        0.10880355536937714,
        0.02853216603398323,
        0.04785606637597084,
        0.06419398635625839,
        -0.20480003952980042,
        0.22669537365436554,
        -0.034841425716876984,
        0.2574109137058258,
        0.009101147763431072,
        -0.09087971597909927,
        0.05288790538907051,
        -0.07859646528959274,
        -0.32914698123931885,
        0.2889218032360077,
        0.036788459867239,
        -0.22130189836025238,
        -0.0475921630859375,
        -0.10345004498958588,
        -0.008134221658110619,
        -0.11339273303747177,
        -0.2448863834142685,
        -0.01842975616455078,
        0.07682929188013077,
        0.060125354677438736,
        0.0030894966330379248,
        -0.12242556363344193,
        0.01814049668610096,
        0.05625322088599205,
        0.07925406843423843,
        0.08735363185405731,
        0.04559556767344475,
        -0.008629322983324528,
        0.131915882229805,
        -0.03577727451920509,
        -0.2246721237897873,
        -0.05553174391388893,
        0.11016235500574112,
        0.11581489443778992,
        0.02825312130153179,
        0.042925093322992325,
        -0.05570757016539574,
        -0.06344787776470184,
        0.08492011576890945,
        -0.006495240144431591,
        -0.22035375237464905,
        -0.1557333767414093,
        -0.06719059497117996,
        0.07937578111886978,
        0.16990900039672852,
        -0.12104500830173492,
        0.00013945117825642228,
        -0.054624807089567184,
        -0.04366690665483475,
        -0.11634371429681778,
        -0.017135662958025932,
        0.08444947749376297,
        0.35348087549209595,
        -0.23834702372550964,
        0.24723708629608154,
        -0.10603385418653488,
        -0.36037659645080566,
        0.11537612974643707,
        0.011333989910781384,
        -0.006640348117798567,
        -0.04324711486697197,
        -0.16618481278419495,
        0.016337646171450615,
        0.15758222341537476,
        -0.22580648958683014,
        0.03840181604027748,
        0.18235428631305695,
        0.14295773208141327,
        0.039103880524635315,
        -0.183717742562294,
        0.1758386641740799,
        0.2850477695465088,
        -0.06680728495121002,
        -0.1294374018907547,
        -0.054594241082668304,
        -0.1231146827340126,
        0.0791579931974411,
        0.06211645156145096,
        -0.0007473831647075713,
        -0.0946333259344101,
        0.2825378179550171,
        0.03305463865399361,
        -0.06581728160381317,
        -0.04798852279782295,
        0.07384375482797623,
        -0.21152758598327637,
        0.07772549241781235,
        -0.000567258452065289,
        -0.05228591337800026,
        -0.09920677542686462,
        0.02614191174507141,
        -0.07227315753698349,
        0.23590607941150665,
        -0.020952675491571426,
        -0.05493035167455673,
        0.08103559166193008,
        0.11232771724462509,
        0.10475052148103714,
        0.035121094435453415,
        0.13267365097999573,
        0.11133325845003128,
        0.01840624213218689,
        0.105108842253685,
        -0.11533096432685852,
        -0.09031916409730911,
        -0.02841799333691597,
        -0.026424838230013847,
        -0.1818893402814865,
        -0.09366492182016373,
        0.09078557044267654,
        0.03165213018655777,
        0.15365824103355408,
        0.2091083973646164,
        -0.17565402388572693,
        0.1984209418296814,
        0.08551334589719772,
        0.0483744777739048,
        0.1095462515950203,
        -0.02289767377078533,
        0.05603903532028198,
        -0.03847538307309151,
        0.07778125256299973,
        -0.026277193799614906,
        0.013351012021303177,
        0.3538810610771179,
        -0.12036477774381638,
        -0.09273470193147659,
        0.08038793504238129,
        -0.029053017497062683,
        -0.03356894850730896,
        -0.01127061527222395,
        -0.0034505161456763744,
        -0.07756998389959335,
        -0.06859385222196579,
        0.059054840356111526,
        0.009606353007256985,
        -0.0905841737985611,
        -0.12751564383506775,
        -0.08674556016921997,
        -0.03362340107560158,
        0.15688341856002808,
        0.1297125369310379,
        -0.04324252903461456,
        0.04884371906518936,
        -0.04127677530050278,
        0.22202454507350922,
        -0.06557197868824005,
        0.027592044323682785,
        -0.007502342574298382,
        0.08764959126710892,
        0.1706249713897705,
        0.13355743885040283,
        -0.0756489709019661,
        -0.18451130390167236,
        -0.012382118962705135,
        -0.24866360425949097,
        -0.10009319335222244,
        -0.17144910991191864,
        -0.10643146932125092,
        0.10350297391414642,
        -0.11241317540407181,
        0.19181296229362488,
        0.04568636417388916,
        0.0012073804391548038,
        -0.00806876178830862,
        0.07728908210992813,
        0.12735070288181305,
        -0.0074569289572536945,
        -0.04535887390375137,
        -0.0002350737777305767,
        -0.1870962679386139,
        -0.0881880521774292,
        0.015546049922704697,
        0.032003309577703476,
        -0.08625740557909012,
        0.06941821426153183,
        0.026585737243294716,
        0.1263502687215805,
        -0.056973233819007874,
        -0.1937595158815384,
        -0.08907778561115265,
        0.06971035152673721,
        -0.0572827011346817,
        -0.029927566647529602,
        0.01577341929078102,
        -0.012958990409970284,
        -0.14939741790294647,
        -0.09924507886171341,
        -0.06402838975191116,
        -0.46284523606300354,
        -0.08364307880401611,
        0.03009968437254429,
        -0.01114034466445446,
        0.18400800228118896,
        -0.000411540997447446,
        -0.343207448720932,
        -0.18839387595653534,
        0.1992877721786499,
        -0.025863010436296463,
        0.24169914424419403,
        -0.28747469186782837,
        -0.07687299698591232,
        -0.1032114028930664,
        0.04859459772706032,
        -0.18236546218395233,
        0.19390183687210083,
        -0.2201986163854599,
        0.0546581894159317,
        0.1289088875055313,
        -0.18857504427433014,
        0.02771090343594551,
        -0.22096166014671326,
        -0.028230993077158928,
        -0.03510292246937752,
        -0.015486453659832478,
        0.04968295618891716,
        0.054039083421230316,
        0.0701734870672226,
        -0.16432791948318481,
        -0.0006207110709510744,
        0.07987602800130844,
        0.041821323335170746,
        0.1929691731929779,
        0.010708078742027283,
        -0.0568794421851635,
        0.02282746322453022,
        -0.22063465416431427,
        -0.0758729875087738,
        0.046331919729709625,
        0.04681479558348656,
        0.013704212382435799,
        0.06815029680728912,
        0.07635395973920822,
        0.07805413007736206,
        -0.05920051410794258,
        -0.04347353056073189,
        -0.248521089553833,
        -0.2895088195800781,
        -0.11568789929151535,
        0.017275840044021606,
        0.0005114495870657265,
        0.26667121052742004,
        0.09952997416257858,
        0.21758727729320526,
        0.07089812308549881,
        -0.048944372683763504,
        -0.018898526206612587,
        -0.0766664445400238,
        -0.03607729449868202,
        0.03439372405409813,
        -0.15277907252311707,
        -0.1580227017402649,
        -0.17473487555980682,
        0.23673705756664276,
        -0.18310238420963287,
        0.19575391709804535,
        0.005264000967144966,
        0.06869006156921387,
        0.12271098047494888,
        0.20027586817741394,
        -0.1856781244277954,
        -0.05224896967411041,
        -0.10201029479503632,
        0.09749352186918259,
        -0.13911347091197968,
        -0.08746182173490524,
        -0.11465812474489212,
        -0.06959067285060883,
        -0.12813971936702728,
        -0.16615839302539825,
        -0.0026861585211008787,
        -0.02780609205365181,
        0.2732482850551605,
        0.10021156072616577,
        -0.10053560137748718,
        -0.001110678305849433
      ],
      "bias": [
        0.06845679879188538,
        0.0033153798431158066,
        0.022704802453517914,
        0.1668427437543869
      ]
    },
    "conv2d_3_tf1": {
      "name": "conv2d_3_tf1",
      "type": "conv",
      "inputs": [
        "conv2d_2_tf",
        "conv2d_2_tf1"
      ],
      "output": "conv2d_3_tf1",
      "weights": [
        -0.10427549481391907,
        0.06921880692243576,
        0.02557019516825676,
        -0.07484474033117294,
        -0.04489191994071007,
        -0.020600734278559685,
        0.03586335852742195,
        -0.10095430910587311,
        0.005116567946970463,
        -0.046145789325237274,
        -0.006830660160630941,
        -0.11885683983564377,
        0.07774705439805984,
        -0.10554157942533493,
        -0.0682544931769371,
        0.10168676823377609,
        -0.08643314987421036,
        0.07918688654899597,
        -0.004532398656010628,
        -0.07698030769824982,
        0.18012751638889313,
        -0.05073993653059006,
        -0.0950465202331543,
        0.19242113828659058,
        -0.13120810687541962,
        -0.1938430666923523,
        0.025735128670930862,
        -0.002327230293303728,
        0.3058614432811737,
        0.08349919319152832,
        -0.07131295651197433,
        0.08678994327783585,
        0.09028886258602142,
        0.03689075633883476,
        -0.059497617185115814,
        -0.02178051695227623,
        0.10714875161647797,
        0.12243838608264923,
        0.14512787759304047,
        0.010349881835281849,
        0.08074675500392914,
        -0.007866395637392998,
        0.015290642157196999,
        -0.04215988516807556,
        -0.1039174273610115,
        -0.14897824823856354,
        -0.1575849950313568,
        0.12325620651245117,
        0.10448198020458221,
        0.16063573956489563,
        -0.07373590767383575,
        0.015716657042503357,
        0.08555948734283447,
        0.05876808613538742,
        0.038818299770355225,
        -0.1539793312549591,
        0.0899825245141983,
        -0.09744124859571457,
        0.0025183919351547956,
        -0.14411942660808563,
        0.11789353936910629,
        0.11439047008752823,
        0.043186768889427185,
        -0.25082457065582275,
        0.026090111583471298,
        0.38346245884895325,
        0.16195423901081085,
        -0.14837628602981567,
        0.18323005735874176,
        -0.08619406074285507,
        -0.18957164883613586,
        -0.15613219141960144,
        0.04683542251586914,
        -0.35832324624061584,
        0.031095320358872414,
        -0.02542754076421261,
        0.06977514177560806,
        0.127043679356575,
        -0.17273753881454468,
        -0.018089154735207558,
        0.09124234318733215,
        -0.061246681958436966,
        0.21773935854434967,
        0.003205027896910906,
        -0.2207813560962677,
        -0.1033218502998352,
        -0.039990220218896866,
        0.19563131034374237,
        0.07312491536140442,
        -0.1140630692243576,
        0.0021885824389755726,
        0.12626512348651886,
        -0.23303821682929993,
        -0.06628967076539993,
        0.1556677669286728,
        -0.004776638466864824,
        0.007661129347980022,
        -0.005974285304546356,
        0.058738209307193756,
        0.09267643839120865,
        -0.09393955022096634,
        0.18963639438152313,
        0.03229140117764473,
        0.025562116876244545,
        0.06991911679506302,
        -0.05042396858334541,
        0.028242234140634537,
        0.15452279150485992,
        0.04033315181732178,
        -0.016508013010025024,
        -0.003323307726532221,
        0.04242262989282608,
        0.09811100363731384,
        0.17340335249900818,
        -0.016777195036411285,
        0.1612851768732071,
        -0.17919686436653137,
        -0.00627291901037097,
        0.1289636194705963,
        0.06630244851112366,
        0.018166759982705116,
        -0.016287202015519142,
        0.28412753343582153,
        -0.11336884647607803,
        -0.07484680414199829,
        -0.05150509625673294,
        -0.07024937123060226,
        -0.05159229785203934,
        0.1298832893371582,
        0.07366319745779037,
        -0.12171550840139389,
        -0.05781508982181549,
        -0.11233805865049362,
        -0.06165771186351776,
        -0.0986289456486702,
        -0.008776647038757801,
        0.017624761909246445,
        -0.1869470775127411,
        0.10408984869718552,
        -0.07917198538780212,
        -0.0422547347843647,
        0.10755836218595505,
        0.031436894088983536,
        -0.000999630312435329,
        -0.15783262252807617,
        0.04328446090221405,
        0.006422033533453941,
        0.27448153495788574,
        -0.10069785267114639,
        0.08994226157665253,
        0.036398012191057205,
        -0.17795564234256744,
        -0.2023829072713852,
        -0.07422735542058945,
        -0.027016373351216316,
        0.05489227548241615,
        -0.13966882228851318,
        -0.12639302015304565,
        -0.022959768772125244,
        0.2761210501194,
        0.13472910225391388,
        -0.23740680515766144,
        0.19371044635772705,
        0.2605113387107849,
        0.025569060817360878,
        -0.09871871024370193,
