{"name": "anime4k/cnn-2x-l", "layers": {"conv2d_tf": {"name": "conv2d_tf", "type": "conv", "inputs": ["input_image"], "output": "conv2d_tf", "weights": [-0.012105739, -0.21161914, 0.08665858, -0.043757234, -0.004621963, 0.13140167, -0.020498553, 0.068226635, 0.0481979, 0.10644568, -0.073821716, -0.024450194, 0.0, 0.0, 0.0, 0.0, -0.03460033, -0.27414283, 0.1292829, 0.09952454, 0.08638587, 0.35136247, 0.002014225, -0.08911337, -0.04992038, -0.110431015, -0.27252296, -0.003830214, 0.0, 0.0, 0.0, 0.0, -0.0021824536, 0.021102726, -0.08147097, 0.044740677, -0.1426685, -0.08999886, 0.15422547, 0.033670772, 0.20571499, 0.09728407, -0.111735016, -0.06466725, 0.0, 0.0, 0.0, 0.0, 0.07400734, 0.085574634, -0.04571311, 0.2248693, 0.10583874, 0.086663984, 0.024795951, -0.35407907, -0.26252225, -0.18206589, -0.24463207, 0.04226849, 0.0, 0.0, 0.0, 0.0, 0.17383823, 0.2746202, -0.032821946, 0.103890546, -0.06658831, 0.05487442, 0.16287333, 0.49353996, -0.16454698, -0.35587335, 0.16858181, -0.08336467, 0.0, 0.0, 0.0, 0.0, 0.040836602, -0.38409352, 0.15976837, -0.43389916, -0.12867598, 0.08438891, -0.23420188, 0.14995688, 0.30413496, 0.35525417, 0.07781118, 0.13279356, 0.0, 0.0, 0.0, 0.0, 0.15095623, -0.024260975, -0.202878, 0.075513266, -0.09152621, 0.022201281, 0.08690367, -0.1823229, -0.08408583, 0.018264614, 0.11019093, -0.023587493, 0.0, 0.0, 0.0, 0.0, -0.4175719, 0.33386105, 0.125944, -0.22175133, 0.24887371, -0.49503592, -0.2636298, -0.059413243, -0.055216774, 0.17881532, 0.21107183, 0.04566585, 0.0, 0.0, 0.0, 0.0, 0.026185002, 0.19325988, -0.12736501, 0.088774204, -0.06482355, -0.14696772, 0.09635952, -0.10223607, 0.11916547, -0.118482724, 0.07763682, -0.002604218, 0.0, 0.0, 0.0, 0.0], "bias": [-0.011822983, 0.014293483, -0.012769984, -0.006732855]}, "conv2d_tf1": {"name": "conv2d_tf1", "type": "conv", "inputs": ["input_image"], "output": "conv2d_tf1", "weights": [0.28916284, -0.15040879, -0.0192073, -0.02884963, -0.21905234, 0.10878694, 0.011726894, -0.0068682986, -0.036941536, 0.044427305, 0.01452491, 0.071234636, 0.0, 0.0, 0.0, 0.0, -0.06996328, 0.20391136, 0.003351214, 0.059514046, -0.1084377, -0.028712979, -0.020189134, -0.026048189, 0.2243152, -0.11857627, 0.01867051, 0.011538576, 0.0, 0.0, 0.0, 0.0, -0.06152791, 0.48313802, -0.027256152, 0.040346023, -0.059589285, -0.45092732, 0.031973995, 0.0014718119, 0.0718745, 0.1250955, -0.009234695, -0.02332268, 0.0, 0.0, 0.0, 0.0, -0.0079591675, -0.043386262, -0.00452483, 0.08524179, 0.2201916, 0.042028118, 0.04982621, 0.021659052, -0.2251324, -0.046369746, -0.037215274, -0.09933687, 0.0, 0.0, 0.0, 0.0, -0.019172274, -0.43990272, -0.014577412, -0.13917908, -0.174285, 0.11088744, -0.047036733, -0.6268773, 0.16506457, 0.1510162, 0.03264733, -0.13022646, 0.0, 0.0, 0.0, 0.0, -0.19903474, -0.015057147, -0.3485079, -0.037082385, 0.19506766, 0.30837542, 0.051440038, 0.0045731016, -0.040234413, -0.27285996, -0.03142853, 0.078196004, 0.0, 0.0, 0.0, 0.0, -0.06812288, -0.01902635, -0.028367367, -0.015901025, 0.25828847, 0.08126227, -0.015662927, -0.029707028, -0.12541315, -0.07381142, 0.054435838, 0.08023881, 0.0, 0.0, 0.0, 0.0, 0.2385132, -0.16228026, 0.025715888, 0.012847345, 0.016879985, 0.06565064, 0.028275423, 0.010252947, -0.23852967, 0.09502917, -0.04704847, -0.005720649, 0.0, 0.0, 0.0, 0.0, -0.06551658, 0.14412688, -0.0531433, 0.04537602, -0.0037525722, -0.22331794, 0.02733627, -0.0102778, 0.014737596, 0.06094958, 0.026655352, -0.023332475, 0.0, 0.0, 0.0, 0.0], "bias": [-0.020497546, -0.007860721, 0.030287042, 0.028565682]}, "conv2d_1_tf": {"name": "conv2d_1_tf", "type": "conv", "inputs": ["conv2d_tf", "conv2d_tf1"], "output": "conv2d_1_tf", "weights": [-0.010358707, 0.0490416, -0.10518602, 0.06427084, -0.0034192111, 0.013586318, 0.06833705, -0.0557498, 0.035131715, 0.03363387, -0.038138706, 0.07597535, -0.025302604, 0.0047035823, 0.10352301, -0.056792695, -0.116226494, -0.012450746, 0.28944185, -0.03426505, 0.012647472, -0.0021045296, -0.028492844, 0.19581257, -0.1482818, -0.018367179, 0.120634414, 0.11839382, 0.01900549, -0.045902513, 0.42492622, 0.04239026, 0.2232401, 0.03416393, 0.060350582, -0.109450236, -0.15116562, 0.01000294, 0.005642412, 0.13348213, -0.022755088, 0.11170208, -0.038675003, 0.1340381, 0.1046923, 0.027725171, 0.2022053, 0.024041511, 0.05565773, -0.0020359703, -0.083414115, 0.098895594, 0.02194162, -0.01768254, 0.08173551, 0.09919405, 0.15445028, -0.03146529, -0.081083044, 0.10636767, -0.042560574, 0.07268869, 0.22148202, 0.19362788, -0.12083246, 0.10130491, -0.081338964, 0.27768773, 0.15600735, 0.053578418, 0.0073994165, -0.30713353, -0.18364441, -0.11660445, -0.2128906, 0.321189, 0.04764897, -0.027210085, -0.22743653, 0.07671181, 0.09754845, -0.056604456, 0.024920316, -0.09915068, -0.16163763, 0.033750433, -0.05144461, -0.06408046, 0.09309471, 0.11419357, 0.30810606, -0.25331327, 0.13132183, 0.21047948, 0.28078455, 0.17718777, -0.009033929, 0.010669166, -0.10706134, 0.21554418, 0.009046256, -0.0014486881, 0.041525267, 0.17218027, -0.04988403, 0.004521964, -0.08424943, -0.12452776, 0.059958022, -0.027386602, -0.08327746, -0.109769106, -0.0029064948, -0.1292004, -0.08444139, 0.18288498, 0.02845159, -0.03982073, -0.0992422, -0.038504016, 0.091231085, -0.063346185, 0.19076009, -0.058898143, -0.07904619, -0.003154678, 0.100986436, -0.152271, -0.1145691, -0.015729943, -0.06850102, 0.06360491, -0.12870844, -0.028544955, -0.024062997, 0.07399788, 0.10727237, 0.09175305, -0.027816594, -0.24514711, 0.11216166, 0.116056405, 0.06890723, -0.035967637, -0.05050297, -0.0021859298, 0.099965736, 0.07565052, -0.11631542, 0.031330843, 0.030690562, 0.14695124, 0.29596466, 0.02287302, 0.06488987, 0.20910598, 0.12154502, 0.042587295, -0.26669666, -0.096785046, 0.15010713, -0.022701126, 0.03248533, -0.13197233, 0.049349327, 0.0003670695, -0.07645296, 0.067068465, 0.03234727, -0.04393276, -0.09237251, -0.19583775, -0.10327401, 0.021078272, 0.13343336, -0.08668465, 0.0914099, -0.029005926, -0.09594634, -0.2579213, -0.04630257, 0.036948413, -0.020927245, -0.042361043, -0.058618624, 0.0062308647, -0.013391626, 0.031805187, -0.31358394, 0.15515672, -0.06783576, 0.18048537, 0.028866105, 0.017588794, 0.07810985, 0.0045075514, -0.03191383, 0.027660076, -0.051374782, -0.38169834, 0.22897774, 0.054138724, -0.16347893, 0.09973529, 0.1191839, 0.0826061, -0.15137126, 0.080455996, -0.092452206, 0.043817237, 0.0050239824, 0.13471144, 0.16388027, -0.026162608, 0.015436216, -0.02972962, -0.08483754, -0.058362138, 0.06587897, 0.16846973, 0.43723524, -0.2121184, -0.06099803, -0.54349643, 0.09642442, -0.048341274, -0.03316436, -0.3413573, -0.13202725, 0.04451893, 0.091448195, -0.041708346, -0.04237313, -0.16919363, 0.004411032, -0.21783462, -0.1643872, -0.777632, 0.121228844, 0.07896693, -0.00020973141, 0.0063566165, 0.038522307, 0.08788847, 0.10549677, 0.03046333, -0.14443226, 0.07488417, -0.3638632, 0.17592858, 0.19423911, -0.017259853, 0.11416601, -0.012268302, -0.26193914, 0.03883416, 0.056135293, -0.013360862, 0.05470167, -0.11117597, 0.103139274, 0.01766649, 0.023007842, 0.08297687, -0.20056306, 0.049846165, -0.089559354, -0.17244461, -0.0538045, 0.024056926, 0.12354837, -0.016799383, 0.004042473, -0.013671994, -0.037858874, 0.020411137, -0.011467369, 0.03180474, -0.022562258, -0.090199836, -0.014044711, -0.040557433, 0.050475538, 0.069115065, 0.0856266, 0.09684914, -0.15780579, 0.045014296, 0.05949874, -0.008350976, 0.0690216, 0.04060098, 0.033878967, -0.046479303, -0.07377085, 0.013131063, -0.082544185, 0.0065796655, 0.07741202, -0.037656613, -0.004387118, 0.021166474, -0.056277156, 0.041521274, 0.07091471, -0.04387869, -0.28364813, -0.015530359, -0.03653153, -0.008174234, 0.052547514, -0.16573897, 0.12632874, 0.041214034, -0.067844845, -0.06616551, -0.0021027306, 0.05307204, -0.31069636, 0.080705985, -0.14792317, -0.045310866, -0.059128974, 0.08660505, 0.20348285, -0.038006775, 0.050446667, -0.07169607, -0.011760589, -0.055779282, 0.020362044, -0.030804418, -0.0299475, -0.06503035, -0.1381166, 0.1085947, -0.072192594, -0.0003074949, 0.025791256, 0.0071680676, 0.009060684, 0.010520144, -0.0712783, -0.07794149, -0.10627389, 0.050439466, 0.026443886, -0.07743367, 0.0030233501, -0.042923752, -0.10262321, -0.14086647, -0.018825794, -0.11037498, 0.16360265, 0.31654093, -0.17174305, -0.060509987, 0.03288344, 0.50296795, 0.18441589, 0.12984554, 0.24725515, 0.14673775, 0.0579923, 0.042042617, 0.31822908, 0.041046556, -0.14040521, 0.02495445, 0.0023969046, 0.102158144, 0.17612526, 0.021767668, 0.07149248, 0.12422763, -0.1643293, -0.089910656, -0.23860547, 0.2575068, -0.184309, -0.17773192, -0.1394398, -0.10187256, 0.031472564, 0.0124626495, 0.07829495, -0.15517366, 0.05748439, 0.013366442, -0.05586057, -0.109593235, 0.024973664, 0.011851415, 0.104487784, 0.06561469, -0.030482074, 0.022905448, 0.043819696, 0.09025122, 0.011854433, 0.14016294, 0.09757541, -0.12014559, -0.014392238, 0.05513761, 0.111945465, 0.08171164, -0.02445065, 0.09448141, -0.15519053, 0.030403135, 0.07501415, 0.012477881, -0.0771207, 0.14477338, 0.07488366, 0.0632039, 0.04327236, -0.07125954, 0.14297879, 0.013353582, 0.057761036, -0.04660466, -0.047919903, -0.1025458, 0.008875461, 0.22570409, -0.11679176, -0.045993317, -0.037157346, -0.0033052128, -0.02753195, -0.0022935001, -0.06510864, -0.03146957, 0.12848371, -0.00941105, -0.060981337, -0.110342875, 0.10756647, 0.069689356, -0.03935506, 0.036225054, -0.11214286, -0.016739491, 0.12761469, 0.082955055, -0.02910471, -0.009565826, 0.003589978, -0.019881453, -0.04411684, 0.0054919445, 0.06287042, -0.08816487, -0.19659172, -0.0623219, -0.013411408, 0.052478116, -0.03912671, 0.03495149, -0.03169931, 0.021992031, 0.056068286, -0.042578418, 0.091151476, -0.0011185118, 0.0063269935, 0.014797268, 0.015937041, -0.0049702493, 0.043326493, -0.019314824, 0.014347621, -0.020183764, 0.13776907, -0.033339363, 0.009338989, -0.055254523, -0.034843735, -0.01254341, -0.03716564, 0.04338278, 0.07638641, -0.003560815, 0.02867254, 0.36190975, 0.12564991, -0.08701734, -0.14854513, 0.060098074, -0.2313508, -0.06577816, 0.19118884, -0.2556297, 0.10555577, -0.05865062, 0.0031007135, -0.18863016, -0.017489895, 0.06615948, -0.05922134, -0.13169028, -0.12595193, 0.103196494, 0.055674188, -0.28368095, -0.08705775, 0.124513835, -0.4091093, 0.088736534, -0.058448583, 0.064282864, 0.024240516, 0.20334098, 0.10857239, -0.047766972, -0.081083365, 0.062310714, 0.065022565, 0.0058033927, 0.04471359, 0.16737948, 0.08048467, 0.28310275, -0.077408865, 0.00033860435, -0.013582598, -0.016252795, -0.036526892, 0.041498296, 0.02122722, -0.018262181, 0.008422807, -0.056732867, -0.088792354, 0.0044491654, -0.032989968, -0.0058208513, 0.03678002, 0.008729588, 0.16518638, 0.10168028, -0.010885504, 0.030952243, -0.028343758, 0.10946309, -0.04112885, 0.016858492, -0.0046049757, -0.024592994, -0.02242293, -0.0226774, 0.11902194, 0.019102424, 0.20012788, 0.12315295, -0.0076076314, -0.03400735, -0.013348088, 0.02492076, 0.034392457, 0.004376506, 0.032647457, -0.008334561, 0.03379904, 0.15747629, 0.0544866, 0.08151609, 0.00576347, -0.03897967, 0.009235465, -0.0040653273, 0.05716686, 0.013930913], "bias": [0.04285613, -0.26147166, 0.017568856, -0.04307654]}, "conv2d_1_tf1": {"name": "conv2d_1_tf1", "type": "conv", "inputs": ["conv2d_tf", "conv2d_tf1"], "output": "conv2d_1_tf1", "weights": [-0.041769262, 0.2273538, -0.0036644177, 0.32082334, -0.017650893, -0.03760382, -0.04585789, -0.23528221, -0.04242583, -0.0071640634, -0.054446623, -0.018117093, 0.15188433, -0.0048713307, 0.04277758, -0.1964636, 0.063356355, -0.059392467, 0.009034625, 0.26360938, 0.109132946, 0.007477584, 0.03027712, -0.138896, -0.07460741, 0.12944956, -0.14475606, 0.020114902, 0.11206944, 0.09445658, 0.17646486, -0.11665039, 0.06230196, 0.055150773, 0.08533462, 0.088369325, 0.016360618, -0.13065644, -0.046820115, -0.05541292, 0.05135752, -0.21667509, 0.0835585, 0.17299818, 0.27791265, 0.02493738, 0.114088506, -0.09741349, -0.030843707, -0.07770778, -0.04646311, 0.009352778, -0.16642264, 0.029025808, 0.0056913504, 0.09816961, 0.05311945, -0.055038426, 0.009172977, -0.1268219, -0.1581308, -0.052694857, -0.23535115, 0.101565085, -0.11657136, -0.023565922, -0.118160374, -0.47644165, 0.06800065, -0.0374508, -0.031333804, -0.053091478, -0.21902545, 0.35131824, -0.035804626, -0.046368454, -0.5861137, 0.1909888, -0.04782269, -0.018763946, -0.06552784, -0.0126680145, -0.030325428, -0.16997162, 0.06704362, -0.079893984, -0.05096937, 0.114301294, 0.23707253, -0.06406792, 0.059681866, 0.15186408, 0.090463236, -0.023904437, 0.029751679, -0.054692272, 0.02917651, 0.008928654, 0.11944733, -0.06941702, 0.03805426, 0.03157096, -0.002915918, 0.022039212, -0.016681014, -0.053921554, 0.07560281, -0.025098592, 0.021221492, 0.07736048, 0.057894994, -0.0012207158, -0.020563453, -0.017104317, -0.012698067, -0.06195683, -0.043466896, -0.105268694, 0.020333532, -0.05727486, -0.055109166, 0.05251399, -0.24013498, -0.14413849, 0.075482614, -0.08164152, -0.18589085, 0.04557471, -0.011441597, -0.015842548, -0.037700634, 0.004594745, 0.010643159, 0.012527494, -0.031178776, -0.024790548, 0.09797356, -0.12129657, 0.04768479, 0.14589407, 0.014278544, 0.005514356, 0.03584396, 0.009728589, -0.041192923, -0.025521807, 0.019325607, -0.19771893, 0.12602784, -0.036514502, 0.013197662, -0.106108345, -0.40877753, -0.08034129, 0.20100705, -0.123490766, -0.24087417, -0.13904595, 0.05463274, -0.06491763, -0.042089734, -0.074817136, 0.11461088, -0.12823232, -0.12583104, -0.026447447, 0.013455444, -0.0934207, -0.28528124, 0.14602607, 0.07602936, 0.010736067, -0.3300554, -0.074203536, -0.41792998, -0.08704599, 0.07901918, 0.03332414, -0.103333116, 0.04659406, -0.025938274, -0.103175685, 0.043499142, 0.057006776, -0.32734495, 0.011476755, 0.13795735, -0.04448855, -0.32093078, 0.26460966, -0.28903213, -0.22359468, -0.20475009, 0.016871922, -0.035041083, 0.1446589, 0.12897651, 0.0027744032, -0.23441306, 0.036986403, 1.1430848, -0.047145315, -0.20478734, -0.33390018, -0.20344356, 0.048874088, 0.10458408, 0.08649681, 0.10395099, 0.008385462, 0.043106068, -0.20291765, 0.14354138, -0.07012312, 0.083161905, -0.50849324, -0.20521763, 0.355222, 0.008988924, 0.2210339, 0.7841875, -1.0762382, -0.8153148, 0.374808, 0.18369803, -0.07877184, 0.1267781, 0.13031618, 0.040362746, 0.003722433, -0.036438968, 0.014492255, -0.07202894, -0.09007003, 0.0310652, 0.1458354, 0.05581765, 0.44991696, -0.13886283, -0.14248015, 0.037411787, 0.030301683, -0.048044816, -0.04579189, 0.15387431, 0.42552045, -0.08371018, 0.15935804, 0.13885571, -0.0948752, 0.055730492, 0.07058014, 0.16519515, 0.19103403, 0.10310001, -0.01979832, -0.028982213, -0.0093988385, -0.096010365, 0.19256967, 0.0031310339, 0.03288033, -0.15828688, -0.025628846, -0.0411963, -0.12366524, 0.054443646, 0.18605354, 0.31865177, 0.14470118, -0.046118192, -0.046150833, 0.00846504, 0.023395844, -0.067272455, 0.02358077, 0.024746485, -0.06334965, 0.020842437, 0.1177326, -0.0728231, -0.17679417, 0.08854407, -0.102321, -0.008842615, 0.17902538, 0.10502028, -0.012512301, -0.098862626, -0.14433292, -0.010545578, -0.37321582, -0.08320942, 0.055090994, 0.048768524, 0.2184079, 0.11650948, -0.0012086985, 0.017259832, 0.05405576, -0.1911082, 0.056098413, -0.048927464, 0.10835284, -0.06522348, 0.17056629, -0.03869292, -0.45801035, -0.063486375, -0.018747782, -0.005224346, 0.22991723, 0.061562523, -0.057484247, 0.08349585, 0.07541583, -0.0019363558, -0.028464701, -0.070030525, 0.102068014, 0.040898304, -0.06606815, -0.086713314, -0.08629362, 0.024957834, 0.082629375, 0.077898495, 0.010621341, -0.008913733, 0.10659354, -0.075370915, -0.23786227, -0.124983005, -0.15105233, -0.103539355, 0.0053891935, -0.08087533, 0.08105464, 0.0131133115, -0.04241429, 0.10114896, 0.010130545, -0.027175417, -0.21820262, -0.05530106, 0.039104022, -0.04242152, 0.08326108, 0.21600689, 0.05434377, 0.08443377, -0.028917897, -0.0034871944, -0.16336384, 0.14261733, 0.23351537, -0.20961934, -0.07020004, 0.0906452, -0.28363138, 0.22843917, 0.013587909, -0.088924125, 0.032293234, 0.08776768, -0.172608, -0.01500348, 0.012439498, 0.079918735, -0.025496382, -0.040523168, 0.12942475, -0.07783238, 0.03832641, 0.06729801, -0.22836074, -0.27137262, 0.01060808, -0.10750987, -0.2235686, 0.052335247, -0.16790402, -0.074321605, 0.1007658, -0.0071011763, 0.064831376, -0.10463697, 0.033493377, 0.07483657, 0.021944676, -0.05104421, -0.041612417, -0.024535969, 0.010819913, -0.048191283, 0.044461753, -0.07414379, -0.076505564, -0.05112023, -0.030332422, 0.025339257, -0.022723144, -0.034755338, 0.08728512, -0.022508435, 0.15611768, -0.06344134, 0.0099684745, 0.07915839, -0.0053559495, 0.19264793, 0.07354033, -0.09037394, -0.032119896, 0.12872075, -0.014158391, -0.0017887083, -0.020079996, 0.036266, 0.032218937, 0.013053636, -0.023865283, -0.022509819, 0.09586795, -0.041298896, 0.0044301753, -0.091999315, -0.18471965, -0.020406656, -0.0020142123, -0.018373203, 0.031236978, -0.053817, 0.08137829, -0.022250151, 0.22937922, -0.15450427, 0.107728474, -0.05449061, 0.086792625, -0.08401448, 0.13254675, 0.013328293, 0.026588263, -0.029838532, 0.0851347, -0.005822739, 0.06989775, 0.1270155, 0.09168299, -0.05090024, 0.1558728, 0.040510017, -0.0044890125, -0.005607918, 0.07079014, -0.21566983, 0.16917703, -0.037523296, 0.1663374, 0.17722698, -0.023118855, 0.14129059, 0.04385175, 0.10650091, -0.10392844, 0.106473304, 0.0053726994, 0.046918157, 0.043450657, 0.018505571, -0.05503087, 0.21747766, -0.076270774, 0.004755557, -0.036048766, 0.01998819, -0.021373566, 0.03043378, -0.1022885, 0.18307945, -0.052686542, 0.04042982, -0.10466657, -0.16071647, 0.18024082, 0.11944186, -0.044838604, 0.18366845, -0.019814858, 0.007687797, -0.112927146, 0.08682155, 0.1353715, -0.0548161, 0.022286301, -0.20070179, -0.057414256, -0.080971114, 0.08812554, 0.00512909, 0.17454606, -0.13568106, 0.042967618, -0.13582781, 0.006937189, 0.10503422, 0.11161589, 0.03939954, 0.08696481, 0.30325106, -0.10908971, -0.16632318, 0.092868805, -0.09580845, -0.115267076, -0.032314945, -0.10690317, 0.038581863, -0.013661781, 0.028833631, -0.043499447, 0.032182183, -0.041504372, -0.007474984, -0.14201297, 0.14909415, 0.030080255, -0.07004749, -0.07643127, 0.030062111, 0.09093817, -0.041311596, -0.16893053, -0.03244248, -0.3842317, 0.07148521, -0.1280095, -0.0432541, -0.08084675, -0.16273983, 0.020500418, -0.15764149, 0.026674187, -0.01601561, 0.04017576, 0.08579993, -0.21104535, -0.112368815, -0.022978168, 0.040519085, -0.115384005, -0.15231764, 0.070730194, 0.09303918, -0.06780693, -0.26078814, -0.03781875, 0.04699831, 0.054776587, -0.005967296, -0.04048162, 0.014942216, -0.032583054, -0.07051348, -0.05965395, -0.06368921, -0.16306795, 0.03672271, 0.0042175963, -0.00029968336, 0.017440602, 0.018714234, -0.00035951077, -0.06997268, -0.034705702], "bias": [0.0470391, 0.017621543, 0.009640545, 0.027222348]}, "conv2d_2_tf": {"name": "conv2d_2_tf", "type": "conv", "inputs": ["conv2d_1_tf", "conv2d_1_tf1"], "output": "conv2d_2_tf", "weights": [-0.019001568, -0.23538114, -0.16441286, -0.09788422, -0.06572623, -0.015241216, -0.036755748, 0.19589579, -0.00253937, -0.067636386, 0.035335194, -0.07258369, 0.0018742784, -0.15595515, 0.0020407452, 0.008956765, 0.05295963, -0.14797357, -0.14150792, 0.043256592, 0.19117883, -0.05122804, -0.16195825, 0.06381755, -0.013788708, -0.025852855, 0.05515184, -0.25571653, 0.013167682, -0.08592367, -0.084433354, 0.13833067, 0.107331224, 0.0064519006, -0.12895814, 0.11212472, 0.025310345, -0.013959127, -0.15748148, 0.15157604, 0.11809361, -0.14277022, -0.030780284, 0.17579514, -0.03076694, -0.096392296, -0.06785102, 0.033290498, -0.15824458, -0.21763526, -0.13448964, -0.025996564, 0.5275419, 0.43283263, 0.03720769, -0.8255124, 0.02947434, -0.14885657, -0.062158644, 0.0019019969, -0.13677824, -0.014590579, -0.114843145, 0.051087525, -0.1677625, -0.020703914, -0.05017297, -0.13706179, -0.4647485, -0.13940397, 0.0362515, 0.09783513, -0.1972346, 0.14330928, 0.048954453, 0.3745794, 0.11397572, -0.09733473, 0.03535261, -0.19469981, -0.17378514, 0.09108443, 0.066616625, -0.13537444, -0.23321357, -0.07369442, -0.09227874, 0.17085701, 0.325188, -0.20502472, 0.013126333, 0.14619225, -0.13879065, 0.0019865897, 0.030747756, -0.06330878, -0.0017494182, -0.0340197, 0.04302978, 0.095409356, 0.056947183, -0.08911148, 0.14802758, 0.06948185, 0.016409999, -0.16704144, -0.07378197, 0.032566868, 0.0049559753, -0.024370568, -0.06458122, 0.005397494, -0.08443638, 6.85079e-05, 0.14881624, -0.11349051, 0.004172905, -0.10000182, -0.07882069, 0.35442382, 0.026454277, -0.3001957, -0.077381, -0.026589537, 0.011429094, 0.03161886, -0.093559206, -0.03500552, -0.018797705, 0.11694244, 0.1561502, 0.034651604, -0.052908342, -0.028980589, -0.09262737, 0.06602511, 0.08020462, -0.14751029, 0.06368376, -0.16582951, -0.008201451, 0.008418521, 0.040789038, -0.037354458, 0.05798408, 0.021829296, -0.005983899, -0.070094556, 0.014737749, 0.059945434, -0.15296593, 0.061595146, 0.09509595, 0.024734419, -0.11206052, -0.06253193, 0.047390107, -0.01723399, -0.045175795, -0.07373188, -0.017555846, 0.16604047, -0.046563033, -0.02249005, -0.018640628, 0.02257903, 0.065511234, 0.06721935, 0.093914434, 0.05832697, -0.07893238, 0.16353805, 0.06380941, -0.021148706, 0.17642123, -0.04398046, -0.10790757, 0.0643933, 0.0040696515, -0.079516575, -0.015202034, 0.060605194, -0.17163359, 0.08841119, -0.1928558, 0.13150443, 0.16347656, -0.05499719, -0.06573296, 0.032204054, 0.12921257, -0.032035485, -0.0076697962, -0.048573177, -0.15433377, -0.09132034, 0.16724052, 0.067722715, 0.051833536, 0.13169467, 0.14869606, -0.09820727, -0.17682762, -0.014414841, -0.009414122, -0.034934133, -0.06461482, 0.052316755, -0.069720075, 0.021973485, -0.022047894, -0.1854981, 0.1597296, -0.13255066, 0.17853424, 0.22891395, -0.027864423, -0.18213238, 0.113023475, -0.03478902, -0.081008114, -0.060858756, -0.037977416, -0.15005502, 0.009828394, 0.0025302777, -0.03491129, 0.1696576, 0.021097984, 0.008580084, 0.048763223, -0.19038057, -0.33470598, -0.048797037, -0.0717898, 0.064449154, 0.008955067, -0.0005413106, 0.1878297, -0.036892056, -0.030456891, -0.21535598, -0.19195653, 0.06571146, 0.107155174, 0.15014854, 0.04872858, -0.23555516, 0.11278543, -0.16593766, -0.23237368, -0.074952394, -0.03266942, 0.16023315, -0.20907903, 0.053157885, -0.015076995, -0.28448743, -0.106838115, 0.15820645, 0.064023174, 0.13909452, -0.08199786, 0.003027048, 0.059745647, -0.003760501, 0.20015882, -0.22342159, -0.008291763, 0.03889748, -0.0151672615, 0.066970706, -0.06186798, -0.10400853, -0.0056878403, -0.05758353, 0.027886199, -0.026153972, -0.03500632, -0.11889523, -0.10356673, -0.011199104, -0.17813577, 0.14656255, -0.035715647, 0.023825722, -0.15739101, 0.02336342, -0.009727493, 0.13501343, 0.31910706, -0.13402307, 0.12922408, -0.039173424, 0.10690093, -0.015429367, -0.009744884, -0.0039696177, 0.023249531, 0.099154115, -0.0039068307, 0.03869755, 0.09095299, -0.029357022, -0.12900649, 0.0021162136, 0.31768394, -0.0015683637, -0.14505014, -0.027096145, -0.013647719, -0.09723463, 0.031177426, -0.05586657, -0.10294297, 0.28578728, -0.019663837, 0.05726962, 0.09359527, -0.08627796, 0.0037790663, 0.06417803, 0.10550468, -0.01704054, 0.01595106, 0.0022113814, -0.0037864812, 0.043186206, -0.17427847, -0.0024728328, -0.04130582, 0.111843646, 0.029635595, 0.020164212, 0.1388187, 0.029206676, 0.10632977, 0.014807622, 0.5126217, -0.024930472, -0.055418715, 0.24426435, -0.16181964, -0.18649237, 0.013577587, 0.031685174, 0.14612587, -0.017120084, -0.0005513652, 0.059766337, 0.113098, -0.040457726, 0.07800924, -0.054891102, 0.06133332, 0.12071738, 0.18462723, -0.059289947, 0.01080669, 0.2726978, 0.2513504, -0.24030231, -0.27392846, -0.46443167, 0.0723327, 0.03579659, -0.09102414, 0.06536662, 0.14770909, 0.028132869, -0.1338835, -0.21610698, 0.011449404, -0.00091974175, -0.036606103, -0.007831761, -0.5127002, 0.009516008, -0.17369267, 0.04404133, 0.050307225, 0.01888158, -0.09124794, 0.08882168, -0.039364517, -0.11335016, 0.19780083, -0.11677836, -0.03972323, -0.07242369, -0.07498584, 0.10364218, -0.025580598, 0.010605936, 0.19677156, 0.10271424, 0.0053442065, -0.06317371, 0.09940713, 0.021165058, 0.1021335, -0.026487485, -0.37004742, 0.058286738, -0.049957287, -0.105049804, 0.021518843, -0.016032273, -0.05131901, 0.090134695, 0.25985622, 0.06627313, -0.04449381, 0.057717822, 0.015257268, 0.1201162, 0.09726924, 0.000863437, -0.1493538, 0.04475547, -0.0022810805, 0.028670842, 0.025848223, -0.08699707, -0.120212846, 0.010985937, -0.034646478, 0.15208873, 0.064552836, -0.017698726, -0.045722168, -0.008999031, -0.026266305, 0.07968717, 0.013408932, -0.021394797, -0.025563326, -0.09016311, 0.30896214, -0.12849735, -0.08673765, -0.07050851, 0.20799327, -0.15439495, -0.019146496, 0.031211818, -0.091748826, 0.019861866, 0.03654763, -0.067969546, -0.09659027, 0.010684572, 0.057441745, -0.0032968984, -0.077535786, -0.06357574, -0.07434465, -0.20204024, 0.11029, 0.017643519, -0.09665326, 0.0735254, 0.035987902, -0.007044409, 0.09092698, -0.025580838, 0.12738055, -0.024168473, -0.043421637, 0.03603091, 0.008202332, 0.066348396, 0.10747435, -0.11385152, -0.1318705, 0.1582086, 0.084298745, -0.04381738, 0.21711417, -0.025672851, 0.026497373, -0.0014173804, 0.18912001, -0.019265566, 0.06461433, -0.15218565, 0.13753405, -0.13999425, -0.20184945, 0.19183749, -0.2552163, 0.1254171, 0.040850658, 0.02367824, -0.06821454, -0.045379292, 0.059368372, -0.14564581, 0.19617446, 0.01499277, -0.13129437, 0.20858447, -0.40878284, 0.28609872, 0.29086882, 0.6057432, -0.5545039, -0.30967155, 0.115362145, -0.0026054624, 0.04842439, 0.045067657, -0.044092417, -0.062178984, -0.028561078, 0.099981345, -0.030409701, 0.09935348, -0.027842076, -0.12292887, -0.07122785, -0.25509572, 0.22885045, -0.03219792, -0.05342853, 0.035210762, -0.0055165384, 0.06893631, 0.0009985261, 0.089613475, 0.26799595, -0.052112814, -0.13641909, -0.050156295, -0.050521016, 0.11338822, 0.041359525, 0.3735283, -0.12030729, -0.033926312, 0.001225925, -0.056277033, -0.28133756, 0.123977125, 0.06936411, 0.114476174, 0.2064309, 0.030256169, 0.017963449, 0.048792116, -0.08992126, -0.12361893, 0.016820963, 0.13092749, -0.3934048, 0.23653933, 0.05148218, -0.006717662, -0.17407277, -0.016511584, -0.013928506, 0.05796264, 0.084964715, 0.02847778, -0.10402266, 0.16656832, -0.112399645, 0.034063533, 0.13984285, 0.04674053, 0.24942064, 0.07111112, 0.022585567, 0.060805317, 0.07326607, -0.02500442], "bias": [0.0034768276, 0.078073956, 0.060241185, -0.015864782]}, "conv2d_2_tf1": {"name": "conv2d_2_tf1", "type": "conv", "inputs": ["conv2d_1_tf", "conv2d_1_tf1"], "output": "conv2d_2_tf1", "weights": [-0.07478558, 0.004667535, 0.06393769, 0.11883183, 0.27065986, -0.23777826, 0.023021502, -0.045712326, -0.07048927, -0.038049735, 0.054165892, -0.011032129, -0.0754818, 0.03118569, -0.054024123, 0.07044523, -0.25927976, -0.10087636, -0.072287336, 0.103900746, 0.033104185, -0.11584622, -0.1627572, -0.47018287, -0.32612163, 0.033587694, 0.061254967, 0.02329635, 0.17539735, -0.031285483, -0.035201892, -0.08691364, -0.04994371, -0.00087353186, -0.035055317, -0.0008786945, 0.024744304, 0.10684518, -0.020291826, 0.16813937, -0.051788237, 0.050959684, 0.02452871, -0.14018875, -0.044108193, 0.015280325, -0.0602504, -0.023681255, 0.16878137, 0.10299847, -0.20069607, 0.05700771, -0.36615595, 0.39725846, -1.3344401, -0.6511703, 0.109943435, -0.13446258, 0.07303099, 0.032713912, 0.07292199, -0.011344716, -0.0008448109, 0.027426189, 0.17506875, 0.012464783, -0.056256402, -0.07958593, -0.2806585, -0.3749799, -0.10252603, 0.29535496, 0.0717199, -0.25737217, -0.12823613, 0.0626369, -0.13232505, 0.13769114, -0.04982367, -0.07952282, 0.1053532, -0.024876263, 2.3899407e-05, -0.06982237, 0.014962793, -0.3376551, 0.10415821, -0.26469597, 0.038599104, 0.03434611, 0.05630688, -0.32558888, 0.08377241, -0.11134543, -0.0199496, 0.009317347, 0.030321108, 0.11529162, -0.07748164, -0.024849521, 0.021346482, -0.10718213, -0.27737656, -0.04813894, 0.021520067, 0.04022849, -0.012957891, 0.064086415, -0.010177283, 0.018776743, -0.000136494, 0.010343516, 0.003057477, -0.03539519, -0.108214445, -0.12779905, -0.06690839, -0.024997972, -0.130108, 0.12982965, 0.041623015, -0.18732119, -0.054218717, -0.10588106, 0.038908023, 0.052402724, -0.049785312, -0.0097188745, -0.05305062, 0.07248025, 0.022750407, 0.1725025, 0.10802551, -0.18196395, -0.0013114539, 0.06207226, 0.02177541, -0.092923805, 0.002012547, -0.12285994, -0.030384954, 0.04727316, -0.01910526, 0.033656333, 0.004557019, -0.06507273, 0.0011020682, 0.0801447, 0.16762628, -0.035765592, 0.056397773, -0.023541845, 0.05940793, -0.13744278, 0.049852204, -0.08549192, -0.093444124, -0.009665887, 0.04366022, -0.06784791, 0.2758953, 0.019998353, 0.009063905, -0.08783499, 0.17159915, 0.11424092, 0.018413473, 0.15447405, 0.34081125, -0.04721362, -0.037220675, 0.15417117, 0.072828695, -0.008610659, -0.09926364, -0.027536672, 0.019145558, 0.077560395, -0.03403242, 0.06361754, 0.07088764, 0.050184324, 0.059623152, -0.13262506, 0.04352422, 0.0040612486, -0.07210113, -0.070642464, 0.012248652, -0.0047869356, -0.025982628, -0.23810163, 0.09721602, -0.020459598, 0.056218553, 0.05801021, -0.013634709, -0.110672794, 0.03066029, -0.016184404, -0.05997416, 0.022975376, -0.17993115, -0.05543276, 0.007784584, 0.023565697, -0.084033184, -0.00089950755, -0.027467908, 0.30177575, -0.07608004, -0.10330004, 0.020255523, -0.11455039, -0.04166481, -0.02682834, 0.14409594, 0.08126282, -0.04252745, 0.1382463, 0.011098886, 0.15495683, -0.09365502, 0.09180443, -0.02573842, 0.031559683, 0.1545991, -0.040698975, 0.07733276, -0.04212014, 0.04419494, 0.1446676, 0.07259373, 0.046641324, -0.051469374, -0.0705472, -0.0691541, 0.0330157, 0.039797142, -0.15984485, 0.08786995, 0.11986192, -0.012396314, 0.16041441, -0.050395805, -0.015827276, 0.112485655, -0.091664515, -0.1369238, -0.03523862, -0.16547006, -0.073469825, 0.099517845, 0.039523534, -0.12940727, 0.055276703, 0.10441952, -0.08733703, 0.05533098, 0.020688571, -0.05563093, 0.04093738, -0.124225214, -0.06439074, -0.1451879, 0.20460722, -0.03559136, -0.1639924, -0.032033447, -0.107940346, 0.019237991, 0.18893482, 0.030180879, 0.027182532, 0.013728219, 0.019709798, -0.06805482, 0.12720326, 0.07380157, -0.12921083, -0.05737395, 0.019069877, -0.087157175, -0.17668876, -0.014358459, 0.043777186, 0.03377667, 0.13655438, -0.03314921, 0.10483665, -0.062044982, -0.024215827, -0.06346544, -0.0041750423, -0.03675162, -0.011216492, 0.06783164, 0.056386314, -0.057509072, 0.11472189, 0.0115629295, -0.086098105, 0.0054228045, -0.08663328, 0.3012026, 0.14522925, 0.15703942, 0.037373263, -0.009967039, -0.021756945, -0.017783727, 0.20852695, 0.3554277, 0.01775782, -0.08207905, -0.17038766, 0.067040116, -0.020608438, -0.0023630948, -0.0943634, 0.08526127, 0.02776794, 0.084956035, -0.21231695, 0.045190915, -0.0070121987, -0.0052231112, -0.16102567, 0.07707215, -0.096249804, -0.10235412, -0.11792904, -0.03736402, -0.07409852, -0.070192784, 0.023452243, 0.010947068, -0.058135174, -0.047153834, 0.18466264, 0.0671795, -0.021480577, -0.5900017, -0.25375238, -0.10704561, -0.02301917, -0.032494064, 0.058042113, 0.025004752, 0.027058756, -0.06683335, -0.08250923, -0.1070314, -0.071099654, -0.14013398, -0.5970331, 0.09530559, -0.06575126, 0.06484187, -0.23310414, -0.42551646, 0.31191754, -0.41409507, -0.26004845, -0.115485944, -0.11383718, -0.098490044, -0.01744942, -0.1582219, -0.16000244, -0.13702466, 0.4113987, 0.035805028, 0.105047785, -0.041403316, 0.12962838, -0.021695944, -0.2827301, -0.043041017, -0.02506957, -0.019850366, -0.014494095, -0.030480266, -0.07260746, 0.026062334, -0.096436, -0.12978438, 0.106618024, -0.03599332, 0.03394432, 0.15093085, -0.16481717, 0.009873241, -0.058190823, -0.06021292, 0.058147233, 0.019812103, 0.08504327, -0.005025942, 0.036597826, 0.0049421047, 0.09886466, 0.10273025, -0.03558723, 0.017404465, -0.02926524, -0.026853668, 0.01440711, -0.08645513, -0.13734569, 0.020725796, 0.09628668, 0.050153885, -0.051516846, 0.027288841, -0.03756261, 0.099403806, 0.154909, 0.060034778, -0.013489342, -0.020557357, 0.01923458, 0.0014299228, 0.019200783, 0.058845814, -0.23282458, -0.0903778, 0.005191812, 0.0024076954, -0.09033936, -0.016847296, 0.049010046, 0.03819118, 0.099967025, 0.06975571, 0.025348227, -0.07681749, -0.046040423, -0.06032931, -0.0061141094, 0.12612763, 0.22611639, -0.09440038, 0.108867496, -0.012192459, 0.0058488394, -0.03724484, -0.017623289, -0.14179322, 0.022692405, -0.18056874, -0.031949878, -0.03213456, 0.21457148, 0.1943814, -0.073226444, -0.21642281, 0.20650634, 0.09862322, -0.12822871, 0.07640885, 0.16955684, 0.06534156, -0.15438713, -0.06864096, 0.013179381, 0.12602448, 0.19643874, -0.037842676, 0.05622743, 0.04816321, -0.08195121, 0.048308942, 0.04593097, -0.077678025, -0.06371661, -0.07526219, 0.005802156, 0.01171789, 0.04737139, -0.027533755, -0.004562794, -0.052001275, 0.04201718, 0.1369178, 0.03677487, 0.07768308, 0.33226246, -0.13777828, -0.25361896, -0.2817471, -0.32332328, 0.026578998, -0.19211626, 0.034776434, 0.2619879, -0.1613433, 0.016321506, 0.07884624, 0.117408015, -0.045788538, -0.0033274025, -0.31224975, -0.10305795, -0.09290011, -0.07859986, -0.31533617, 0.23548734, -0.038949303, -0.10583952, 0.097719885, -0.12264399, -0.013242545, 0.071326576, 0.007822373, -0.21562888, 0.034271214, 0.021338804, -0.059276544, 0.04472205, -0.12733617, -0.13260159, 0.16603713, -0.12852113, 0.051953644, 0.041651197, -0.035747506, -0.010116769, -0.020230817, -0.03520681, 0.02094612, 0.012337928, -0.03342761, -0.045881502, -0.028636808, 0.37172562, 0.069697194, -0.035994176, 0.015114543, -0.3635967, 0.01636269, -0.13279597, 0.0014996871, 0.15581186, -0.033692487, -0.13645698, -0.05023568, -0.038093876, -0.016255926, 0.121304356, 0.04121413, 0.028091503, 0.03912331, 0.14509994, 0.10308438, 0.2038019, 0.07201159, 0.024788467, -0.047857564, -0.08884499, 0.01179761, -0.033403963, 0.02368509, 0.050353743, -0.013214768, 0.07422088, -0.0329525, 0.057004105, 0.018169507, -0.2427945, 0.08759924, -0.12617742, -0.003666432, -0.0794905, -0.06639245, -0.013730218], "bias": [-0.062390063, 0.006659718, 0.18336883, 0.14673215]}, "conv2d_3_tf": {"name": "conv2d_3_tf", "type": "conv", "inputs": ["conv2d_2_tf", "conv2d_2_tf1"], "output": "conv2d_3_tf", "weights": [0.12434215, -0.06987591, 0.04193333, -0.104918204, 0.12451124, 0.013626443, 0.037873518, 0.08362042, 0.05194463, 0.01442547, -0.13875262, -0.016493792, 0.0046738596, 0.08608443, -0.077730455, -0.010914158, -0.011869467, 0.03034494, -0.18020475, 0.14977546, -0.115514405, -0.034942307, 0.15941252, 0.1404697, -0.057447042, -0.13834435, -0.12756576, -0.010591464, -0.077395126, -0.04178644, 0.048454374, 0.19493051, -0.001983689, -0.08986199, 0.03212844, 0.041980736, -9.56274e-05, -0.06119532, -0.031126877, -0.09520698, -0.028284827, -0.03546857, -0.1666987, -0.036845267, -0.11797518, 0.089619435, 0.02988029, 0.08276619, -0.07306981, -0.16872051, 0.16661432, -0.3480747, 0.122868076, -0.08844377, -0.056775127, 0.23917252, 0.053378638, -0.008747783, -0.15378508, 0.08180178, -0.011495165, 0.1683079, -0.120014675, -0.21878469, 0.24745014, 0.031558257, -0.05050991, 0.07349797, -0.5273615, 0.35846752, -0.18447293, -0.21087855, -0.15589727, 0.010194472, 0.1644957, -0.015017107, -0.17839503, -0.14057325, 0.27353984, -0.21561396, -0.061754487, -0.20528908, -0.1250674, 0.06331366, 0.01699615, 0.02920911, 0.091907665, 0.026244218, 0.065445974, 0.045151632, -0.08232646, -0.09311542, -0.16719109, 0.056588635, 0.056727305, 0.1945815, -0.05765414, 0.0762683, 0.012776011, -0.00058689417, 0.140075, 0.009986404, 0.2892533, 0.18471228, -0.020598251, 0.05649188, 0.093795784, 0.0106995655, -0.066380404, 0.017409323, 0.026741827, -0.08707335, -0.16030909, 0.03516937, 0.06592101, 0.12934355, 0.06641874, 0.004657726, -0.12411035, -0.28116503, 0.03531512, -0.11645487, -0.03068107, 0.07458365, 0.03152907, -0.07376389, 0.014357709, 0.25909457, 0.023138886, -0.15085258, 0.05066243, 0.108391285, 0.015114645, -0.001453512, 0.0066486234, -0.018578561, -0.016921509, 0.025292877, -0.04653085, -0.03430132, -0.1858199, 0.07360648, 0.06435525, 0.06224756, -0.009634802, -0.030498896, 0.041914623, -0.038183976, -0.07285489, -0.05907265, -0.053498942, 0.025311295, -0.029390626, 0.04563452, 0.07611463, -0.08769147, -0.10286858, -0.062542886, -0.12959744, 0.07334402, 0.12931582, 0.0292026, 0.29591802, -0.026997495, 0.20340778, 0.07492852, -0.18538162, 0.0076919035, 0.012710943, 0.07260374, -0.13169901, -0.10361192, -0.021571947, -0.02444775, 0.06870237, 0.12979971, 0.041586652, -0.06220602, -0.012897711, -0.024285892, -0.09113821, 0.09402549, -0.08712611, 0.10294722, -0.06392138, 0.0911006, -0.011580858, 0.03182763, -0.00015730696, 0.033833776, -0.059541516, 0.035518594, 0.056839686, -0.11202967, 0.053171206, -0.11775172, -0.024557922, -0.0940873, -0.030594183, -0.12136273, -0.06315984, 0.030127047, 0.06602708, -0.20003566, 0.103690095, -0.016783647, 0.1747513, 0.061964292, 0.019143345, -0.45714965, 0.2073076, 0.18294516, 0.21374783, 0.35288864, 0.060374957, 0.1967062, 0.058311645, -0.19408579, 0.05449892, 0.05225129, -0.06195099, 0.069911875, 0.039119195, 0.02723405, 0.03643409, -0.14159589, -0.124732964, 0.09208607, 0.08575845, -0.013139345, 0.023440981, -0.027439862, -0.16046263, -0.10589125, -0.07592904, 0.037056454, 0.10533728, 0.09706702, -0.014408589, 0.048573896, -0.12828523, 0.0021811994, -0.002692997, 0.08650376, 0.09752347, -0.108950175, 0.07840774, 0.00065547886, 0.06695601, -0.018165912, 0.050367236, 0.046872824, -0.016776009, 0.015350038, -0.14084531, -0.06485211, -0.3704466, -0.37773627, 0.14507218, 0.11079971, -0.026910186, 0.059037086, 0.058987916, 0.13830367, 0.07211361, -0.062486164, -0.22635312, -0.07971713, -0.081442684, 0.20388667, -0.00957239, 0.033848394, -0.01111291, -0.21024774, -0.054067962, -0.058762584, -0.12509948, -0.103286594, 0.24074087, -0.104446545, 0.016059753, -0.06582384, -0.007048952, -0.03744693, 0.07393211, 0.07896743, -0.012522515, -0.02864306, 0.021124303, -0.17562899, 0.086627446, -0.024210026, -0.010892262, 0.08694957, 0.034505587, -0.04689116, 0.029084383, -0.033701338, 0.03850237, 0.04343835, -0.09907381, 0.03827598, -0.117106855, 0.06646877, 0.039326414, -0.014356985, 0.153278, -0.09698446, 0.03742662, 0.07419383, 0.17535262, -0.23246683, 0.07865917, 0.10193372, -0.087733835, -0.12617703, -0.08164174, 0.21399213, 0.032150015, -0.0131164435, 0.06307832, 0.018640164, -0.12228586, -0.038133513, 0.035648935, 0.0824084, -0.002719153, 0.03994029, -0.07679221, 0.0005673289, 0.08361093, 0.031587843, -0.076981716, 0.092827424, -0.010036853, -0.020583807, 0.2267208, -0.36811727, -0.39549762, 0.07203387, 0.01125477, 0.25405142, 0.15060109, -0.40746814, -0.1727328, -0.022018783, -0.0021257305, 0.05040174, 0.042829257, -0.053860787, 0.49408865, -0.03645226, -0.3610098, -0.48166254, -0.037383534, 0.2969159, 0.24627332, -0.1854945, 0.18455984, 0.25037807, 0.1632998, 0.09005906, 0.020725666, 0.023604272, 0.05966239, 0.10046609, -0.022982983, 0.21690023, 0.057417955, 0.065511584, -0.031119548, 0.08532699, 0.024002593, 0.08073133, 0.12703854, -0.034817882, 0.022279631, -0.059529237, -0.10287898, -0.15238313, -0.039243665, 0.22817685, -0.03487627, -0.07380446, -0.023515131, -0.1305223, -0.16532296, 0.04108568, -0.029684018, 0.044259615, -0.28786823, -0.12272544, -0.018134128, -0.09907974, -0.03364799, 0.15633748, -0.07793955, 0.026306981, 0.04273816, -0.0055163843, 0.058220282, -0.060861696, -0.0967285, 0.014506348, -0.3502077, 0.08645289, 0.12733893, -0.001707147, -0.044706702, 0.025602939, -0.015187682, -0.03896263, -0.4139142, -0.05220248, -0.097982325, -0.06348861, -0.0023854927, 0.014162118, -0.030595344, 0.031825315, 0.086251915, 0.12795928, -0.02455975, 0.03633627, -0.010242163, -0.08883076, 0.006763471, 0.022565013, -0.06593303, 0.058173962, -0.06868716, 0.05361147, 0.06631069, 0.0036247587, 0.098953955, 0.07926152, -0.027660027, 0.13057345, -0.10063592, -0.033289157, 0.0013843683, -0.015412485, -0.12233436, 0.049418148, -0.004809778, 0.19786808, -0.0050329166, 0.11338342, -0.16729033, -0.2582563, -0.012100757, -0.017515743, 0.14708607, 0.01800947, 0.0335441, -0.18517892, -0.010787287, -0.14431132, -0.16285525, 0.04706372, -0.12865551, 0.15404245, -0.08012552, -0.021979885, 0.044894032, -0.108207606, 0.0051265103, 0.004201244, -0.028425276, 0.013248018, -0.07881181, 0.15247233, -0.005750667, -0.112006545, 0.13808267, -0.051330183, -0.0061109345, 0.081036285, -0.055842157, -0.06703985, 0.080910526, 0.003825992, 0.09594691, 0.072124295, -0.0854941, 0.10257004, -0.18135145, 0.12404956, -0.16458091, -0.03764376, 0.007209448, 0.30655986, 0.009565757, 0.17981513, 0.1751943, -0.25291437, -0.13714196, -0.051082455, 0.3466096, -0.086776, -0.14331453, -0.12386095, -0.01713345, -0.03342357, -0.01315963, 0.6895158, 0.12957637, -0.15609013, -0.11274265, 0.2359663, -0.18881829, 0.0734376, 0.07505447, -0.11868634, 0.23342524, -0.025182245, -0.02868409, 0.04745908, 0.011773731, 0.043571502, -0.20795253, 0.011634088, 0.21808937, -0.11096119, 0.013750673, 0.14059798, 0.012637546, -0.1550106, -0.00298128, 0.011215306, 0.07567128, -0.094959445, -0.06984194, 0.10129597, -0.01649235, 0.011990432, -0.14538178, -0.05587325, -0.08413428, 0.022035507, 0.046123076, 0.09332632, 0.054042235, 0.15986931, -0.07586846, -0.05384058, 0.22248976, 0.02092111, 0.09718553, -0.08445143, -0.038974956, -0.17590126, -0.0022084317, -0.06069757, 0.009527896, -0.11739511, -0.09050622, -0.18159844, 0.04745273, 0.0694078, 0.028024027, -0.029415715, 0.03394264, 0.04011832, 0.2988968, 0.058941312, -0.06029326, 0.0052986373, -0.0460107, 0.07782356, 0.06218449, -0.113114886, 0.119103074, 0.061366983, -0.028320773, -0.05833711], "bias": [0.055529177, 0.024605358, -0.030605303, -0.025823163]}, "conv2d_3_tf1": {"name": "conv2d_3_tf1", "type": "conv", "inputs": ["conv2d_2_tf", "conv2d_2_tf1"], "output": "conv2d_3_tf1", "weights": [-0.18047896, 0.11656921, 0.37172207, -0.29091612, -0.19753689, -0.05339875, -0.019124223, 0.03932601, 0.077818386, -0.0016531795, -0.00034967545, 0.04641519, -0.099140644, 0.021598727, -0.19257075, 0.10890156, 0.18418585, 0.06305977, -0.39319217, -0.12390362, -0.2819037, -0.306897, 0.120324455, -0.0708902, 0.013675445, -0.08343902, 0.033121802, 0.050435673, -0.05946764, -0.15585342, -0.008986451, 0.16372444, 0.05632411, -0.03572869, -0.036193117, 0.062098138, -0.051628694, -0.073703796, 0.28338572, 0.0330031, 0.076110564, -0.06988198, 0.13521263, 0.13464023, -0.11017516, 0.0996765, -0.12037511, 0.21010606, -0.1721639, -0.21052009, -0.009512721, -0.52918214, -0.22964483, 0.15721539, -0.25917396, 0.032064922, -0.20859551, -0.038621195, 0.048588287, -0.0153672695, -0.037953172, 0.13914657, -0.25125992, 0.24670283, -0.056792058, -0.0677944, -0.09434581, -0.30733886, 0.27829307, 0.2210935, -0.108211346, 0.2547207, 0.0009957805, -0.14507748, -0.044540238, -0.11566543, -0.12451302, -0.10807805, -0.2877155, 0.029342454, -0.08359743, -0.086210355, 0.09290876, 0.030713681, 0.21644448, -0.22967744, -0.15539032, -0.08892521, 0.045790076, -0.047196712, 0.08991632, 0.008602483, 0.01872379, 0.030084008, 0.026457032, -0.17064978, 0.2692088, -0.0030040494, 0.14183705, -0.28647748, 0.026507316, 0.08112435, -0.031412583, -0.04156414, 0.10980264, 0.053596932, 0.058265507, -0.114390455, 0.08921879, 0.051807366, -0.1161907, 0.15586592, -0.002053671, -0.14559858, -0.045986846, -0.12097192, -0.0060725412, 0.2081668, 0.060149856, -0.034630455, -0.1303508, -0.05086552, 0.091998994, -0.17430158, 0.002099353, -0.10291968, -0.041323185, -0.05157586, -0.019009858, -0.10342645, 0.05300893, -0.07051064, 0.09338948, -0.16254385, 0.14074324, 0.0017764, 0.10325286, 0.08199622, 0.074405216, -0.0072343745, -0.10376356, 0.14338885, -0.18332377, -0.0073285117, -0.030563304, 0.015151442, 0.16534199, -0.011042195, 0.09040175, -0.16819902, 0.18284807, 0.1376852, 0.003703992, 0.0641637, -0.073479444, 0.0074745896, 0.09188317, 0.026730308, 0.07622281, 0.09950868, -0.054229893, -0.07782881, 0.19812725, -0.095994845, 0.21983264, 0.02490695, 0.16841568, 0.021390952, 0.12660787, 0.19878756, 0.061891247, -0.0050794147, 0.029776258, -0.075890586, -0.1357764, 0.07056488, 0.1568811, -0.0396209, 0.046377406, -0.12905312, -0.24621978, -0.027730737, -0.033618413, -0.08509219, 0.15443711, 0.26469055, -0.16180795, 0.11961265, 0.04013211, -0.04817491, -0.014426356, 0.044333484, -0.011593611, 0.04836116, 0.023509191, -0.15331864, 0.17840989, -0.13110505, -0.017378595, 0.05022353, 0.066600524, -0.103740014, -0.078465104, 0.0033919872, -0.07149905, -0.07351645, 0.07255947, 0.034568056, -0.08506766, -0.07760297, 0.005723592, -0.36116463, 0.15291075, 0.2192901, 0.17274387, 0.06298579, -0.18096909, -0.21959428, -0.10751706, -0.047137525, -0.20476055, 0.16590488, -0.1588121, -0.076057374, 0.23306228, -0.004772208, -0.2729054, -0.4249065, -0.051036637, 0.24652082, 0.021540714, 0.12443366, -0.004988671, 0.05402583, -0.0468806, 0.064267606, 0.11529521, -0.008950345, -0.034754105, -0.16438499, 0.13337316, -0.080296785, 0.044527072, 0.015167656, 0.020920891, 0.0053869863, 0.09688405, 0.05736804, -0.015342011, 0.09530263, 0.04943504, -0.09015791, -0.113808006, -0.029935116, -0.018559204, 0.033827223, -0.03965937, -0.33134633, 0.12612073, 0.11758596, 0.12232424, 0.022010481, 0.057615265, -0.05194312, -0.0380545, 0.024758622, 0.04654253, -0.06198977, -0.07162131, 0.034296453, -0.08724832, 0.10280103, 0.162197, -0.030659143, 0.0036656104, -0.09766644, -0.028914666, 0.13943115, -0.0013890375, 0.0811065, -0.027750848, -0.022492243, 0.09956637, 0.114920124, 0.014973764, 0.0625473, 0.05124225, -0.062017847, 0.35053796, -0.097123325, -0.020882437, 0.10353801, 0.15161948, 0.042919926, 0.04243861, 0.089473546, 0.061041005, 0.017684055, -0.021466868, -0.021370161, 0.11065357, -0.024863904, -0.1445315, -0.009987593, -0.2123363, 0.020109672, 0.2588549, 0.1184955, -0.090082735, 0.18607411, 0.024449361, -0.0034308105, 0.008799871, 0.13588041, 0.10536524, -0.20965646, 0.023522338, 0.21204062, -0.21990414, -0.05536176, -0.0066925767, -0.00079470506, -0.033163987, -0.1260337, 0.086004145, -0.021909649, -0.1074463, 0.05170256, 0.030951291, 0.08461839, 0.07407064, -0.21431652, 0.027281042, 0.0106941415, -0.17907776, -0.076994315, -0.23631527, -0.21904424, -0.09809989, -0.075612575, 0.16719744, 0.00465036, 0.052061167, -0.08898875, -0.014144281, -0.091460764, 0.023421733, -0.023567073, 0.02925156, -0.06748306, -0.04578719, -0.15954992, -0.26514855, -0.15694094, -0.204602, -0.48875833, -0.21100673, -0.25015754, -0.32574657, -0.11960994, 0.07262566, 0.16806476, 0.28303015, -0.093884125, -0.066691995, 0.049800433, -0.14393513, 0.06346972, 0.026743807, -0.07939361, -0.045102436, -0.37896702, -0.14110142, 0.16413212, 0.2282678, -0.18998376, -0.09441126, 0.050361242, 0.035168726, 0.06854491, 0.0014729535, 0.12013997, -0.18245554, 0.24645142, -0.27625063, -0.054730184, -0.011305032, 0.00858153, -0.041619956, -0.0086089065, -0.050027464, 0.108630545, 0.04312397, -0.061003834, 0.054212738, -0.015563898, -0.19054638, -0.059082273, -0.10656826, -0.056570403, -0.07424834, 0.071714476, 0.07802516, -0.0967015, -0.087892085, -0.23951542, -0.0720959, 0.12292827, 0.17368302, -0.014404503, 0.09723902, -0.016511232, -0.31392044, -0.043098625, -0.15384014, 0.11841356, 0.10019398, 0.050528787, 0.053747065, -0.15261696, 0.12557246, 0.09067327, -0.049874887, -0.0026623183, -0.09047399, -0.06484093, 0.011820056, -0.09937994, -0.036342897, -0.029694613, -0.025116477, 0.14741054, 0.03263488, -0.022664905, 0.04893761, 0.039527483, -0.016246809, 0.07899093, 0.11747074, 0.0052480833, -0.0497777, -0.022218253, -0.21296297, 0.019411042, 0.018136332, -0.0547445, 0.00554169, -0.0403156, -0.04673802, -0.12775782, 0.13035479, -0.028843291, -0.14469776, -0.13299792, 0.12167567, 0.060552366, -0.06575371, -0.23757051, -0.25755158, 0.0063643525, 0.030053923, 0.123944946, -0.0594056, 0.029969867, -0.009405224, -0.029475413, 0.23200564, 0.036872093, 0.07683442, -0.042548202, 0.088496156, 0.29958767, -0.076807946, -0.14945157, 0.26795992, -0.030513007, 0.013742803, -0.015895056, 0.13754869, -0.029291742, 0.17893243, -0.005030412, 0.1218514, 0.01515186, 0.05826816, -0.08839695, 0.21801779, 0.10252516, -0.08831656, -0.102190375, 0.093231015, 0.019976078, 0.003534618, 0.10501899, -0.16905996, 0.1581255, -0.05114805, -0.26999053, -0.06646709, 0.005153225, 0.34223187, -0.03397313, -0.032694653, 0.20156251, 0.6550118, 0.52619475, 0.1496016, 0.23960514, 0.3754922, 0.12873164, -0.04940453, 0.17964305, -0.16103001, -0.13441172, 0.13848181, -0.036245383, 0.0892026, -0.22430396, 0.08205858, 0.05345408, -0.19003202, 0.13827294, 0.007252104, 0.3372014, -0.11647619, 0.03018446, 0.070616715, 0.46369419, -0.034205828, 0.056960683, 0.14099033, -0.117624775, 0.06342121, -0.06760574, 0.095406406, -0.08963376, 0.04758984, -0.02005877, 0.12107127, -0.01794606, 0.15069449, 0.044828802, -0.106923014, 0.22909391, -0.15050177, -0.003994793, 0.16672051, -0.45549688, -0.09073612, 0.0061671906, -0.126681, 0.19426884, -0.10406235, -0.078788094, 0.12515266, 0.08346576, 0.041915663, 0.084248416, -0.00093515706, 0.06140319, -0.13277948, -0.054806218, 0.097166196, -0.33166835, 0.14275572, -0.06152433, 0.016674927, 0.14952831, -0.044047415, 0.12376167, -0.056224283, 0.05956848, 0.006176365, -0.0023430192, -0.108835034, 0.24889037], "bias": [0.030969078, 0.04739059, 0.031215759, 0.00067301054]}, "conv2d_4_tf": {"name": "conv2d_4_tf", "type": "conv", "inputs": ["conv2d_3_tf", "conv2d_3_tf1"], "output": "conv2d_4_tf", "weights": [0.121588774, 0.0152531, 0.012332629, -0.046252593, 0.013538957, 0.045184836, -0.04164583, 0.024553351, -0.04476408, 0.08939756, 0.020898012, 0.024023585, -0.05772113, -0.026721414, 0.0019539096, 0.054320112, -0.08635734, -0.04744131, 0.29287273, -0.1459353, 0.21256831, -0.17745334, 0.06437222, 0.1524385, -0.04193758, -0.0004243952, -0.061849166, 0.045943458, -0.059729274, 0.008344327, -0.035330012, -0.18372016, 0.16614014, 0.1614133, 0.00847647, 0.1405085, 0.0884809, 0.0003815567, 0.12742603, -0.15826201, -0.024826718, -0.07167132, -0.023512248, 0.0021723188, -0.08422452, 0.06557204, 0.037474137, 0.10020383, 0.0075784903, 0.11699113, -0.07216086, 0.19092365, 0.112917334, 0.013009488, -0.112240955, 0.3070078, -0.049113493, 0.06026687, 0.14020115, 0.004928097, 0.1588268, -0.14363843, 0.08792994, 0.06222405, -0.25017524, 0.32083273, -0.038822826, -0.11652114, 0.082347415, 0.38810992, 0.17333703, -0.12491307, 0.04308055, -0.029525844, -0.071866706, 0.122052014, 0.022043627, -0.068334535, 0.061107136, -0.07151672, 0.09867217, 0.25076187, 0.06978893, -0.16808634, 0.14203224, -0.016999569, 0.08239002, 0.13745862, -0.302323, 0.0305686, 0.21671885, -0.12111769, 0.036557503, 0.19269179, -0.15447734, -0.088993244, -0.00282197, 0.18594503, -0.023422917, 0.066449635, 0.10330696, 0.038213108, -0.022547122, -0.124792024, 0.006186347, 0.027039183, -0.06722975, -0.027590334, -0.02907264, -0.15231684, -0.2387317, 0.016582772, 0.2113083, 0.15272237, 0.08642795, 0.060808666, 0.25241718, -0.2109339, 0.08445891, 0.22256099, -0.0015979673, -0.060712203, -0.15502334, -0.0017722689, 0.27922937, 0.24986811, -0.22848587, 0.34788153, 0.26076475, 0.22860925, 0.008043205, -0.015929414, 0.08464831, 0.08617831, -0.02233001, -0.0058338717, -0.10613627, -0.017691955, -0.1436846, 0.147298, 0.063804016, -0.0071311584, -0.099249795, 0.03940864, -0.09228052, -0.057233144, -0.017349431, -0.004966336, 0.03503442, 0.15981165, 0.02904321, 0.009165996, 0.041442815, -0.085434094, 0.052506614, -0.002192421, 0.03345241, -0.22548112, 0.26606014, -0.046111662, -0.019027703, -0.054498315, -0.037178226, -0.09636096, 0.02796757, 0.008763809, -0.025707558, -0.11326377, -0.01972097, 0.0059938338, 0.10717092, -0.020894244, -0.04243358, -0.087230325, 0.18514046, -0.3160455, -0.0011290476, 0.015198848, 0.038435243, -0.0048615644, 0.32102343, -0.023140421, 0.04902559, 0.2581001, -0.035971273, 0.07966518, 0.079657696, 0.012894177, -0.0022539217, -0.01616873, 0.12893924, 0.20660444, -0.052403565, -0.06457084, -0.061794985, 0.020388328, -0.08476569, 0.181165, 0.053407457, -0.4378818, 0.022412194, 0.009662951, -0.11550482, 0.11765617, -0.5877002, 0.52709603, 0.19003573, 0.15595998, -0.09421574, 0.020086335, 0.20222352, -0.016430097, -0.00096673047, -0.48532125, 0.047378514, 0.041734476, 0.11970193, -0.15726358, -0.07747877, -0.07421391, 0.003644435, 0.30077752, 0.6214798, -0.5205243, 0.039484542, -0.03485698, 0.1293901, 0.15417054, 0.28500634, 0.09008036, -0.011634542, -0.14361832, 0.13688166, -0.0048829764, 0.03937097, -0.1772148, -0.08754748, 0.017591845, 0.14285012, -0.13382752, -0.051088493, 0.012868207, -0.009462911, -0.067861035, -0.13868134, 0.034834635, 0.025430618, 0.19911987, 0.043949362, 0.09412537, 0.11094876, -0.023657128, -0.03961895, 0.19512835, -0.07649484, 0.25386816, -0.24494752, 0.042290755, -0.016266314, -0.1543655, -0.44097245, 0.16064614, -0.06584702, -0.27062678, 0.0681958, 0.003276321, -0.20440844, 0.0476324, -0.039774343, 0.0021472832, -0.29018062, 0.20608614, -0.24966319, -0.09976796, 0.09593149, -0.08486128, -0.025417415, 0.10464326, -0.05803236, -0.006829732, 0.058215022, 0.050015245, -0.09011416, 0.09543757, -0.062350634, 0.05633544, -0.007853284, 0.047690686, 0.023448449, 0.076435514, 0.06461578, 0.0502055, 0.019489927, -0.073824786, 0.0061133527, -0.114141025, 0.067537226, 0.06952418, 0.02149212, -0.030614324, 0.10431703, 0.018455533, 0.058670513, 0.018479835, 0.08907686, 0.34170985, -0.0449621, 0.16568549, -0.07209758, -0.004297861, -0.25493577, 0.123689614, 0.18649282, 0.08853306, 0.19027174, -0.16690211, 0.22597778, 0.16132994, 0.027429888, 0.10523169, 0.093098424, 0.15963784, -0.14670067, -0.14568467, 0.17974299, -0.21191946, 0.024432557, 0.15388276, 0.12948035, -0.07996037, 0.1400667, 0.23608395, 0.069933996, 0.045237135, -0.043604158, -0.24358094, 0.008752362, 0.12847239, 0.22207692, -0.0006065955, -0.038939122, 0.0032912968, 0.10327617, -0.060057677, 0.036063485, 0.055409648, -0.102599174, 0.033960354, 0.0030615309, -0.039457735, -0.11722766, -0.056535266, 0.13728999, 0.15508999, -0.10194213, -0.17471951, -0.055419046, 0.003018443, 0.029475598, -0.27495244, -0.09811395, -0.0034442418, 0.23655589, 0.038687214, 0.23933092, -0.12724367, -0.090415075, 0.06607294, 0.22138087, 0.022171883, 0.123639934, 0.12691161, 0.06979666, 0.044815443, -0.047956422, 0.10464712, -0.005549023, 0.021993062, 0.011571587, -0.20097919, 0.017749721, -0.01667066, -0.18412817, 0.3032756, -0.0066693225, -0.091057785, 0.038708284, -0.009847749, 0.030647293, -0.031688247, -0.0051747253, 0.22433378, 0.0890058, 0.106375694, 0.15695368, -0.009896077, 0.029811231, -0.01200955, 0.13025427, -0.06666515, -0.14763105, -0.25166592, 0.06413651, -0.040718436, -0.11948602, 0.03704636, -0.048269995, -0.023453053, -0.0075850063, 0.0565989, 0.20662135, -0.076454826, 0.027709993, 0.080454476, 0.09549317, -0.17212592, -0.045363985, -0.062935546, 0.038881883, -0.010320833, -0.011664266, -0.15919636, 0.092281565, 0.0503584, -0.06552277, 0.07496602, 0.031506658, -0.19829857, -0.1037889, -0.03502374, 0.06130017, 0.0774585, 0.1331436, -0.010708761, -0.059982024, -0.023392556, -0.07413885, -0.145916, -0.086005464, 0.09260929, -0.060531378, -0.035258144, 0.1488833, -0.13113627, -0.021154664, 0.0923395, 0.009298878, 0.045220327, 0.1748929, 0.14997171, 0.12518997, -0.21614711, -0.22666128, 0.060164727, 0.051057305, -0.121021226, 0.053383976, 0.110650785, 0.120588556, -0.04166243, 0.070161775, 0.16457282, -0.103001565, 0.2325587, 0.011412685, 0.076793574, -0.06574235, -0.050105102, -0.14452088, -0.029395035, 0.0044612847, -0.06087049, 0.14734684, -0.011788175, -0.08823514, 0.040526077, 0.006961177, -0.05406709, 0.00044416852, -0.16396126, 0.096277274, -0.05927781, -0.028100422, 0.08028292, -0.017883157, -0.13240404, -0.18908513, 0.028830346, 0.030266298, -0.21242668, 0.07667335, -0.26880366, -0.19619443, -0.027649922, -0.027781108, -0.1751549, 0.24193755, -0.3574925, -0.46879128, -0.05818504, 0.1729828, 0.078276716, -0.42340252, 0.26745623, 0.06908676, 0.12553133, -0.03870191, -0.17247124, -0.06254247, -0.09009033, -0.14689131, 0.1367381, 0.06882643, -0.11364969, -0.29619062, -0.14471412, -0.2874209, -0.03776017, 0.09506478, -0.116934836, 0.008044606, -0.23853862, 0.146966, -0.15354995, -0.11225152, -0.009065929, -0.0660424, 0.08552467, -0.001523061, -0.036083464, -0.02493156, 0.029655864, -0.019414954, 0.19599305, 0.040208068, -0.12451014, -0.010120149, -0.109770186, -0.3270559, 0.008347453, -0.063814245, -0.16060846, 0.04585775, 0.038074855, 0.063621305, 0.4262441, -0.16872911, -0.0046817046, 0.05830319, 0.16194926, -0.07705342, -0.11993538, 0.072909825, 0.007184993, 0.4538729, -0.2422247, -0.10371787, 0.021362688, 0.14025396, -0.20825493, 0.09355246, 0.015872182, -0.09571096, -0.075243995, -0.087525606, 0.087704584, 0.03579147, 0.05077506, 0.32634738, 0.074596986, 0.17308304, 0.07120117, 0.0020993454, -0.07577141, 0.010488526, 0.048089616], "bias": [-0.039091457, -0.101472214, -0.031267513, 8.059028e-05]}, "conv2d_4_tf1": {"name": "conv2d_4_tf1", "type": "conv", "inputs": ["conv2d_3_tf", "conv2d_3_tf1"], "output": "conv2d_4_tf1", "weights": [-0.14232288, -0.102422446, 0.23911493, 0.051726293, -0.07586356, 0.05110669, 0.11203655, 0.11931944, 0.006651544, -0.1058823, 0.11106625, -0.08846607, -0.10468576, 0.015016112, 0.25693092, 0.029002024, -0.25624967, -0.26275715, -0.00022393462, -0.12348131, -0.021811737, 0.31738785, 0.24496578, -0.11208723, 0.042735342, 0.016531767, -0.04801879, 0.10512814, -0.09153363, 0.05494175, -0.026263854, -0.051336776, 0.08014113, -0.028058205, 0.06051108, 0.11203477, 0.057279117, 0.02434288, -0.06032925, -0.069562785, -0.022911314, -0.08782755, -0.065504685, 0.01966361, 0.072734594, -0.050943602, -0.1683437, 0.15527712, -0.20712405, -0.33599716, -0.008087664, -0.042308602, -0.25131664, -0.11816632, 0.15841945, 0.20945983, 0.1146971, -0.22036512, -0.029895624, -0.17564812, -0.23667437, -0.3011681, -0.083123505, -0.07488786, 0.008243473, 0.11989544, -0.27050272, -0.21287927, 0.39308244, -0.34620088, 0.047882993, -0.4702186, 0.039600577, -0.10313683, 0.019545792, -0.34837544, -0.22528556, -0.020863827, -0.28503767, -0.073724784, 0.32200193, -0.11018058, 0.25260258, -0.14172351, -0.14640532, 0.023375243, -0.113458075, -0.15732889, 0.37083662, -0.09419175, -0.16841193, -0.041066036, -0.033564795, -0.06777764, 0.16719407, 0.01754724, 0.044922482, -0.2886897, 0.007856681, 0.14292127, 0.12464042, 0.06915498, 0.11421598, 0.13902594, 0.014912294, -0.08829554, -0.0454222, 0.05269707, 0.04652533, -0.2245239, -0.031503193, 0.35423964, 0.15270881, -0.3022821, 0.09841969, 0.03944825, 0.1563324, -0.028254976, 0.2648221, -0.026322756, -0.031472716, 0.004523714, 0.17604077, 0.13182944, 0.13745072, -0.017829385, 0.17086059, 0.075229526, 0.17056622, -0.07471642, 0.029374931, -0.074664496, -0.012995064, -0.11974261, -0.02296606, 0.07091878, -0.13760187, 0.017139504, 0.09996454, 0.1349959, -0.09240263, -0.13205971, -0.115182586, 0.10912223, -0.013643549, 0.05559557, -0.020386983, -0.04554785, 0.12984675, 0.11131387, 0.04754777, 0.025950426, 0.08441202, 0.012392047, 0.15535991, 0.11912665, 0.20241793, -0.043676738, -0.06868949, -0.29367143, -0.117840625, 0.05747115, -0.17759456, 0.15596545, -0.0113876425, -0.19315608, -0.015422546, 0.02144588, 0.011281172, -0.09062848, 0.03265906, -0.0060181646, 0.046709314, -0.19166248, 0.22936396, 0.20071921, -0.12704845, -0.017323168, -0.034186423, -0.009661693, 0.08534036, 0.13953961, 0.0847043, 0.3162276, 0.08202369, -0.050484944, 0.031424295, 0.081711635, -0.104408786, -0.18723914, 0.03761327, -0.11160856, -0.18499912, 0.10065063, -0.03971419, -0.14486888, 0.4306565, 0.056646228, 0.08142533, 0.18427546, 0.010749321, 0.009005223, 0.09960868, 0.13640666, 0.52240944, 0.20050293, 0.1941314, 0.346677, -0.106664576, 0.18607645, -0.29803494, 0.26902702, 0.15255302, -0.059632152, 0.28053203, -0.06102812, 0.014144507, 0.20564325, 0.16241062, -0.117554896, 0.32765096, 0.117934115, 0.12118886, 0.47069466, -0.27594024, 0.16968705, -0.16440918, -0.033847373, 0.09103544, -0.11627858, -0.0482815, 0.049287267, 0.121211976, -0.055826817, -0.023745105, 0.12261178, 0.040562034, -0.03265183, 0.18804123, 0.011904729, -0.0776107, -0.0820838, -0.035248775, -0.045852598, -0.022612145, -0.07052547, 0.062705144, -0.034488697, 0.10363702, 0.016617518, 0.19617634, -0.19220653, 0.13027821, -0.14290132, 0.05546691, -0.12610991, -0.11220946, 0.12424865, -0.167544, 0.0143166315, -0.40142637, 0.33280796, -0.21472242, -0.22223154, -0.0053474447, 0.047226634, 0.21458519, -0.040361, 0.117709085, -0.14059335, 0.02725325, 0.171307, -0.014889477, -0.18155184, -0.06303983, 0.0071628294, -0.115263216, 0.10271725, -0.08730269, -0.011302145, 0.024343077, 0.0018843556, -0.06334278, -0.051761232, -0.11957933, -0.08702827, -0.08612122, -0.12217983, 0.05775908, -0.088341944, -0.023097241, -0.04476462, 0.070975214, -0.023550594, 0.047510628, -0.19795638, 0.022594357, 0.090019085, 0.08300562, 0.07379328, -0.059668515, -0.20253675, -0.121340804, -0.031096626, 0.244561, -0.21130328, -0.22141072, 0.017845478, 0.1696694, 0.015827237, 0.09490531, -0.09971569, 0.027760869, -0.13911323, 0.1486447, -0.17039038, -0.043003555, -0.2012896, -0.109513946, 0.20633051, -0.07252391, -0.10789201, -0.15343595, -0.06909759, 0.028507063, 0.122349225, 0.178006, -0.049168687, 0.13796173, 0.14453167, 0.2239998, 0.019249499, -0.108479515, 0.010670783, 0.15025783, -0.046412803, 0.10342471, -0.043610014, 0.014154768, -0.20489474, -0.017244851, -0.13709159, 0.1491384, -0.3248735, -0.11271982, -0.1297431, 0.2010563, 0.065617554, 0.0042857523, -0.08213028, -0.053544268, -0.0012575387, -0.16861765, -0.23492727, 0.15588604, -0.027759302, -0.15901071, 0.14322032, -0.004593449, 0.43852794, 0.02628398, -0.08402368, -0.010741308, 0.1849229, 0.043902364, 0.054133374, 0.39947173, 0.13126993, -0.085702516, 0.052231554, -0.17439163, 0.0024870087, -0.07313626, 0.033645567, 0.09158035, -0.028034853, 0.12546138, -0.20745164, 0.24202335, 0.032245416, -0.48516583, 0.14943253, -0.12787597, 0.092334434, 0.0325441, -0.08244929, -0.035302825, 0.054794036, 0.037436537, -0.042694956, 0.08815415, 0.052705955, -0.01721444, -0.23569301, 0.077915, 0.139261, -0.018185526, -0.08340223, -0.14326021, -0.10507778, -0.06677238, 0.10129381, -0.15528429, -0.117793314, 0.20118405, -0.08291483, -0.014779839, -0.1289335, 0.20350821, -0.17976663, 0.07775593, 0.21002907, -0.21935116, -0.08528881, -0.09627502, -0.1046756, 0.05054621, -0.079444304, -0.033500206, -0.01108059, 0.059020877, -0.045803517, 0.0096694445, 0.00056117866, -0.26207268, 0.2506222, 0.12564869, -0.055188097, 0.04119516, -0.092008226, 0.10774958, 0.15463036, -0.12132065, 0.019697031, -0.1253992, 0.09672652, 0.0638869, 0.06513436, -0.016521694, 0.008861519, -0.007844036, -0.024223926, -0.27008605, -0.027209617, 0.1784247, 0.20697562, -0.021683324, 0.4401581, 0.10685917, 0.087684266, -0.28430593, 0.055731237, -0.18899558, -0.089270264, 0.065192945, 0.09579106, -0.016462004, 0.15233573, -0.17080516, -0.12315763, -0.17736438, 0.0062257, 0.10883916, -0.15799043, -0.06610343, 0.10565863, -0.2017077, 0.14338163, 0.022160674, -0.12775742, 0.019822598, -0.09621318, -0.15032898, 0.16209355, -0.12173018, 0.043330092, 0.041079335, 0.10420338, 0.034612346, 0.09417344, -0.10136646, -0.25042355, -0.27199885, 0.010333105, -0.09250116, 0.24589677, -0.057580046, 0.003572813, 0.3588931, -0.014108115, -0.26116318, 0.016875422, -0.023412226, 0.10946847, -0.1040323, 0.36206445, 0.15936193, 0.44616234, -0.09771559, -0.2801408, -0.25112975, 0.119585104, -0.1971514, -0.07790062, -0.18898599, 0.021931944, -0.12602928, 0.055252526, -0.0016394533, -0.14745075, -0.07701093, -0.29225072, -0.42189163, 0.08287655, -0.08776823, 0.16402923, 0.14061128, -0.072806336, 0.31339827, 0.08303733, -0.23904368, -0.14193727, -0.047775738, -0.02895899, -0.03871609, 0.011447673, -0.031594843, 0.02162041, -0.07691667, 0.14736836, -0.3084188, 0.17568369, 0.15151963, -0.019215088, 0.023622915, -0.18579048, -0.24620506, -0.067840636, -0.34912166, 0.26003376, 0.067094915, 0.08578664, 0.08111273, 0.076282725, -0.47952405, 0.10580026, -0.22216268, -0.21577828, 0.10773757, -0.15349127, 0.014091848, 0.17786312, 0.5331727, 0.30054635, 0.08418171, -0.13201505, -0.05173804, 0.06911041, 0.15184443, -0.19684772, 0.038318176, 0.06473755, -0.17865601, 0.19456296, 0.10372719, -0.04672402, 0.117346816, -0.047217865, -0.0709893, -0.015053981, 0.05998018, 0.048127003, 0.08619087, 0.12863256, 0.12901564, 0.08278108], "bias": [0.003117122, 0.030355524, -0.013679626, 0.0014354181]}, "conv2d_5_tf": {"name": "conv2d_5_tf", "type": "conv", "inputs": ["conv2d_4_tf", "conv2d_4_tf1"], "output": "conv2d_5_tf", "weights": [0.091328435, -0.2663935, 0.00010998565, -0.04772633, 0.11338293, -0.17933542, 0.17853725, -0.22933918, -0.06916616, -0.0794388, -0.09996105, -0.24207704, 0.254484, 0.36865363, 0.26057613, -0.042512108, 0.011640352, 0.18031336, 0.0029041779, -0.036218397, 0.061529756, -0.084949076, -0.23619008, 0.12854579, 0.25054577, 0.015874237, 0.2143718, -0.41206, 0.19374475, 0.26830822, 0.016055832, -0.17499857, -0.03763959, -0.07580137, 0.045188073, 0.0003445333, -0.15936828, 0.056825165, -0.08002115, -0.031075079, 0.31750882, -0.1339626, 0.19471557, -0.18488605, 0.20507954, 0.21403725, 0.21144967, -0.053110078, -0.2518512, -0.18646266, -0.27499822, 0.18898715, 0.14975101, -0.0885797, 0.17324631, 0.22114402, -0.14671098, -0.42668965, -0.19365096, 0.34283516, 0.3094268, 0.15169452, 0.25307253, 0.22336619, 0.19519214, -0.19673574, 0.1958895, 0.099265456, -0.0023680662, 0.034941465, -0.41013074, 0.61089754, -0.8219612, 0.2625897, -0.62564147, 0.2472719, -0.30893716, 0.18429528, 0.073080495, 0.11013941, 0.04621043, 0.05838316, -0.08087994, 0.15004416, -0.29734156, -0.34734312, 0.055981856, -0.10540262, 0.36905816, -0.08098623, 0.2571487, -0.12137068, 0.3194314, 0.09574176, 0.17172068, 0.022223176, -0.12683934, 0.055690646, 0.37719837, 0.14452751, 0.09327624, -0.12015985, -0.021063058, -0.14909466, 0.092198744, 0.15153486, 0.04383449, 0.2958274, 0.15733495, 0.2662547, 0.058939744, 0.034184538, -0.110852115, -0.27442783, -0.07174389, -0.14175238, 0.20294434, -0.11039685, 0.21848492, 0.031043513, -0.3256618, -0.031655926, -0.27471218, 0.2179862, 0.23516567, 0.22702773, 0.22053543, -0.13564394, -0.043421, -0.049730066, 0.016682321, -0.036145967, 0.02197572, -0.15610439, 0.10539035, -0.04552948, 0.12446222, -0.083850056, -0.16958424, 0.088572614, 0.29638138, 0.20806894, 0.1404312, -0.1930643, 0.029518798, -0.07308875, -0.026401903, -0.056215245, -0.044165358, 0.041976165, -0.15210319, -0.16659506, 0.19217941, 0.0079570655, 0.2771607, -0.0036688345, 0.05201004, -0.010182144, 0.032408398, 0.048782013, -0.03437292, -0.1162794, 0.035372734, -0.035013236, 0.09906207, -0.21309875, -0.025326448, -0.19430654, -0.14537501, -0.054154824, -0.03994719, 0.08341137, -0.15134472, 0.022328528, -0.0074540526, 0.431806, -0.08141831, -0.010174853, 0.063252866, -0.02019478, -0.1376696, -0.12486832, -0.11773864, -0.10575588, 0.14255768, 0.09793695, -0.053480756, -0.1424189, -0.057020612, 0.12878016, -0.22049262, -0.104051694, 0.032862935, -0.060570132, 0.12552135, -0.010405555, -0.19486573, -0.21385773, 0.007667431, 0.23230246, 0.17271568, 0.09212841, -0.29362008, -0.06445123, -0.08274439, -0.021886395, -0.09422147, -0.020540452, 0.029012563, 0.051244047, -0.17360689, 0.2341375, 0.25888136, 0.21069658, -0.045853134, 0.106774144, -0.104541056, -0.2620306, 0.06272481, 0.15681607, 0.43210834, -0.017149886, 0.07547641, -0.29952565, 0.044535216, 0.114061825, -0.085900985, 0.11034931, -0.12400526, -0.07984457, -0.03810068, 0.1393237, -0.09280844, -0.030057631, -0.04465918, 0.07435378, -0.059765678, -0.02937984, -0.13896881, 0.22241774, -0.051756777, -0.08995963, -0.04210127, -0.28051794, -0.17551571, -0.039713062, 0.15079145, 0.23286264, -0.017896434, 0.015943788, 0.11278476, 0.29200816, 0.0160727, -0.007152553, 0.017982207, 0.059768904, 0.07877704, -0.13933577, 0.143383, -0.08142691, 0.054237254, 0.08259757, 0.07605653, 0.036786918, 0.1756347, 0.20368823, -0.1547206, -0.074326284, -0.22779419, -0.13764466, -0.043342188, 0.12989269, -0.056649923, 0.034816325, 0.0023566454, 0.09073272, -0.08529421, -0.040584285, 0.08496195, 0.21606393, -0.013094139, 0.045865625, 0.086683765, -0.026889456, -0.01963809, -0.10223542, -0.06299658, -0.10614455, -0.11797684, 0.11108874, -0.0875016, 0.15963215, -0.014789401, 0.008199969, -0.18111081, 0.2074804, -0.053706393, 0.1293549, -0.07614511, 0.105915636, 0.21412043, 0.09935983, 0.14044495, -0.096708074, -0.025486665, -0.19878337, 0.053555857, 0.0941201, -0.108610824, -0.0011301902, 0.03944722, 0.0033783806, 0.08037984, 0.009177132, 0.017242288, 0.0429421, 0.10732875, -0.0025729882, 0.14452928, 0.015018669, -0.13217843, 0.12869641, -0.104634374, 0.11741955, -0.043563176, 0.030945411, 0.031210355, -0.0023122665, -0.12649007, -0.13516757, -0.0052792816, 0.048471916, 0.072400175, 0.003205591, 0.023138173, -0.059749167, -0.3213223, 0.07564815, 0.16482434, -0.39562628, -0.022947572, 0.079427995, -0.006688389, -0.1614197, 0.22290888, 0.3593302, 0.07440229, 0.004326265, 0.37483472, 0.49985301, -0.10856162, -0.13375719, 0.36895722, 0.044154413, -0.11208298, -0.17491591, 6.9658345e-05, 0.023410352, 0.13402803, -0.21329014, -0.03679988, -0.09701256, 0.19070598, -0.10280531, 0.43817717, 0.2928839, -0.08876161, -0.19353274, -0.017684663, -0.10414237, 0.07045385, -0.1690167, -0.03313537, 0.17615817, 0.009259346, -0.07639524, -0.11160792, 0.09518879, -0.046663933, 0.16446222, 0.040570207, 0.17204888, 0.078179486, -0.0010046214, -0.10633241, -0.12266272, -0.06374584, 0.07043869, -0.081609696, -0.09803388, -0.17688695, -0.00019569663, -0.22109836, -0.052090604, -0.23330404, -0.040484726, 0.15783481, 0.06426317, 0.18771759, -0.10487522, -0.008380269, 0.085949235, 0.051950216, 0.16509175, 0.0014809906, -0.05167123, -0.08111512, -0.020460691, 0.2840733, 0.041713323, 0.00090523064, -0.13110225, 0.17443547, 0.23115763, 0.039665513, 0.01935925, -0.0345895, 0.011335406, -0.05167474, 0.14023145, -0.037121147, -0.041406117, -0.014388645, -0.08147423, -0.13481104, 0.02929197, -0.032547284, -0.048083186, 0.12415039, 0.080787055, 0.19209546, 0.018490499, -0.05150287, -0.08629968, 0.08555908, -0.104111016, 0.038391765, -0.055835616, 0.00085943664, 0.06933733, -0.028390259, -0.07225197, -0.13264164, 0.2834454, -0.10087209, 0.11751385, -0.034374755, -0.21502982, -0.045687106, 0.022354683, -0.044646163, 0.1429653, -0.27000597, 0.2001915, -0.078361064, 0.0995709, -0.21573114, 0.028070405, 0.028757654, 0.21332388, 0.33051547, -0.005494988, 0.20409815, -0.06848428, 0.10195875, -0.052610826, -0.029846275, 0.057232864, 0.06462085, -0.037887827, 0.17498848, 0.02877355, -0.019312825, -0.21985324, -0.0012196872, -6.0982133e-05, -0.58083016, -0.12943774, 0.23496078, 0.20770085, 0.09630189, 0.0228441, -0.41629437, 0.18652023, 0.05277901, 0.14480539, -0.038786516, -0.22929342, -0.07806279, -0.16031773, 0.13920929, -0.43694726, 0.15525217, 0.16202086, -0.09841001, -0.23410496, -0.058089018, 0.030399537, -0.07009027, -0.25218722, -0.16896398, -0.126255, -0.033513527, 0.054284878, 0.11600992, 0.2485646, -0.29774222, -0.5477248, -0.2253676, -0.11886277, 0.101653926, 0.617623, 0.20773816, -0.11692032, 0.061714616, -0.17351843, 0.07366022, -0.021207064, 0.18343957, 0.000999283, 0.022086993, -0.10122848, 0.045067135, -0.010675393, -0.07262474, 0.18772787, -0.3223285, -0.25626987, 0.13685744, -0.034106635, -0.10797758, 0.27408797, 0.027316615, 0.06529376, -0.100837186, 0.017555136, -0.050638102, -0.17026828, 0.028834395, 0.1598, 0.015134322, -0.06261502, -0.15959434, -0.21374781, -0.2146639, 0.02231252, -0.01399968, 0.45887834, -0.38085455, -0.12793477, -0.1968831, 0.35494512, -0.15534063, -0.22900403, 0.070999786, 0.09083526, 0.55595404, -0.03241415, 0.13061069, -0.567271, 0.10447227, -0.12983152, -0.09328733, 0.13824752, 0.006980157, -0.024333078, -0.1668922, -0.01385865, -0.074364156, -0.07271728, -0.106649294, -0.09878072, -0.12617426, -0.13344803, 0.18412812, -0.06863739], "bias": [-0.08419231, -0.058838777, -0.016381443, 0.03699277]}, "conv2d_5_tf1": {"name": "conv2d_5_tf1", "type": "conv", "inputs": ["conv2d_4_tf", "conv2d_4_tf1"], "output": "conv2d_5_tf1", "weights": [-0.2890711, -0.0173394, -0.047881115, 0.0605442, -0.071155414, 0.02202277, 0.06860239, 0.16941316, -0.09655387, -0.16976349, -0.26433992, -0.11081812, 0.07238629, -0.040668648, 0.08979096, -0.0970967, 0.04317075, -0.01030368, -0.13491961, 0.12169479, 0.08606799, 0.0323382, -0.101423696, -0.40679824, 0.051586274, 0.07457455, -0.3061717, -0.2879494, 0.034456044, -0.07658861, -0.042723235, -0.008673214, -0.1336329, -0.049510647, -0.15914272, 0.30797687, 0.027695796, 0.063430406, 0.23946446, -0.09653273, 0.02521207, -0.18623495, 0.012805445, 0.03237773, 0.012216809, 0.01911872, 0.05822344, 0.061327033, 0.033051945, -0.27685514, 0.18336396, -0.036114447, 0.14355308, -0.31117308, 0.15456097, 0.042093176, 0.3372634, 0.015844008, -0.21473281, -0.0038856135, -0.03876602, 0.06475157, -0.04537088, 0.07547381, -0.27514622, -0.1557977, 0.007800817, -0.18833768, 0.40769744, -0.6162249, 0.24429092, -0.44087282, 0.32911083, 0.70571846, 0.38234133, 0.098800726, -0.25526193, 0.28225216, -0.22570111, 0.101945534, -0.013798638, 0.009382799, 0.048065104, -0.039018836, -0.093524836, -0.20266066, 0.48263708, -0.29844505, 0.13907531, -0.3189136, 0.3008603, -0.13548376, 0.1395633, 0.068635695, 0.053487483, -0.14092489, 0.101109825, -0.009953429, 0.20395978, -0.005111962, -0.07256608, -0.08232096, -0.03135238, -0.07734339, 0.030836744, 0.042637054, -0.06634192, -0.0017256333, 0.018111423, -0.03747799, -0.053587224, 0.009681801, 0.379727, 0.03033067, 0.14658858, -0.24584565, -0.20749597, 0.1091149, -0.09893132, -0.15505537, -0.42275062, -0.022075385, 0.23861103, -0.080896884, -0.011377045, 0.095724195, 0.00963728, 0.35727692, 0.08478427, 0.009230859, -0.108650304, -0.061133113, -0.10060552, -0.19329816, 0.13529511, 0.020414257, -0.17343256, -0.23028766, 0.07046826, -0.021371284, -0.013759596, 0.095902964, 0.14428695, -0.0017351646, -0.1326737, 0.14633612, -0.27499175, 0.029726328, 0.0352042, 0.051620547, 0.01497345, -0.11030376, 0.12398952, 0.18866713, -0.09641393, -0.057247438, -0.049872976, 0.12772478, -0.03873238, 0.17018251, -0.06332979, 0.013995102, -0.062069025, 0.24283893, 0.009226325, 0.021730179, -0.22578737, -0.24764858, -0.099249855, 0.019913448, 0.24953587, 0.15847468, 0.09609952, -0.08016063, 0.22784604, 0.06757414, -0.063055694, 0.01882269, -0.076317914, 0.17586996, 0.08794264, 0.17391258, 0.23768258, -0.019795515, -0.05630491, 0.16976015, 0.10634094, -0.12326123, -0.20276555, -0.02520474, -0.1087883, 0.010258325, -0.07821237, 0.118811935, -0.31598517, 0.0751693, 0.07704722, -0.032690052, -0.021156663, 0.06413958, 0.064700514, 0.1971864, 0.27281237, 0.11800236, 0.07173904, -0.0737132, 0.1575826, -0.047967955, -0.12927924, -0.01721998, 0.19739823, -0.30451384, 0.026222972, 0.2278566, -0.04739142, 0.20537536, 0.27598023, -0.47685403, 0.25698453, 0.033898123, -0.050984543, 0.08648658, -0.14997981, 0.1167368, 0.014981507, -0.25490108, 0.14622921, -0.2503122, -0.10254746, 0.040607553, 0.19752027, -0.06579548, 0.12609036, 0.21314172, -0.020299967, -0.05180922, 0.18999404, -0.02993385, -0.02791236, -0.121260025, -0.120699525, 0.0365705, -0.164047, 0.057097964, -0.033808626, 0.06315383, -0.027488025, -0.12843513, 0.09012176, -0.09888442, 0.13584764, 0.13767155, 0.11613657, -0.011641692, -0.032082513, -0.016433533, -0.010416851, 0.2113878, 0.05573185, 0.1336416, -0.013044866, 0.10028063, 0.11568582, 0.1617968, 0.023070145, -0.13579255, -0.11911712, -0.06283315, 0.10103877, -0.12542799, -0.03940449, 0.03117477, 0.04145766, 0.11017201, -0.18392734, -0.10676001, 0.10228737, 0.1104124, 0.028331075, 0.026047029, -0.014832865, 0.0045821643, 0.032548442, 0.2708185, -0.041217636, -0.09062152, 0.03830816, -0.042290762, 0.0869018, -0.04054257, 0.09240846, 0.005662294, -0.019115893, 0.14322212, 0.045007963, 0.07625181, 0.04525603, -0.106739186, 0.025605418, 0.029673964, 0.012650934, 0.042371746, -0.03306502, 0.011671087, -0.17632823, 0.11780304, -0.03731344, -0.115889564, 0.004200065, -0.06220544, 0.1606425, -0.27302098, -0.0494881, -0.245041, -0.040931426, 0.090368345, 0.0030519476, -0.0087029, -0.10394532, 0.020679213, 0.13028109, 0.06381419, -0.15845138, -0.06714411, -0.04643259, -0.20011303, 0.10494127, -0.016151255, 0.007451309, -0.09320991, -0.046972048, 0.08502254, 0.038682982, -0.07382182, -0.0019597476, -0.055185802, -0.022187497, -0.14233223, -0.14452828, -0.082555056, 0.04981001, 0.21724561, 0.031655222, -0.06820497, -0.33373332, 0.1441738, 0.122581765, -0.07550452, -0.10574801, 0.19275476, 0.06576681, -0.042658895, 0.002607721, -0.006826226, 0.09083289, -0.03855371, 0.114837795, 0.1636555, -0.030895941, 0.0647767, -0.24304262, 0.17331214, -0.14218575, 0.41564786, 0.15481544, 0.0061316676, 0.03406009, 0.09709371, -0.054807883, -0.12981285, -0.15280195, -0.023803266, -0.0032496909, -0.06890652, 0.020610316, -0.073408514, -0.06488425, 0.117801614, 0.09968592, -0.2020378, -0.07732411, -0.03049494, 0.078676276, -0.0025208443, -0.07345854, 0.067413114, -0.08503983, 0.018958341, -0.011171053, 0.060562726, 0.12741865, -0.11484229, -0.061640516, 0.019757273, -0.013223577, 0.101352274, 0.008445444, -0.10281256, 0.1337747, 0.01931932, -0.27119908, 0.10114295, 0.043662593, -0.297324, 0.041038662, 0.031825118, -0.054722782, -0.070729345, 0.18797368, -0.14557736, -0.16961765, 0.41309142, 0.08767129, -0.108310506, -0.18726005, 0.033562537, -0.031117575, -0.0356803, -0.03300222, 0.042829324, -0.03584191, 0.04773426, 0.042301405, 0.00345527, 0.074101105, 0.096354805, -0.042314056, 0.085691065, 0.0054648495, -0.0450924, 0.025914567, 0.084722504, 0.06673408, -0.033185437, -0.05108791, 0.037383277, 0.062231544, 0.05075674, 0.106497474, -0.04152277, -0.015724985, -0.012924434, 0.16033122, -0.056830864, 0.14675254, -0.12026421, -0.005067957, -0.29214704, -0.16211878, 0.22230539, -0.25443488, -0.04647189, 0.089457765, 0.06444563, 0.23378475, 0.25770012, 0.08823234, 0.19506395, -0.0055976287, -0.041533995, 0.2681853, 0.040954296, -0.025598165, -0.11148688, -0.010525117, -0.07320718, -0.17027836, 0.018457359, -0.014066179, -0.16435091, 0.004236247, -0.06313782, 0.0628757, -0.19748981, -0.11676484, -0.012332068, 0.5267621, 0.5502058, 0.2686855, -0.032525666, 0.03343102, 0.09101632, -0.085508265, -0.08575073, 0.026988357, -0.031887, -0.03505841, -0.111574106, 0.10643731, 0.032982357, -0.0037191971, 0.0080102505, -0.049204595, 0.029590555, -0.2939277, -0.2567673, -0.06680654, -0.34938994, -0.39781174, 0.06864108, 0.30197692, 0.16452394, 0.12953103, -0.15720958, -0.2850852, -0.12136165, -0.092033885, -0.05071916, 0.20085086, -0.6152278, 0.096144736, -0.7093735, 0.0046209325, -0.11526167, -0.112267315, -0.053981286, 0.23637052, -0.06362121, 0.08976347, 0.008210558, 0.052141182, 0.040087253, 0.21785381, -0.19115646, 0.12777926, 0.37957844, 0.02180378, -0.041376974, 0.1567812, -0.07239694, -0.14041394, 0.052823853, 0.062256362, -0.042879567, 0.0647167, -0.028368456, -0.19213599, 0.002130947, -0.27008346, 0.011827442, -0.1281671, 0.023530083, 0.13716803, 0.055190787, -0.19648333, -0.2079335, -0.2472982, -0.12777069, 0.18752015, -0.12952629, 0.07128557, -0.094887115, -0.08883158, 0.26906538, 0.20614816, -0.050727133, 0.46051058, 0.19404592, -0.067279615, 0.48486403, -0.048533335, -0.13332899, -0.12005935, 0.02289588, 0.18098171, -0.16468595, 0.21345408, -0.10249754, 0.10165347, -0.13783835, 0.036204632, -0.052760612, 0.4297354, 0.36382744, 0.14540939, 0.44279906], "bias": [-0.012537739, 0.031951625, 0.017541373, 0.012111133]}, "conv2d_6_tf": {"name": "conv2d_6_tf", "type": "conv", "inputs": ["conv2d_5_tf", "conv2d_5_tf1"], "output": "conv2d_6_tf", "weights": [-0.062189024, 0.021347115, 0.018192923, 0.084803484, -0.045333195, -0.024258535, 0.050355587, -0.0042622187, -0.0133980485, 0.036785923, 0.107850105, 0.1410702, 0.085103504, -0.0461705, -0.10495693, -0.06721276, -0.11858087, 0.016231416, -0.12138481, 0.24438228, 0.14234637, -0.08014073, -0.2571041, -0.10342549, -0.08898357, 0.15318564, 0.2396281, 0.049219076, 0.030761847, 0.026517458, -0.08601776, 0.09015291, -0.05555385, 0.030085843, -0.024398413, -0.05465893, -0.009251703, -0.04756473, -0.031971272, -0.1573659, 0.29099306, -0.14013918, 0.11319622, 0.02088553, 0.011616971, -0.0409279, -0.03076288, -0.1477281, -0.46304646, 0.15340738, 0.16541192, -0.19572699, 0.24076562, -0.0463493, -0.09373947, 0.05323875, 0.29563433, 0.0581454, -0.046460085, -0.2294414, 0.0042361496, 0.04647663, 0.009311162, 0.024502585, -0.0106489565, -0.089252524, 0.19623584, 0.30326325, 0.11296264, 0.20559832, -0.02375689, -0.053486217, 0.0056802984, 0.05241025, -0.6415624, 0.105837554, 0.19031401, -0.22210006, 0.07815479, -0.19812697, -0.29611674, -0.013906634, 0.010513967, -0.4556307, 0.12749067, -0.07614507, -0.060692947, -0.013393769, 0.18732148, 0.17100704, -0.5246124, -0.15160356, -0.011291784, 0.035837594, 0.017283656, -0.036603212, -0.11937342, -0.08560321, 0.09607395, 0.054751974, 0.2123331, 0.017719299, -0.027343808, 0.06616822, -0.08083767, -0.13023838, -0.15556563, -0.20130865, 0.026946835, -0.03210023, -0.078521326, 0.03776967, -0.005135741, 0.24951585, -0.43303448, 0.2383748, -0.14185743, -0.12725392, 0.009039647, -0.0065621207, 0.28312787, 0.21809512, 0.09090009, 0.063553706, -0.09896931, 0.033889294, -0.01738696, -0.055484522, -0.043494496, -0.050966818, 0.22879282, -0.07390627, -0.072680876, 0.07041044, -0.11650674, 0.08732151, -0.08511812, -0.01616725, 0.28476492, -0.15422715, 0.11924655, -0.06497869, 0.02779961, 0.035415817, 0.04158519, -0.014895364, -0.022384642, -0.21886049, -0.17858551, 0.06557643, 0.1600597, -0.040526327, 0.009428922, -0.0627395, -0.14491501, -0.025298981, 0.17169827, -0.09168814, -0.19657731, -0.17726755, -0.015263577, 0.07154871, 0.10652846, 0.22104451, -0.075176015, -0.04108624, 0.08728093, -0.021410191, 0.0046789916, 0.064793125, 0.032535817, 0.072215214, -0.10102593, -0.034053594, -0.019790836, -0.07756265, 0.045639873, -0.029050699, -0.02229216, -0.19696227, 0.04223769, 0.028444234, -0.014035494, 0.15929197, -0.100980036, 0.034686342, 0.08999733, 0.09183481, 0.09807515, -0.006229784, -0.069233365, 0.05612417, 0.011047352, -0.051942796, -0.015862687, -0.2753766, -0.25217894, -0.14764386, -0.057457734, -0.17834206, 0.050414566, 0.057345457, -0.023802634, 0.13399298, 0.15912223, -0.019009084, -0.13871731, 0.14384298, 0.26968867, -0.038880914, -0.1705357, 0.19326614, 0.29927498, 0.075629085, 0.10788423, 0.14880544, -0.14210029, 0.020075647, -0.03331458, -0.3643186, -0.41409945, 0.0669764, -0.24652435, -0.1733543, -0.030739417, -0.037199385, -0.041924004, -0.22522002, 0.12984052, -0.018560508, -0.07672316, -0.034482595, 0.033711653, 0.030206826, 0.11734352, 0.28536987, 0.095000915, -0.08706924, -0.035588976, 0.1611972, 0.10380332, -0.010562616, -0.049877953, -0.04014546, 0.0028870923, -0.005083383, -0.026838135, -0.19000547, -0.10095824, 0.0033966212, 0.11943849, -0.0062272563, -0.02545362, -0.028362341, -0.1061032, -0.0797465, 0.1797062, 0.00540445, 0.107039765, 0.119791895, 0.2657832, -0.12348564, -0.043483157, -0.07450916, -0.12698038, 0.01975529, -0.18906347, -0.045436423, -0.04471519, -0.039962705, -0.062798604, -0.06763991, -0.07735263, 0.00032325424, 0.099286355, -0.16222158, 0.07832273, -0.031610254, -0.08711952, -0.13389695, 0.099476516, 0.032296795, -0.11132003, 0.09502782, 0.21362369, -0.044639546, -0.20246291, 0.037312914, 0.038030904, -0.029558329, -0.01975484, -0.050911684, -0.15750773, 0.115695566, 0.21779498, -0.043310527, 0.16506866, -0.08021039, -0.1993133, -0.086963445, -0.014213261, -0.027542474, -0.109351076, 0.0075899893, 0.012612415, -0.001039969, -0.075568885, -0.023728445, 0.10726473, 0.0067869416, 0.09818638, 0.491329, -0.008052174, -0.059971612, -0.111930005, -0.28064987, 0.03184453, -0.17692547, -0.76217103, -0.24267925, 0.041593015, -0.08167817, -0.04322262, -0.03232207, -0.27444443, 0.12730998, -0.08053824, -0.28243738, 0.075811245, -0.017911823, -0.063469894, 0.10952548, -0.054939076, 0.041043904, -0.26531923, -0.08836566, 0.07436109, -0.08457341, -0.04193768, -0.02375571, -0.29640707, -0.03414869, -0.081308335, 0.12863407, -0.07837705, 0.06000209, 0.080184944, 0.006859499, 0.02997436, 0.10828971, 0.3648637, -0.112667605, -0.007650093, -0.022052955, -0.33239844, -0.017813133, 0.07709056, 0.4110496, 0.26996094, 0.06031679, -0.017442936, -0.09523185, -0.08177452, -0.027271226, -0.17276843, 0.3696329, 0.08312623, 0.16675253, -0.12156712, 0.05891193, 0.017126136, 0.20255157, 0.2999854, -0.206591, 0.23027954, -0.29795498, 0.018077143, 0.032000836, -0.20117281, -0.0065504503, 0.17873055, -0.104865514, 0.5114371, -0.10547454, 0.12732808, -0.0057476712, -0.13149983, -0.137894, 0.12882535, 0.06697957, 0.2459335, 0.26689568, -0.11417532, -0.028568432, -0.01562833, -0.094135985, -0.080331124, -0.06466173, -0.14989509, -0.21634102, -0.08321571, -0.13398409, -0.051572736, -0.018052088, -0.31170118, 0.014735683, 0.054078765, -0.16623059, 0.08807547, 0.10373524, 0.015543198, 0.1356752, 0.060570166, -0.20706499, -0.65871304, -0.13034904, -0.101598874, 0.06633865, 0.08230948, 0.18690647, 0.1643791, 0.026136814, -0.26378617, 0.06217146, 0.053110003, -0.10403164, 0.008036703, -0.09842764, -0.051379234, 0.100651145, -0.33236206, 0.04633348, 0.12979554, -0.046887632, -0.09922896, -0.032760605, -0.0035836748, -0.057560846, -0.057679866, -0.005455177, 0.11716706, -0.15339893, -0.21859302, 0.11820568, 0.029220778, -0.0410464, -0.05730417, 0.016249117, -0.014645798, 0.09699733, 0.19998401, -0.5559478, -0.010633212, 0.08139097, -0.14490142, 0.28220487, -0.3212566, 0.084293365, -0.2256238, -0.10488434, 0.20567797, -0.037560932, -0.18923491, -0.4222024, 0.29900697, -0.17730486, -0.18828245, 0.078263, -0.060636993, -0.042807948, -0.005238352, -0.0114554735, 0.18165286, -0.084844485, -0.194763, -0.06693121, 0.06630341, -0.06424894, -0.058290556, -0.0012570575, 0.12328596, -0.027369123, -0.14547484, -0.0006376003, 0.23165886, 0.107456535, 0.014483118, 0.08994922, 0.60706204, -0.03287986, -0.32599148, 0.12172954, -0.1173519, 0.07673033, 0.11177471, -0.10036672, -0.1244351, 0.028163416, 0.114923, -0.021410681, -0.2873378, -0.29242846, -0.2941688, 0.098341405, -0.53257996, 0.33703882, -0.19205676, 0.053883344, 0.4818893, -0.3106834, 0.19315019, -0.39442, 0.192193, 0.1762988, -0.47536564, -0.120270155, -0.019741317, 0.032108042, -0.011221835, 0.04722415, 0.3558138, -0.123439, -0.4408202, 0.0661923, 0.045992844, 0.093400545, -0.096586876, 0.080742285, 0.056919344, -0.014509547, -0.022218766, -0.07685344, -0.07630182, -0.05136752, -0.052366406, 0.050659478, 0.1020558, 0.07904956, -0.003938536, 0.07369877, 0.18106882, -0.05207454, -0.041566603, 0.03737957, 0.27894443, 0.05513577, 0.07557415, -0.11180105, -0.08611518, 0.13852486, -0.13400798, 0.155476, -0.22907078, -0.093963906, -0.1510788, 0.061337918, 0.031680375, 0.039996296, 0.022007788, -0.11407128, 0.17654876, -0.17958009, 0.03644479, -0.29733562, -0.09862878, 0.008623554, -0.046270195, -0.0077920374, 0.031593848, 0.110777296, 0.047387246, 0.070482075, -0.03214564, -0.0016408872, 0.1564986, -0.05244245], "bias": [0.017664133, -0.029889554, -0.015426697, -0.011352422]}, "conv2d_6_tf1": {"name": "conv2d_6_tf1", "type": "conv", "inputs": ["conv2d_5_tf", "conv2d_5_tf1"], "output": "conv2d_6_tf1", "weights": [-0.03820573, 0.047052175, 0.17116119, 0.0641257, -0.07929091, -0.044502094, -0.0010062029, 0.008033336, 0.064336605, 0.025087245, -0.048140567, -0.10630651, -0.04167033, -0.013131337, -0.05064014, -0.046421785, 0.12093676, 0.20836385, 0.10872211, -0.067505024, 0.08768958, -0.19580199, -0.13639927, -0.13052352, -0.01290625, -0.3039523, -0.26886684, 0.35014728, -0.17191963, 0.0444692, 0.02487102, -0.03291327, 0.047390573, -0.0688272, -0.16195501, 0.21279594, -0.06568288, -0.08788586, 0.04239342, -0.21591638, -0.017173847, 0.09070255, 0.20214991, -0.03154952, -0.034392715, 0.083050676, -0.14953615, 0.13944888, -0.26556185, 0.0014520364, 0.112071835, 0.08330828, -0.37621948, 0.055273432, -0.17005222, -0.11575326, 0.2646477, 0.11417402, 0.14535846, 0.06836946, -0.090244256, 0.09811218, -0.114731446, 0.05814971, -0.09602277, -0.38416186, -0.20894426, -0.45050108, -0.31242725, 0.08530591, 0.3098568, -0.12589833, 0.30684295, 0.21010432, -0.20349866, 0.0823412, 0.0052059283, -0.1400759, 0.11600989, -0.11380767, -0.26147118, -0.11921715, 0.017866429, -0.34874454, 0.14953393, 0.053844247, -0.06905495, 0.40067226, 0.364426, 0.25069898, -0.07039559, -0.026045805, -0.0021616318, -0.02702699, -0.1560618, -0.056501407, -0.026114749, -0.094139315, 0.15763319, -0.116945766, -0.18833591, -0.108068675, -0.23292403, 0.0133659225, 0.045335278, 0.123834595, -0.19185486, 0.04491435, 0.11274258, -0.04379667, -0.07404123, 0.0046168678, -0.09662958, 0.0095190145, 0.026482042, 0.20894456, -0.16059183, 0.11892382, 0.056591325, -0.18232033, -0.15404491, 0.3326243, 0.022473916, 0.012953041, 0.0061385385, -0.11577087, 0.1271501, 0.12755267, -0.11287565, -0.02819202, 0.0050021727, -0.12892249, -0.17135334, 0.113436244, -0.045836613, 0.04871735, -0.13250299, 0.022404, 0.10127679, -0.017830558, -0.11413834, -0.11435285, -0.2040226, -0.041650593, -0.106229, 0.03657744, -0.23403974, -0.12498122, -0.034424316, -0.12522006, 0.073958196, 0.089749604, -0.0022835506, 0.004891032, -0.024361046, 0.23195961, -0.53680277, -0.123560086, -0.08975809, 0.23343398, -0.08947438, 0.16787568, 0.23436986, 0.16465656, -0.10748105, -0.00581571, -0.019460397, 0.15949152, 0.074130766, 0.09417387, 0.06858678, -0.19341356, -0.38552892, 0.07539985, 0.33856028, 0.19545655, -0.116379425, 0.043217745, -0.1426359, 0.008482754, 0.053529553, 0.008214077, -0.17299904, -0.044204324, -2.3944014e-05, 0.035035785, 0.0842722, 0.15008387, -0.55650723, -0.050965536, -0.106557615, 0.17867972, -0.025825795, 0.031677462, -0.2931292, -0.0209557, 0.11882455, 0.013849757, 0.12438266, 0.061829463, -0.0029562188, 0.06682638, -0.015884228, -0.11422352, 0.020035086, 0.040360745, -0.02626817, 0.073831946, 0.053179663, 0.09779277, 0.25430006, 0.060458902, 0.25764295, 0.14439408, -0.21927258, 0.06836431, -0.22748502, -0.26638296, 0.1429325, -0.20856039, 0.16655694, -0.0077973744, 0.2780053, 0.07435598, 0.0075888135, 0.08816369, -0.11036258, -0.18555035, 0.13995732, 0.0275464, 0.008299062, -0.021820463, 0.07892166, -0.01274013, -0.11251454, 0.06779178, -0.0039644316, -0.21602972, -0.27736866, -0.004462057, -0.27036336, 0.072424956, -0.27303466, -0.006154085, -0.087408505, -0.020178827, -0.05644794, 0.17611429, 0.034481235, 0.008859972, 0.051443048, -0.07156124, 0.005753763, -0.108225614, 0.024060909, 0.013939274, -0.20651756, -0.063897416, 0.045340832, -0.26806122, -0.14716318, -0.13293006, -0.24552323, 0.015063937, 0.18528134, 0.15991136, 0.018268496, 0.24457256, 0.0777531, -0.1256114, 0.15329131, 0.15898815, -0.106399275, -0.08706818, 0.09344817, -0.06548955, -0.19721231, -0.045532532, -0.017754072, 0.15308267, 0.13389921, 0.07852654, 0.018674977, -0.18652517, -0.06368072, -0.020967387, -0.32368022, -0.02268826, 0.0492441, -0.114668325, -0.11246048, -0.03908485, 0.04763731, 0.0923487, 0.1436785, 0.05363781, -0.09802109, -0.010839233, -0.14839134, 0.017858483, 0.047784574, 0.14732249, -0.07696089, -0.080797076, -0.08610763, -0.301689, 0.027828626, -0.13018826, 0.29899672, 0.37410465, 0.07676525, -0.057786815, -0.14704126, -0.041933663, 0.24315996, 0.14949897, -0.131458, 0.16004626, -0.29156408, -0.41460896, -0.066628136, -0.06500298, 0.33771035, -0.04186138, 0.25574282, 0.3117759, -0.15800856, -0.28558695, -0.23791443, -0.10786203, -0.34960005, 0.17577748, 0.10615286, -0.057717532, 0.073436216, -0.27150792, -0.21088497, 0.029541563, -0.18854867, 0.053509228, 0.11178083, -0.1529092, 0.14333975, -0.05718119, 0.032193135, -0.03303597, -0.06860363, 0.09457617, 0.0024124384, 0.12987731, 0.11479764, 0.05541084, -0.24514331, 0.17157966, 0.26392546, 0.11576947, -0.12985376, -0.5538562, -0.1961783, -0.011819887, 0.08446715, 0.29034385, 0.20868924, 0.018616948, 0.31146517, -0.15936778, -0.30353102, -0.5120256, -0.013342302, -0.013693207, 0.06065661, 0.062437385, -0.39258447, -0.27169457, 0.03575981, -0.3944027, 0.14705467, 0.026691522, -0.21884592, 0.20433156, -0.2008796, 0.35295686, 0.15205278, 0.113682896, 0.10219095, 0.011344385, -0.20135157, -0.07838251, -0.11553874, 0.007010649, 0.14463437, -0.104290694, 0.07199488, 0.030221142, 0.15072604, 0.0029829904, 0.09848403, 0.15334338, 0.06596673, -0.018051118, 0.15862879, 0.03846961, 0.22488154, -0.11960844, -0.08406624, 0.06772932, -0.12324329, -0.13184616, -0.057599463, -0.03095238, -0.10134337, 0.24368379, 0.1552288, 0.11689032, -0.117997885, -0.17840184, 0.13833563, -0.04303381, 0.12885283, 0.09539655, 0.10412097, 0.06297106, -0.015940454, 0.085719146, -0.026340967, -0.036850963, -0.14491625, 0.002341741, -0.0025770515, 0.14367715, 0.09011608, 0.019342221, 0.038807757, 0.020303365, -0.09300421, -0.014823382, -0.07308823, -0.022471623, 0.103626125, 0.07483089, -0.04617414, -0.05941111, 0.026240014, 0.019539714, 0.092860565, -0.050701305, -0.0039549326, -0.21209192, -0.0016221434, -0.05285371, -0.21443522, 0.17624559, 0.09199873, -0.051431067, -0.13124822, -0.25219163, -0.053976074, -0.2017535, 0.23558733, -0.2693886, -0.09537918, -0.05571375, -0.1776987, -0.17786953, 0.04432185, -0.06148579, 0.07136185, 0.21643205, -0.0554581, -0.01859862, 0.07679384, 0.13834634, -0.031998284, -0.025044724, -0.2429936, -0.08791029, 0.0050725904, -0.12561503, 0.08328996, -0.047909845, 0.040918965, -0.0028876287, 0.0843994, -0.05025896, 0.04169544, 0.018615915, 0.08587807, 0.099265635, 0.053313725, -0.17863743, -0.12082795, -0.057363316, -0.0062713427, -0.25572288, -0.09336034, -0.07943846, 0.109188855, 0.2672044, -0.4208169, 0.19734508, -0.3418023, -0.25813222, 0.14314085, -0.6146492, 0.070633575, 0.04675255, 0.31150383, 0.2534036, -0.07520705, -0.32577342, 0.08886463, 0.0019722695, -0.094046645, 0.12513578, 0.024261957, -0.04551142, -0.065823525, -0.047810566, -0.061790198, 0.08148307, -0.042009894, 0.008356719, 0.06018002, 0.34073368, -0.013158975, 0.08912696, -0.036959276, 0.0066623883, 0.0073647513, -0.12076568, 0.03628408, 0.03610029, 0.30398944, 0.112790234, 0.05913171, -0.20075504, -0.18764837, 0.06368375, -0.28112814, 0.0021503696, -0.08737267, 0.030442504, -0.10457362, 0.037126757, -0.06102087, -0.20703818, -0.071480826, 0.18656783, 0.285568, 0.16704753, -0.01874169, -0.2815903, -0.0970271, 0.107042015, 0.098870955, -0.17612861, -0.18276253, 0.12988026, -0.02250343, -0.13112903, 0.076252654, -0.02023087, -0.10401713, -0.07492984, 0.2026977, 0.12182922, -0.021829598, -0.037963957, -0.018955456, -0.03719302, 0.024138646, -0.098778315, -0.16715777, 0.059074316, -0.025824727, 0.15010907], "bias": [-0.0023485757, -0.036755364, -0.031209989, -0.004138591]}, "conv2d_last_tf": {"name": "conv2d_last_tf", "type": "conv", "inputs": ["conv2d_tf", "conv2d_tf1", "conv2d_1_tf", "conv2d_1_tf1", "conv2d_2_tf", "conv2d_2_tf1", "conv2d_3_tf", "conv2d_3_tf1", "conv2d_4_tf", "conv2d_4_tf1", "conv2d_5_tf", "conv2d_5_tf1", "conv2d_6_tf", "conv2d_6_tf1"], "output": "conv2d_last_tf", "weights": [-0.04238634, 0.0064038313, 0.016911192, 0.06543837, 0.05324866, 0.0058838073, 0.06354004, 0.01851705, -0.08467394, -0.001995731, -0.07233326, 0.0020686926, -0.027231134, 0.014570801, -0.008874457, 0.038510934, -0.03664936, -0.06198912, -0.0056161648, -0.03544569, -0.11736939, -0.08087916, -0.1518485, -0.10301325, 0.079105794, 0.07032351, 0.068680584, 0.06337901, -0.20981693, -0.16986683, -0.10208537, -0.051248185, 0.055520017, 0.04091633, -0.0040601203, -0.01593277, -0.02642012, 0.06332059, -0.06086225, 0.02150545, 0.0448691, -0.043135323, 0.01498022, -0.06958697, 0.121726185, 0.07634904, 0.026350055, -0.03992757, 0.044234827, 0.06507593, -0.008552719, 0.013806524, -0.055620234, -0.042834617, -0.013195467, -0.0104126865, -0.005656806, 0.008998055, 0.007008465, 0.02793523, 0.020121988, 0.016063903, -0.0016383352, 0.0033094224, -0.023203287, -0.0032401795, 0.040799227, 0.07903205, 0.09737465, 0.13675186, 0.1558546, 0.18876971, -0.1707563, -0.06524045, -0.08934555, 0.017056862, -0.013961885, -0.037067387, 0.0022067332, -0.014665794, 0.1106313, 0.15371147, 0.048124317, 0.08487996, 0.10071338, 0.12731858, 0.09784087, 0.11891362, -0.1391896, -0.16564411, -0.110243104, -0.15797316, -0.069911435, 0.02365795, -0.06324827, 0.03273542, -0.15353537, -0.17662483, -0.21552296, -0.24346688, -0.06535487, -0.118235074, -0.09608306, -0.15003146, 0.16812825, 0.09632982, 0.062610015, -0.011926944, 0.019488933, 0.048108753, -0.014225941, 0.008270842, -0.20346093, -0.21823937, -0.15566239, -0.17155887, -0.04451108, -0.09847281, -0.112192355, -0.13014713, 0.18417987, 0.21174142, 0.17197016, 0.2003499, 0.1692521, 0.07207458, 0.147693, 0.050798215, -0.016852438, 0.036274124, 0.04226596, 0.08913585, -0.024522685, -0.048296846, -0.028252892, -0.06328505, 0.14814286, 0.120730795, 0.15870613, 0.13392287, -0.014274502, -0.11161025, -0.06170026, -0.11690985, -0.022017058, -0.080405846, -0.0108481385, -0.068933845, 0.084438846, 0.07718616, 0.053384256, 0.050973024, 0.015087581, 0.039520804, -0.0011032766, 0.017141717, -0.114527, -0.10933383, -0.09117375, -0.08981589, 0.0040697902, -0.042603754, -0.019267654, -0.058450177, 0.030189222, -0.006039262, 0.08222481, 0.03858324, -0.14969414, -0.1304358, -0.15103647, -0.14896685, 0.07612726, 0.084551096, 0.036536537, 0.05357814, 0.017039282, 0.009264489, 0.020734295, 0.016619638, -0.14748347, -0.1822883, -0.093938045, -0.16000594, 0.048142165, 0.04084543, 0.0050149853, -0.0062408433, 0.07490422, 0.14544119, 0.120892935, 0.1735589, -0.02693486, -0.015734795, -0.044339012, -0.04029991, -0.045844898, -0.091730624, -0.055713654, -0.079797775, -0.0476374, -0.0073438413, -0.036693014, 4.363119e-07, 0.017464956, 0.02554729, 0.12602371, 0.13111983, 0.023738962, 0.03971233, 0.020602893, 0.031990603, -0.011213147, -0.056504633, 0.009443469, -0.05748758, 0.010619845, 0.003570276, 0.021468868, 0.009662933, 0.06978889, 0.07743293, 0.026216567, 0.010855023, 0.0009403905, 0.0139876045, 0.03253834, 0.033507112, 0.0857083, 0.06926369, 0.14588754, 0.12148687, 0.05668814, 0.027423298, 0.052141793, 0.024610123, -0.06564992, -0.07285644, -0.03188659, -0.016318863, -0.08415956, -0.056877118, 0.00028838677, 0.04321275, 0.034765564, 0.11731882, -0.026078727, 0.063935325, -0.016408449, -0.00083471043, -0.014377867, 0.004295253, -0.03563389, -0.050570015, -0.08624242, -0.1121367, 0.0008145832, 0.017716782, -0.011734256, -0.016046403, 0.03640945, -0.124591775, 0.048534196, -0.058550186, 0.008709468, 0.018519385, -0.0035992234, 0.0072873826, -0.016712693, 0.0038190158, -0.02307005, 0.008522337, -0.004322929, -0.009269929, 0.04027696, 0.012798604, -0.04093461, -0.05314615, -0.0070384475, -0.020851787, -0.031104663, -0.0013366147, -0.05676999, -0.012322818, -0.028591942, -0.027222414, -0.028590526, -0.025777634, 0.034484282, -0.031255167, 0.051220015, 0.0003328138, 0.036855873, 0.044762727, -0.0032804352, -0.0067010242, -0.031365596, 0.014207607, -0.04001285, 0.012922505, 0.01458952, 0.025423698, -0.02052298, -0.0063068904, 0.034823928, 0.0018473243, -0.054936305, -0.074546166, 0.060637236, 0.045711532, 0.009589219, -0.0068725487, 0.03449886, 0.023676943, 0.058570676, -0.0024398665, -0.037821095, -0.052388348, -0.07829766, -0.090052396, -0.04959805, -0.068112396, 0.10058159, 0.04130684, 0.046444155, 0.024840182, 0.006918697, -0.016946634, -0.029156182, 0.068486854, -0.011096557, -0.07838941, -0.007598444, 0.019824943, -0.0077180634, 0.04330765, -0.00062780816, -0.016107243, 0.0042764414, 0.003158673, -0.053288385, -0.009594918, -0.059553243, 0.009282524, -0.0003667447, -0.0017686723, 0.02043007, -0.014786449, 0.0072033354, -0.045108993, -0.0016310225, -0.07929114, 0.052499734, 0.0044473056, -0.009467508, -0.039486293, -0.013164986, 0.032170873, 0.047671087, 0.023165831, -0.027531307, -0.026869025, -0.010301164, -0.009570438, 0.09228746, -0.06596782, 0.12129664, -0.0833922, -0.05068212, 0.079862714, -0.040905833, 0.018011417, 0.1000804, -0.018537499, 0.07384918,