{"name": "anime4k/cnn-2x-m", "layers": {"conv2d_tf": {"name": "conv2d_tf", "type": "conv", "inputs": ["input_image"], "output": "conv2d_tf", "weights": [-0.11606336, 0.17977928, -0.27346742, 0.124493435, 0.15652506, 0.2845143, -0.0026843916, -0.19497222, 0.13320322, 0.11033785, -0.21989621, 0.11207873, 0.0, 0.0, 0.0, 0.0, -0.10988178, -0.30772716, -0.41737673, 0.09727902, -0.23669402, -0.5062192, -0.2662598, 0.1126543, -0.110433154, -0.035403367, -0.27922922, 0.014905251, 0.0, 0.0, 0.0, 0.0, 0.1673138, 0.21435647, 0.0991883, 0.08848872, 0.28353062, -0.22595239, 0.22235885, -0.12553884, -0.06435851, 0.23793034, -0.02895988, 0.05851421, 0.0, 0.0, 0.0, 0.0, -0.06527518, 0.0009992365, 0.16914415, -0.08580268, -0.065111995, 0.18426816, 0.33551374, -0.05623329, -0.34856713, 0.055840224, 0.10477855, 0.3088062, 0.0, 0.0, 0.0, 0.0, -0.4047918, -0.38514897, 0.6453525, -0.6695825, -0.4114409, -0.27396202, 0.58474267, 0.25724518, -0.3791753, -0.30253774, 0.19307339, -0.30811906, 0.0, 0.0, 0.0, 0.0, -0.05841689, 0.12711738, -0.26518336, -0.21317536, -0.052410815, 0.16059583, -0.05319537, 0.01622084, 0.07479186, -0.30965877, 0.2144306, 0.15355839, 0.0, 0.0, 0.0, 0.0, 0.14847465, 0.13815038, -0.028073678, 0.2186973, -0.18746363, -0.19688894, -0.21375322, -0.029839175, 0.31318492, 0.03398371, 0.13908163, -0.17011626, 0.0, 0.0, 0.0, 0.0, 0.082191214, -0.07573231, -0.110015325, 0.044385966, -0.09126862, 0.50149125, -0.36304137, -0.31671065, -0.0760504, 0.19005129, 0.29838115, -0.06994295, 0.0, 0.0, 0.0, 0.0, -0.03997613, 0.10711133, 0.2920969, 0.17430729, -0.08918032, 0.09155168, 0.013416766, 0.027657839, 0.19027728, 0.020657036, -0.33332226, -0.22530448, 0.0, 0.0, 0.0, 0.0], "bias": [0.07606802, 0.09729832, 0.012942811, 0.5625359]}, "conv2d_1_tf": {"name": "conv2d_1_tf", "type": "conv", "inputs": ["conv2d_tf"], "output": "conv2d_1_tf", "weights": [0.13398904, 0.31106707, -0.24516815, -0.10223475, -0.021094762, 0.06421805, 0.20445661, 0.017145015, -0.09517393, 0.030834226, 0.11247594, -0.009866822, -0.02299197, -0.0025018842, 0.078243144, -0.09684197, 0.26788697, 0.2721901, -0.16956545, 0.46711928, -0.06078478, 0.2121688, -0.10680213, -0.12403891, -0.12835354, -0.1414604, 0.2116623, 0.06955634, 0.030484539, 0.03776486, 0.062162813, 0.09124468, 0.015129639, 0.19659676, -0.43855304, 0.052361038, -0.12687272, -0.07380384, -0.04636695, 0.117407836, 0.08115984, -0.10018457, 0.06883005, -0.018031513, -0.03776163, -0.0367366, -0.07437988, -0.053009566, 0.17695092, 0.014332625, 0.002966589, -0.19727035, 0.08600045, 0.06847765, -0.14117013, -0.014638577, -0.14032821, -0.031005614, 0.14726682, 0.022833185, -0.015553153, 0.11482301, -0.002867386, -0.0039069876, -0.25406557, -0.115356736, 0.101271845, 0.33151704, 0.32322282, 0.040061504, -0.062065504, 0.115033105, -0.0933092, -0.10633967, -0.19852228, -0.18449658, 0.022037001, -0.19889763, 0.064308524, 0.10046037, 0.18254162, 0.32357463, 0.4288217, 0.6237335, -0.11840234, -0.0071857166, -0.08804538, -0.07589813, 0.15188785, -0.010205552, -0.09852454, -0.2460295, -0.07461511, -0.032564312, -0.27323446, -0.064379774, 0.044581793, 0.22894746, -0.1802935, -0.2690704, 0.079360805, 0.103287585, -0.008570362, -0.089542575, -0.1329516, 0.12050982, -0.0030015386, -0.027521424, 0.051165797, -0.10085252, 0.00013368498, 0.073774755, -0.40903112, -0.12125079, 0.298725, 0.036986463, 0.120306335, -0.17919756, -0.06324796, 0.28444302, 0.32893908, -0.08780014, -0.11230092, 0.20419864, -0.1681612, 0.16062817, -0.0123456055, -0.208336, -0.20350553, 0.22378701, 0.009587118, -0.10072582, 0.050127126, -0.037878074, -0.03381747, -0.021997068, 0.15292531, -0.010497088, 0.0758131, -0.056700535, 0.07834409, -0.10942698, 0.055824224, 0.12815832, -0.17698693, -0.3055658, 0.09967433, 0.098928824, 0.10173185, 0.04113592, -0.29084405, -0.024333095, 0.06813831, 0.053886253, 0.03601129, 0.01787395, -0.3636861, -0.2611388, 0.42422765, -0.27144617, -0.17313176, -0.094153084, -0.0032488997, -0.26813602, 0.20981374, -0.12566373, 0.09031148, 0.15152319, 0.024084533, 0.1122652, 0.012085819, -0.018394787, -0.03474743, -0.30334213, 0.17162411, -0.34010682, 0.10829615, -0.058659215, 0.096897066, -0.075050645, -0.04252922, 0.065123, 0.07876711, -0.14319685, -0.06574127, 0.05299319, -0.21848576, 0.05696007, -0.22319631, 0.02581564, 0.09025793, -0.12129464, 0.04095923, -0.07435875, 0.051763527, 0.072874926, 0.047589038, -0.12897262, 0.17409727, 0.0333813, 0.18284716, 0.20985128, -0.1333369, -0.045197096, -0.14864855, -0.6198857, 0.50725585, 0.1453008, 0.08633372, 0.041169077, -0.113290854, -0.119742654, 0.16737501, 0.17155202, 0.14582264, -0.28672713, 0.49221733, -0.1012341, 0.41467783, -0.036201924, -0.57681143, -0.5296542, -0.40910345, 0.6782604, -0.30978954, -0.036785055, -0.24596226, -0.17083214, 0.030971462, 0.010830634, 0.0026806833, 0.14230551, -0.11693772, 0.046302274, 0.4059211, 0.2792543, 0.15723385, -0.5630804, -0.6161421, 0.2024145, 0.21252708, -0.10771148, 0.036381878, 0.16049491, 0.05679561, -0.044410653, -0.06296423, 0.021954492, 0.1386076, -0.09925893, 0.105343826, 0.0744434, 0.23576045, 0.09489304, -0.028932052, -0.13939933, 0.04438212, 0.05060549, 0.054901775, -0.18032031, -0.10731229, 0.12581119, 0.0077560083, -0.065935574, -0.17900354, 0.10131783, -0.22404161, -0.25318182, 0.21593264, 0.22542816, -0.0072031817, 0.010529421, 0.06634015, -0.054192886, -0.062199865, 0.1428507, -0.016526487, -0.026490308, -0.12360084, -0.036109116, -0.16370384, 0.049125556, 0.010957963, -0.15898204, -0.14532503, 0.12072349, -0.063199304, -0.18571481], "bias": [-0.06397516, 0.05638626, 0.10463126, 0.0011305006]}, "conv2d_2_tf": {"name": "conv2d_2_tf", "type": "conv", "inputs": ["conv2d_1_tf"], "output": "conv2d_2_tf", "weights": [0.1389021, 0.091259226, 0.022572143, 0.0115275, -0.011023383, 0.13229011, -0.04427844, -0.11169886, 0.07716936, 0.090821125, 0.046744302, -0.011402823, -0.11736449, -0.2667003, 0.023563068, 0.02957548, 0.011650642, 0.18548153, -0.30580342, 0.1695315, 0.3387618, 0.3661105, 0.017590256, 0.026533876, 0.0919619, 0.11293674, -0.0557881, 0.1455142, -0.13073084, -0.3100949, -0.018935384, 0.14194205, -0.031120645, 0.023400873, 0.14656979, -0.040248573, -0.06434811, 0.22149771, -0.0024626045, 0.11707657, -0.031401653, 0.06698952, 0.009313236, 0.03779623, -0.08165063, -0.35684943, -0.2558622, 0.24340671, 0.014392414, -0.08611935, 0.049171295, -0.009878269, -0.19666666, 0.01640658, 0.22811183, 0.029217739, 0.0021387034, -0.085635245, 0.009026237, 0.037537675, 0.0008398032, -0.037557166, 0.23526864, -0.067269556, 0.10023519, -0.47463253, 0.32720736, -0.08215983, -0.31714198, -0.087194405, -0.32390776, 0.41236085, 0.13543816, -0.11665298, -0.042616665, 0.16041128, 0.034048986, -0.21876253, 0.34592885, -0.2984467, 0.14026311, 0.00039554725, -0.08887815, 0.09412184, -0.2593666, 0.12145084, 0.5662811, -0.30960065, 0.0414934, 0.014458909, -0.2624452, 0.15943702, -0.020743644, 0.13598824, -0.2830027, -0.009470007, 0.024342375, -0.17326683, 0.05765725, 0.09488647, 0.2575581, 0.23502757, -0.08160544, -0.26553977, -0.1220589, 0.08013969, -0.016161768, -0.1209314, 0.17869818, 0.30278516, -0.13164262, -0.13690683, -0.21733806, 0.15865012, -0.21771297, 0.13636877, 0.3512635, -0.20011751, 0.71565914, -0.104760975, -0.20776182, 0.15196297, -0.1321028, 0.07464626, 0.2463665, -0.1288413, 0.18602447, -0.21134764, -0.009091793, -0.0590124, 0.15350531, -0.013251095, 0.0025398862, -0.021339731, 0.21685794, 0.082489654, -0.047705688, 0.026638396, -0.039147984, 0.030637523, 0.11972439, 0.03649345, -0.08800465, 0.04791849, -0.063899465, -0.105438404, 0.05033565, -0.015398467, 0.05938774, -0.016760394, 0.029363422, -0.017430363, -0.008699672, -0.25367033, 0.022783596, 0.110641606, 0.10141755, -0.00016630087, -0.056500778, 0.034471113, 0.048835617, -0.12681866, -0.066502094, 0.045231722, -0.18065335, -0.22604083, -0.015175392, -0.06705871, 0.013665012, 0.011599169, 0.10298516, -0.11681691, 0.28435248, -0.04857649, -0.1419388, -0.06777054, 0.1149232, 0.016193617, 0.01656518, 0.00804806, -0.040175382, -0.1961025, -0.03625783, -0.013200276, 0.12195545, 0.07614155, 0.10474353, -0.08272894, -0.026889844, 0.14175323, 0.14168878, -0.26817453, -0.14453053, -0.13414605, -0.06651428, 0.016334692, 0.082774915, 0.014306233, -0.12926893, -0.116443306, 0.22326875, 0.3580542, -0.12648714, 0.112027295, -0.16956696, 0.19763929, -0.26482219, 0.17115614, 0.04316381, 0.054443434, -0.3106718, 0.11771501, 0.23658161, 0.033981435, 0.34621492, -0.3847724, 0.12750502, 0.2107391, -0.2329123, -0.18474722, -0.40957716, 0.0085536055, -0.19541273, 0.09755964, -0.16319473, -0.056064744, -0.011080576, 0.079925075, -0.08443876, 0.20467456, -0.22445829, 0.2599498, 0.25293478, -0.1185785, 0.21504414, -0.3095964, 0.15370017, -0.15602782, 0.07808888, -0.15107022, -0.03224325, 0.06798876, -0.058822997, 0.030666512, -0.010540478, -0.13901918, 0.07177421, 0.17992255, -0.04258061, -0.19868083, 0.28559804, 0.09805323, 0.09703619, 0.07020872, 0.06822598, 0.12779307, 0.22630809, -0.16089886, 0.29453892, 0.017614828, -0.2248953, -0.010998022, -0.31585214, 0.16753606, 0.2610688, -0.056440964, 0.24624962, -0.20295781, -0.17000961, -0.08380444, -0.29134277, 0.15723288, 0.046906173, 0.1004941, -0.086202025, 0.19293989, 0.12799801, 0.07168447, 0.0015275516, 0.12535731, -0.09231649, -0.20546839, 0.1368647, -0.02690137, -0.008778634, -0.043878995, 0.08780535, -0.046321027], "bias": [0.15684557, -0.028253535, 0.04340603, 0.009737987]}, "conv2d_3_tf": {"name": "conv2d_3_tf", "type": "conv", "inputs": ["conv2d_2_tf"], "output": "conv2d_3_tf", "weights": [0.08110378, -0.0167192, -0.052800585, 0.03101248, -0.0200815, -0.14150716, 0.16980621, -0.15210816, -0.08074786, -0.07475146, 0.115350194, -0.0036901226, -0.117634565, -0.19439846, -0.11759383, 0.23502965, -0.08461348, 0.13892823, -0.06326588, -0.0012297074, 0.15518166, 0.21625187, -0.12818813, 0.07125895, -0.18874602, -0.08046852, -0.31893313, -0.48625693, -0.11701834, 0.14305845, -0.06545941, 0.009551703, -0.013344673, -0.12126489, -0.016501574, -0.16214086, 0.0069537126, -0.176876, 0.1570584, -0.08085073, -0.16929092, 0.056719832, -0.13355424, -0.084494695, 0.010385584, -0.04052164, -0.05259485, -0.00054041675, -0.106803305, 0.007429931, -0.04642919, -0.21932948, 0.09330674, -0.093727104, -0.13452266, 0.35055456, -0.23152934, -0.39173022, 0.15664841, -0.08393049, 0.05625897, -0.035436444, -0.15130311, -0.1395724, 0.124293104, 0.18409966, -0.11573077, 0.089100696, 0.1444364, 0.50853324, -0.0095960945, 0.3167473, 0.70936894, 0.31308156, 0.26786005, 0.12160492, -0.22704235, 0.30838796, 0.021611245, -0.1314941, -0.14330123, -0.22278316, -0.03795726, -0.17500246, 0.18139891, -0.19904222, -0.022736387, 0.08908508, 0.43189391, 0.15949173, -0.04945459, 0.15970747, -0.07230371, -0.15298025, 0.009584154, -0.23360626, 0.052694026, -0.05049137, -0.1383393, 0.11149106, -0.10110927, 0.20538872, 0.15514328, -0.16502619, -0.053637415, -0.12321965, 0.2662799, 0.0051624347, 0.098109104, 0.10768976, -0.22784568, 0.13209504, 0.008199458, -0.081371814, 0.03606598, 0.14785449, -0.28495064, 0.2584799, 0.0007494249, -0.50056446, 0.33870435, 0.25779712, -0.03054843, 0.22610615, -0.27559558, -0.11128982, -0.012728223, -0.18573038, 0.060110338, -0.09690658, 0.09593368, -0.022227092, 0.1268108, -0.032526143, -0.0052941497, 0.18126796, 0.20892163, 0.04680569, -0.20077993, 0.11723587, -0.07495806, 0.029730473, -0.04341291, -0.12832776, -0.03857927, 0.05411956, -0.33965963, 0.063905895, 0.02378697, 0.0681384, -0.016522638, 0.081831, 0.14231712, 0.123573765, -0.11197606, 0.022007719, 0.25169036, 0.13163973, -0.38438284, 0.115584046, 0.299692, -0.113115326, 0.16491714, -0.04810855, -0.12854144, -0.2268635, 0.051220372, -0.19050607, 0.20524663, 0.26196462, 0.26784754, 0.24459374, -0.041007493, -0.15827829, 0.03751936, -0.0027342795, 0.1978786, 0.11505169, 0.09922884, 0.10659087, 0.024080487, 0.10524709, -0.08987373, 0.11877598, 0.15799685, -0.10497645, 0.008811035, -0.009986678, 0.01387176, 0.12635326, 0.20862126, 0.12648703, 0.16220981, -0.033359095, -0.0153780505, 0.07004559, 0.07670019, 0.21048827, -0.1682042, 0.041799467, 0.114568, 0.2827947, -0.2358813, 0.112023346, -0.16518869, 0.3607493, -0.01624971, 0.16955264, 0.12882522, -0.12503988, 0.14995539, -0.49053642, -0.091627434, -0.41933334, -0.03831309, -0.117856495, -0.47509915, 0.23506865, 0.079487, 0.23074882, -0.08374827, 0.14932871, -0.058848724, -0.24341418, -0.14489996, 0.09887637, 0.06605905, -0.15220052, -0.120792374, 0.23410796, 0.032493018, 0.056553863, -0.24996756, -0.07639836, 0.0232395, -0.09652701, -0.03002805, 0.050476708, 0.07193504, 0.11683747, -0.0058939746, -0.09493401, 0.076543495, 0.13393587, 0.017776897, 0.020909293, -0.1794159, -0.040205512, 0.047374327, 0.022355627, -0.121918514, 0.035227664, -0.2679447, -0.16856398, -0.1886006, -0.16039622, 0.24283677, 0.32498962, 0.05810684, 0.31605107, -0.21426445, -0.14002769, 0.14375956, -0.19747485, -0.16602254, -0.20801187, 0.08768805, -0.2776923, 0.009399019, -0.17496416, -0.290936, 0.115208045, -0.041293893, -0.0651558, -0.03753366, 0.033722922, -0.04545539, 0.016271383, -0.008835475, 0.0015780868, -0.12184039, -0.033606283, 0.1662686, -0.07920288, -0.034950536, -0.09539387, 0.12623376, -0.082155704], "bias": [0.064105734, 0.08716897, 0.10564136, -0.055283435]}, "conv2d_4_tf": {"name": "conv2d_4_tf", "type": "conv", "inputs": ["conv2d_3_tf"], "output": "conv2d_4_tf", "weights": [-0.1598122, 0.21306475, -0.025170112, 0.0064973626, -0.0040386054, -0.018063357, -0.014915061, 0.023607424, -0.20982668, -0.029529253, 0.001744459, 0.060086526, -0.061658174, -0.115150034, -0.049836617, -0.075447455, 0.15341176, 0.2077175, 0.057210345, 0.14822371, -0.034174822, -0.06858962, -0.08222855, 0.06431011, -0.44409496, -0.121558376, -0.3858283, -0.3362955, -0.4016457, 0.07244281, -0.417595, -0.21818341, -0.05531808, -0.02010583, -0.07585426, 0.024485847, 0.02847285, 0.01543007, 0.17664663, 0.0780659, -0.13275865, 0.09497275, 0.040728047, -0.23864512, -0.1548492, 0.12780112, -0.24754933, -0.23368622, 0.14364702, 0.5448055, 0.386805, -0.21051708, -0.24149047, -0.10845729, 0.15071525, -0.0058477055, 0.055677447, -0.005850183, -0.073896885, 0.09241234, -0.26862472, 0.5054357, 0.114015214, 0.1836328, 0.25270563, 0.67129123, -0.52748364, 0.26303798, -0.043505583, 0.032671597, -0.05111456, 0.12108323, 0.29900667, 0.1286415, 0.028665777, -0.21042022, 0.07378244, -0.17607069, -0.1152363, -0.35226378, -0.33433285, -0.1385949, -0.2783315, -0.43740904, -0.16138744, -0.0621373, -0.14131115, 0.16966353, -0.073161066, 0.22579035, 0.045622952, -0.1578812, 0.55355525, 0.16940117, 0.5628059, 0.6008582, -0.10386568, -0.0052689794, 0.023254815, -0.044129103, -0.12433769, 0.044830017, -0.2193367, -0.091017105, -0.40861627, 0.09017799, 0.22204089, -0.017926738, 0.056895338, 0.009060228, -0.15774739, 0.0040100673, 0.34335652, 0.13392006, 0.16273153, -0.019711446, 0.14928798, 0.030849062, -0.2510253, -0.022520343, -0.11473251, -0.09289514, 0.2843751, -0.4983467, 0.020203933, -0.42779848, 0.16908686, -0.3076361, 0.033630483, 0.056546945, -0.04666513, 0.014747518, 0.16372634, -0.053588495, 0.14539687, 0.16948904, 0.40704802, 0.23186202, 0.17865482, -0.110491835, -0.14014529, 0.19542813, -0.005899948, -0.0995246, 0.2389414, -0.082455106, 0.08700005, 0.028712636, -0.36086267, 0.04287671, -0.14006224, 0.17894393, -0.005451369, 0.028053885, -0.023525458, 0.055561885, 0.15468796, 0.02403359, -0.050548952, 0.038594317, 0.28251657, -0.11581353, 0.16342154, 0.06044091, 0.12542216, -0.044592988, 0.051525116, 0.41159365, -0.17521508, 0.053627472, -0.20983936, -0.12996447, 0.08439798, 0.008631584, -0.08363641, 0.059050053, -0.08850453, -0.024748828, 0.017210012, -0.031767968, -0.52938837, 0.17848137, -0.27413097, -0.2068892, 0.047405057, 0.00081454025, 0.02349727, 0.0042111445, 0.13370459, -0.034860186, 0.14278005, 0.3497005, -0.22266275, -0.05642017, -0.112472326, -0.17310132, -0.16356754, -0.45152155, -0.4895544, 0.23206581, 0.12887485, -0.14014244, 0.35742265, 0.082959004, 0.12671785, -0.21256709, 0.25850493, 0.009120755, -0.12273008, -0.30924377, 0.5265373, -0.02098678, 0.1029469, 0.18627657, 0.23864165, 0.021312231, -0.01296249, -0.26165387, -0.2542568, 0.094496064, 0.014488813, -0.058059838, -0.3033406, -0.017388495, 0.13375956, 0.09680272, -0.052011438, 0.090599395, 0.15185082, -0.11640461, -0.23126537, 0.090506785, 0.24264868, -0.065805264, -0.21834786, -0.0045276107, -0.33338022, -0.07771771, 0.014490507, -0.42923886, 0.37784475, 0.052123647, -0.1248992, -0.11049203, -0.43846554, -0.17309345, 0.052097544, 0.057795536, -0.27356243, 0.027324762, 0.17017028, -0.006939284, -0.08434218, -0.12059198, 0.24616416, 0.087504596, 0.26637626, -0.1337361, -0.18089, -0.22973877, 0.2926445, 0.11886714, -0.11798015, -0.05380629, 0.11048856, -0.0778672, -0.29690808, 0.08253439, 0.3127822, 0.12253063, -0.23173955, -0.14380191, 0.01039713, 0.03493661, 0.06576741, -0.084102914, -0.23178917, -0.15740506, -0.2270629, 0.22222051, 0.3404708, 0.06097898, 0.11453548, -0.31320468, 0.08092818, -0.035511125, 0.12131498, 0.16709867], "bias": [-0.076647505, 0.08073172, -0.059488703, 0.17173311]}, "conv2d_5_tf": {"name": "conv2d_5_tf", "type": "conv", "inputs": ["conv2d_4_tf"], "output": "conv2d_5_tf", "weights": [-0.12773429, -0.031222861, 0.025735874, -0.062096417, -0.0699462, 0.03104822, -0.122303784, -0.09765575, 0.09609079, 0.005582036, 0.058315173, -0.035801604, 0.123248786, -0.104321666, 0.056262534, 0.024966465, -0.0057961293, -0.06281776, 0.04020634, 0.068618834, 0.17063664, -0.047059927, 0.21686994, 0.034598563, -0.08227179, -0.09367863, -0.20445694, -0.0931567, 0.1262296, -0.07587655, -0.041704163, 0.08003125, -0.07023064, -0.062065583, 0.12443551, -0.035465624, 0.013221707, -0.032532513, -0.056925, 0.024944607, -0.12387186, -0.22119465, -0.049702164, 0.11415566, 0.079954885, 0.09549618, 0.00011933643, -0.07652726, -0.095089525, 0.14626698, 0.27363792, -0.042087212, -0.018778356, 0.11161227, -0.32541263, 0.03188208, -0.06275591, -0.2500858, 0.37373486, -0.12545922, 0.022838576, 0.16692348, -0.17622371, 0.1591403, -0.14521024, 0.34913903, -0.1608894, 0.120632924, 0.68379533, -0.15624362, -0.6933828, 0.6345509, -0.4358753, -0.25579333, 0.38130885, -0.3612577, 0.14929971, -0.3353409, -0.19956423, -0.16761, -0.08563838, 0.10034349, 0.40581712, -0.01674007, 0.077260956, -0.012577383, -0.41468084, 0.031816468, -0.2399563, -0.1595638, 0.22213463, 0.8598436, 0.12936053, -0.123269774, -0.06326122, -0.3076892, 0.03034998, 0.050539415, 0.20472047, -0.0556702, -0.085800156, -0.06870804, 0.049144283, -0.08892451, 0.12340523, 0.10613051, 0.0149079105, 0.07518214, -0.26013598, 0.04589169, 0.19190422, 0.15137987, 0.09706032, -0.17066817, -0.11620896, 0.022257369, 0.47305605, -0.07059574, -0.15890422, 0.6320758, 0.109349206, 0.06890607, -0.09387597, -0.46179014, 0.13774204, -0.041401643, -0.037044708, 0.12379395, -0.051298592, 0.012750388, 0.10875692, -0.05967528, 0.10088652, -0.40571722, 0.18971854, -0.24539576, -0.3825106, 0.008654188, 0.07715846, 0.28964898, 0.066138685, -0.00080732966, 0.040520288, -0.15779981, 0.0825736, -0.29615963, -0.47617617, 0.31756508, 0.06880992, 0.105293304, 0.04906714, -0.05858499, -0.08284609, 0.017182024, 0.21042508, -0.07028825, 0.08384749, -0.21589063, -0.13177407, 0.095195554, 0.02297133, -0.39289168, -0.25799274, 0.10975223, 0.14140548, -0.20849659, 0.04759558, -0.008546609, -0.10889733, -0.14610597, 0.13098536, -0.13077322, 0.13789141, 0.3462128, -0.12772405, 0.26967224, 0.35149145, -0.21153429, -0.5693587, 0.108247586, -0.16848314, 0.075048186, -0.2745529, 0.112181306, -0.052565876, -0.023494598, 0.07528667, 0.04387266, 0.012658622, -0.37138432, 0.1281914, 0.00046957587, 0.09401129, 0.25289086, 0.55048674, 0.08075165, 0.121126935, -0.0033569427, 0.08089757, 0.21594091, 0.18725191, 0.30701655, -0.1590015, -0.010082892, 0.21047278, 0.5394563, 0.47593778, -0.032119274, 0.37147695, -0.37555677, 0.62841827, -0.07431199, -0.29146922, -0.40450788, 0.35065868, -0.434333, 0.45959905, 0.10397242, -0.027563395, -0.31509194, -0.09736915, 0.04074563, 0.44896963, 0.28670806, 0.3888352, -0.24728929, -0.12476968, -0.08905847, 0.33668944, 0.17609842, -0.23971717, 0.0060826214, -0.4655161, 0.13450272, 0.32908657, -0.07225912, 0.2169386, -0.0725652, 0.10453283, -0.088632435, -0.13810714, -0.3050837, -0.63974214, 0.18239835, 0.1929092, -0.093423374, -0.2822392, 0.22142173, -0.08018815, -0.13466772, -0.31972283, 0.116478145, 0.19095601, -0.48922217, -0.5578351, 0.355463, 0.36167753, -0.15497409, -0.43211254, 0.32367635, -0.19982333, -0.0630767, 0.01567552, -0.21779867, 0.046131164, 0.092667475, 0.13255084, -0.14787321, 0.12663253, -0.41330644, 0.25875497, -0.0062085786, 0.01678195, -0.22261462, 0.11094035, -0.1657027, 0.09254188, -0.09523376, -0.6323229, 0.16596538, -0.058406986, 0.026134185, 0.22998697, 0.067646734, 0.044489175, -0.22890534, -0.086280994, -0.11049718], "bias": [-0.004863463, -0.043915283, -0.19484672, 0.12677252]}, "conv2d_6_tf": {"name": "conv2d_6_tf", "type": "conv", "inputs": ["conv2d_5_tf"], "output": "conv2d_6_tf", "weights": [-0.066926755, -0.103378884, -0.1253788, 0.05884506, -0.01911811, -0.11779993, -0.030739171, 0.13323332, 0.03596915, -0.13894027, -0.041181393, 0.15500793, -0.03982033, -0.05108186, 0.12834665, -0.007960466, 0.10669239, -0.12279223, -0.13919982, -0.15405509, 0.1305062, 0.100640036, -0.34516367, 0.32141054, 0.07484296, 0.2833889, -0.20306365, 0.3919221, -0.5247645, -0.31412095, -0.13806108, -0.13342234, -0.15124469, -0.11747695, -0.08621477, -0.0065042623, 0.7227566, -0.11768305, -0.06759335, 0.34659123, 0.21980159, -0.061635103, 0.00042216454, -0.044416543, -0.18327245, -0.028776366, -0.0055986694, -0.049163632, 0.05135294, 0.07964238, -0.00330635, -0.2152686, -0.018970031, -0.04942663, -0.22667323, -0.042205848, 0.039453145, -0.050103545, 0.13375999, -0.18811707, 0.14390434, 0.027615514, 0.05709427, 0.05752984, -0.5051138, -0.26409164, -0.15425378, -0.66951543, 0.17625315, 0.48022023, -0.19252352, 0.0043416517, 0.056236565, 0.32243112, 0.7946876, 0.015003509, 0.17414112, -0.114543706, -0.10779704, 0.082222536, -0.38728875, -0.08986606, -0.049947318, -0.27644014, -0.8225291, -0.39131454, -0.459008, -0.9930907, -0.12627846, -0.054534476, 0.3940249, 0.2505263, 0.13452612, 0.03460093, -0.07459207, -0.039021235, -0.04868996, -0.10235829, -0.03467251, 0.1075939, -0.26020733, -0.10697435, -0.061846778, -0.3059227, 0.10885676, 0.08809459, 0.08911471, 0.13473813, -0.020144481, 0.08357566, 0.06756563, -0.016831836, 0.27809432, 0.010824109, -0.18756819, 0.11398418, -0.21666546, 0.098384276, 0.2975434, -0.0020767483, 0.079884626, 0.036110703, -0.18543157, 0.0010193929, -0.061911505, 0.13594154, 0.17103043, -0.06879687, 0.2798294, 0.038601764, 0.09637811, 0.23477426, 0.0076462408, -0.14501692, 0.062029935, 0.01976714, 0.1567059, 0.048765305, -0.015226277, 0.043793716, -0.076550275, 0.060083106, 0.14394821, 0.017193556, 0.015513908, -0.13487175, -0.040039863, 0.11021341, -0.05785185, -0.0033880004, 0.08333027, -0.092727445, 0.01884936, 0.014747866, 0.009049213, -0.007268711, 0.3192351, 0.2186278, 0.2854171, 0.02457388, 0.43706077, 0.31797218, 0.12917022, -0.014583852, -0.07154381, -0.08356874, -0.005788909, 0.14801258, 0.07885089, 0.24817602, 0.06428954, -0.06237103, -0.8699891, 0.024048591, -0.7987979, 0.12811072, 0.013232146, 0.013316505, -0.067415215, 0.034422603, 0.08133233, 0.08787058, 0.026598653, -0.10148331, -0.050544698, -0.14102747, -0.14119765, -0.13445714, 0.5950412, 0.20444492, 0.13798125, 0.035331406, -0.45546192, -0.5513184, -0.4068848, -0.23748143, 0.24419254, 0.1778497, 0.20502964, 0.16109002, -2.9782914e-05, -0.0085999705, -0.027671363, 0.105777435, 0.14129832, 0.31863338, 0.19858609, 0.055741936, 0.4097266, 0.27047816, 0.2850115, 0.056223825, -0.12459045, -0.3790419, 0.05674847, 0.21234466, -0.1475592, 0.29852328, -0.11911643, 0.121808626, 0.1621056, -0.18959267, -0.17864472, -0.42096725, 0.05854804, 0.02684019, -0.2628492, 0.002249103, 0.52862763, 0.13250318, 0.088373385, 0.29241452, -0.15554868, -0.123011805, -0.18078153, -0.08868784, -0.20304836, 0.07052606, 0.2747264, 0.2755977, 0.05502299, 0.072810456, 0.03944805, -0.08644959, 0.121844985, 0.013343667, 0.027260037, 0.23615573, -0.024427306, -0.045917016, -0.05044972, -0.04340206, -0.0366489, 0.04488827, 0.06898134, 0.07339352, -0.09890785, -0.06540698, 0.08009758, -0.044062782, -0.05034573, -0.19514501, -0.2062692, -0.21178126, 0.077644, 0.121198535, 0.13322602, 0.09274964, -0.06762868, -0.12820582, -0.22516684, -0.0601748, -0.17143212, -0.04438599, -0.1310994, -0.1920144, -0.23798935, 0.08665577, 0.11335314, -0.12244037, -0.060818415, -0.06535563, -0.08130813, -0.077197745, 0.04674743, 0.00036820097, -0.09421891, -0.05234622], "bias": [0.11841924, -0.13710557, 0.029517207, -0.106169395]}, "conv2d_7_tf": {"name": "conv2d_7_tf", "type": "conv", "inputs": ["conv2d_tf", "conv2d_1_tf", "conv2d_2_tf", "conv2d_3_tf", "conv2d_4_tf", "conv2d_5_tf", "conv2d_6_tf"], "output": "conv2d_7_tf", "weights": [0.054950725, 0.07103498, -0.016051343, 0.027749274, 0.025204666, 0.01045536, 0.0042160735, -0.024225423, -0.018579733, 0.0026162276, -0.02857185, -0.005210569, -0.039352335, -0.088067934, -0.048476845, -0.08346487, -0.013545614, -0.016991466, -0.008739407, -0.016506022, 0.020216973, 0.04934583, 0.024072357, 0.06810683, -0.04549515, 0.061809313, 0.03045242, 0.020986201, -0.048511624, -0.010428809, 0.016026076, -0.030956982, -0.09900522, -0.07085778, -0.06831026, -0.06906526, -0.009534016, 0.004262913, -0.006554254, 0.002840796, -0.01953525, -0.024325045, -0.007165033, -0.011314177, -0.07489293, -0.055470522, 0.16199836, 0.036676586, 0.048781663, 0.06562282, 0.04015212, 0.053361014, -0.016801007, -0.0377938, -0.008406626, -0.011751621, -0.014344206, 0.022161873, -0.02885451, -0.003658599, -0.056833196, -0.078346126, 0.0063886694, -0.03087761, -0.017802022, -0.00325957, -0.03242753, 0.003964903, 0.07422821, -0.0371481, 0.11048416, -0.0106017245, 0.13719736, -0.03430836, 0.028495925, -0.021163112, 0.06023549, 0.0047271634, 0.04977749, 0.0023630378, -0.010151751, 0.2154516, -0.05911266, 0.14515018, -0.023591345, -0.02699257, -0.036971506, -0.021010756, 0.069655746, -0.0099680545, -0.009880194, -0.070207775, -0.05284564, 0.013814611, -0.16404593, -0.1416106, -0.04778168, 0.028449936, -0.08558072, 0.08866765, -0.03938249, 0.05220149, -0.041012198, 0.038495522, 0.0086511215, -0.0082734525, -0.0147725055, -0.046040513, 0.11998033, -0.059152976, 0.042258155, -0.09964051, -0.0140976785, 0.02207049, 0.0002059802, 0.11529764, -0.090038806, -0.20041479, 0.12085815, 0.1694582, -0.037448097, -0.037172716, -0.0050130314, 0.024008432, -0.060084946, 0.013029849, -0.036050923, 0.05052607, 0.03159619, -0.021548677, 0.014552227, -0.02965435, -0.013455017, 0.062329344, 0.032566868, -0.006644445, 0.021567278, -0.014811177, 0.013295692, -0.010351184, -0.01841816, 0.016973348, 0.025317525, 0.009899903, -0.022683432, 0.011808694, 0.0028045438, 0.029234663, 0.02767238, 0.12709504, 0.01411062, -0.009979088, 0.0035191092, -0.0031182838, -0.015574355, -0.027494937, 0.008440316, -0.013941062, -0.016768042, -0.01870847, 0.017501723, -0.022576338, -0.043333586, 0.062431645, -0.029340237, -0.078882374, 0.056420166, 0.076183915, 0.048331965, 0.10057497, -0.083568305, -0.085852996, -0.010797674, -0.021847311, -0.01239366, -0.04154552, 0.06182476, -0.010869692, 0.0356985, 0.061232526, 0.058532115, 0.010209528, -0.009041787, -0.0720452, -0.07196013, -0.017323138, 0.04495275, 0.029191252, 0.06700517, 0.15220341, -0.07767867, -0.03221082, -0.03635462, -0.0334757, 0.13433172, -0.056404594, -0.06472732, -0.11509622, 0.124772556, 0.07272107, -0.15707767, 0.028852865, -0.018426904, 0.17510289, 0.13555387, -0.088297494, 0.037248716, 0.00794865, 0.071962185, 0.0096231215, -0.051141426, 0.014894458, -0.10324847, -0.018464657, 0.0126606915, 0.05395823, 0.08581119, 0.011021675, -0.027419826, -0.07254084, -0.06124376, -0.01642273, 0.07605218, -0.057074253], "bias": [0.06085507, 0.04841306, 0.008566997, 0.035288297]}, "conv2d_7_tf1": {"name": "conv2d_7_tf1", "type": "conv", "inputs": ["conv2d_tf", "conv2d_1_tf", "conv2d_2_tf", "conv2d_3_tf", "conv2d_4_tf", "conv2d_5_tf", "conv2d_6_tf"], "output": "conv2d_7_tf1", "weights": [0.041083798, 0.11273787, -0.039664973, 0.06302232, 0.07333823, 0.0075632306, 0.076995976, -0.0108795455, -0.04315463, 0.03282546, -0.05020302, 0.026023509, 0.064418, 0.02510018, 0.024639782, 0.0029637075, 0.031111369, -0.017847873, 0.03130805, -0.021845637, -0.039667085, 0.020108245, -0.040791806, 0.03700692, -0.009884046, 0.022881199, 0.06999735, -0.015826307, -0.12564376, -0.14878725, -0.021848716, -0.13192935, -0.09151973, -0.06597794, -0.072450355, -0.06693897, -0.011552232, -0.018777842, 0.0051342268, -0.010323703, -0.02576072, -0.019258346, -0.011607981, -0.005021387, -0.102882005, -0.093620755, 0.13991731, 0.005087157, 0.037210308, 0.014074353, 0.046510138, 0.012851782, -0.028145058, -0.025680618, -0.032508638, -0.008202794, 0.0036951879, 0.034135576, -0.017547814, 0.0015228102, 0.0021079618, -0.030263167, 0.057801064, 0.010340715, -0.024805449, -0.006818843, -0.032319054, 0.0047564465, 0.1147804, -0.055226665, 0.139095, -0.03753787, 0.14894636, -0.03546638, 0.03248561, -0.030713532, 0.060425024, 0.0033520802, 0.05058482, 0.0027428854, -0.03615222, 0.19884737, -0.08633198, 0.12778597, -0.053056035, -0.0063468334, -0.066497125, -0.00235064, 0.06450723, -0.0031007733, -0.011219558, -0.058710214, -0.051068407, -0.011583915, -0.15858279, -0.16355976, -0.04033487, 0.005653939, -0.07839223, 0.06611192, -0.05340592, 0.058907256, -0.047791485, 0.050725352, 0.027576568, 0.007983673, 0.017171, -0.021309456, 0.11154662, -0.08021143, 0.04446095, -0.115186416, -0.008570288, 0.049202953, -0.0012333186, 0.13587798, -0.076208696, -0.20653462, 0.13196656, 0.1578916, -0.040440585, -0.044852726, -0.015931394, 0.010937038, -0.060105585, 0.01565017, -0.041020233, 0.050664853, 0.03566675, -0.011882536, 0.01859861, -0.020633994, -0.024164295, 0.07378749, 0.01918346, 0.0049740733, 0.023937816, -0.02099486, 0.014417706, -0.018249528, -0.022408593, 0.018429874, 0.02628281, 0.016986324, -0.035201065, -0.00050342904, -0.010758721, 0.016824322, 0.042686496, 0.12750758, 0.031496264, -0.011275541, -0.0046530254, 0.0014304466, -0.021216383, -0.020999145, 0.014917319, -0.0034316303, -0.01863704, -0.015423642, 0.01520756, -0.026060067, -0.039936088, 0.06486168, -0.03251415, -0.081864364, 0.057649333, 0.07559426, 0.051602952, 0.09688368, -0.08073399, -0.09000777, -0.01097453, -0.022727443, -0.012805701, -0.04297951, 0.060098216, -0.007935256, 0.030599488, 0.062625825, 0.06013116, 0.010512932, -0.010517298, -0.07444667, -0.07903826, -0.019573744, 0.038119502, 0.026559109, 0.055372935, 0.15262817, -0.09275375, -0.034178592, -0.041339573, -0.033381965, 0.1342532, -0.05399531, -0.059000198, -0.11794929, 0.13036595, 0.07077665, -0.16195193, 0.020004272, -0.018667948, 0.17074339, 0.12714846, -0.0917213, 0.02596967, 0.004947743, 0.07157071, 0.009486327, -0.05360497, 0.01438074, -0.11297298, -0.021359574, 0.0051596886, 0.052319784, 0.09323825, 0.015043655, -0.020785524, -0.06919517, -0.054892845, -0.014707806, 0.08213831, -0.05759576], "bias": [0.009616106, -0.009513385, -0.03294652, -0.012787145]}, "conv2d_7_tf2": {"name": "conv2d_7_tf2", "type": "conv", "inputs": ["conv2d_tf", "conv2d_1_tf", "conv2d_2_tf", "conv2d_3_tf", "conv2d_4_tf", "conv2d_5_tf", "conv2d_6_tf"], "output": "conv2d_7_tf2", "weights": [0.0576849, 0.06587477, -0.022743374, 0.011566256, 0.008215283, 0.0019401816, 0.021441568, 0.0014925447, -0.028634049, 0.0011387578, -0.026619708, 0.006305017, -0.030966898, 0.0045729997, -0.022528537, 0.029398756, -0.011790272, 0.0071467054, -0.0026765561, 0.012733051, 0.023166908, 0.02897596, 0.005242297, 0.026157873, -0.044612665, 0.039906777, 0.022625456, -0.0101679675, -0.04990111, -0.07584878, 0.017350169, -0.09634242, -0.07954949, -0.04172199, -0.057556935, -0.048540115, -0.020093828, -0.0075067617, -0.00020187924, 0.00797722, -0.01987952, -0.025659842, -0.005328067, -0.010927285, -0.07702538, -0.082060955, 0.1457324, -0.003361099, 0.03283853, 0.023584282, 0.028486133, 0.01478993, -0.0055776997, -0.026165819, -0.010754983, -0.013004967, -0.0074576642, 0.036390945, -0.026886474, 0.007709724, -0.05138353, -0.05065551, 0.022502908, 0.0067416504, -0.025170134, -0.008326, -0.03097216, 0.0076901433, 0.086824186, -0.02550225, 0.10888732, -0.015369899, 0.13872114, -0.036151096, 0.021277541, -0.031634226, 0.057487074, -0.0008604128, 0.042267755, -0.0076225856, -0.0043742964, 0.20059362, -0.06779307, 0.116844766, -0.026545724, -0.02368529, -0.035149954, -0.012683659, 0.065201335, -0.006531349, -0.005791962, -0.058462474, -0.050280467, 0.012001662, -0.16014497, -0.141929, -0.04881068, 0.024294844, -0.08731185, 0.084202476, -0.04550918, 0.040261142, -0.03968508, 0.033399694, -0.0031645314, -0.0056782835, -0.002978733, -0.019225113, 0.120801345, -0.07820378, 0.04000722, -0.12024831, -0.0143392375, 0.029743152, -0.0030747086, 0.1193423, -0.08472938, -0.195887, 0.116628096, 0.16650417, -0.031467367, -0.035450865, -0.0126468865, 0.010538742, -0.060293857, 0.01807559, -0.037559878, 0.05385276, 0.027880315, -0.018090995, 0.015092008, -0.022017071, -0.009351254, 0.06704274, 0.031548847, -0.0072418377, 0.019735962, -0.018066967, 0.011124518, -0.01362766, -0.019445876, 0.016562376, 0.02813459, 0.013151808, -0.017798623, 0.008788734, -0.0019421759, 0.01658437, 0.028117137, 0.12526438, 0.017812258, -0.0068307687, 0.00074484444, -0.006139307, -0.014916385, -0.027615016, 0.009725377, -0.00906895, -0.023317039, -0.021562481, 0.0129997125, -0.026376538, -0.042010427, 0.06418159, -0.032584056, -0.08116887, 0.056026552, 0.07767531, 0.049831558, 0.10399884, -0.08242538, -0.08250583, -0.010175286, -0.021061037, -0.011253055, -0.04026304, 0.063677974, -0.011705014, 0.030985428, 0.053840622, 0.059602093, 0.013573924, -0.008277695, -0.0690056, -0.07084035, -0.019220846, 0.043495614, 0.024889778, 0.06451656, 0.14733416, -0.07778903, -0.0352032, -0.03822006, -0.03639456, 0.1331558, -0.05770353, -0.06343046, -0.10964531, 0.12685703, 0.07825246, -0.15626778, 0.02311482, -0.016088817, 0.17054014, 0.13759498, -0.086443946, 0.038465805, 0.008140121, 0.07049776, 0.0077296733, -0.052382868, 0.01251425, -0.104969874, -0.024132617, 0.010683279, 0.048367165, 0.086586386, 0.018196408, -0.025295636, -0.0636029, -0.058419954, -0.013113749, 0.077652246, -0.054643534], "bias": [0.06201585, 0.005873136, -0.0057400805, -0.024083143]}, "pixel_shuffle": {"name": "pixel_shuffle", "type": "pixel_shuffle", "inputs": ["conv2d_7_tf", "conv2d_7_tf1", "conv2d_7_tf2"], "output": "canvas"}}}