{"name": "anime4k/cnn-2x-l", "layers": {"conv2d_tf": {"name": "conv2d_tf", "type": "conv", "inputs": ["input_image"], "output": "conv2d_tf", "weights": [-0.010050178, 0.07514247, 0.113477625, -0.0050521293, 0.01478879, 0.09144898, -0.16916063, -0.0062370496, 0.006512118, -0.03930433, 0.021983238, -0.0565407, 0.0, 0.0, 0.0, 0.0, -0.04244692, 0.11679907, 0.16609213, -0.16842541, 0.07169264, 0.21394816, 0.08092494, -0.03002658, 0.035952974, 0.10141175, -0.32607806, 0.22579904, 0.0, 0.0, 0.0, 0.0, -0.11428862, 0.0039621624, 0.3454322, 0.056171715, 0.15070564, 0.06177961, -0.1525414, 0.060822755, 0.021606993, -0.018011494, -0.009556803, -0.02916302, 0.0, 0.0, 0.0, 0.0, 0.137314, 0.03353004, -0.12564452, -0.2032319, -0.18812643, 0.07161205, 0.0111773005, -0.048790902, 0.01887958, -0.14259052, 0.13026474, 0.15626068, 0.0, 0.0, 0.0, 0.0, 0.02319849, -0.39226383, -0.123694085, 0.22229607, -0.1712679, -0.26796553, -0.019221596, -0.006919385, -0.18473144, 0.006488457, 0.13326825, -0.08870392, 0.0, 0.0, 0.0, 0.0, -0.1269655, 0.08355754, 0.21463887, 0.097125545, 0.3017963, -0.08782909, 0.0050339396, 0.092567906, 0.01710076, 0.025207734, -0.2060725, 0.06790692, 0.0, 0.0, 0.0, 0.0, -0.00019268194, -0.030228717, -0.055018324, -0.082947895, -0.019216659, 0.046126038, 0.07169476, 0.052046675, 0.01451337, -0.026233962, 0.0025339196, 0.0070074038, 0.0, 0.0, 0.0, 0.0, 0.072528444, 0.19924125, -0.20110317, 0.07143661, -0.121316634, -0.15084448, -0.02568811, 0.06514408, 0.008883467, 0.033884615, 0.23646776, -0.22766043, 0.0, 0.0, 0.0, 0.0, -0.02415469, -0.042166796, -0.049360428, -0.12688674, -0.00039535295, 0.042400748, 0.067389965, 0.08709409, 0.027728926, 0.0324439, -0.046094008, -0.07646781, 0.0, 0.0, 0.0, 0.0], "bias": [-0.021017402, 0.023869233, -0.03446273, -0.017457444]}, "conv2d_tf1": {"name": "conv2d_tf1", "type": "conv", "inputs": ["input_image"], "output": "conv2d_tf1", "weights": [0.13039374, -0.20881647, 0.085535765, -0.04549321, -0.05602446, 0.05206936, -0.049312644, 0.058318272, -0.07205178, 0.12506376, -0.055328257, -0.040317576, 0.0, 0.0, 0.0, 0.0, 0.027084742, -0.046953436, 0.114328414, 0.019273244, -0.18612593, -0.042662013, -0.10632912, 0.46282503, 0.15413262, -0.11449919, 0.022248508, 0.14106302, 0.0, 0.0, 0.0, 0.0, 0.061211597, -0.09251022, -0.022290474, -0.026557192, -0.06401915, 0.04884669, -0.01012558, 0.0868072, 0.0051997304, 0.0016399457, 0.029869322, -0.06611751, 0.0, 0.0, 0.0, 0.0, 0.032391887, 0.1376006, -0.07514978, -0.011408214, -0.22705236, -0.060529344, -0.029770914, -0.016893994, -0.29513285, -0.15767653, 0.11569193, 0.0060723783, 0.0, 0.0, 0.0, 0.0, 0.23049706, -0.10150541, 0.3651725, 0.19905666, 0.2135744, 0.36350945, 0.25375202, -0.21457075, 0.054750398, -0.2203764, -0.10303004, 0.031399418, 0.0, 0.0, 0.0, 0.0, -0.20473221, 0.1794404, 0.14544463, -0.10519902, 0.13948862, -0.12484333, -0.057456728, 0.090331204, 0.06509677, 0.008269811, -0.058718067, -0.014385275, 0.0, 0.0, 0.0, 0.0, -0.09778942, -0.18738163, 0.102832824, -0.073642634, 0.0953312, 0.141663, -0.09108712, 0.072541974, -0.021894168, 0.06338371, -0.033460297, -0.003208068, 0.0, 0.0, 0.0, 0.0, -0.17743309, 0.22523694, 0.07015525, -0.04835906, 0.17053458, -0.18887468, -0.12807837, 0.052100822, 0.03275106, 0.18682368, 0.04089403, -0.012919293, 0.0, 0.0, 0.0, 0.0, 0.0072392495, 0.02001162, -0.030496176, -0.012241176, -0.079015754, -0.044929776, 0.0017619107, -0.018924208, 0.06333498, 0.101240695, 0.0061696167, 0.015617578, 0.0, 0.0, 0.0, 0.0], "bias": [0.003307056, 0.004167855, -0.04743373, -0.04461488]}, "conv2d_1_tf": {"name": "conv2d_1_tf", "type": "conv", "inputs": ["conv2d_tf", "conv2d_tf1"], "output": "conv2d_1_tf", "weights": [-0.08246607, -0.06993787, 0.21518068, 0.09349072, 0.098292604, 0.0031368467, -0.06322315, 0.008967563, 0.014805354, -0.06916433, 0.08671435, 0.06909203, -0.084386684, 0.057038587, 0.059080295, 0.09245788, 0.12281746, -0.033948243, -0.099717066, -0.36737415, 0.013275642, -0.10866348, -0.08168493, -0.22546785, -0.093949944, -0.004218151, 0.13359737, 0.025002811, 0.016627438, 0.009715738, 0.065090775, -0.08140275, -0.16906688, -0.14757878, -0.033162065, -0.12727965, 0.19325337, -0.031597618, -0.085281275, -0.100973025, -0.030999115, -0.017681807, -0.013036884, -0.022147438, 0.09220687, 0.028913654, 0.10349628, 0.1713921, -0.107005164, 0.12082677, 0.043716736, -0.0060760453, 0.055586, -0.056089986, -0.23198368, 0.12206357, 0.10441252, 0.0066681965, -0.08183869, 0.021837998, 0.006353985, -0.065043665, -0.09902116, 0.007791685, -0.011813115, -0.30264404, -0.017419564, 0.29318118, 0.32588926, 0.15907557, -0.005746378, 0.5083059, -0.009286822, 0.02270092, 0.083120786, -0.12527227, -0.05032595, -0.044868883, 0.06349155, 0.019234573, -0.008378586, -0.12289949, 0.2454629, 0.06867388, 0.21918839, 0.10011607, -0.08913173, 0.2419772, -0.030028814, 0.015717681, 0.06962608, -0.08822798, -0.14691831, 0.03270783, -0.14878273, -0.07302588, 0.2680654, 0.08090772, -0.19636732, 0.29980376, -0.00057029625, -0.049441554, -0.07364171, -0.081735216, -0.0001286001, -0.052516576, -0.14375277, -0.034356743, 0.15595195, 0.0051971767, -0.116542645, 0.079690404, -0.049786113, 0.05753863, -0.20104602, 0.027079362, -0.10751576, -0.014812797, -0.103522755, -0.080305696, -0.033562068, 0.046529572, -0.11100664, 0.048211534, -0.12033101, 0.004881753, 0.18857542, -0.06497092, 0.033704806, -0.057733092, -0.16084221, 0.011318826, 0.07209833, 0.042939268, 0.1097046, 0.044268213, -0.10985679, -0.022305433, -0.012344448, 0.06915348, -0.20150116, -0.02943935, 0.03762184, -0.023550477, 0.029729484, -0.017379101, 0.17085162, -0.008643917, -0.029767923, -0.059461664, 0.10312052, 0.017950099, -0.09813738, 0.09403535, 0.072649606, 0.05225909, -0.07539487, -0.017390637, 0.055513725, 0.01326253, -0.16198212, 0.05865358, 0.18706574, 0.19882089, -0.023021981, -0.13693304, 0.08015399, -0.04678158, -0.07432504, -0.051171944, 0.003299184, 0.11042632, -0.09816218, 0.030362124, -0.03149573, 0.13271806, -0.09888849, -0.0107274745, 0.16882427, -0.015732344, 0.10939637, 0.047667693, -0.15176322, 0.04452832, 0.20769343, -0.025076134, -0.071019925, 0.023983289, -0.069010764, 0.04604831, -0.027803997, 0.11733907, 0.0985943, -0.015479632, -0.06810555, 0.0063343015, -0.023534117, -0.123531505, -0.11995801, -0.13641538, -0.0020546936, -0.04204301, -0.058592435, 0.0044515906, -0.06667593, -0.033650022, -0.07599677, -0.039750356, 0.20085613, -0.09097441, -0.015855193, -0.06214183, 0.18477227, -0.03208978, 0.02195244, -0.093518876, 0.20727435, -0.25396326, 0.031413514, -0.012470519, -0.15695417, -0.15546839, -0.24600957, -0.24539497, -0.037123557, 0.27389488, -0.07183459, -0.08184858, -0.03155334, 0.11940322, -0.0049229665, 0.0034165923, -0.048556127, 0.028252663, -0.10640605, 0.012348096, 0.0092410445, -0.12780513, -0.15170881, -0.06683283, -0.053394563, -0.062067073, -0.08786903, 0.031913623, 0.075313985, 0.045088824, -0.16081555, -0.042741377, -0.028757995, 0.04358411, 0.18557455, -0.1149338, 0.10680159, 0.07232992, 0.29669696, 0.027947497, -0.1279762, -0.061629225, 0.04807526, -0.14411716, -0.03781083, 0.07103443, 0.31405988, -0.12947631, -0.018509772, -0.010439102, 0.011540405, -0.12366305, 0.27978787, -0.16991587, 0.087106146, 0.06424496, -0.18486765, -0.05046882, -0.072449684, 0.07105092, -0.053373948, -0.08791538, 0.020135116, -0.035450805, -0.079595625, -0.041026823, 0.015499818, 0.03417423, 0.06113964, -0.06740196, 0.13017236, -0.01888708, 0.012429379, -0.0040329387, -0.022873238, 0.009869341, -0.013601266, -0.041115016, 0.009229275, -0.005734357, 0.0034184954, -0.0036657949, 0.1671831, 0.038708083, -0.09616399, -0.08645113, 0.11840012, -0.17931464, 0.09828573, -0.039234996, -0.21312723, 0.26093104, 0.03736416, 0.08026746, 0.27772287, 0.2156972, 0.0672601, -0.056582537, -0.15805732, 0.08256267, -0.02710881, 0.031880844, -0.271933, -0.039866284, 0.072606385, 0.025345745, 0.05712076, 0.15657988, -0.24506654, 0.02909542, 0.23668034, 0.024171054, 0.08765661, -0.05170836, 0.1453865, -0.002691439, -0.11214133, -0.09194936, 0.21354352, -0.16637403, -0.25681186, -0.045112256, 0.02341875, 0.053495225, 0.13249639, 0.053703427, 0.2190654, -0.07779533, -0.18741368, -0.049187656, 0.07955536, -0.037218116, 0.14968154, -0.0251703, 0.11932219, 0.15875216, 0.10855508, 0.02994286, 0.08277219, -0.25463015, 0.050614443, -0.17914881, -0.1964914, -0.039865095, 0.052636992, 0.0140891, -0.081643045, -0.1393039, -0.0747771, -0.10857514, -0.16199712, -0.16777693, -0.14323601, -0.0052900035, 0.008202848, -0.048914753, -0.48710078, -0.13253306, 0.07240703, -0.10529237, -0.0023075014, 0.02854171, -0.022599626, 0.06986749, -0.06832129, -0.030600509, -0.08828318, -0.013601252, 0.11902206, -0.09301141, 0.19731557, -0.024342917, 0.062074192, 0.010362772, -0.23320924, 0.003650301, 0.13772771, -0.20485513, -0.006821812, -0.046341106, 0.047603194, -0.054303437, 0.081480674, 0.022638172, -0.35346213, -0.0274001, -0.06045242, -0.1161893, 0.0949487, -0.012199414, -0.11289974, 0.06808392, -0.19445528, -0.10403395, -0.101309866, 0.0026441035, 0.06935715, -0.07884953, -0.28252646, 0.10189272, -0.08731743, 0.025555685, 0.124333665, 0.03618001, -0.08024513, -0.12582873, -0.0898942, -0.038077295, -0.026017612, 0.0076446696, 0.011614149, 0.030382639, -0.07081104, -0.038467094, -0.09778668, 0.026597377, 0.0007642569, 0.0039234306, 0.087891705, 0.04515831, 0.0016376277, -0.012866655, -0.06323717, 0.1376501, 0.109839246, 0.039502963, 0.15741298, 0.045407876, 0.13611875, -0.0057186647, 0.33873084, -0.109365605, 0.15111798, -0.08314182, 0.24834077, -0.050077148, 0.038951956, 0.17595507, 0.40717608, 0.23509441, 0.18563764, 0.1674825, 0.24598153, -0.391815, 0.19673279, -0.03023242, 0.5470018, -0.21436666, 0.094403416, -0.0601174, 0.3669765, 0.09164901, -0.06468566, -0.050292503, 0.34119245, -0.1041589, -0.18347256, 0.09509192, 0.35553667, 0.08861556, -0.0373337, -0.06963552, 0.07530833, -0.17575666, -0.080736056, -0.018618952, -0.063218, 0.0049377116, 0.20941268, 0.058598854, 0.050819065, 0.1374733, -0.008563183, 0.12945853, 0.15820839, 0.03917025, 0.10428041, -0.15507513, 0.007848143, -0.18237671, -0.13449292, 0.20712246, -0.4175647, 0.10150852, 0.250651, -0.23024225, -0.47039142, -0.2692204, 0.39129058, -0.60996616, -0.33454895, 0.008663586, 0.25627947, 0.014137039, -0.04250006, -0.3457522, -0.019636625, -0.07813474, 0.08681983, 0.053123854, -0.23845045, -0.1461377, -0.17350554, 0.044436388, -0.078313276, 0.19716965, 0.07617457, 0.00804691, -0.11488069, 0.11892469, -0.09436597, -0.04660232, 0.09062847, 0.026938817, -0.023231022, -0.026344856, -0.06118948, -0.051453408, -0.09339081, 0.03804153, 0.050162885, 0.070277356, -0.3258517, 0.14155169, 0.1060424, -0.16308852, -0.06324642, 0.01278842, 0.03778182, 0.022887312, -0.2115452, 0.09254439, 0.013797612, -0.09560835, -0.08550431, -0.080606215, 0.097778335, 0.015699463, -0.44881916, 0.24536487, 0.6712933, -0.26776737, 0.20282853, 0.8570596, 0.049599268, -0.046625216, -0.03446911, 0.07969107, -0.13754806, 0.009426979, -0.03155157, 0.089583874, 0.08760225, 0.08647825, -0.10534033, -0.017241182, -0.23188443, -0.11251664, -0.12052628, 0.013608774], "bias": [-0.04801684, 0.33209425, 0.009659474, 0.0075027896]}, "conv2d_1_tf1": {"name": "conv2d_1_tf1", "type": "conv", "inputs": ["conv2d_tf", "conv2d_tf1"], "output": "conv2d_1_tf1", "weights": [-0.198847, 0.054992627, 0.011527585, -0.2814369, 0.057636194, -0.045283142, 0.042676967, -0.13241795, 0.08007686, 0.002184489, 0.017332962, -0.006021074, 0.07237461, -0.016199864, 0.009405133, 0.082508944, -0.18243992, -0.048503913, -0.12651081, -0.13505463, -0.06895267, -0.011131511, -0.057648104, 0.15025443, -0.10782959, 0.012567681, 0.050612986, -0.037650734, -0.020221828, 0.21151473, 0.06724366, -0.12887767, 0.013089703, 0.042776063, -0.07018377, 0.2619677, 0.088075854, -0.030797878, -0.017286757, 0.10194563, -0.030956453, -0.035501644, 0.032572195, -0.014269064, 0.023341905, -0.0002498192, 0.08617132, 0.08993295, 0.42322096, -0.45621356, 0.29952934, -0.015646804, -0.10401648, 0.08129697, 0.045910623, -0.2027174, 0.143516, 0.028419713, -0.068485506, -0.1488245, 0.08318876, -0.15438555, -0.08203055, 0.060189188, 0.1298643, 0.2253485, -0.20323814, -0.26184148, 0.15232229, 0.54826176, -0.23495887, 0.19770373, -0.021675047, 0.024583245, -0.032513954, -0.030466646, -0.016532734, -0.02391457, 0.07000562, 0.053191803, 0.105100736, 0.09280052, 0.056874678, 0.21415685, 0.14119701, -0.09517501, -0.15304904, 0.20564923, -0.039210707, -0.027013792, -0.11668511, -0.009295249, -0.22046123, 0.028888786, -0.0680168, 0.006332692, -0.10509606, -0.14266911, -0.014225772, 0.18404041, 0.14533764, 0.022548256, 0.061187673, -0.29025266, 0.2568969, 0.065825194, 0.09483924, 0.068957336, 0.1627188, -0.00396907, -0.042962413, -0.090996645, 0.10802913, -0.24680533, 0.0950394, 0.06664416, 0.13407649, -0.1248974, -0.053285863, -0.08672627, 0.12471728, -0.035689738, 0.04098979, -0.09759274, -0.1600408, -0.028475793, 0.07908203, -0.016671196, -0.019497406, -0.020838888, -0.0071117813, -0.10250828, 0.112269804, 0.003812856, -0.07472717, 0.13771144, 0.017058656, 0.0067968764, -0.02068231, 0.074889004, 0.08595541, -0.053315178, -0.025842736, -0.058870807, 0.018619074, 0.0041896673, -0.021622771, 0.10641265, 0.08757093, -0.05992507, -0.073411666, 0.06449482, 0.02129938, 0.042475354, 0.10291593, 0.062720165, 0.00034098572, 0.044728428, 0.013198876, 0.039030265, -0.11823877, 0.054973423, 0.31511158, 0.09114189, 0.026962208, 0.11260233, 0.12412814, 0.103166126, -0.20348074, 0.1118153, 0.12109596, 0.07180956, -0.017916923, 0.047394276, 0.19206624, 0.026952533, -0.042672962, -0.05220455, -0.12509027, 0.1255666, 0.04178998, -0.22074308, 0.021833219, 0.058954377, -0.013729699, 0.15800317, 0.009631363, 0.056882888, -0.0140486965, -0.08593034, -0.0091192685, 0.017477198, -0.056927208, 0.021555252, -0.010833254, -0.06985826, -0.005963084, 0.04690335, 0.05517913, -0.18717799, 0.106756285, -0.004813134, 0.0058301794, -0.30358553, -0.12339816, 0.0481793, 0.16315526, -0.2943185, -0.3683267, -0.008879209, 0.25000638, -0.17490366, -0.11833355, 0.060324904, 0.17997223, -0.12728819, 0.029537626, -0.29711026, -0.005452013, 0.26267177, -0.0675151, -0.11365757, -0.12917262, 0.12831613, -0.015523593, -0.05184294, -0.31751794, 0.2775734, -0.12541544, 0.09282096, -0.16235211, 0.19706775, -0.23013118, -0.2051314, -0.084727325, 0.102970675, 0.03128687, -0.023971474, -0.15793096, 0.097857274, -0.08916059, 0.038002506, -0.020449877, -0.041126788, 0.017895492, -0.04182006, -0.020028828, -0.08613566, 0.050788432, -0.01723298, 0.035519082, -0.22592573, 0.15058109, 0.02138682, 0.037199408, -0.20399092, 0.10885988, -0.008434041, -0.052397218, -0.33973867, 0.044835668, 0.031839255, -0.062456634, -0.113737874, -0.12121865, -0.05716924, -0.017540557, -0.057287015, 0.12674259, -0.2204469, 0.0872009, 0.15780646, 0.056965552, 0.044801023, -0.11671416, -0.13755907, -0.23252033, -0.039595734, -0.116590634, 0.10432326, 0.10393996, 0.07966945, -0.033690125, 0.08680128, 0.08617671, 0.0019018537, -0.03919069, -0.021091942, 0.23394898, 0.04642515, -0.048988603, 0.026448455, -0.057474982, 0.040405445, 0.020120554, -0.04864578, -0.06740428, 0.09184355, 0.07578275, -0.09040807, -0.09853699, 0.1307837, 0.15704049, -0.0046264865, 0.13285232, -0.11614521, -0.10626347, 0.26225027, -0.133932, 0.15031789, 0.12280696, 0.005361199, 0.12663427, 0.01109706, -0.102379955, 0.17842121, -0.13498151, -0.15935978, -0.017644808, 0.067865126, 0.12041324, -0.067737356, 0.046839885, 0.05934041, -0.078709185, 0.041132543, 0.035262853, 0.037550233, 0.040628072, 0.054992795, 0.011519399, 0.017480219, 0.13425064, -0.0043999744, -0.054176427, 0.08016692, -0.17742316, 0.26368544, 0.11139646, -0.11252403, -0.24368763, 0.17539845, 0.027755035, -0.3158303, -0.010174694, -0.114340745, -0.06500577, -0.005165041, 0.21177162, -0.1270963, -0.21803513, -0.025927128, 0.10273772, -0.18804502, 0.11102399, -0.17777188, -0.40240034, 0.0016462515, 0.5972395, 0.43455338, 0.04253738, 0.1048497, -0.036340043, 0.19487973, 0.26821274, 0.042985234, -0.08363403, 0.13220139, 0.071615934, -0.0031518906, -0.05480395, -0.01890794, -0.01290973, 0.107760146, -0.10706275, -0.03340664, 0.08738449, -0.010493789, 0.061292607, 0.035626758, 0.38275683, -0.13209414, -0.044193357, -0.074077785, -0.06918871, 0.03032514, -0.06981122, 0.016689667, -0.13658105, 0.06970429, -0.049999125, -0.29301402, 0.05665937, 0.027958702, 0.07863655, -0.020271521, -0.15420674, -0.031178698, 0.11304995, -0.23275763, 0.12892693, -0.038733963, -0.07010693, -0.16155003, -0.17440248, -0.0017525647, -0.48924166, -0.18155977, -0.18650658, -0.009712608, -0.0686852, -0.071054004, 0.16392125, 0.10864324, 0.023667227, -0.09240169, 0.05324406, -0.049875792, 0.026449602, 0.07332671, -0.031672373, -0.16842465, -0.34360754, 0.34863237, -0.028815133, -0.09127664, -0.0035194808, 0.0743196, 0.18372302, 0.04339612, 0.016189605, 0.012851289, -0.06158389, 0.05392717, 0.043215625, 0.05771663, 0.022825006, 0.049294025, -0.05512009, 0.04205788, -0.042326804, -0.1849315, 0.047936328, -0.14961042, 0.07902256, 0.026685022, -0.0070484444, -0.053057678, -0.065123454, 0.172708, -0.11036599, 0.20233496, 0.035220925, -0.04794634, -0.22152878, 0.12799762, -0.04125289, -0.09426323, -0.1993277, -0.26071575, -0.05764155, 0.13367619, -0.08493864, -0.028629635, 0.03373616, 0.17238148, 0.12854648, 0.1245575, -0.042284302, 0.24036044, 0.04979817, -0.026657414, 0.10343607, -0.3837633, 0.02428321, 0.06839147, 0.14404133, 0.072138675, -0.011293803, 0.031407773, 0.02134834, 0.05825235, 0.11317704, -0.21301408, -0.06306547, 0.0062672663, -0.04824257, -0.11427578, -0.30560806, -0.032664668, -0.091131076, 0.18653436, 0.18795344, -0.012011721, -0.15807898, 0.2549214, 0.018682417, 0.12171368, -0.03475246, -0.15530822, -0.08002533, 0.21850298, 0.12313824, 0.040315345, 0.9880545, 0.40140855, -0.23656115, 0.11764646, 0.085207954, 0.18444623, 0.0045767846, -0.14992481, -0.0037951497, -0.16850777, 0.15187965, 0.17753762, 0.27557912, -0.19472107, -0.033949926, 0.0423607, 0.10913497, 0.1808554, 0.15194154, -0.20830728, 0.016844321, 0.058872253, 0.07339074, 0.026472563, 0.074844524, -0.010248436, 0.01084973, -0.23761618, -0.010073813, 0.067717746, 0.080370456, -0.24620299, -0.37252882, -0.09830929, -0.02347461, 0.31616977, -0.5323197, 0.15671006, -0.20477173, 0.25314668, 0.06084452, -0.032615624, -0.0738489, -0.2467371, 0.013803634, 0.013968174, -0.027695166, 0.1539413, -0.16432063, 0.28728548, 0.12675487, -0.003957276, -0.42820033, 0.051641095, -0.32301164, -0.23020703, 0.13691936, -0.17887223, -0.10499737, -0.025537845, 0.36892763, 0.06903047, 0.0013017878, 0.108313836, -0.15291098, -0.1928538, 0.17064093, -0.24397925, 0.12773442, 0.14588168, 0.09260532, -0.12884435], "bias": [-0.029009555, -0.048648197, 0.055343565, -0.0017164209]}, "conv2d_2_tf": {"name": "conv2d_2_tf", "type": "conv", "inputs": ["conv2d_1_tf", "conv2d_1_tf1"], "output": "conv2d_2_tf", "weights": [0.11902538, -0.011211427, -0.113077775, -0.0104966555, -0.03604215, 0.091846295, 0.02968656, 0.027469676, 0.07121411, 0.027183782, -0.028423939, -0.027149376, 0.07802001, -0.07549834, -0.064154, -0.104549, 0.09799036, -0.078089386, 0.0028835589, 0.0068080234, -0.042643994, 0.035998885, 0.09770868, 0.06326854, -0.11714164, 0.030157553, 0.12051905, 0.02555408, 0.078221835, -0.008320198, -0.07880603, 0.045049306, -0.1285903, -0.0024029054, -0.05710711, -0.029781584, -0.07469336, -0.014952769, 0.04141384, -0.04364302, -0.053579252, -0.005034341, 0.088293545, -0.052475728, -0.1336497, -0.002177928, 0.0069777435, 0.0632, 0.060550362, -0.11510718, 0.010016812, -0.1576483, -0.090506926, 0.14340298, 0.10056461, -0.16361977, 0.017867038, -0.06285761, 0.10387239, -0.024711596, 0.16455308, -0.10904698, 0.12805462, -0.12926304, 0.4509915, 0.15570329, -0.051921334, 0.15368615, 0.04651328, 0.003886588, -0.0075950087, 0.09699647, -0.08024429, 0.1543714, 0.15164492, 0.19059472, 0.21075098, 0.18429115, 0.04963664, 0.0786474, -0.16693538, -0.12584665, 0.01129067, 0.12141852, 0.1615029, -0.12102888, -0.06525461, 0.037547212, 0.024603592, -0.09351987, 0.15597798, 0.16072771, -0.26997015, 0.248929, 0.10394069, 0.14513965, -0.034310035, -0.05393653, -0.2120317, 0.07771047, 0.06793717, -0.025701987, -0.049221966, 0.15342583, 0.024352724, 0.037943047, 0.14426346, 0.009041234, 0.16806735, -0.018197233, 0.072799176, -0.11915002, -0.38960978, 0.11895226, 0.008682977, 0.03174932, 0.041642528, 0.06403267, -0.019242687, -0.08360886, 0.1206882, -0.08559988, 0.18695699, 0.008761423, 0.073635206, 0.18421946, 0.24929504, -0.4002548, -0.048642766, 0.098233886, -0.05103337, 0.23985505, -0.0065323557, -0.015914956, 0.01620689, -0.010878441, 0.13012679, -0.04487642, 0.02062242, 0.065912545, 0.005283183, 0.24242155, 0.06291325, 0.027040742, 0.06962241, -0.04794247, 0.21893786, 0.061984584, 0.027342554, 0.14069451, 0.007006714, 0.040005695, 0.16989791, -0.16413619, -0.013384692, 0.051308848, 0.09784476, 0.027113156, 0.00414084, -0.051645212, -0.032429457, 0.010698348, 0.0966193, 0.10413373, 0.08676305, 0.13619277, -0.042306174, 0.16483131, 0.19255817, -0.020305656, -0.16614084, -0.10000663, 0.21147965, -0.114892974, -0.13753434, -0.024943376, 0.00094834185, -0.06999406, 0.079593584, -0.22815375, 0.1687204, 0.07644855, -0.06939856, -0.017328972, 0.0032976507, 0.00708274, -0.11709248, -0.040887956, 0.18675904, -0.110723585, -0.30850804, -0.22448538, 0.051392816, -0.03620165, 0.0471869, 0.006206516, -0.00891839, 0.01892807, 0.007729164, -0.18579054, 0.21222578, -0.16199955, -0.12919094, 0.28380013, 0.017742679, -0.115809664, -0.106703445, -0.11641565, 0.017710343, 0.007462741, -0.00893556, 0.08330327, -0.26111874, 0.16032028, 0.2301653, 0.42118415, 0.31206307, 0.08909148, -0.036514793, 0.19974594, -0.01627349, -0.1198955, -0.13142018, -0.086816944, 0.026006004, 0.0055142595, -0.058809027, 0.14383104, 0.1259205, 0.2849656, 0.006450844, 0.002719977, -0.0020905396, 0.26138628, 0.05638509, -0.049391232, -0.20612864, 0.16830303, -0.16727366, -0.07428242, 0.092884846, 0.029073643, 0.12457541, 0.015095771, 0.0033224965, -0.08990063, -0.10695195, -0.06291441, -0.07800123, -0.02915892, 0.062751584, 0.26637906, -0.0019933549, 0.0010353589, -0.0980583, -0.05630733, 0.1515892, 0.0111065, 0.19953084, 0.051379804, 0.25845197, 0.21081638, -0.29701734, -0.08046632, -0.013708482, -0.05043319, 0.026697733, 0.060560316, -0.10045224, 0.00053409673, -0.11746088, -0.119741544, -0.007368914, 0.06788779, 0.11275537, 0.046324804, -0.013429213, 0.020406501, -0.23389901, 0.017326187, 0.05965506, 0.03383115, 0.10173613, -0.13107264, -0.2133689, 0.03542173, -0.21701576, -0.05388637, -0.24609664, -0.052067302, 0.1686796, 0.08678538, 0.23481837, 0.10159113, -0.13529748, -0.32318398, -0.07196235, -0.047782373, 0.14191186, 0.0035376083, 0.11693787, -0.061596327, 0.16775794, 0.12545511, 0.01784492, -0.027564596, -0.08360313, -0.04111042, 0.39531904, 0.01978868, 0.3044986, -0.15493077, 0.06178066, -0.0794006, -0.1249932, -0.13748828, 0.07167434, -0.013157041, -0.18588431, -0.31693348, -0.03267743, 0.088084474, -0.0815582, 0.040805355, -0.16246769, -0.058891784, 0.018150155, -0.077646166, -0.048904207, 0.009725668, 0.1696233, 0.06111205, -0.107710585, 0.02646782, -0.04397866, -0.014186452, 0.2722467, -0.047360666, 0.054439217, 0.19928974, 0.22963028, 0.16950113, 0.12447957, -0.24363983, -0.061143983, -0.00054587144, 0.14397274, 0.20111112, -0.09337854, 0.20303142, -0.012083048, 0.24956854, 0.053365044, 0.066516444, 0.13545601, -0.27878156, 0.78122747, 0.26807806, 1.2825605, 1.5920898, -0.12140899, -0.00085164484, 0.029007996, 0.12105954, 0.020832084, 0.29550084, 0.013400554, -0.53423804, -0.07505264, 0.086229265, -0.10501562, 0.053801145, -0.076642714, 0.10280909, 0.07398081, 0.16125937, -0.13511518, 0.062482912, 0.13240038, 0.009993712, -0.16332303, -0.25963613, 0.41974357, -0.08255758, -0.17435978, 0.13898832, 0.1327059, -0.028197868, -0.14393339, -0.10840807, -0.145755, -0.3090616, 0.18426965, -0.0070849457, 0.0321003, 0.06472609, 0.21454635, 0.08992287, 0.21386376, 0.07314052, -0.09461479, -0.2505192, 0.10316361, -0.091375045, 0.03394063, 0.17779468, 0.18757321, 0.05681452, -0.07363417, 0.13192277, 0.13523024, -0.056011874, -0.15110172, 0.19469903, -0.00913206, 0.21852706, 0.020306794, -0.011053822, -0.11666162, -1.1549897e-05, -0.23417392, 0.1520299, -0.028183335, -0.14282185, 0.13322563, -0.15398537, 0.3292501, -0.0060905977, -0.0014943777, -0.09983456, 0.20559299, 0.22647955, 0.026216628, -0.03550592, 0.06654768, -0.119990304, -0.024028353, 0.06775813, 0.08748844, -0.051011957, 0.019658, 0.014335213, 0.025242887, -0.015442555, 0.18378542, -0.037244037, -0.051903024, -0.03673052, 0.013689627, -0.08398505, 0.23834428, 0.0014968392, 0.054407302, 0.051533837, -0.18386242, -0.20400733, -0.17137715, -0.07407807, 0.14368926, -0.066778325, 0.01312264, 0.056959447, -0.1832725, 0.03310673, 0.08734139, -0.1080901, 0.11351067, 0.12375474, -0.001563209, 0.13710149, -0.027825193, 0.021240048, 0.06860601, 0.038050365, -0.046998695, 0.09527286, -0.039278906, 0.04952627, -0.09174148, -0.057549406, -0.013388702, -0.00091592735, 0.21169487, -0.075046316, -0.04895137, 0.085763186, -0.051842716, 0.2796012, -0.36590612, 0.20571296, 0.20369099, -0.32743677, 0.14573619, -0.04074621, -0.07534084, -0.069027, 0.07664379, -0.034063198, 0.24004069, 0.0572375, -0.16270097, 0.19810651, 0.1698171, 0.07132368, 0.07168982, -0.12709413, -0.35840166, 0.27470186, -0.04334814, -0.19708322, -0.40226543, -0.11541473, -0.07056041, 0.06736674, 0.22370243, -0.011229596, -0.052000403, -0.095469795, 0.13401079, -0.023196505, -0.15772696, 0.07349589, -0.1708038, -0.0071717133, 0.0030258102, 0.035043046, -0.13459706, 0.0772185, 0.03851213, -0.14232458, 0.11248449, 0.008869231, -0.09498517, 0.12526594, 0.034065228, -0.075333014, 0.07104518, -0.047082085, 0.13484713, -0.22909854, -0.2577227, -0.10769326, -0.15997787, -0.075633146, -0.20998293, -0.062458884, 0.06497354, 0.007848504, -0.02784011, -0.20181699, 0.022577655, 0.07541273, -0.18824139, 0.050359238, -0.2472669, 0.03947417, -0.34843853, -0.16125827, -0.121203244, 0.14259857, 0.12666084, -0.03941796, 0.19470963, 0.032442275, -0.04858482, -0.27986437, 0.2277205, -0.002843987, -0.023517553, -0.009619795, -0.070428856, 0.036867484, -0.21075356, -0.050174795, -0.07768617, -0.06836644], "bias": [-0.029708315, -0.08647097, -0.08185565, -0.00081262784]}, "conv2d_2_tf1": {"name": "conv2d_2_tf1", "type": "conv", "inputs": ["conv2d_1_tf", "conv2d_1_tf1"], "output": "conv2d_2_tf1", "weights": [-0.03402471, -0.0329086, -0.15226498, -0.016700223, 0.025095968, -0.11562352, -0.12753314, -0.023623293, -0.0011208581, -0.037226073, -0.0028320618, 0.09628874, 0.018028233, 0.037163164, 0.023593895, -0.039641336, 0.05094556, 0.15926884, -0.06817937, -0.030024512, -0.10462869, 0.10810855, 0.038485136, 0.18652761, 0.066618145, -0.06466882, 0.07742329, 0.040932123, 0.09061343, 0.013073496, -0.123716116, 0.035675704, 0.09980108, 0.0019130642, 0.100017376, -0.23688194, 0.03300057, -0.017580664, 0.0023355694, -0.1780693, -0.099419154, 0.036815576, 0.031782858, 0.016401375, -0.08009303, -0.07862411, 0.03778915, 0.07355277, -0.10336572, 0.2264989, -0.19798335, -0.25020272, -0.028204648, 0.068375245, 0.028766742, -0.028228108, 0.015618216, 0.015862672, -0.055994205, 0.05351616, -0.06826609, 0.04107402, 0.081739806, -0.0073344368, 0.32488915, 0.01693329, 0.0717711, -0.45444638, 0.1633639, 0.20464039, -0.13006029, 0.052897822, -0.02080907, -0.0995214, 0.05164363, 0.018628525, 0.12307071, 0.023330834, -0.059695486, -0.03473744, 0.13776478, -0.027322996, -0.10867236, 0.04833872, -0.23240645, -0.15406719, 0.13983802, 0.06736942, -0.055605024, -0.040541574, 0.24490078, 0.034341864, -0.12168728, -0.05459139, -0.13332081, 0.25547934, -0.11200651, 0.074954, -0.082680196, 0.16709948, -0.08431265, 0.15584941, 0.1614077, -0.09216033, 0.06447522, -0.01461696, -0.18439732, -0.075588495, -0.0018328053, -0.046106473, 0.069182605, 0.100129925, -0.015549371, 0.065842986, 0.0053905416, -0.1219848, -0.02481991, -0.22218433, 0.07426157, -0.058031112, -0.120979905, 0.24458554, 0.054573935, -0.16739435, 0.0457397, -0.009342409, -0.07156276, 0.04976221, -0.06207162, -0.059165474, -0.060891155, 0.047052205, 0.09217853, 0.01953392, 0.019665176, 0.030307837, -0.10478955, -0.12265966, 0.07806979, -0.078672655, -0.008090312, -0.27849755, -0.04883106, 0.043002393, -0.0005823972, 0.044312183, -0.045270566, 0.018751869, -0.08967879, -0.02466873, -0.050302792, 0.018752892, -0.014215922, 0.041187815, -0.06932388, 0.054786757, 0.02001936, 0.04832469, -0.03361752, -0.078728326, 0.009099484, -0.042920854, -0.044364043, 0.07212295, 0.05790115, -0.015635893, 0.115078345, 0.06417212, 0.05769189, -0.13989748, -0.09911227, -0.15527089, 0.010685861, 0.007939395, -0.11472233, 0.12088072, 0.07716044, -0.08445888, -0.0789514, -0.038148787, -0.09564396, 0.109151155, 0.13198893, 0.20538393, 0.14243968, -0.10789504, -0.19229262, -0.104631804, 0.13689993, 0.0176749, -0.26166904, -0.18348509, -0.0045958944, 0.0053662537, -0.036497306, -0.13950394, -0.0039263587, -0.12344908, 0.03401787, -0.08185818, 0.039101005, -0.019693978, -0.08976063, 0.1176624, -0.08955546, 0.09115581, 0.020709611, 0.094399214, -0.0665, -0.04567547, 0.01985864, -0.22102392, 0.06788529, 0.24980721, 0.0018241003, -0.43871868, -0.19515634, -0.3717622, 0.13288559, -0.18179305, -0.08409478, 8.191957e-06, -0.14222111, -0.09305892, -0.18865694, -0.0458532, 0.1088911, 0.23414837, -0.47598636, -0.14077426, -0.1337931, 0.25229794, 0.24809325, -0.06669501, 0.200724, -0.3132427, 0.24761425, 0.0989356, -0.09741812, -0.046938427, 0.039321832, -0.024462061, 0.023224542, -0.085705824, 0.017671466, -0.031733524, -0.0043619587, 0.042022083, 0.054416057, -0.042492583, -0.06505765, 0.047412965, -0.04018009, -0.01346801, -0.018381666, -0.045770206, -0.17101692, -0.0517598, 0.12192776, -0.079130456, -0.08614369, -0.17669788, 0.22872506, -0.13089697, -0.09626913, 0.11480145, -0.05458668, 0.12621187, -0.013944119, -0.06751752, -0.1522821, 0.27947143, 0.06463476, 0.005181337, 0.07338011, -0.037330016, -0.020193435, -0.020250717, 0.018801216, -0.004646763, -0.008005418, 0.21389434, -0.0034819988, 0.055908423, 0.07177874, 0.07179743, -0.09792784, -0.19777499, 0.008581989, 0.15845318, 0.13623999, -0.029968917, -0.09737641, 0.023350151, -0.05474016, 0.16542968, 0.090963714, -0.008369303, 0.0007993352, -0.14288247, 0.1165008, -0.018050304, 0.044448193, 0.10604772, -0.0062268185, -0.108698964, 0.028649574, 0.05058329, -0.07936758, 0.3130207, 0.2282395, 0.08361138, -0.015985401, 0.004624024, -0.07687257, -0.072642654, -0.09081304, 0.009142165, 0.10739394, -0.12744246, -0.098867685, -0.0051799607, -0.13828267, 0.07766435, -0.07307376, 0.18138319, 0.22717632, -0.038069323, 0.007901056, -0.040847667, -0.037528463, 0.005415265, 0.15337119, 0.08863487, -0.17788269, -0.05591915, 0.083692305, -0.03961591, 0.005801613, -0.011828588, -0.014995944, 0.14362302, 0.05831645, 0.0663667, 0.012823335, -0.01851196, 0.18628643, -0.047708645, 0.0958233, -0.2663741, -0.09096379, 0.14543054, -0.13934971, 0.02800726, 0.20859517, -0.024652073, -0.19300711, -0.067980185, 0.13759986, -1.5861905, 0.09927105, 0.17503306, 0.039977856, 0.112810716, 0.027046243, -0.015507154, -0.11797649, 0.5166893, -0.03613499, 0.017736185, 0.040054124, 0.097737096, 0.19563371, 0.04690474, 0.2139066, -0.009166373, 0.0979662, -0.1109934, -0.14184251, -0.036193967, 0.16218957, 0.16983767, 0.20168765, -0.24425977, 0.065178715, -0.01336966, -0.06676818, 0.026915932, 0.079635724, 0.07610917, 0.008194258, 0.3353934, -0.008617688, -0.03830697, 0.18032737, 0.016829148, 0.063603565, -0.019081382, -0.056436136, -0.19172321, 0.065844, 0.08897316, -0.061095532, 0.17884147, -0.020763187, 0.02307618, 0.0016035711, 0.005100176, 0.17126708, -0.14179355, -0.09446422, 0.04817677, 0.2339022, 0.30381328, -0.110841855, 0.17181629, -0.05539467, -0.03396479, -0.11030388, -0.0065862993, -0.06075879, -0.17566273, -0.005066756, 0.20568624, 0.09920432, 0.067379266, 0.20128776, -0.074242935, 0.0617498, -0.020176334, 0.04742116, 0.0835203, -0.005183812, -0.05862538, 0.028585061, -0.024895608, 0.03910009, -0.021341251, 0.1756216, -0.048940618, 0.041785564, 0.08931115, 0.2856215, -0.011444848, -0.026333202, -0.004682134, 0.08322751, 0.06602167, 0.037967276, 0.054112494, 0.03002812, -0.1444083, -0.084044226, -0.08948002, 0.01684383, -0.18358521, 0.05704361, 0.088526554, 0.18568493, 0.043458153, -0.021547047, 0.092882514, -0.006453813, 0.18033586, 0.0039675245, 0.067612946, 0.06655652, -0.017216764, 0.027287345, -0.08315352, -0.2341261, -0.072855175, -0.09948291, -0.02063074, 0.13781352, 0.11205485, -0.039071325, -0.013171969, 0.08021916, 0.10830461, 0.016726183, -0.03039964, 0.11092716, 0.00040021935, 0.062828265, -0.112021804, 0.014090753, 0.13145193, 0.06537683, -0.13378203, -0.010762554, 0.069509745, 0.039022453, 0.054987, -0.09352209, 0.010591828, 0.12468429, -0.06416788, -0.031311493, 0.2497685, -0.22051208, -0.24693106, 0.4253168, -0.2608133, 0.17991495, 0.40432554, -0.025698671, -0.57680756, -0.014498415, 0.024918111, -0.12017694, -0.0064048865, 0.04802914, 0.21352684, -0.16101797, -0.21837647, 0.15506025, 0.36483186, 0.06964917, -0.054129273, -0.11969358, 0.0010200528, 0.03704886, 0.13094476, -0.19825155, -0.024713755, -0.08914349, 0.1763306, -0.040127445, -0.042346362, 0.008102884, 0.081198975, 0.026933696, -0.03930877, -0.05230056, -0.047712408, -0.09351758, 0.044400543, 0.04272363, 0.014583194, 0.006873661, -0.04391747, -0.10840049, 0.115072, 0.12613782, 0.108934134, -0.04125457, -0.07609615, -0.054948952, 0.23618202, -0.21096556, 0.18855897, 0.04906988, -0.023756456, -0.018807959, -0.09005157, -0.05736407, 0.13191578, -0.048816107, -0.020920545, -0.026653387, -0.11140877, -0.07128275, -0.046050403, 0.029721025, 0.26894122, 0.053498607, 0.043917034, 0.01930152, -0.06530984, 0.02492668, -0.008828185, -0.09127264, -0.025500283, -0.030998386, 0.018119585], "bias": [0.06906049, -0.010531893, -0.07129085, -0.026987534]}, "conv2d_3_tf": {"name": "conv2d_3_tf", "type": "conv", "inputs": ["conv2d_2_tf", "conv2d_2_tf1"], "output": "conv2d_3_tf", "weights": [0.1087265, 0.12624228, 0.10013959, 0.20245525, 0.075821266, 0.15176502, -0.0961157, 0.030802555, -0.01697006, -0.025060805, 0.07512767, -0.060231432, 0.026443457, -0.022839146, 0.0038848752, 0.014137275, -0.060420994, 0.062780954, -0.10552174, 0.23520967, -0.06511414, -0.12012711, 0.01590396, 0.12617466, 0.2176629, 0.06777762, 0.034149997, -0.011800349, -0.067353144, 0.084396586, -0.004430578, 0.01791418, 0.1401177, 0.0582857, 0.017472176, 0.2144971, 0.08206747, -0.048275925, -0.1486743, 0.13264604, 0.03217614, 0.08056889, 0.054216824, 0.03978451, -0.071609125, 0.11095715, -0.0055442825, -0.08717564, 0.10431217, 0.060116746, 0.080621295, 0.23165895, 0.109585166, -0.03555394, -0.07273283, 0.06595182, 0.0012992647, 0.060071796, -0.049878407, -0.25133368, -0.045594916, -0.0972016, 0.03613422, 0.045977842, -0.0153202135, -0.0682094, -0.023012465, 0.051429432, -0.10314432, -0.16979735, 0.16300015, -0.42542854, -0.21141274, 0.2055588, 0.2315674, 0.01017974, -0.05327286, 0.20572081, 0.32571402, 0.07402653, 0.017014844, 0.042881705, 0.045035444, 0.13187708, -0.06159397, -0.26463762, -0.29087454, 0.20082505, 0.116722204, -0.10809962, -0.2064633, -0.16901428, -0.1338846, -0.17522244, -0.018555602, -0.07780818, 0.0050402433, -0.115255184, -0.046711802, 0.11079109, 0.059700806, -0.27175424, 0.07983727, -0.03563631, 0.06356085, -0.020957079, -0.04006123, -0.066010624, -0.11961431, -0.007940667, -0.0017475348, 0.025328085, -0.08480721, 0.14042178, 0.011657751, 0.18640795, -0.007265525, -0.04749661, -0.03817544, -0.042189315, 0.21745056, -0.21942429, 0.0060746833, -0.0581069, -0.055377346, -0.06627869, -0.14702763, -0.12701374, 0.05050657, 0.19387446, 0.05524912, 0.058717523, -0.065267414, -0.012099208, 0.06573045, -0.07278781, 0.035902336, 0.13634841, 0.07221466, -0.104933396, 0.0014413478, 0.03169203, -0.060675908, 0.00077261275, -0.15694614, -0.273961, -0.0006070995, -0.063600704, 0.14129849, 0.40627614, -0.10214382, 0.14787778, -0.15749645, 0.16251996, -0.0029512406, -0.04916743, -0.055186387, 0.10418572, 0.061217643, -0.041378256, 0.0060002776, -0.007479206, 0.019763285, -0.072111815, -0.18494205, 0.24176411, -0.19619524, -0.022511307, -0.15365653, 0.05992756, -0.037868924, -0.054012008, -0.07772457, 0.03292298, 0.3712975, 0.06433516, -0.026572037, 0.082176015, 0.044257578, -0.0542463, 0.03141804, -0.05507165, -0.3003795, -0.056472167, -0.0815275, 0.09605779, -0.04170391, 0.0169395, 0.11522832, -0.005715059, 0.21967573, 0.019422967, -0.10950624, 0.035328776, 0.025395472, -0.2177585, -0.018131707, 0.1861443, -0.20333257, -0.16186887, -0.24607, 0.056425445, 0.033056326, 0.01830067, -0.16948712, -0.18354064, -0.047932588, 0.010472394, 0.3657252, 0.105575815, -0.52497834, -0.086677775, 0.3555736, -0.22340067, -0.44785088, 0.010078861, -0.291761, 0.107273914, 0.15566999, -0.16699152, 0.0499319, 0.018940523, -0.32160226, -0.017716413, 0.07224036, 0.062677786, 0.3025498, 0.11174751, 0.035272334, -0.011799692, -0.10750061, -0.021078575, -0.23153728, 0.10876964, -0.04887832, 0.07098394, -0.1339873, -0.044025995, -0.36412343, -0.11719371, -0.13108455, 0.02207043, 0.03857755, -0.18864653, 0.08862064, -0.018754452, -0.1190512, 0.008179546, -0.051591955, 0.007291666, 0.08453877, -0.010068015, -0.10238494, 0.0696212, 0.036899168, 0.23325895, -0.024512917, 0.034109622, 0.058039285, -0.056742035, -0.15015419, -0.23232873, -0.0325193, 0.10905163, -0.16279258, 0.0147815375, 0.20040587, -0.3517538, -0.015616948, 0.22435826, 0.25744972, -0.278127, -0.040999237, -0.03142846, 0.020302417, 0.05909975, 0.09707273, -0.02359693, -0.22562636, -0.10947875, -0.094424516, 0.03256563, 0.19791046, 0.04857488, 0.03656605, -0.13551024, -0.08447005, -0.091437556, -0.0076303114, 0.11797058, 0.029069403, 0.013355243, 0.15860422, -0.049261127, -0.05139955, 0.10066909, 0.027490025, 0.0039031075, 0.011340642, -0.04573281, -0.055569112, -0.0002951779, -0.026461357, -0.014308082, 0.030416746, 0.14836888, 0.090453476, 0.12186495, 0.25348666, -0.0993575, -0.019959409, -0.15187974, -0.14361414, 0.033735223, 0.16761655, 0.22982402, 0.023026748, 0.044320766, -0.21575022, -0.0864483, 0.018414287, 0.07463555, 0.13043146, 0.11744455, -0.10567202, 0.11099209, 0.23457256, 0.041894656, 0.024632921, 0.069051266, -0.1308268, -0.010327557, -0.16399108, -0.13069196, -0.008382312, -0.041992072, 0.03283053, -0.083884254, -0.12982047, 0.17768283, -0.01591396, 0.095490605, -0.13556969, -0.09426615, -0.015659869, 0.05929317, 0.07905282, 0.29191455, 0.14570063, 0.28773972, 0.0951068, 0.1074543, 0.15891208, -0.27477098, -0.18236792, 0.06929117, 0.14933784, -0.051778026, -0.29755446, 0.11294557, 0.27315181, -0.014493887, 0.17045371, 0.077199936, -0.3719813, 0.49871254, -0.41727108, 0.048078973, 0.063084304, -0.077051096, 0.0083567165, -0.0040538614, -0.0241092, -0.25127637, 0.05542595, -0.054817095, -0.05134043, 0.058774795, -0.14451621, -0.0068787956, 0.057591252, 0.11166555, 0.43237528, 0.01187742, 0.11346466, 0.015346469, 0.17312692, 0.21200335, 0.118389, 0.043216377, -0.023704454, -0.12004081, 0.17406745, -0.0044749537, 0.078864954, 0.06620164, 0.020823017, -0.17497413, -0.055401895, -0.04488809, 0.08517145, 0.08973499, -0.045845933, 0.15269293, -0.11283183, 0.03487558, -0.039669123, 0.072059534, -0.124123625, -0.09391964, -0.052502777, 0.1497614, -0.119784355, -0.3242123, -0.048669744, -0.23696572, 0.19219944, 0.27430242, 0.3500381, 0.0015020758, 0.10238807, 0.042646926, 0.2243423, 0.17540681, 0.09158892, -0.3505975, -0.15421619, -0.043950796, -0.20595711, -0.118279606, 0.028659202, -0.093626425, -0.083413824, 0.07285863, 0.14444603, 0.058298893, 0.03904066, -0.033130664, -0.12075507, -0.36561826, -0.028513767, 0.023885686, 0.13105673, 0.07133019, 0.044276185, 0.062442344, -0.05280479, 0.05099425, 0.04589198, -0.084304646, 0.18935673, 0.17052218, 0.10924554, -0.1549342, -0.026367081, 0.03579137, -0.03856941, 0.12282103, 0.00036127394, -0.0012097623, -0.08842542, 0.11464122, -0.034808144, 0.0017436858, -0.013372977, -0.20920473, 0.06405119, -0.17564373, 0.12716503, 0.058640633, 0.10397959, -0.015880944, 0.039631955, 0.022590384, 0.14977325, -0.021566957, -0.04885736, -0.09480819, 0.02484289, -0.018370548, 0.15880328, -0.28654838, -0.1739441, -0.282088, 0.23384118, -0.2703245, 0.0482254, 0.37694025, -0.14823645, -0.030363876, 0.37101212, 0.03048035, 0.077463746, 0.13141689, -0.12750614, 0.013090551, -0.59972763, 0.08640069, 0.03835753, 0.03348315, -0.0076244106, -0.07535885, 0.042619273, 0.20999324, 0.2472112, -0.14468847, 0.26264298, -0.07295639, 0.13891505, 0.06289062, 0.01376183, 0.13025765, 0.030091144, -0.1379602, -0.13872719, -0.12954563, 0.13098729, -0.089512415, -0.20019148, -0.029496038, 0.1082934, 0.074040905, 0.07927176, 0.10567248, -0.012009931, -0.10055093, -0.04262499, -0.08305084, 0.1322997, 0.30149406, 0.08233331, 0.15607075, 0.10836399, -0.06744055, -0.1992239, 0.0011254633, -0.106310114, -0.19063525, 0.113769345, -0.20106804, -0.10922419, 0.00579441, 0.0016373036, -0.03791712, -0.12921204, -0.038567696, 0.0033579147, -0.13638832, 0.45748243, 0.025883874, -0.23996842, 0.1000683, 0.06229083, 0.20421408, 0.14024547, -0.019874953, -0.07547875, -0.054027595, 0.07273867, -0.1595126, -0.13189687, 0.060931727, -0.075228386, -0.10990151, 0.10825179, -0.028161714, 0.11976297, -0.06074645, 0.053381115, 0.118655875, 0.098777294, -0.15735695, 0.02856337, 0.019940954, -0.022087254, -0.046993565], "bias": [0.024482664, -0.07728135, 0.042737834, -0.010381604]}, "conv2d_3_tf1": {"name": "conv2d_3_tf1", "type": "conv", "inputs": ["conv2d_2_tf", "conv2d_2_tf1"], "output": "conv2d_3_tf1", "weights": [0.10897988, 0.12152958, -0.06304769, 0.023924792, 0.10868182, -0.20032357, 0.20354193, 0.14366989, -0.012578337, -0.018105717, 0.049976874, -0.013469542, 0.046587564, -0.028431594, 0.02106081, -0.00036534265, 0.088873155, 0.034335136, -0.05526429, 0.012147906, 0.20120034, 0.14801702, -0.0019505552, 0.1099236, -0.030640543, 0.059340764, -0.012314743, -0.021023702, -0.034442436, -0.048414245, -0.09210813, 0.14546944, 0.07295325, 0.07104264, -0.008391896, 0.08129007, 0.08388449, 0.14780016, -0.17429237, -0.19165918, 0.012012673, -0.061943606, -0.0611858, -0.10705987, -0.096758395, 0.008027848, -0.050357644, -0.10644373, -0.0805422, 0.05979033, 0.002443418, 0.05268679, 0.0372839, -0.0015031472, 0.19887419, 0.15648665, 0.008919425, 0.11952242, -0.01881644, -0.037125316, -0.042582974, 0.028662663, -0.009663634, 0.011447863, 0.2103176, 0.1900315, -0.18541819, 0.0035811844, 0.0010475735, -0.00742579, -0.055216618, -0.108584374, -0.062883094, 0.10372696, 0.14074157, -0.06997499, 0.28344497, 0.18993373, 0.15476567, 0.299302, -0.046882916, 0.010215853, 0.03846714, -0.016468534, 0.11498297, 0.005320227, -0.12670359, -0.015460954, -0.043908246, 0.13656504, -0.056471113, -0.06800144, -0.15044029, -0.04420328, -0.19314153, 0.14169356, -0.07254175, 0.109799966, 0.05966928, 0.007466691, -0.043120045, 0.17069171, -0.0014578601, -0.115537375, -0.07856389, -0.027997337, -0.090143055, 0.030666497, 0.025922248, -0.029307183, -0.019232204, -0.016413465, 0.12301163, -0.056904126, -0.009036917, 0.24735193, -0.0016654234, -0.08109307, 0.04807599, 0.13973674, -0.18381594, -0.07419511, -0.08842662, -0.1612203, -0.050917167, -0.0115712155, 0.07285608, 0.12731327, 0.006881603, 0.08059745, -0.05848614, -0.14974919, 0.1183346, 0.069969825, -0.1871988, -0.2554187, -0.029745873, 0.043249007, 0.14061153, -0.04211142, -0.054637957, -0.076006204, -0.05475237, 0.28025225, -0.1839934, 0.041650012, 0.028457105, -0.13766752, -0.24956422, -0.047558907, -0.17780392, 0.047053833, -0.015578643, 0.023209928, -0.011140171, -0.13805233, -0.011772781, 0.047807068, 0.045598503, -0.087539926, 0.021390572, -0.1893035, -0.065057494, 0.16755629, -0.32799262, 0.12549835, -0.09128067, 0.1571996, 0.050940465, -0.017724913, 0.0683946, 0.27733505, -0.055186406, 0.30441964, 0.021852953, -0.009838782, -0.09661355, -0.035501488, -0.13475531, 0.040097263, -0.08279977, -0.0053345547, -0.039864566, 0.11795653, -0.089405596, 0.19326417, -0.016701039, 0.14172162, 0.057435546, -0.073267184, -0.107149705, 0.15651728, -0.0766182, -0.2730672, -0.042929783, -0.11951007, -0.15590124, -0.1281106, 0.05354172, 0.14371449, -0.09238148, 0.12065133, 0.073546894, -0.12903403, 0.02394581, -0.33206174, 0.26802856, 0.005171616, 0.054010242, 0.03407708, 0.4152413, -0.31494087, 0.06541874, 0.08443393, 0.07765235, -0.005524036, 0.18494062, -0.062363964, 0.36177742, 0.17130363, -0.7997569, 0.006916015, -0.118800685, 0.2458269, 0.020548701, 0.0023664106, -0.16382636, 0.07878444, 0.05463234, 0.020082602, -0.33523262, 0.064327255, 0.026473904, -0.0074566384, 0.06623801, -0.054076925, -0.41026285, 0.029384399, 0.22518887, 0.1333142, 0.06924425, -0.015615342, 0.21675107, 0.05876925, 0.09037783, 0.08645351, -0.049117576, 0.029649261, -0.033214103, -0.025799917, 0.042383417, -0.029429533, 0.06495466, -0.06826291, 0.075939484, -0.013365175, 0.18679921, -0.044647574, -0.18851101, -0.046863496, 0.037689, 0.059717253, -0.04521036, 0.04605397, 0.08024284, 0.0074183685, 0.12405012, -0.046584614, 0.030701185, 0.07963189, -0.39565247, -0.39685732, -0.12600517, 0.06163027, 0.1358716, 0.051085416, 0.06412423, 0.06643204, -0.06888076, -0.009722302, 0.16455472, 0.035863444, -0.19820999, -0.042647243, -0.053729407, 0.03496941, -0.05851564, 0.12791313, -0.045509774, 0.059643455, -0.01778324, -0.015517152, 0.065539934, -0.19723855, 0.017189909, 0.16273801, 0.14944577, 0.007866339, 0.06403592, 0.017269848, -0.107824616, -0.0484183, 0.043656915, 0.04044298, 0.05254612, -0.06174307, -0.11787536, 0.10674928, 0.060888056, 0.070380546, 0.13242912, -0.19485936, 0.1381566, 0.03390953, -0.0062204427, -0.029777747, 0.05253288, -0.17480226, 0.14302559, -0.017753895, 0.0630484, 0.057227295, 0.05339209, 0.08709341, -0.036014825, -0.070809506, 0.050604515, -0.05949958, 0.15111819, 0.11641883, 0.002304765, -0.042089798, -0.008227635, 0.04913185, 0.14406058, -0.076449946, 0.018441169, 0.067656465, -0.13580087, 0.02405386, -0.017371647, 0.27055362, -0.0738057, 0.18169826, 0.23621804, -0.06368394, 0.13038678, 0.09818833, -0.23288536, 0.22242898, -0.101691365, -0.12917405, -0.124083795, -0.1331529, 0.34676817, 0.10425294, -0.026618201, -0.08337778, 0.16895957, 0.22268791, 0.14374425, 0.08095279, 0.0112347, -0.069046296, -0.45643935, -0.1618263, -0.15263224, -0.05464623, 0.11099493, 0.10183563, 0.30033728, -0.010486255, -0.12846605, -0.052788053, 0.053325344, 0.044315502, 0.021139964, -0.02472186, -0.036945183, -0.06468221, 0.15055925, -0.0026630724, -0.13651259, 0.2811395, 0.1358053, -0.0048423843, -0.13104111, 0.025528055, -0.109174065, -0.1443228, -0.028273605, 0.073263265, 0.034279343, 0.09555331, -0.0036125944, 0.058902923, -0.1474104, -0.018736433, 0.015129451, -0.15951778, 0.15179577, 0.010608415, 0.17182517, 0.124951236, 0.12548794, -0.23387553, -0.010583393, -0.028249284, 0.17169057, 0.06422819, 0.16295287, 0.13843377, -0.35892537, 0.01874699, 0.24590693, 0.07248663, 0.20893218, 0.02143589, 0.08054341, 0.16674767, 0.0010469294, -0.083265126, -0.066781715, 0.14871366, 0.10494506, 0.024459224, -0.15654936, 0.22297813, -0.03468492, 0.0058409423, 0.024467072, -0.2959334, 0.114144325, -0.17895268, 0.09596174, -0.04590487, -0.07659899, 0.049488977, -0.041926626, -0.101198316, -0.080448195, 0.09064424, -0.018472446, -0.028231466, 0.004957179, 0.004283123, -0.07103914, 0.020830603, 0.004953447, 0.16305642, 0.009004665, -0.11028082, -0.06695983, -0.13770334, -0.22678117, -0.106299, -0.07674203, 0.0313071, 0.03181976, -0.022050556, 0.021968644, -0.07830572, -0.098197535, -0.10196829, -0.027314259, 0.028598474, -0.071015194, 0.010882754, -0.09387984, 0.054622553, -0.15263364, 0.064655565, 0.025419548, -0.078281365, 0.13104928, 0.108923584, 0.04896835, -0.058532365, 0.1734283, 0.08413748, -0.119081505, -0.14140458, 0.35497656, -0.08694414, -0.0927135, -0.034803472, -0.3725646, -0.0066564125, 0.07951005, 0.018516993, 0.12151969, -0.09027234, -0.13779266, 0.1415425, -0.11198111, -0.03489664, -0.13075313, 0.088986285, 0.037106086, 0.13093841, -0.3261946, -0.097074345, -0.41991618, 0.049341984, 0.15374404, 0.15637645, 0.0725636, 0.16659848, 0.39131442, 0.21304624, 0.2482651, -0.1657534, 0.016967354, -0.06527281, 0.050104935, -0.11137152, -0.09439113, 0.04784554, 0.21894373, -0.14227079, 0.022259053, 0.047955792, 0.12177173, 0.060165405, 0.099993095, -0.08646518, 0.11909284, -0.30692673, -0.095823996, 0.1061016, -0.39300615, -0.20596659, -0.13573226, -0.15421964, -0.21126977, 0.024991091, -0.18198952, -0.13161886, 0.12731321, -0.051367432, -0.009388115, -0.025400247, -0.012228854, -0.00177547, -0.19780318, 0.114383735, 0.18315631, -0.38195384, -0.11104596, -0.01519206, -0.008982015, 0.023296839, -0.123199575, 0.115144484, -0.31725392, -0.505792, -0.0041191843, 0.0032773693, -0.10345974, -0.022871371, 0.08029443, 0.023037579, 0.005390254, 0.06887588, -0.122196786, 0.04512788, 0.18468656, 0.09843376, -0.06755321, 0.07702246, 0.24957997, 0.013484664, 0.078465596, -0.041346226, 0.032179553, 0.035245907], "bias": [0.0019888866, -0.23544057, 0.019415192, -0.008887315]}, "conv2d_4_tf": {"name": "conv2d_4_tf", "type": "conv", "inputs": ["conv2d_3_tf", "conv2d_3_tf1"], "output": "conv2d_4_tf", "weights": [0.05735493, 0.06523184, -0.05864001, -0.14871822, -0.14721727, 0.086856954, 0.019545374, -0.11475412, -0.056976195, 0.1728752, 0.0020228648, -0.055212386, -0.019071471, -0.048148155, -0.017028542, 0.011504761, 0.093155876, 0.31727415, -0.25356448, -0.05717146, 0.01367793, 0.16510479, -0.11164513, 0.035717554, 0.054919053, -0.21323113, -0.03183781, 0.023462052, 0.07092123, 0.16965789, 0.055246476, 0.21296154, 0.1762359, 0.16389312, -0.057931233, -0.023369517, -0.16269036, -0.051698525, 0.14033775, -0.05202682, 0.05800583, -0.027614282, -0.016472712, -0.05292996, 0.08646535, 0.10489274, -0.12440875, 0.12769517, 0.122119926, -0.25450438, 0.047056127, -0.15178263, -0.013037564, -0.21684562, 0.012248733, 0.0012578084, -0.018587926, -0.020324683, -0.09237389, -0.08240215, 0.015720217, -0.0122642955, -0.000960484, -0.0320958, 0.26209927, 0.15125254, 0.3290283, 0.33553144, 0.15861084, -0.30313054, -0.023890251, -0.30093694, -0.16098893, 0.41666317, 0.03617732, 0.13198169, 0.034021225, 0.16561471, -0.3243388, 0.007935828, -0.08160311, 0.31021497, -0.012416311, -0.17453434, 0.2649928, -0.041110087, -0.12340859, -0.09032751, -0.16969082, -0.10062822, 0.23039252, -0.06206434, 0.08192431, -0.48842463, -0.0048184586, -0.31453076, 0.0023971102, -0.021413624, -0.18013991, -0.08005676, -0.14268398, 0.12470121, 0.14729312, 0.016418716, -0.117173985, -0.12693642, 0.06482206, 0.098468065, 0.029537082, 0.06199245, 0.04546404, 0.016421024, 0.051562432, -0.106726676, -0.12461832, -0.035741203, 0.031093076, 0.3380487, 0.15664363, 0.104786605, 0.12665585, -0.1993042, 0.19271043, -0.051309578, 0.17794353, 0.06866544, -0.026455605, 0.09246903, 0.15974322, 0.29975984, -0.036345728, -0.018849405, -0.094600886, 0.044488944, 0.064981535, 0.065359175, -0.10625926, -0.14030227, 0.022313656, 0.03358185, -0.04994249, -0.04179771, 0.10129629, 0.0060641924, -0.10870307, 0.008590017, -0.103205234, 0.10913386, -0.017693898, -0.09846781, 0.05395863, -0.12927245, -0.073414296, -0.056130223, 0.10748747, 0.00634229, -0.036863167, 0.031971686, -0.1768037, 0.018026112, 0.07146884, 0.2951706, 0.13494779, 0.32536346, 0.0988786, 0.15627882, 0.12275955, 0.032104027, -0.121953666, 0.20126714, -0.11604071, 0.09789793, -0.2620911, -0.29186457, 0.012824649, -0.023730746, -0.14562477, 0.046934444, 0.044294644, 0.36671123, -0.09116798, -0.19157173, 0.06272689, 0.10593745, -0.12202409, -0.060297754, 0.0027809418, 0.03687804, -0.20133021, -0.12677501, -0.05384795, -0.09167671, -0.092985995, -0.11122791, 0.07754474, 0.14531475, 0.14024404, 0.13939632, -0.04223114, 0.021603338, -0.13185756, -0.2349452, 0.116328225, -0.04635047, 0.08652069, 0.052200902, 0.3231536, 0.20969498, 0.5549368, 0.76999676, 0.109448224, 0.3072665, -0.0750217, 0.7788371, 0.31684473, -0.3759761, 0.30122623, 0.100799374, 0.044806868, 0.17900224, -0.43954256, -0.21477427, 0.057937443, -0.20903955, 0.4056561, -0.10103953, -0.26719654, 0.5014557, -0.02479446, 0.18555085, -0.10385736, -0.02441664, -0.12407633, -0.034904905, 0.06784271, 0.0859281, -0.14849329, 0.044526126, -0.031573873, 0.07729953, 0.03906218, -0.07720307, -0.096821636, 0.00091754424, 0.08584307, -0.072726965, 0.22702959, 0.034375798, -0.08069126, 0.06746828, -0.031261243, -0.016787205, 0.055444762, 0.04873959, 0.003967384, 0.14237583, 0.07741574, -0.3190213, -0.029339524, -0.13217318, 0.16150914, 0.112224184, -0.1976542, 0.03486612, -0.27297258, -0.16083615, -0.21241495, 0.041158788, -0.0038154176, -0.04978324, 0.28449303, 0.021067157, 0.35803145, -0.10354874, -0.31045103, -0.081770875, -0.071008705, -0.12357566, 0.24642962, 0.06169965, -0.22017106, 0.056590885, -0.10586172, 0.11003903, -0.06484123, 0.011077544, -0.026826516, 0.1005291, 0.0629485, -0.19546548, 0.16790748, 0.20251323, 0.04890624, -0.08495104, 0.03960155, 0.043349635, 0.15642029, 0.019166404, 0.11376258, 0.17709266, -0.017671103, 0.2281311, -0.10477928, -0.015075784, -0.08291821, -0.20044853, 0.07365077, 0.038941674, -0.061148606, -0.0028857582, 0.060097065, 0.08849289, 0.120183334, -0.20267895, 0.020006953, -0.12880577, 0.018736247, 0.26079664, -0.16834378, -0.0012335678, -0.21281196, 0.020649599, -0.02381557, 0.19193459, 0.108320124, -0.19719651, -0.009871703, -0.00052873575, 0.011848924, -0.0400346, 0.014741591, 0.0878421, 0.07812877, -0.20879789, -0.036549587, -0.21229194, 0.060982887, 0.30957475, -0.18848492, 0.43582264, 0.008403, 0.19357489, -0.09689573, -0.012518676, -0.038406696, 0.69042575, -0.21875846, 0.084203325, 0.07762022, 0.10397342, -0.04601392, 0.012838729, -0.22309998, -0.1787362, -0.012209562, -0.1982778, -0.15291736, 0.121413775, 0.082488395, 0.21055403, -0.3072238, -0.10975071, -0.13944842, -0.036104668, 0.3033994, -0.17998794, 0.20345387, 0.03819965, 0.17195097, -0.20481986, -0.18016744, 0.0039597643, -0.119531244, -0.04996826, 0.022773512, -0.006818872, 0.22348784, 0.1065115, -0.17031905, 0.13051552, -0.022952473, -0.012622323, 0.04803741, 0.031513423, 0.021902429, -0.22268309, 0.31645098, -0.08775736, 0.07172644, -0.052838694, -0.10642655, -0.041699078, 0.11227141, 0.057216085, 0.03246275, -0.003959987, -0.054619312, -0.058023363, -0.03969051, -0.066797286, 0.09527651, 0.33505148, 0.10219174, 0.05486421, 0.03828395, -0.23542826, -0.03015728, -0.025440894, 0.07580223, -0.018889543, -0.40545967, -0.04896326, 0.042331193, 0.059389118, 5.6205445e-05, -0.12937932, -0.10421041, -0.10024764, 0.053698275, 0.12051674, 0.06478421, -0.18200971, -0.009225589, -0.1558539, 0.3535242, -0.14893864, -0.036023326, -0.13539562, -0.1314497, -0.13363105, -0.04389725, 0.0021447514, -0.05951226, -0.021181365, 0.07806731, 0.009667545, 0.13610214, 0.09221889, 0.09355238, 0.030177312, -0.11875369, 0.024323633, -0.15936087, -0.021361556, -0.14895116, -0.19749649, 0.2104008, -0.016775833, 0.05604767, -0.09400753, 0.05939592, 0.018992282, -0.046129912, 0.0020913717, 0.0902498, -0.04019987, 0.0233931, 0.099165, -0.04015673, 0.10361602, -0.1567865, -0.14000379, 0.020159543, -0.08031839, 0.06801951, 0.15010153, -0.081406355, -0.04210693, 0.08639728, 0.08306683, 0.11524514, 0.06767562, -0.0038808733, 0.033852156, -0.010849249, -0.15081692, -0.103405066, -0.14657333, 0.036001973, -0.018212898, -0.11061815, 0.078018226, -0.066399924, -0.07369299, 0.067167655, 0.18174273, 0.0042032083, 0.046864975, 0.21977332, -0.14434238, -0.040569346, 0.13299051, -0.32754597, 0.12378631, -0.028419768, -0.05857051, -0.08845588, -0.22222468, -0.37346688, -0.0838686, -0.10144446, -0.21524781, 0.071568795, 0.26527098, -0.0070020393, -0.11952956, 0.0067490055, -0.37209317, 0.07387272, -0.25263038, 0.28313723, 0.13068765, -0.2696059, 0.2993742, 0.18509111, -0.13227662, -0.024757927, 0.22725488, 0.06369224, 0.12173261, 0.13905255, -0.11459514, -0.080167174, -0.12265643, -0.2066008, -0.16086681, 0.15036982, -0.06568903, -0.16701372, -0.17946604, -0.024399562, -0.00109589, 0.027947113, -0.046072036, -0.12060573, -0.04577861, 0.16867824, 0.17472406, 0.043164253, -0.0077109667, -0.11003883, 0.09832643, 0.08688721, -0.04377033, 0.03174257, -0.16018222, 0.15201193, 0.051363662, -0.061752692, -0.015696222, -0.103431374, 0.043627895, 0.1434917, 0.6715242, 0.09600861, 0.059042882, -0.30642897, -0.09097281, -0.11202422, -0.017036734, 0.109983705, 0.041282997, 0.05842465, 0.022869986, 0.045677852, 0.24816394, -0.21545091, 0.07890663, 0.13071, 0.0957802, -0.10354577, -0.09061644, -0.25627124, -0.082877144, 0.029535584, 0.018356804], "bias": [-0.00085484417, -0.06739253, -0.011402263, -0.15635711]}, "conv2d_4_tf1": {"name": "conv2d_4_tf1", "type": "conv", "inputs": ["conv2d_3_tf", "conv2d_3_tf1"], "output": "conv2d_4_tf1", "weights": [-0.014211589, -0.15042146, 0.057592466, -0.03248936, -0.0076811654, 0.17735124, 0.06424233, -0.18938918, -0.04839869, 0.0054318216, -0.010477312, 0.06760833, 0.043340098, -0.018641543, 0.1524507, 0.11636023, -0.004988594, 0.08314487, -0.0753621, -0.0658575, -0.0032523507, 0.18622775, 0.012079974, 0.07230345, 0.024459243, -0.27540386, 0.052850913, 0.08320429, -0.0055731474, -0.16394539, -0.0313246, 0.05632605, 0.10778474, 0.03565441, -0.048110515, 0.029730821, 0.0069405776, 0.11876165, -0.022211537, -0.13060047, -0.026811676, -0.0036884516, -0.10668274, -0.06369253, 0.06254674, 0.12069637, 0.118791565, 0.17625378, 0.11019523, 0.28688014, -0.03563173, 0.0729025, 0.12149551, 0.19733785, -0.082361765, 0.06361539, -0.13820274, -0.23174997, 0.09592925, 0.20403884, 0.088987105, 0.08031419, -0.050571047, -0.041392405, -0.28054443, -0.050029904, 0.10162908, 0.38620573, 0.09455656, 0.010995763, 0.04100793, 0.01619518, 0.41137096, -0.26857015, -0.22215755, -0.21214634, -0.058277603, -0.1750658, -0.19027536, 0.13823628, 0.24018782, -0.084417485, 0.036954932, 0.17182827, -0.043047983, 0.2716596, 0.14399399, -0.2384031, -0.00044709115, -0.112836234, -0.06608744, 0.014294877, -0.018501567, -0.0187565, -0.05587975, 0.14851937, 0.037768163, 0.06283937, 0.10732332, 0.03780315, -0.0057521746, 0.15828326, 0.039147917, -0.14817674, 0.019607345, -0.0716235, -0.009993836, 0.09641461, -0.03641369, 0.11959734, 0.12049708, -0.019989058, -0.013166722, -0.051809598, 0.1721741, 0.16683947, 0.16804828, 0.04708338, 0.20122284, -0.060822837, 0.016249863, 0.06470571, 0.20911254, 0.23241974, -0.036312442, -0.15987696, -0.007764441, 0.15011999, 0.12142151, 0.18948196, 0.09890731, -0.005196894, -0.19785126, -0.04641221, -0.20924874, 0.021532906, 0.14557855, 0.08313691, 0.2306012, -0.06294202, 0.036365647, 0.22511338, 0.064908355, -0.18781967, 0.03401572, 0.06972892, -0.26979187, -0.059788972, -0.042826954, -0.028263329, -0.031093385, -0.059093572, 0.016909165, -0.15856658, 0.073960744, -0.22188526, -0.055512268, -0.08937895, -0.13016477, 0.021387422, -0.19442037, 0.050523657, -0.04386918, 0.009918042, 0.01166644, -0.14955108, 0.09104211, 0.16092274, 0.042608526, 0.17475331, 0.060642652, 0.23013318, 0.025270717, 0.035202812, -0.13767008, 0.09055836, 0.23606327, -0.078862466, 0.0067611835, 0.1946111, -0.21246774, 0.03476589, 0.07485795, 0.03931306, -0.10122485, -0.0038768668, -0.10936046, -0.025957426, 0.008336429, -0.088889554, 0.11750379, -0.016349679, -0.07559623, 0.11067192, 0.035247587, -0.12866428, 0.011909397, -0.06510052, 0.024900122, -0.22657153, 0.087846056, 0.1498146, -0.15482047, -0.0044677667, -0.24449302, -0.24757414, 0.37026346, 0.24255663, -0.08590173, -0.54994017, 0.1595288, -0.23125194, -0.03343182, -0.37466857, -0.16337581, -0.08252943, -0.24760917, 0.3037385, 0.0054183654, -0.049093287, 0.2039028, 0.0261317, 0.232985, -0.09040059, 0.3405898, -0.4454659, 0.24228206, 0.33387694, 0.5147712, -0.30601144, -0.18100344, -0.37787706, -0.077239014, -0.0017717611, -0.059550416, -0.08944401, 0.064772956, -0.03246315, 0.085443094, 0.027135463, 0.025952134, 0.108357556, -0.13738583, -0.09682887, 0.01016226, 0.2395627, -0.22944213, -0.15639287, -0.00094426225, 0.034546416, 0.11201427, 0.061430957, -0.0654495, -0.19135313, -0.11354698, 0.2619448, -0.152654, 0.114059016, -0.27171573, -0.08249316, -0.1896683, 0.3380396, -0.25419575, -0.06761133, -0.01746959, 0.11414233, 0.10581523, 0.0066673975, 0.041538645, 0.063252226, -0.11838388, -0.036730282, 0.06209299, -0.08237635, -0.07948249, 0.327962, 0.25510705, -0.1317085, 0.3610669, -0.34796628, -0.017390696, -0.06323884, 0.04132942, -0.035470273, 0.061176594, -0.29074112, 0.022555888, 0.16209807, -0.08575673, -0.048888043, -0.019031817, 0.13071191, 0.015755866, 0.005485469, -0.07803697, 0.059599347, -0.07124535, -0.06611209, 0.25312266, 0.08897616, 0.008853993, -0.0036506234, -0.16773279, -0.23094861, -0.20807157, 0.18862396, -0.0033569545, -0.082943864, 0.06589084, 0.11112023, -0.04741464, -0.007132917, -0.09807319, 0.113509335, 0.03623917, -0.06818346, 0.059386432, -0.032645743, -0.02167077, -0.102167435, 0.14699529, -0.07312459, 0.017161727, 0.06997068, -0.034325004, 0.06684663, 0.023120474, -0.051632024, 0.034019798, -0.18491568, 0.070358984, 0.10699567, -0.01709684, -0.0077427677, -0.032912057, -0.1628435, -0.12706465, -0.05398183, -0.124064185, -0.022300849, -0.049480807, 0.027299464, -0.023052126, -0.14688145, 0.07746632, 0.046834365, -0.16807477, -0.3093147, -0.07851309, -0.16433969, 0.13495888, -0.05489103, 0.22955102, -0.18267776, 0.17135008, -0.688932, 0.10366016, -0.2243468, -0.18523626, 0.0424319, -0.24147518, 0.3774404, 0.26975834, -0.124805935, 0.20521392, 0.11837824, 0.16677476, 0.1574619, -0.22242522, -0.11224404, 0.010855203, 0.05023174, 0.022015601, 0.105396345, -0.049506914, -0.019174807, 0.08994736, -0.028418787, 0.11390566, 0.21254057, 0.027759653, 0.31610966, 0.20907332, -0.019496651, 0.084742635, -0.04485212, 0.064322256, -0.16505289, 0.0774215, 0.115792625, -0.048114978, -0.06926507, 0.017898418, 0.035087533, -0.055029497, -0.05465418, -0.016494913, -0.10691668, -0.13008758, -0.022499256, -0.2760394, -0.30913576, -0.036273073, 0.19552973, -0.12628536, -0.007968565, -0.25042322, -0.045543153, -0.07829749, -0.034858678, -0.23404652, -0.028670922, -0.021305423, 0.14501487, -0.07257614, -0.05406173, 0.012137521, -0.126959, 0.06609515, -0.008766271, 0.0616723, 0.32930714, 0.19503295, -0.117388494, 0.04194804, -0.030984132, -0.044877388, 0.054059792, -0.006236158, -0.16340336, -0.09689143, 0.072620146, -0.01041501, 0.0659931, 0.07331538, -0.026539044, -0.021497477, -0.024841588, -0.021476867, 0.058018457, 0.04134862, 0.13605615, -0.059662774, 0.010150847, 0.014505412, -0.14120139, 0.10040946, 0.25230858, 0.019398723, -0.18975773, 0.11064582, 0.2342775, 0.014156995, -0.0585618, -0.059588917, -0.23020081, -0.09072669, 0.1067191, -0.11439751, -0.16548589, -0.12403641, -0.14004883, 0.028387306, 0.09213317, -0.006510349, 0.017277256, -0.052563068, -0.09698008, 0.03545268, -0.08158248, -0.09087152, -0.10271821, 0.048730936, 0.38087955, 0.017661903, -0.12688516, -0.02623465, 0.039301533, -0.039030835, 0.08959904, -0.12989533, 0.09657778, -0.010029257, 0.07761315, -0.03566531, 0.097622134, -0.015985807, 0.028002875, -0.051833652, 0.12799633, 0.15558419, 0.041785583, 0.17042942, -0.047926515, -0.31017384, -0.14338116, 0.19751845, 0.22700661, -0.11702448, 0.01238584, 0.0040678363, 0.061259978, -0.0042385026, -0.23574893, -0.032574646, -0.07661597, 0.013199543, 0.55931485, -0.3570002, -0.28355962, -0.33535764, -0.006168191, -0.17211477, -0.11172644, -0.32263985, -0.1685942, -0.0586029, -0.11114515, -0.054531336, 0.092941955, 0.06873379, 0.09824229, -0.00091571896, -0.14286557, -0.09317872, -0.11304676, -0.09860514, 0.03643522, 0.08460718, 0.13849387, 0.064596504, 0.005366149, -0.09094919, -0.23098245, 0.1871574, 0.031734582, 0.0071492256, 0.21758625, -0.040508267, -0.1331842, 0.16661479, -0.0019750162, 0.16005558, -0.105960034, -0.023236077, -0.1980957, -0.021933494, 0.18457209, -0.058553822, -0.10726236, 0.3241349, -0.11068797, 0.09668016, 0.14948836, 0.038635693, -0.34092486, -0.15000688, -0.13222857, 0.09511635, 0.017432896, 0.0077504916, 0.010645547, 0.095379174, -0.09722779, -0.051531557, -0.016504705, -0.09137678, -0.06726442, 0.022363454, -0.053836938, -0.0057328567, -0.12753491, -0.03322215, -0.055410013, 0.04353034, -0.087835945], "bias": [0.061130337, 0.08637224, 0.03091408, 0.19077341]}, "conv2d_5_tf": {"name": "conv2d_5_tf", "type": "conv", "inputs": ["conv2d_4_tf", "conv2d_4_tf1"], "output": "conv2d_5_tf", "weights": [-0.09346549, 0.03465492, 0.20681326, 0.11427842, -0.019217497, 0.017652469, -0.10321561, 0.0063156234, -0.0509836, 0.112979494, 0.021775289, 0.010655414, -0.032052286, -0.07620586, -0.12943478, -0.09521899, 0.116821274, -0.032371532, -0.057439696, 0.30797678, 0.039345447, -0.024769671, -0.12625098, 0.0032739479, -0.091193564, 0.14352149, 0.28256986, 0.06956476, -0.124749556, 0.36663672, -0.13957101, -0.20463862, 0.044771228, -0.009962332, 0.023752142, 0.010855517, -0.03716676, 0.043499984, 0.04023106, -0.028831376, -0.048526738, -0.24397595, -0.039579928, 0.30473918, -0.06448623, -0.1268732, -0.035706602, -0.043086346, -0.08534226, -0.091670655, 0.10676991, -0.113016225, -0.060078602, 0.041374628, -0.15565088, -0.10421256, -0.22082375, -0.119575664, -0.1925639, -0.09835647, 0.009236618, -0.18910648, 0.009849049, 0.105240874, -0.12357002, 0.06348064, 0.14792636, -0.18466619, -0.076765224, -0.1297519, 0.23377459, -0.088355884, -0.21383266, -0.15951324, 0.5564385, -0.07716027, -0.2376012, 0.908441, 0.19901332, 0.38621113, 0.11974882, -0.05464904, -0.07486969, 0.08442194, -0.059063975, 0.114349626, -0.049487557, 0.02144596, 0.3072883, 0.043062694, -0.033228133, -0.02823531, 0.16095941, -0.3613969, 0.24283545, 0.1935552, 0.03016878, 0.01898364, 0.025314283, -0.044768777, -0.019329071, -0.033886332, 0.008890826, 0.024045656, -0.23852473, -0.05063345, 0.02759284, -0.0033506837, -0.015297735, 0.013007034, 0.08065862, 0.10957192, -0.0055155745, 0.0019730418, -0.15557383, 0.11566711, 0.015119084, -0.042259753, 0.0037940303, 0.13739556, -0.015577747, 0.06405826, 0.014531098, -0.26552564, 0.0040272386, 0.2139595, 0.31674618, 0.32272276, -0.041637164, 0.0033962752, 0.039864525, -0.11357834, -0.09419734, 0.00083449273, 0.15071118, 0.10726984, -0.042338137, 0.0106980745, -0.04369699, -0.17033044, 0.33875403, -0.09136574, -0.20565619, -0.27744707, -0.10040144, 0.0020277759, 0.0055150604, -0.005193262, -0.067279235, -0.030034082, -0.14509001, -0.025149299, -0.04840615, -0.20901543, -0.0611241, 0.00017006592, 0.004400478, 0.23097791, -0.013865428, -0.002215212, 0.102730975, -0.16854553, 0.31772184, 0.043085165, -0.07901197, 0.033422306, 0.050334275, 0.117145926, -0.19271988, 0.12339388, -0.0018972757, -0.3098787, 0.26754147, 0.06863141, 0.17035475, 0.031211443, -0.012968144, 0.008854659, -0.029425405, 0.05152877, 0.015104359, -0.124795035, 0.0799712, 0.13954033, -0.2467327, 0.1867493, -0.07146217, -0.19352153, 0.054804493, 0.049530964, 0.031360425, 0.052576177, -0.098900884, 0.01679557, 0.16683522, -0.12618136, -0.22505793, -0.030203052, 0.07695883, -0.13924313, -0.06903176, 0.056236338, 0.1571644, 0.02338366, 0.1347488, 0.20883048, -0.20314422, -0.07538727, 0.18720081, 0.090653434, 0.29004064, -0.15077694, 0.21128927, 0.21536447, -0.4151581, -0.19684209, -0.17545497, -0.023170952, -0.14895587, 0.08183554, -0.17151493, 0.084871, 0.21998855, 0.31155747, -0.22223336, 0.137041, -0.13877805, -0.11673919, 0.022067828, -0.068621255, 0.16714971, -0.11590157, 0.031882163, 0.006633637, -0.057576917, 0.34364566, 0.12489682, 0.057735477, -0.03187268, 0.04851012, 0.07808427, -0.05997603, -0.06342626, 0.07303927, -0.07584685, -0.04723835, -0.039985858, 0.029568862, 0.0996553, -0.01134264, 0.15791333, 0.39571306, -0.08758071, -0.029077893, 0.16089937, -0.03652042, 0.3101676, 0.062428534, -0.5122162, 0.1949307, -0.26170528, 0.030846344, -0.11604825, -0.053246986, -0.19632186, -0.09686126, 0.33620146, 0.058583405, -0.09215317, 0.04815125, 0.24728361, -0.32650226, -0.024403209, -0.01354139, -0.025166428, 0.06177945, 0.07033232, 0.0004700795, -0.043353282, 0.051716693, -0.024170905, 0.042358853, -0.2204415, 0.010962169, -0.07260144, 0.107941255, 0.057151362, 0.010305398, -0.04471594, -0.2554755, 0.2930699, 0.07534538, 0.039093137, 0.041128963, 0.05692971, 0.012533637, 0.08531729, 0.10326688, -0.044748385, 0.1671762, -0.08407464, 0.14649107, -0.053592425, 0.04299463, 0.06345428, 0.1273858, -0.1981927, 0.02526623, -0.08865578, 0.14271815, -0.08285673, -0.07842216, -0.055214547, -0.15372008, -0.014646074, -0.031471714, -0.01297459, -0.124903165, -0.1261315, 0.084196806, -0.08057279, 0.01980389, 0.21093544, 0.0636028, 0.09391997, -0.0006312598, 0.07673948, 0.004742202, -0.15215741, 0.17629698, -0.24399011, -0.18578468, 0.0011671196, 0.050926704, 0.039190765, -0.03725623, 0.16553302, 0.26694852, 0.25740013, -0.13414803, -0.03539092, -0.14953832, 0.594475, 0.08439399, 0.24573536, 0.04439699, -0.037446067, 0.1612388, 0.055564437, -0.1095576, 0.34732687, -0.1290679, 0.05896727, -0.028942518, -0.18578419, -0.11618204, 0.1521668, 0.12129013, -0.50153226, 0.16709624, 0.44029257, 0.15294607, -0.23410444, 0.08895524, 0.08485096, -0.5546079, 0.1057784, -0.026361136, 0.08955089, -0.0054323813, 0.30569452, 0.052035592, 0.49387753, -0.0068336036, 0.1894771, 0.25749573, -0.28129217, 0.046572514, 0.042532977, -0.1306661, 0.16184384, 0.08953984, -0.13843852, 0.04876474, -0.10409078, -0.015242904, -0.062768795, 0.01574662, 0.1406166, 0.0694189, -0.06204767, -0.10151233, 0.06514972, -0.011292639, 0.06101242, 0.05089462, 0.17919002, 0.00713938, 0.43745506, 0.1649049, -0.052663274, -0.02999892, 0.10580531, 0.47529945, -0.09300418, 0.068070315, -0.40651265, -0.382992, 0.0707586, -0.05524653, -0.05462778, -0.026521226, 0.050989896, -0.011741481, -0.06970028, 0.026159579, -0.008281963, 0.014114537, 0.15793993, 0.21461132, 0.14445995, 0.054389574, -0.15601155, -0.31576082, 0.040634025, -0.0047873785, 0.18096171, -0.124304555, -0.14616388, -0.018046293, 0.040620677, 0.032094084, -0.059301402, 0.23535828, 0.14662643, -0.045876026, 0.063695446, 0.064416684, 0.09877672, 0.050104674, 0.11138226, 0.41539255, 0.2219217, -0.027445616, -0.0015079062, -0.21609324, 0.049773768, -0.07066268, 0.0007692121, 0.07677782, -0.40844414, -0.2409511, -0.04080008, -0.14619571, -0.05545383, 0.09025824, 0.026902366, 0.3326686, 0.22470012, -0.07346238, -0.0022589408, -0.080000766, 0.08107637, -0.15246423, 0.04339141, -0.023552211, 0.037155803, -0.060005337, 0.035954613, 0.08781101, -0.18698768, -0.07620496, -0.084817134, -0.084734455, 0.10564251, 0.107316196, 0.040281493, 0.022292456, -0.042595845, -0.06819114, -0.57773745, -0.044357076, -0.12407211, -0.07065562, 0.022038028, -0.048598547, 0.35638908, 0.11357948, -0.11170599, -0.25757128, 0.17383505, -0.27750376, -0.08257445, -0.23218256, -0.22090298, 0.079921, 0.15971291, 0.4261851, 0.25879017, 0.6499555, -0.06747377, -0.21793726, -0.17740223, 0.07631188, 0.11981845, -0.13592073, 0.016979162, -0.03381674, -0.09173946, -0.11745853, 0.5327844, 0.0023956448, 0.015094138, -0.07607271, -0.22389232, 0.034040894, 0.0666149, 0.039987244, 0.020837385, 0.09299058, -0.14096467, 0.051103737, -0.013477434, -0.4378102, -0.07833187, -0.018645585, -0.007924634, 0.06573757, -0.18103139, -0.028589312, -0.12015837, 0.36063233, 0.12593153, 0.08212885, -0.102814086, -0.0067101032, 0.041022465, -0.07685407, -0.01620504, -0.26966813, 0.15374719, 0.034434702, -0.17793596, 0.013547155, -0.48251072, -0.09823421, 0.14369544, -0.08471922, 0.13267142, -0.033245377, -0.13299337, 0.12124394, 0.1677131, 0.038004328, -0.35518223, 0.47741878, -0.05174202, 0.027208775, -0.24549988, 0.68670857, 0.1447715, -0.041305825, -0.0986947, 0.0014769436, 0.124243446, -0.060073834, 0.1106621, -0.04609445, -0.14598472, 0.028645586, 0.23351593, 0.06658274, 0.0005053431, 0.11876396, -0.029997572, -0.28879994], "bias": [0.023015073, 0.010994962, -0.021704901, -0.017637612]}, "conv2d_5_tf1": {"name": "conv2d_5_tf1", "type": "conv", "inputs": ["conv2d_4_tf", "conv2d_4_tf1"], "output": "conv2d_5_tf1", "weights": [0.08474834, -0.09861472, -0.13504687, -0.01008431, 0.038893156, 0.012863644, -0.07565581, 0.01936465, -0.061883863, 0.36908713, 0.05685136, 0.0012322845, 0.01470706, 0.078042686, 0.1545256, -0.037508707, 0.13552587, -0.018815652, 0.082571484, -0.15924859, 0.071239576, 0.18301491, -0.00705979, -0.060116507, 0.067981154, 0.11227802, -0.0635229, -0.1784666, -0.45548773, 0.025911432, -0.02466618, 0.17747933, -0.027057204, 0.026458098, 0.019738926, -0.10750385, 0.0374057, -0.00018244251, -0.05078235, -0.044315502, 0.31397244, -0.18605389, -0.05091965, -0.0124407355, -0.05090584, 0.032750096, -0.031193338, -0.16003211, 0.1248203, 0.054429214, 0.22347975, 0.030541698, -0.03191891, 0.07113169, 0.01764065, -0.10846728, -0.16029711, 0.15965946, -0.11862379, 0.07520419, -0.041554313, -0.122093685, 0.11097109, 0.21891375, 0.24719034, -0.021441016, -0.24418291, 0.18440072, 0.17192043, -0.34083933, -0.048431914, 0.08377908, 0.5324229, -0.5263625, -0.45879373, -0.3442117, 0.698286, 0.11157905, -0.2759248, -0.5215607, -0.014324796, 0.07661517, -0.063364945, 0.12511182, -0.12622981, -0.00839189, 0.024847008, -0.025718194, -0.004918652, 0.26940772, -0.092829525, -0.12696084, 0.032943122, -0.040342126, -0.00091365207, 0.05215303, -0.16883463, -0.0071275597, 0.034162927, 0.037847813, 0.13895532, -0.042996123, 0.2034437, -0.009679821, 0.025663532, 0.0672919, -0.03790968, -0.0114928605, 0.25233886, -0.14825626, 0.2958782, 0.00083101745, -0.011352006, 0.020284735, -0.072363764, 0.039301123, 0.036407586, 0.107381284, -0.040755395, -0.10075561, 0.0018579406, 0.07413, -0.22761947, -0.044122662, 0.3032332, -0.578761, 0.04329303, -0.13366137, 0.09261362, 0.014097263, -0.021225158, 0.026601702, 0.17354757, -0.16551283, 0.012089449, -0.14941174, -0.094109185, 0.020820139, 0.105995655, 0.14339124, -0.07328602, 0.19702922, -0.012074787, 0.09619477, -0.033838075, -0.10824123, 0.042769577, -0.067091234, 0.011233689, -0.035799865, -0.031907294, 0.06155747, 0.08972862, -0.08970073, 0.12659971, 0.1229889, 0.12690404, 0.09137176, -0.13321604, -0.15290317, 0.21892624, 0.127671, 0.066329904, -0.046451032, 0.24194893, -0.15110087, -0.025418967, 0.023121335, -0.07945722, 0.1763913, 0.05835754, -0.22094122, -0.23428515, 0.056542564, 0.022471193, 0.20472766, 0.09181905, 0.047437854, -0.030750565, 0.19393267, 0.13174513, -0.036159553, -0.031934474, -0.095451124, -0.25292575, 0.0017768729, 0.05753985, -0.089941986, 0.16972369, -0.018962441, 0.015801199, -0.062469456, -0.25174764, -0.0109465765, 0.053981833, 0.115348294, -0.20158598, 0.3121057, -0.13499093, -0.061064616, 0.084936425, 0.1984166, 0.15697382, 0.063022345, 0.3917397, -0.31384978, -0.046019655, -0.009882793, -0.14755908, -0.15966047, -0.07503619, 0.03282471, -0.021151781, 0.4151932, -0.17802502, 0.04572467, -0.009322154, 0.078018576, -0.23431832, 0.043255504, -0.61281645, 0.037764374, 0.17225087, -0.10357413, 0.11161862, -0.06014853, -0.00536372, 0.25546387, -0.09544302, 0.08223026, 0.044650264, -0.01948967, -0.1585276, -0.06012124, -0.040491052, -0.030132744, 0.23099895, 0.046080522, -0.16277547, 0.1182482, -0.0134975165, -0.019688059, 0.16251312, 0.10776317, -0.17351755, -0.025353083, -0.08888094, 0.12661651, 0.11436101, -0.059045315, -0.0014179519, -0.020813042, 0.3644899, -0.11692798, 0.073813215, -0.10144841, -0.47537124, 0.04135012, 0.10985192, -0.019441437, 0.17217875, -0.23967673, 0.1375664, -0.021447666, 0.21666685, 0.038822792, -0.06640712, -0.019937806, -0.1677515, -0.07084236, 0.12694061, -0.07989213, -0.023965087, -0.028472753, 0.06071521, 0.19861177, -0.080306806, -0.023047702, 0.0012540581, -0.04317153, -0.092252925, 0.043284494, -0.094976164, -0.075038105, 0.11582406, -0.15314193, 0.09630471, -0.10765495, -0.1091868, -0.5608105, 0.00788717, 0.110109806, 0.06652068, 0.10179832, 0.040184602, -0.095168, 0.031362593, -0.018622259, -0.10023631, 0.058359593, -0.05895895, -0.07375342, -0.030515019, 0.07715492, 0.010301208, 0.0915666, -0.036184706, 0.22949038, -0.041813232, 0.21967265, -0.05904828, -0.0007719654, -0.075385615, -0.40407726, 0.026345136, 0.21361013, 0.11067798, 0.014056646, 0.07164235, -0.20841303, -0.008931273, -0.00014553373, 0.1389059, -0.13812406, -0.13847186, 0.044029873, 0.007061919, -0.0049157855, -0.1154837, 0.09919727, -0.038000558, 0.055886526, -0.03413159, 0.048756085, 0.13402538, -0.11040154, -0.008210224, 0.5015403, 0.15362498, -0.031118799, -0.18127434, -0.35762945, -0.18935439, -0.04490696, 0.28440055, -0.19792494, -0.22826326, -0.05919714, -0.09871292, -0.501108, -0.1371007, -0.18427864, 0.2724675, 0.07871266, 0.1764698, -0.45427632, 0.21465485, -0.13424495, 0.17557938, -0.01670231, -0.3145909, 0.33914676, 0.24355178, -0.031665362, 0.031687763, -0.40446803, 0.19966687, 0.19573721, 0.10622276, -0.052197885, 0.046490364, -0.2533332, -0.10539186, -0.08312552, -0.033307776, 0.0011006863, 0.08910839, -0.055578366, 0.07588468, -0.0823114, 0.17600542, 0.110699475, -0.07026705, -0.37351006, 0.12896836, -0.2775739, 0.22510763, 0.035120748, -0.080111034, 0.093551315, 0.019139035, 0.04310351, 0.17815597, 0.044327114, -0.07896056, -0.11327208, 0.06707736, 0.36883715, 0.29667094, 0.09147447, -0.009116299, -0.09625279, 0.32913712, -0.0946831, -0.20622529, 0.123174086, -0.02438548, 0.3219192, 0.1265939, -0.040449653, -0.1508174, -0.031245716, -0.076761775, 0.1940174, -0.074769825, -0.06488095, -0.006758347, -0.2343981, 0.12375023, -0.08411966, -0.19443978, 0.22453052, -0.083916046, 0.04917714, 0.11071599, 0.025354713, -0.004350582, -0.1335825, 0.13940802, -0.04485215, 0.04110275, -0.047251005, -0.2489624, -0.40494272, 0.058499094, -0.14040524, -0.09896708, -0.24254993, 0.04500238, 0.024051037, 0.26424363, 0.6361629, -0.083835505, -0.35292882, -0.1116698, -0.12391426, 0.12759487, 0.08510516, -0.16770804, 0.15069571, -0.10133353, 0.35767904, 0.027576502, 0.016934976, 0.03539678, -0.073977776, 0.11033768, 0.11764869, 0.0026505047, 0.008842677, -0.17220174, 0.2529581, 0.015574665, -0.20382999, 0.08312131, -0.013561318, 7.903216e-05, 0.09101586, -0.04046761, 0.04449568, 0.0067449585, 0.09844961, 0.261412, -0.13802046, -0.080131665, -0.15598015, -0.057838604, 0.0521066, -0.018552814, 0.08524837, -0.809025, 0.05576525, -0.7313734, -0.15692875, -0.13429178, -0.27487206, 0.06300928, 0.13019164, -0.20918946, 0.06474797, -0.26650214, -0.12616809, 0.13679162, -0.81573117, 0.62468344, 0.28081673, -0.5695182, -0.1868356, 0.15525791, 0.98930925, 0.32619655, -0.038080335, 0.09695817, 0.108793855, -0.1822954, 0.07325206, 0.09788425, 0.27004668, 0.32029778, -0.016238473, -0.102078475, -0.13440587, 0.064706154, -0.014445124, -0.06283553, 0.17547429, -0.23819658, -0.03625647, 0.08746024, -0.19042286, 0.2613416, 0.18478686, -0.14177355, -0.18313704, 0.042996515, -0.048031434, -0.03627655, 0.04626122, -0.25166133, 0.028052988, -0.29714793, -0.04005481, -0.0103693195, 0.09996872, -0.053994797, 0.04633566, -0.06376836, 0.019055435, 0.02342169, 0.046028998, -0.21342199, 0.039619368, -0.20546696, 0.05902146, 0.033283364, -0.008257382, -0.077123165, 0.04252764, -0.120295, 0.095064, -0.0038298815, -0.102037504, -0.122063324, 0.07164573, -0.0010631343, 0.07951037, -0.10515894, 0.14862178, -0.23234664, 0.38353214, 0.064737216, 0.03587007, 0.007889522, -0.05411217, -0.1979875, 0.039934237, 0.015166397, 0.0045465836, 0.053083, -0.21841247, 0.11196384, 0.028341688, -0.07169571, 0.085732386, -0.1046182, 0.14723015], "bias": [0.023318755, -0.004196405, 0.002704483, -0.00651771]}, "conv2d_6_tf": {"name": "conv2d_6_tf", "type": "conv", "inputs": ["conv2d_5_tf", "conv2d_5_tf1"], "output": "conv2d_6_tf", "weights": [0.35011038, 0.15605327, 0.38212022, -0.011467344, -0.0069581447, -0.02073535, -0.015801901, 0.05411552, 0.09062988, 0.07598137, -0.07039116, -0.003452182, 0.014657994, -0.03441273, -0.058994815, 0.049591195, 0.16592349, 0.1770747, 0.16783567, -0.1269472, -0.10084268, -0.0132335285, 0.06984242, -0.010025245, -0.023678279, -0.09633446, -0.052086778, 0.041669924, 0.23988982, 0.06074758, 0.022305507, -0.10627259, 0.040684827, -0.011329244, -0.060365256, 0.033105854, -0.044878613, 0.049838718, 0.035799805, -0.06336709, -0.0018514886, 0.03800012, -0.03741405, 0.025865551, -0.23792252, 0.007271685, -0.063943684, 0.00533512, -0.050854165, -0.1807581, -0.0011421362, -0.15311082, 0.14143527, 0.14639892, -0.031988766, -0.071670145, -0.15537648, -0.006221112, 0.0539691, -0.018351387, 0.032540593, 0.023644831, 0.1843403, -0.02900739, -0.042251803, -0.021169892, -0.42140895, 0.16635364, 0.6439053, 0.4579831, 0.37828618, 0.5382134, 0.21532199, 0.12131564, 0.12575555, 0.026173182, 0.040368, -0.15764177, 0.012105889, -0.0046618353, -0.33497527, -0.050295882, 0.048432812, 0.053339064, 0.14629963, -0.35845965, -0.18229787, 0.38634062, -0.10920281, -0.10209475, -0.19679129, 0.0003445603, -0.014373588, -0.032513842, -0.1285708, 0.036378767, 0.23781341, -0.08428971, -0.051046282, 0.014256544, 0.07732614, 0.060101073, 0.07464373, -0.01113347, 0.0683572, -0.049099006, -0.0626305, 0.01670836, -0.0092172455, 0.0013269921, 0.023281725, 0.018564984, -0.030671915, -0.09756281, -0.08339558, 0.030878374, -0.22442995, -0.09298644, -0.13528068, -0.08659635, 0.023798052, -0.041190736, -0.029686183, -0.035418205, -0.06411236, 0.0055358745, 0.014283078, -0.018293858, -0.04464666, -0.034823555, -0.080549195, 0.0030001635, -0.064614095, 0.0884706, 0.061427947, 0.013935041, 0.09991295, 0.073525034, 0.15261644, 0.00969863, -0.005084759, 0.042842776, 0.0055481824, 0.013161987, 0.028040929, -0.020303115, -0.12116595, 0.011011289, 0.017464126, -0.0022603264, -0.1991442, 0.001912839, 0.13783647, 0.13414703, -0.13667764, -0.010120277, 0.31315535, 0.15257043, -0.08220554, -0.03164361, -0.22501227, -0.19943576, 0.017504113, 0.017882986, -0.32876593, -0.29986867, -0.08171623, -0.011757271, -0.106117964, -0.20800298, 0.07152778, 0.21636413, -0.07680655, -0.04024181, 0.31664416, -0.06901928, -0.05259972, 0.1613241, 0.06345293, -0.12114768, -0.28631994, 0.18599662, -0.21460235, -0.12543315, 0.20886473, 0.21095043, 0.06884513, -0.36552536, 0.011753705, 0.14044301, 0.03005075, -0.05824347, 0.069713354, -0.028347135, -0.061611563, 0.114628255, -0.17230003, 0.048798162, 0.06995526, 0.044021707, -0.09730951, -0.041390643, -0.060753305, -0.076032355, -0.3839503, 0.0105859395, 0.07672381, -0.15717317, 0.6171598, 0.31129393, 0.16845419, -0.084692605, 0.24864298, 0.32088256, 0.010063922, 0.37237114, -0.028796535, -0.108454086, -0.28752303, 0.1750509, 0.38962874, 0.06914233, 0.27556446, 0.309022, 0.18315904, -0.08038663, 0.14437367, 0.12907313, 0.294548, -0.42715415, 0.16027361, 0.11957921, 0.4574851, 0.22118114, 0.37229505, -0.018865956, 0.05700885, 0.0006782453, -0.12704197, 0.01225331, -0.101846404, -0.040232155, -0.09375305, 0.0075199436, -0.22386509, -0.12537247, -0.20974879, -0.05352504, 0.013810155, -0.07498285, -0.083604924, -0.0046762386, 0.08966899, 0.07624814, -0.15238117, -0.042140216, -0.17718817, -0.08916798, -0.00654988, 0.06548784, -0.2782209, 0.06664755, -0.088574015, 0.004870641, 0.059508894, 0.10389472, -0.08386013, -0.0009383639, -0.29399765, -0.20249905, 0.04277223, 0.13676213, -0.065091334, -0.014439645, -0.045728263, -0.040456865, -0.14698362, 0.09390569, 0.2049942, 0.032898508, 0.063003324, 0.017140038, 0.1822509, -0.02525297, -0.24174047, -0.053491786, 0.026137767, -0.011143299, -0.23442526, -0.1747245, 0.14072575, -0.02198213, -0.18090887, -0.07141713, 0.020982428, -0.082729764, -0.19636261, -0.18437137, 0.31893435, 0.09683894, -0.47061074, -0.16884531, 0.009400171, -0.14166343, -0.28874418, -0.0928998, -0.5415594, -0.08133118, -0.07616085, -0.13850895, -0.29953682, 0.10570496, 0.084155664, 0.311137, -0.5536177, -0.22054484, -0.82499295, 0.03591106, -0.08978799, 0.2558722, -0.013991822, 0.020996002, 0.08459593, 0.060823306, 0.16171421, -0.035293832, -0.1457743, 0.08856024, 0.025416173, -0.17032064, 0.16287097, 0.088595316, -0.08384648, 0.11355117, 0.067514844, -0.06054652, 0.39058268, 0.20156105, 0.010475438, 0.11743006, -0.19605812, -0.24106796, 0.19645968, -0.06147402, 0.010411582, -0.20226003, 0.39491722, 0.11017828, 0.33747554, -0.031488955, 0.08552447, 0.0716425, 0.39748517, 0.14309919, 0.18964161, -0.25829312, 0.5589356, 0.77300876, -0.16504371, -0.8279143, 0.024058556, -0.6457529, -0.45016006, 0.20660847, 0.29435468, 0.12246435, -0.3102125, -0.05489253, 0.2971994, 0.061892886, -0.15795606, -0.05893788, 0.2260037, 0.12727037, 0.12936538, -0.37492678, 0.16215107, 0.08263162, 0.33421576, 0.24442717, -0.022828514, -0.04249983, 0.171516, 0.046476085, -0.009414296, -0.019216113, -0.011870609, -0.02623701, -0.14344405, -0.057678323, 0.08899005, -0.00210898, -0.05385848, -0.054999933, 0.15925887, 0.007870042, -0.035148732, 0.0047523924, -0.058067948, -0.0021722529, 0.24276687, 0.10307401, 0.06752302, 0.016439728, -0.080463335, -0.08517781, -0.12082822, -0.10372022, -0.1550601, -0.19778344, -0.38358966, -0.11162957, -0.21312425, -0.041867003, -0.009745004, -0.036158364, 0.19260763, 0.04314307, 0.012306554, -0.0285562, 0.18422806, 0.02971764, -0.024727767, 0.013843087, -0.25770557, 0.04104541, 0.068071574, 0.100383274, -0.07415633, -0.022271357, -0.012464508, 0.058578692, -0.0021110624, 0.0762479, -0.20330058, -0.017816514, -0.0953596, -0.053387083, 0.0071311276, 0.05066152, -0.002548542, -0.11060736, 0.11241114, -0.022523535, -0.103363104, 0.013013886, 0.19168223, -0.0026167734, 0.038331307, -0.27151546, -0.04542556, 0.075855725, 0.11814905, 0.1279467, 0.03263058, 0.007807456, 0.1008473, 0.31392282, 0.19471437, -0.35203505, 0.072915375, -0.07748566, -0.04487244, 0.045613848, -0.007012613, -0.0684638, -0.13924804, 0.1607752, -0.036178704, -0.04314845, 0.08357809, 0.015077772, 0.020380376, -0.38449758, -0.18588687, 0.41281965, 0.046881724, -0.08624369, -0.15236926, 0.05483261, -0.029830877, 0.08909093, -0.31753707, -0.1477663, -0.134544, -0.002015888, 0.055331394, 0.009118978, -0.02736805, -0.073801234, 0.061515063, -0.03414277, 0.118207976, 0.20422086, 0.4094505, 0.037631042, -0.028507922, -0.41442505, -0.18063469, 0.38720456, -0.073122375, -0.14508522, 0.057168588, 0.1664637, 0.27430314, 0.036554713, 0.49422258, -0.020381916, -0.5874855, -0.09439461, 0.03695094, -0.07904853, -0.10662138, 0.15634276, -0.48760659, -0.21240638, -0.13151602, 0.17003447, 0.06478286, -0.21396843, -0.4568321, 0.25353923, -0.059037976, -0.032610454, -0.18019181, 0.041329563, 0.037520815, -0.04837897, -0.087094046, 0.025246888, -0.04127394, -0.023038952, 0.0320454, 0.052799575, 0.08659274, -0.011209489, -0.0012857735, -0.0066722445, -0.128284, -0.0035685084, -0.026384844, 0.012802212, 0.11958306, 0.010722878, 0.10291817, 0.043878432, 0.11299619, -0.008076866, -0.041212052, -0.01630854, 0.057711244, 0.0029513102, -0.059459463, -0.03901779, 0.21916461, 0.06183857, 0.044343457, 0.30726188, 0.2736092, -0.032518268, 0.14242387, -0.005241205, -0.1311055, 0.039468613, 0.056472674, -0.032112703, -0.05739302, -0.027125513, 0.20483784, 0.04729439, -0.02328721, -0.089191355, 0.2940481, 0.027641123, -0.028018065, -0.03422143], "bias": [-0.016935382, 0.034827072, -0.03836803, 0.05272036]}, "conv2d_6_tf1": {"name": "conv2d_6_tf1", "type": "conv", "inputs": ["conv2d_5_tf", "conv2d_5_tf1"], "output": "conv2d_6_tf1", "weights": [-0.017546881, 0.35370153, 0.2832585, 0.2559025, 0.10047645, -0.045430847, 0.060450744, -0.0076130293, 0.05954408, 0.045141596, 0.09202316, 0.13316315, -0.060952228, -0.046775077, -0.0483228, -0.16183452, 0.15293506, 0.36507222, 0.14191659, -0.085756205, 0.0049977554, 0.035254236, 0.107378185, 0.0049723443, -0.0072862534, 0.096367255, -0.13982646, -0.026722385, -0.011144729, 0.078565605, 0.13471942, 0.33026186, -0.015129828, 0.06370127, -0.035989124, 0.12184379, -0.0154148135, 0.10651827, -0.02740803, -0.05524273, 0.044149738, 0.018357344, -0.01833536, 0.004428525, -0.04937469, -0.20611438, 0.021080587, -0.07414067, -0.27508855, 0.20316488, -0.20994228, -0.32675642, 0.16239817, 0.23667195, 0.2107878, 0.039302547, -0.15730397, -0.056842696, -0.03292587, -0.015810832, -0.121919006, -0.21167673, -0.074719466, 0.004332345, 0.20536734, -0.12641074, 0.10627283, 0.19335712, -0.015661307, 0.15481162, 0.4612469, -0.19894373, -0.14786367, 0.111417, -0.007841307, 0.22596607, -0.03993585, -0.051975757, 0.07301989, -0.15378594, -0.069778174, -0.18162067, -0.11098334, -0.08711773, 0.0351487, -0.26224238, -0.15571442, 0.05907638, -0.012230911, -0.2104848, -0.05379235, -0.07664576, 0.02732229, -0.15179887, 0.04658681, 0.012590348, -0.114869654, -0.015880197, -0.2467511, 0.045903347, 0.066541046, 0.028403811, 0.10069088, -0.0018221531, 0.01934224, -0.040902704, -0.10241485, 0.0026399596, -0.0011540785, 0.007457642, -0.03850485, 0.049730267, 0.05613742, 0.113406606, -0.073829696, -0.12261225, -0.23009314, 0.07544331, 0.1324213, 0.17719229, -0.051393487, -0.025949957, -0.16230828, -0.011410609, -0.07578862, -0.009095443, -0.0058158627, -0.03540783, -0.05803997, -0.055201415, -0.042250477, -0.07300888, 0.01591506, 0.2282382, -0.03488394, -0.12893367, 0.07252051, 0.05618359, 0.06821109, 0.1001775, 0.06619743, 0.04133668, 0.07382727, 0.028511725, -0.027103143, -0.025761805, -0.12285297, 0.09281766, 0.079184726, 0.013610642, -0.04972644, 0.08733272, 0.11128503, 0.10981401, 0.18896548, 0.0501338, 0.124106884, 0.06114147, 0.04517721, 0.2158053, 0.050429314, 0.12787436, -0.13542308, -0.07823735, -0.11053288, 0.6802569, -0.26447144, -0.083903566, 0.007063372, 0.17670529, -0.12076501, -0.068850584, -0.06967374, -0.15610033, 0.031405058, 0.1164299, 0.02292579, 0.06084579, 0.114708446, -0.021725459, -0.13398182, 0.30262777, 0.09360256, -0.14587449, -0.0057412633, 0.37303403, 0.29814658, -0.042025287, 0.1258232, -0.013451518, 0.14285971, 0.022286057, 0.23072334, -0.030839717, -0.03099716, -0.09234343, 0.09335657, -0.2807021, 0.007795059, -0.02261788, -0.11487257, -0.057805255, 0.041053027, 0.014816936, -0.031499863, 0.26359016, 0.027016906, 0.0052497955, 0.16839942, 0.12844522, 0.3824354, 0.104992464, 0.007181242, -0.48151177, 0.053222936, -0.45147613, 0.2692868, -0.05320739, -0.29678616, -0.3621595, 0.4303506, 0.36810318, 0.21196812, 0.2125018, 0.030962562, 0.016885359, -0.03329501, 0.28375292, 0.17508945, -0.5594549, 0.3825277, 0.4696346, 0.17529112, 0.36172733, 0.50875527, 0.3340262, -0.0671418, -0.016881784, 0.103845336, 0.18426922, -0.039238237, 0.01168085, -0.006029981, -0.041520506, -0.052314613, -0.06732427, -0.087329395, -0.12766823, 0.09644214, -0.082715094, -0.11397172, -0.06281566, 0.07268432, -0.2687414, 0.0052728783, 0.001931475, -0.041642066, -0.038742863, -0.22424538, 0.016312936, -0.063039996, 0.3789661, -0.06923991, 0.36621344, 0.30125272, -0.021776086, 0.119486906, -0.00031055708, 0.05978787, -0.36691865, -0.51189035, -0.18793526, -0.03659867, -0.08208648, -0.06291483, -0.120596744, 0.04432528, 0.2058759, -0.15442282, -0.098485954, 0.059907638, -0.010848877, 0.12767191, 0.06676563, -0.0884276, -0.2666082, -0.085296914, -0.13723233, 0.108575396, -0.24102622, -0.1705932, -0.27047157, -0.33280766, -0.08766328, -0.25615743, -0.21780473, -0.3886181, -0.025962386, -0.1860634, -0.12286559, 0.10557058, -0.23993072, 0.05806716, 0.35901666, -0.50665295, 0.04801468, -0.030259835, -0.11634896, -0.10319856, 0.107338205, -0.14402157, -0.17729229, -0.14665407, 0.15728965, -0.3291369, -0.18552019, -0.10127374, 0.29336217, -0.09048905, -0.58105785, 0.015125381, 0.1311854, -0.05252216, -0.025999317, 0.009870495, 0.107657626, 0.18401578, 0.17605838, 0.04190518, -0.21394704, -0.15435559, 0.014791078, 0.07846138, -0.03794808, 0.037955154, 0.006894962, 0.23890334, 0.05613574, 0.06740856, 0.40633404, -0.71231014, -0.23853353, -0.31095168, -0.4528982, 0.10629418, -0.020585725, -0.2749121, -0.2543612, 0.2666768, -0.09069971, -0.21331267, -0.2838727, -0.16311905, 0.18562503, 0.082701385, 0.41802612, 0.59771377, 0.54568815, 0.37498528, -0.1367301, -0.6520699, 0.008904658, 0.2451448, -0.26228702, 0.1660917, -0.232689, 0.40147385, 1.0424396, -0.009162485, 0.198798, 0.16653106, 0.10858551, 0.20081605, -0.006986346, -0.19965994, 0.029002657, 0.027260352, 0.25224575, -0.12978566, 0.13553843, -0.17480256, -0.06817867, -0.02380356, 0.049540177, -0.111873105, 0.3117123, -0.043139387, 0.015096765, -0.16195315, -0.12336622, -0.11767545, -0.052586496, -0.12611234, -0.22798873, -0.22061995, -0.231235, -0.047691483, 0.06738984, 0.0061439364, -0.0022455174, 0.025458703, 0.15690054, -0.051777594, 0.20771742, 0.8203819, 0.15199153, 0.42482692, 0.5447718, -0.24566166, 0.014360734, -0.014446321, 0.0076117227, -0.06268555, 0.00778506, -0.08988054, 0.03120173, 0.07168049, 0.1036464, 0.04503888, 0.121004306, -0.11681389, 0.011973974, 0.07081708, 0.11351757, 0.12758909, -0.06453951, -0.02182392, -0.041413385, -0.0180702, 0.0117359245, -0.08963003, -0.065117836, -0.093598865, -0.09645506, 0.012004897, -0.096178815, 0.012248247, -0.00076044165, 0.022200746, 0.004559139, -0.07600039, 0.22986154, -0.03358134, 0.057318483, -0.1970833, -0.0018515518, 0.063741155, 0.0036043727, -0.19906032, 0.36177835, -0.15613788, -0.09863181, 0.16646744, -0.0831254, 0.069565505, 0.101155065, 0.26095685, 0.5023809, 0.1716002, 0.07767546, 0.1429962, -0.14862601, -0.1301958, -0.08193619, 0.10969786, -0.13156879, -0.07681628, 0.05280415, -0.06965972, -0.1324187, -0.101576686, -0.014334864, 0.030553738, -0.37337878, -0.2962343, 0.057472605, -0.08874208, -0.020335991, -0.05630211, 0.0050335024, -0.16392712, -0.09303624, -0.047360394, 0.2447229, 0.040017128, -0.17949489, -0.035388526, -0.08369397, 0.073283516, -0.05549585, -0.15527074, -0.1769769, 0.2753267, -0.20683241, 0.3837235, 0.052803155, 0.006020096, -0.34667182, -0.6262882, -0.36172307, 0.28837952, 0.32332894, 0.23198141, 0.09078903, -0.23232663, 0.112225026, 0.48086423, 0.5421308, -0.16487622, -0.23110735, -0.15514359, 0.08543356, -0.20895198, 0.10508636, 0.22384237, -0.24320066, -0.20513213, 0.19586885, -0.047145896, -0.10192215, 0.14164677, 0.45381466, -0.1571451, -0.1708636, 0.0272936, 0.0620323, -0.046310794, -0.16440746, 0.03482026, -0.03599943, 0.07829589, 0.12561291, -0.01672368, -0.032969717, 0.018741386, 0.06646135, -0.031251073, 0.05611952, -0.038556598, -0.0083935, 0.09133502, 0.03949269, 0.042411234, -0.0015376214, -0.049953412, 0.13710856, -0.23877752, -0.10162619, -0.123701796, -0.072597794, 0.09332061, -0.21121848, 0.039886855, -0.05998819, -0.1617675, -0.001286942, 0.22588065, 0.1569506, 0.33166534, 0.05864511, -0.01707775, 0.047974113, 0.18868752, 0.19013613, -0.009531574, 0.0061747977, -0.042715214, 0.10347277, 0.01888939, -0.01697205, 0.17651682, -0.015402424, -0.06377568, 0.11586945, 0.1513449, 0.121113166], "bias": [-0.0005627787, -0.003332675, -0.045009162, 0.05125102]}, "conv2d_last_tf": {"name": "conv2d_last_tf", "type": "conv", "inputs": ["conv2d_tf", "conv2d_tf1", "conv2d_1_tf", "conv2d_1_tf1", "conv2d_2_tf", "conv2d_2_tf1", "conv2d_3_tf", "conv2d_3_tf1", "conv2d_4_tf", "conv2d_4_tf1", "conv2d_5_tf", "conv2d_5_tf1", "conv2d_6_tf", "conv2d_6_tf1"], "output": "conv2d_last_tf", "weights": [0.023900794, 0.07031232, 0.15063372, 0.14940017, -0.1473184, -0.22039613, -0.11506501, -0.20625155, -0.076017074, 0.02871956, -0.11463498, -0.010438248, 0.11394638, 0.041771293, 0.021361297, -0.048578758, -0.028172676, 0.043936513, 0.065824196, 0.14467573, -0.015018532, -0.0045015872, -0.082234405, -0.077034794, 0.077759, 0.04690073, 0.07594462, 0.043723345, -0.0011636089, 0.05705521, 0.02403775, 0.078964844, 0.032431953, 0.025239388, -0.083044276, -0.09590614, 0.0509964, 0.07770618, 0.10675094, 0.13686052, -0.029352855, -0.15157443, 0.015838774, -0.10729798, -0.22990336, -0.16294348, -0.15679707, -0.09126801, 0.068260506, -0.031641793, -0.03752353, -0.13706653, -0.18368226, -0.15273708, -0.12162739, -0.114640035, -0.005132219, 0.06148309, -0.018627113, 0.046457358, -0.24949437, -0.25253782, -0.28472373, -0.28601468, 0.11218547, 0.10266116, 0.09765553, 0.08616425, -0.09256516, -0.056967642, -0.10122604, -0.07483144, -0.08003709, -0.081798986, -0.058094118, -0.062498007, -0.16310816, -0.123902924, -0.19894442, -0.13940558, 0.08623882, 0.10434006, 0.103257045, 0.1220439, 0.08167297, 0.21777946, 0.062178172, 0.223458, -0.015109493, -0.010563699, -0.05637275, -0.043531686, 0.06864997, 0.0706628, 0.043760024, 0.03147976, -0.07187689, -0.035064373, -0.07286988, -0.03271329, 0.31678152, 0.28036985, 0.28261936, 0.25361493, 0.09964864, 0.09912393, 0.07895682, 0.091978066, 0.17701058, 0.1743981, 0.21031845, 0.20275238, -0.1306401, -0.17785688, -0.13679703, -0.19819386, -0.24694562, -0.26501414, -0.19884971, -0.21510814, 0.12420872, -0.04674769, 0.0053967214, -0.10520929, -0.12048249, -0.13466702, -0.06293035, -0.06979991, -0.03832625, 0.0011246268, -0.0015782991, 0.023007162, -0.021400226, -0.0247388, 0.035429675, 0.020028464, -0.04685895, -0.031331595, -0.05727959, -0.03030792, -0.05229462, -0.05629723, -0.016102558, -0.013133495, -0.09021106, -0.12867282, -0.054971997, -0.08005218, -0.02860891, -0.036397148, 0.021287119, 0.016073817, 0.07141418, 0.03269181, 0.058586415, 0.018650888, -0.09378357, 0.038219895, -0.14817247, -0.07222138, 0.024027102, 0.01931719, 0.018925343, 0.019138712, 0.04833604, 0.023876226, 0.0074442397, -0.00948436, 0.053986292, 0.048683003, 0.040270556, 0.03355694, 0.0031240613, -0.07607743, 0.0585944, 0.005940639, 0.092087574, 0.12620181, 0.08880396, 0.12600307, 0.015102041, 0.02695333, -0.016614681, -0.023770701, -0.05328017, -0.032938804, -0.067632854, -0.013644988, 0.025073493, 0.021531753, 0.014068003, -0.0015099221, -0.00068365014, -0.0012467022, 0.001490417, -0.0063075777, 0.054960366, -0.01794371, 0.046189234, -0.03932392, -0.014333817, -0.008303132, -0.012220377, -0.039586946, 0.030770568, 0.01719466, 0.031524513, 0.031477477, -0.029781729, 0.026707927, -0.020458953, 0.0019123504, -0.024026442, 0.009705761, -0.05211323, 0.021532157, 0.011628687, -0.00034535816, 0.028810091, 0.02129229, -0.008405976, 0.007536761, -0.016242964, -0.013072033, 0.06422305, -0.08517379, 0.04694003, 0.04923265, -0.02013947, -0.0075303586, -0.0064182673, -0.008606761, -0.009369498, 0.021101464, -0.01849148, 0.052540343, -0.028367698, -0.0032894851, -0.03491297, -0.027508095, 0.08016517, 0.091439985, 0.069722734, 0.09262166, -0.022605876, -0.017251823, 0.0126690995, 0.01474566, 0.026558938, -0.0268687, -0.008721443, -0.07137428, 0.02631359, -0.012643544, 0.03900175, 0.017076746, 0.008681605, 0.019042432, 0.012785479, 0.011879185, 0.0050254497, -0.0021127646, -0.0014143729, -0.0104422495, 0.016377721, -0.082529336, 0.028598381, -0.052265227, 0.028343253, -0.0015577057, 0.0037194577, -0.013354531, 0.013175317, -0.024811665, -0.007025417, 0.003943102, -0.029533174, -0.020483732, -0.023712536, 0.004426087, 0.031272244, 0.048284285, 0.021624768, 0.03824117, 0.0026073821, -0.043588392, -0.01073848, -0.040122177, 0.021387361, 0.031764712, 0.032829896, 0.027062632, -0.012446882, -0.037172116, 0.020653607, 0.0020834291, 0.0018443072, 0.015619155, -0.0024038847, 0.003751107, 0.020719878, 0.03630418, 0.07474628, 0.038072173, -0.04604267, 0.031013774, -0.16130714, -0.114821404, -0.0046691583, 0.022225985, 0.007940799, 0.023967363, -0.052724425, 0.041945342, -0.05302991, 0.022514997, 0.0074841487, 0.030789327, 0.08167953, -0.12072936, -0.01565843, -0.010428468, -0.013898018, -0.005246177, -0.055252485, -0.069885306, 0.046703845, 0.0077061187, 0.02188718, 0.043820847, 0.008197687, 0.020609789, -0.003755511, -0.0035116572, 0.024876384, -0.018398061, -0.008138444, -0.025423294, 0.0079044625, 0.005769376, -0.12644121, 0.08898563, -0.0064878445, 0.032341506, -0.024933789, -0.03287327, -0.03488808, -0.020686043, 0.04256875, 0.030103471, 0.022182599, 0.00049585773, 0.062368557, 0.07056111, 0.014918598, 0.010882978, -0.15682982, -0.030267114, -0.029742492, 0.028106298, -0.13480851, -0.07398644, 0.08038436, 0.05976284, 0.011930426, 0.09609706, -0.0015698612, 0.055587206, 0.039901275, 0.09289462, -0.055870585, -0.04438894, -0.009669982, -0.026827259, 0.016984686, 0.005143705, 0.02742062, 0.038548842, 0.07591088, 0.022324335, -0.024397027, 0.005208135, -0.050333768, -0.010174167, -0.0103039555, 0.03010296, -0.017104642, 0.036533207, -0.08073173, 0.017741835, 