{"name": "anime4k/cnn-2x-m", "layers": {"conv2d_tf": {"name": "conv2d_tf", "type": "conv", "inputs": ["input_image"], "output": "conv2d_tf", "weights": [-0.43700448, -0.12383181, -0.39803663, 0.52009004, -0.42380998, 0.07342348, -0.10417725, -0.1929202, -0.20059313, 0.08596013, -0.036150236, 0.1943204, 0.0, 0.0, 0.0, 0.0, 0.5285974, -0.14970095, 0.21255529, 0.36134776, -0.0778857, 0.061038077, 0.24571013, -0.06840865, 0.06106429, -0.06369855, 0.17126374, -0.025089366, 0.0, 0.0, 0.0, 0.0, -0.0073111467, 0.15535195, -0.089282654, -0.165693, -0.13300648, -0.0011212918, 0.15022895, 0.20636183, 0.09242716, -0.026319012, -0.21280405, -0.024262758, 0.0, 0.0, 0.0, 0.0, 0.1622117, -0.07452305, 0.27938735, 0.14650205, 0.18462916, 0.1800196, -0.23781396, -0.31704575, 0.17726475, -0.07114437, -0.091533884, -0.14328986, 0.0, 0.0, 0.0, 0.0, -0.42393574, -0.15274704, 0.32710415, -0.6862922, 0.4688005, -0.6634383, 0.66417086, 0.1555097, -0.02981386, -0.2933985, 0.33087853, 0.11909872, 0.0, 0.0, 0.0, 0.0, 0.33267993, -0.15994301, -0.26408252, -0.086990856, -0.22168767, 0.26116654, 0.22150806, 0.09417441, -0.0658948, 0.10053972, 0.27021578, -0.026661402, 0.0, 0.0, 0.0, 0.0, 0.16740121, 0.1931361, 0.20080176, 0.01869556, -0.11620115, -0.30608, -0.22552842, 0.0681357, 0.0069506024, 0.052228536, 0.24273908, -0.07155123, 0.0, 0.0, 0.0, 0.0, -0.18680367, 0.08907917, 0.13614553, 0.024371676, 0.14730337, -0.23263486, -0.33878776, -0.29022864, -0.14831644, 0.088786215, -0.21803996, -0.05703613, 0.0, 0.0, 0.0, 0.0, -0.14036681, 0.03581416, -0.11044763, -0.19030686, 0.1583473, 0.34034556, 0.097776145, 0.28929195, 0.10333786, 0.0068274974, -0.2546084, 0.011477104, 0.0, 0.0, 0.0, 0.0], "bias": [-0.049156994, 0.0032814543, -0.021223499, 0.04594601]}, "conv2d_1_tf": {"name": "conv2d_1_tf", "type": "conv", "inputs": ["conv2d_tf"], "output": "conv2d_1_tf", "weights": [-0.084388204, -0.03754589, -0.03338206, -0.022792505, -0.11356078, -0.076055825, -0.116272084, 0.009878847, 0.050765485, -0.016359871, -0.0662348, -0.029309144, -0.0333739, -0.036814813, -0.051065993, -0.12447015, 0.14584453, -0.043335147, -0.14875184, -0.2461169, 0.34755084, 0.15603498, 0.12930207, -0.25289717, -0.09891424, 0.18705226, 0.29315478, 0.17761377, 0.35723284, 0.058198802, -0.058125, -0.021009078, -0.111764, 0.09134145, 0.21115285, 0.100136325, -0.072855465, 0.15357259, 0.15194869, 0.0178175, 0.09330566, -0.098077565, 0.038239785, 0.059173394, -0.068434745, 0.045846846, -0.17534588, 0.07933592, -0.066422224, 0.022894884, -0.07700093, 0.08097129, -0.14496642, -0.14080046, 0.11690855, -0.0130255865, 0.08388152, -0.04426715, 0.07650244, -0.08116129, 0.053052384, 0.016861709, -0.07543915, -0.06905064, -0.21035792, -0.105432585, -0.0056535043, -0.23794414, 0.48689848, 0.31393805, 0.3530186, -0.19768368, -0.1997345, -0.26513356, -0.18177964, -0.039847106, -0.21796939, -0.21797366, -0.014920429, -0.03402468, 0.22454734, -0.2740147, 0.37796697, 0.4131328, 0.17031397, -0.2167817, -0.18882456, -0.06301378, 0.09259609, 0.14579444, -0.1731323, -0.2815266, -0.09086814, 0.22318031, 0.13372593, -0.0059168623, -0.041474655, 0.049808305, 0.070003934, 0.07624304, -0.20659865, 0.11079161, -0.14937906, 0.04126273, 0.08142401, -0.07068922, -0.020291204, -0.017090015, -0.025190167, -0.013943749, 0.049148437, -0.0019008453, 0.026148785, 0.2774172, 0.040490817, 0.08888442, -0.0321537, -0.010025804, 0.29734322, 0.059648763, -0.06863294, 0.02136135, 0.08915012, -0.1493992, -0.14656575, 0.07361045, -0.0784827, 0.20458257, 0.013372844, 0.2095454, 0.28334874, -0.17267562, 0.049244374, 0.09788063, -0.12814337, -0.18134497, -0.057618555, 0.17491128, -0.16961642, -0.10532874, -0.05132699, -0.11516367, 0.057307858, 0.3841081, -0.012563992, -0.005472043, 0.012879804, 0.048063014, -0.46123943, 0.23493885, 0.030362573, -0.16059463, -0.007925698, 0.084083386, -0.02318799, -0.0648104, -0.013350591, 0.080370896, -0.015556411, 0.109980844, -0.12998067, 0.069770575, 0.13883549, 0.21138588, -0.05804825, -0.21146816, 0.3263755, 0.21483842, 0.023421993, -0.20007822, -0.29615954, -0.15914749, -0.09120564, -0.120906316, 0.016582696, 0.081140004, 0.05719205, -0.11219546, -0.09251098, -0.047495708, -0.0054177176, -0.18277131, -0.19931898, -0.026179295, -0.259792, 0.12538151, 0.12978444, -0.084640495, 0.075031735, 0.038247548, -0.018510683, -0.13305412, -0.02436355, -0.018553583, 0.07399168, -0.051803768, -0.027177656, 0.19410136, -0.007979428, 0.03406536, 0.037885316, 0.04339598, -0.017780855, 0.1151958, -0.08222779, -0.05242254, 0.09643237, 0.10336347, 0.0150745055, -0.10105735, 0.15461528, 0.15281117, -0.31552103, -0.24329075, -0.044556107, -0.045301564, 0.47285315, 0.13444383, 0.05405222, -0.008511255, -0.102524556, 0.002268493, 0.0722259, -0.168346, -0.20540647, 0.09040869, 0.00019255982, -0.2921076, 0.06381097, 0.2187697, -0.0608732, 0.012592055, -0.12938985, -0.20120203, 0.34224886, 0.37817004, 0.039558195, -0.1321521, -0.09888887, -0.1906491, 0.04147559, -0.06910313, -0.05176795, 0.031068431, 0.055590235, -0.03208917, 0.09892438, -0.06430673, 0.018165385, 0.053841714, 0.08257774, -0.04322923, -0.012217829, -0.07262429, -0.107168674, 0.110926144, -0.13397086, -0.3242361, 0.10026566, 0.009784813, 0.19763845, 0.009405426, 0.058624502, -0.09740101, -0.018954588, 0.0767263, -0.26344782, 0.037190165, 0.0765283, -0.06433911, 0.22141442, -0.24261299, -0.015894216, -0.28825298, -0.003134411, 0.23196234, -0.16330358, 0.020231737, -0.15154487, 0.1086721, 0.0121897785, -0.106209636, 0.08828886, 0.046520505, 0.058174852, 0.07230595, 0.11071889, -0.3795686], "bias": [0.13109496, -0.02671028, -0.034360666, -0.07339995]}, "conv2d_2_tf": {"name": "conv2d_2_tf", "type": "conv", "inputs": ["conv2d_1_tf"], "output": "conv2d_2_tf", "weights": [0.012576159, -0.060603194, 0.120075166, 0.076167785, 0.06633842, 0.057194006, 0.21045816, 0.030789278, 0.037124068, 0.0154934935, -0.04395044, -0.043852463, -0.08203089, -0.018395502, 0.032990023, 0.013939446, -0.17417853, -0.11571764, 0.0099556865, 0.10882492, -0.089107014, -0.21107452, -0.18599737, 0.2831721, 0.119652666, -0.041459225, 0.23398484, 0.16476399, -0.091028936, -0.2910845, 0.35854244, -0.25638402, -0.050802834, -0.04426399, 0.09335325, 0.022672856, 0.010694536, -0.27827737, 0.04407378, 0.05938473, 0.09034758, -0.0040662987, -0.018781886, 0.12727347, 0.09579259, -0.11325574, 0.2152881, -0.18725425, 0.014548057, -0.18686645, 0.15684907, -0.014860359, -0.1518207, -0.16000909, 0.1033856, 0.2658142, -0.057411913, -0.22431459, -0.06587529, -0.002629145, 0.048948407, -0.31777516, 0.13389221, -0.1437628, 0.7002126, 0.10804444, 0.055103812, -0.18011257, 0.27313203, -0.07287623, -0.13867429, 0.1291268, 0.23272185, 0.0980952, 0.15435189, -0.31378776, -0.25984687, 0.18209897, -0.30752617, 0.26465765, 0.32070935, 0.04189516, -0.07647692, -0.267456, -0.27801126, 0.45699605, 0.11553631, -0.09225701, -0.31917462, 0.22718953, 0.25403437, -0.06704641, 0.17632844, -0.07283517, -0.12967058, -0.10888212, 0.009454983, -0.15098765, 0.16824934, 0.098822825, 0.06965013, -0.18653218, 0.03706922, 0.0109206345, 0.07805106, -0.049238846, -0.0022402809, -0.14681761, -0.00037889628, -0.044638712, 0.19019033, 0.110018164, 0.23812726, 0.0601034, 0.101746276, 0.057449948, -0.12146185, -0.004825965, -0.008424433, -0.09783165, -0.0713702, -0.064264, 0.1734856, -0.03409883, -0.05885751, -0.06327041, -0.16164137, 0.04696866, 0.15666702, 0.09812794, 0.107876845, -0.11455716, -0.10558951, 0.023486454, -0.07866171, 0.048626028, 0.050818343, -0.059466843, -0.22159679, 0.07845088, -0.16948934, 0.14414987, 0.021044968, -0.12825517, -0.008359017, -0.0038003458, -0.004042209, -0.05374133, 0.16541526, -0.03546213, 0.03071542, -0.04752427, -0.023318758, 0.2157596, 0.031492993, 0.10179054, 0.0316859, 0.15055068, -0.007722147, 0.043027394, 0.00834565, 0.041213654, -0.13293718, -0.13187261, -0.21087202, -0.011955092, 0.07593858, -0.07323282, 0.11431211, -0.077606566, -0.24711756, -0.10672656, 0.2568576, -0.071344815, -0.03788496, 0.21112178, -0.05880117, 0.06514541, -0.17081657, -0.031146793, -0.13333268, 0.18745597, -0.011584933, -0.08209905, -0.2144343, 0.18177573, 0.08115607, -0.21073082, -0.045749452, 0.14700018, -0.08082534, 0.1329145, -0.10278323, -0.039703082, -0.15643586, -0.021037644, 0.05495828, -0.2695447, -0.11581479, -0.12182369, -0.105714835, 0.1652072, -0.21953924, 0.10432455, -0.0070282146, 0.10643152, -0.15549584, 0.09988564, -0.122654684, 0.20949571, 0.09477197, 0.2888617, -0.39277247, 0.016727103, 0.1889803, 0.056381248, 0.40876952, -0.13590172, -0.0541827, 0.39421904, 0.080606915, -0.11821396, -0.07739553, -0.3043551, -0.19180995, -0.0665405, -0.05087047, 0.28726676, 0.030362817, -0.25384668, -0.083931744, 0.1506163, 0.31713346, -0.15233132, -0.25836545, 0.12319076, -0.032904666, -0.2063841, 0.06630847, 0.055741675, -0.08527927, -0.0020487714, -0.12668252, -0.1207183, 0.05842457, -0.09439512, -0.0073137823, -0.0063004657, 0.026114566, -0.049168456, 0.1352433, 0.065594465, -0.05028906, 0.022631956, -0.09335828, -0.062484823, -0.19244991, 0.23946401, 0.073081106, -0.0145266345, 0.049564388, -0.056107037, 0.28210273, -0.047238793, 0.19771446, -0.18512253, 0.1755759, 0.13373043, -0.041849107, 0.09927188, 0.0107151475, 0.018173022, 0.15971786, -0.24236222, -0.14679681, 0.3973366, 0.059604794, -0.10321784, 0.19704758, 0.047976516, -0.0013764421, 0.111308396, 0.19719258, -0.005487493, 0.03642539, -0.07829383, -0.15245801, 0.053342637], "bias": [0.09707247, 0.062047865, -0.0846196, -0.012403877]}, "conv2d_3_tf": {"name": "conv2d_3_tf", "type": "conv", "inputs": ["conv2d_2_tf"], "output": "conv2d_3_tf", "weights": [-0.079877876, -0.10751308, 0.013027753, 0.004941872, 0.053371057, -0.06803927, 0.012675758, 0.17491257, -0.0046748514, -0.11795606, 0.0783688, -0.05213332, 0.09671693, 0.052751314, -0.13089138, 0.028576566, 0.024516823, 0.14588848, -0.032622684, -0.05099215, 0.0626611, -0.01423211, -0.13046105, -0.0684499, -0.08616547, -0.27449137, -0.031174377, 0.070668854, 0.014410177, -0.2590109, 0.1532009, 0.083192594, -0.040283967, -0.030283062, -0.047744226, -0.055391792, 0.015191141, 0.026738686, -0.04013429, -0.09798036, 0.027562324, 0.11233545, 0.07141311, 0.30841118, -0.019408116, 0.036419977, 0.030495662, 0.039797034, -0.02301353, -0.15106334, -0.0656244, 0.043032292, -0.20118278, 0.11587743, 0.18760413, -0.06373149, -0.052036975, -0.3399077, 0.23244338, -0.0113122305, 0.27808237, 0.34010595, -0.20099677, -0.10724391, -0.133516, -0.042066205, 0.08476628, 0.2072665, -0.1676452, 0.22915895, 0.037191004, 0.055671412, 0.093344375, 0.017199876, 0.029307837, 0.3191409, 0.086974375, 0.11015111, -0.3981199, -0.24212252, -0.045533802, -0.18320258, 0.043660257, -0.1108361, -0.034680083, -0.20360784, -0.06594195, 0.09846785, -0.2530775, -0.017727885, 0.225241, 0.5453489, 0.012652209, 0.059926055, 0.025701579, 0.05170632, -0.029840834, 0.006358118, -0.0909324, -0.09715189, 0.14009783, -0.2408958, -0.085189536, 0.21800564, 0.22564822, -0.18329123, 0.12212449, -0.02495003, -0.24653947, -0.17937486, 0.02046805, 0.19779046, -0.09665382, 0.18953101, 0.26586062, 0.19777073, 0.1644434, -0.10500871, -0.108806685, 0.26034376, 0.19913374, -0.11676482, -0.019385695, 0.04121153, 0.048533197, 0.10892998, -0.21864974, 0.029062856, -0.21308687, 0.26626885, -0.009363221, -0.06805857, 0.0032217824, 0.26271737, -0.09225948, -0.09942718, -0.033105806, -0.0016658395, 0.039761614, 0.41766787, 0.115782715, 0.0013305283, -0.064988665, -0.055182483, 0.17649056, 0.009527283, -0.037268884, -0.11940821, -0.083440214, 0.04404516, 0.09144931, -0.053493533, -0.0064712917, -0.09748702, -0.09528865, 0.3229472, -0.08317666, -0.02706803, 0.15323545, -0.122947074, -0.18507788, 0.1916461, 0.10158123, 0.14135683, 0.065019175, -0.18935591, 0.027754107, 0.10663557, -0.0021875706, 0.007838569, -0.07487741, 0.039161667, 0.028547792, 0.34926617, -0.23943686, -0.031817164, -0.007309771, 0.08017327, -0.07794538, 0.0077593364, 0.017418738, 0.015209784, 0.10062018, 0.18013461, -0.007996513, -0.018017206, 0.022891648, -0.12778383, 0.044771206, 0.030833967, 0.050637648, -0.033252183, -0.22442818, -0.0135686, 0.009162205, 0.56296283, 0.69487196, -0.0708002, -0.17715241, 0.34210402, 0.061753098, 0.069433585, -0.1812621, -0.24183199, -0.09747562, -0.10170799, 0.3163028, 0.28589377, 0.34512502, -0.21348925, -0.017148321, -0.29381427, -0.043159153, -0.15722956, -0.017989872, 0.1356059, 0.031512905, -0.1776996, 0.026621807, -0.18797016, -0.22490332, -0.580678, 0.4024758, -0.0030337686, 0.057044633, 0.1556767, -0.010123055, 0.021153543, 0.026925962, 0.19219491, -0.0037524481, 0.18238, 0.29134178, 0.16444725, -0.119739346, -0.21276055, 0.08833588, 0.37937564, 0.013512091, 0.054720104, 0.29910722, 0.02874715, 0.10346177, 0.14068589, -0.1507176, -0.0552355, 0.099598676, -0.054373402, -0.14990221, 0.10674269, -0.06582123, 0.1003519, 0.26275393, -0.055337895, 0.033460826, -0.07752831, -0.27071485, 0.29844674, -0.03023239, -0.56809384, -0.28205895, -0.30336887, -0.13641582, -0.07601654, -0.35204145, 0.02984982, -0.028675687, 0.053057857, -0.30478048, -0.18289137, -0.015050614, -0.013809754, 0.09864675, -0.2847921, 0.13779928, 0.078139104, 0.12805119, -0.1933878, 0.085044615, 0.01645169, 0.15945458, 0.0057662902, -0.1346354, 0.023252968, 0.00056171237, -0.04685239, -0.037153143, -0.014872124], "bias": [-0.10584318, -0.0027788992, -0.05081974, -0.04611349]}, "conv2d_4_tf": {"name": "conv2d_4_tf", "type": "conv", "inputs": ["conv2d_3_tf"], "output": "conv2d_4_tf", "weights": [-0.050152484, 0.059137054, -0.11500633, 0.2628462, 0.08668847, 0.17048766, -0.030399468, -0.093269564, 0.04343667, -0.22050346, -0.1684881, 0.3809938, -0.014663556, -0.011488269, -0.045135025, -0.011938663, -0.025009435, 0.2990837, -0.04657924, 0.09874919, 0.10542653, 0.07871786, 0.039970547, 0.06502019, -0.11058273, -0.06268155, 0.107847, 0.030400349, -0.0047297888, -0.019779574, -0.024732105, -0.056510117, 0.00059521897, -0.065724686, -0.0885813, -0.0105986595, 0.09080039, 0.13808331, 0.17951722, 0.08169185, -0.1712384, 0.28312257, -0.12766066, -0.17766061, 0.13199389, 0.04874892, -0.027768897, -0.08313034, 0.25218087, 0.28564596, -0.05743852, -0.086449586, 0.033982597, -0.0697252, 0.23174773, 0.0038348213, 0.22545487, -0.15671335, 0.45380574, -0.05144405, 0.18415934, -0.25519857, 0.037626486, 0.17352982, -0.06156567, 0.11539893, -0.07445899, -0.31028327, 0.08384397, 0.010140885, -0.101715624, 0.4241963, -0.083027035, -0.32660902, 0.34812638, -0.2575816, -0.26879668, 0.13490333, 0.13135405, -0.06365921, 0.34102032, 0.049251817, 0.056863982, -0.33053, 0.026843794, 0.111636154, 0.1561334, 0.06210604, -0.47484717, 0.50327927, -0.25206557, -0.042339865, 0.042916205, -0.04910486, -0.0916096, 0.23473229, 0.015837803, -0.0475286, -0.19664647, -0.11933995, -0.005004683, 0.15502931, -0.022362594, 0.15494077, 0.34786624, 0.023967197, -0.38270995, 0.06690165, -0.027402332, -0.079228394, -0.18064521, 0.13402356, -0.095279545, 0.17322713, 0.12885447, -0.060325272, 0.07133893, 0.14707652, 0.10380302, 0.108860895, 0.6598374, 0.34339458, -0.04714104, 0.0008674013, -0.099668466, 0.089210786, -0.046435688, 0.10014144, -0.10387004, 0.082601696, -0.08965992, 0.18797183, -0.012282104, 0.036094382, 0.06932742, -0.06352726, -0.0031136859, 0.13815261, 0.14891203, -0.30352685, 0.06574724, -0.02782488, 0.021958787, -0.1562138, -0.007666333, -0.119415775, 0.085950345, -0.2249168, -0.066093706, -0.1146288, 0.09168097, 0.057944614, -0.027107352, 0.16397966, 0.05341907, -0.39036092, 0.016835622, 0.35054055, 0.012121548, 0.017081236, -0.03381992, -0.25615153, 0.05371774, -0.04146154, -0.27228853, -0.22322197, 0.095551684, 0.0127827665, 0.060774393, -0.13649328, -0.050120138, -0.28073063, 0.11422094, 0.40079424, 0.1121124, -0.09647826, -0.11943009, 0.06882616, -0.12049063, 0.036101263, -0.11427818, -0.07290846, -0.07376315, -0.097220235, 0.25294498, -0.080298275, 0.068136334, -0.012002707, 0.054971762, 0.06791264, 0.14031442, -0.15869962, -0.121950634, -0.26581508, -0.009419592, 0.16763626, -0.08188956, 0.265176, -0.2168163, -0.116455965, -0.24628395, -0.011375638, -0.11961702, 0.25790584, -0.27990726, 0.14374693, 0.025209116, -0.05504146, -0.043294013, -0.13061233, 0.07408276, 0.016125796, 0.31150374, -0.17376894, 0.20719525, -0.48485982, -0.10190857, -0.022753984, -0.40476972, 0.18190745, -0.16373198, 0.15222116, -0.287436, -0.081903234, -0.16584522, -0.10965234, -0.22446257, -0.1679798, -0.09604549, 0.22199294, 0.047725555, -0.089948654, 0.3888223, -0.10891563, 0.23797904, -0.2060428, 0.21672924, 0.11692795, 0.10690243, -0.32690677, 0.060718156, 0.06365173, -0.0060983696, 0.13009316, -0.13786219, 0.08743204, 0.17965135, -0.08779885, -0.08588878, 0.14309481, 0.21663155, 0.16124983, -0.11347695, -0.051707707, 0.08479779, -0.16350305, 0.18403363, -0.1187395, -0.21691442, 0.2052926, -0.0938264, -0.20391372, -0.1024275, 0.13847302, -0.25132897, -0.06869161, -0.13869224, 0.03970027, -0.20322783, 0.06435924, 0.16670766, -0.030779347, 0.070818484, -0.0013224692, 0.073780715, -0.12058401, -0.07790603, 0.1619128, 0.094911754, 0.12160383, -0.08765905, 0.14973383, -0.02279834, 0.17031524, -0.017418362, -0.13116339, -0.19769736, 0.19058816], "bias": [0.020295803, -0.21503961, -0.0771614, 0.00305601]}, "conv2d_5_tf": {"name": "conv2d_5_tf", "type": "conv", "inputs": ["conv2d_4_tf"], "output": "conv2d_5_tf", "weights": [0.07333506, 0.042153154, 0.26121634, 0.114561625, -0.034811046, 0.020523518, -0.18033415, -0.101494245, 0.38666034, -0.1296529, 0.33473092, -0.09897641, -0.092930965, -0.019928934, -0.33733132, 0.13099371, 0.0052919993, -0.0984513, 0.30619198, -0.07969012, 0.17357028, -0.043763965, 0.04966573, 0.012832754, 0.32689536, 0.10744286, -0.13127226, -0.13896264, -0.37396377, -0.051642973, -0.010512543, 0.047645234, -0.212653, 0.18044937, 0.19614023, -0.006013874, -0.044593263, 0.016232023, -0.038494766, -0.12786224, 0.2546495, -0.38221774, 0.037351944, -0.1306452, -0.18672188, 0.23903653, 0.08549427, -0.06712414, 0.05927751, -0.023368552, -0.11979864, 0.22953875, 0.0422268, -0.05751047, 0.21749045, -0.02653862, 0.107696615, 0.104581475, 0.15908201, -0.10995612, -0.053319562, -0.11433823, 0.31528217, 0.18702677, 0.29877365, -0.13719703, 0.38099977, 0.38750687, 0.020890802, 0.16928782, 0.04715636, 0.24533522, -0.109066404, 0.03361569, 0.04173586, 0.6754973, 0.46427152, -0.49527624, 0.09142349, -0.12810223, -0.0039026132, -0.050839506, -0.050372295, 0.18220271, -0.089067414, -0.017973984, 0.20060334, 0.2455003, 0.18914305, -0.003549969, -0.09346202, -0.6539437, -0.2031084, 0.09308891, -0.11839781, -0.26074234, 0.0019074462, 0.002664546, 0.055706397, -0.0673329, 0.08689369, -0.07806462, 0.15574126, -0.041785505, 0.1732535, 0.16903417, -0.027359, -0.13873969, 0.07035528, 0.12527385, 0.15269062, 0.17133075, 0.13425991, -0.044586286, 0.22290371, 0.24871336, 0.47610477, -0.46172756, -0.30993876, 0.14900747, 0.30842668, -0.20835742, 0.2927685, -0.22987983, -0.02940269, 0.10035034, 0.09508629, 0.36926803, 0.029997656, -0.010948055, 0.052881632, 0.07260971, -0.2689703, -0.07877936, -0.4631108, -1.0369782, 0.086658284, -0.18892883, 0.1396565, 0.36806017, -0.11259826, 0.08769488, -0.010089075, -0.0673246, 0.015858158, -0.07847018, -0.08533562, 0.032267023, -0.074706554, 0.06050988, -0.046106253, -0.01909483, -0.04606053, -0.048047677, -0.08761796, -0.020859899, -0.13104984, -0.006431439, 0.11865791, 0.021431917, 0.15566225, -0.27977476, -0.17345898, 0.036917284, -0.016318437, -0.030544186, 0.13714033, 0.02318875, -0.32734424, -0.01485775, 0.15328245, -0.0379209, -0.0933076, 0.0025159202, 0.07829051, 0.2441824, 0.15765905, -0.3120316, -0.08430269, 0.039227225, 0.00061509595, -0.026345227, -0.08462254, 0.11698517, -0.20660627, 0.13617857, -0.11981296, -0.11171963, 0.06596518, -0.12900288, -0.12849693, 0.15944625, 0.1396203, 0.28072214, 0.19456191, 0.1446765, 0.009290015, -0.012098021, -0.1310636, -0.0010749736, -0.113594405, 0.14846645, -0.20344831, 0.0058069695, 0.3613357, 0.06267295, -0.101899095, 0.046341263, 0.13649395, 0.19725055, 0.048091643, 0.3400145, 0.20100284, -0.2567826, -0.170984, -0.10412573, 0.2803033, -0.12374009, -0.2546341, -0.2059527, -0.1314509, 0.5449118, 0.10310688, 0.18445767, 0.22046176, 0.09990786, 0.24166732, 0.17489517, 0.14409053, 0.27580568, 0.05834063, -0.21582341, 0.071202464, -0.38695228, -0.040673, -0.03506754, 0.21909611, -0.13722578, 0.12567863, 0.07236822, -0.029128391, 0.13366663, 0.09297567, 0.12688614, 0.07870676, 0.06391031, 0.09677816, 0.049234483, -0.060512554, -0.01737135, -0.066774175, -0.0140763065, -0.11831133, -0.026270926, 0.08926973, 0.110822305, -0.06352532, -0.010273422, 0.1287274, 0.14509743, -0.12422747, -0.0028779558, 0.18925442, -0.038495086, 0.039296243, -0.14828265, -0.15589587, -0.1156464, -0.181626, 0.0075441482, -0.19338964, -0.12303067, -0.02578537, -3.6590558e-05, 0.037456695, 0.14006008, -0.39581242, -0.018129207, 0.003431172, 0.34942362, 0.07092122, 0.11042161, -0.09777249, -0.29433373, 0.08946218, 0.060626846, -0.009889978, -0.09619814], "bias": [-0.09537942, 0.06801921, 0.01732821, -0.0075274175]}, "conv2d_6_tf": {"name": "conv2d_6_tf", "type": "conv", "inputs": ["conv2d_5_tf"], "output": "conv2d_6_tf", "weights": [-0.18805693, -0.23752327, -0.14946416, 0.011219805, -0.18224797, 0.026735218, -0.085971005, 0.14496817, -0.10901731, 0.04652665, -0.12614556, 0.0640152, 0.1476938, 0.18183519, 0.10249745, 0.293299, 0.5107962, 0.28803882, -0.106186524, -0.37947446, -0.014220586, 0.28223506, -0.019075323, 0.14419337, -0.015172201, 0.25550655, -0.106559046, 0.33192378, -0.52263665, -0.2890106, 0.021610184, 0.17544681, -0.22898439, -0.041345797, -0.030743405, 0.028229631, -0.19447353, -0.09173153, -0.11182953, 0.25118244, -0.06368845, 0.028137175, -0.137736, -0.011874425, 0.13623317, -0.15078396, 0.040729936, -0.014034274, -0.017665893, 0.27596065, 0.49834684, 0.22498219, 0.06437619, 0.24659353, 0.044634815, 0.033906773, -0.063933186, -0.14125897, 0.1680455, -0.05431933, 0.0053591966, -0.24490942, -0.43975738, -0.17003712, -0.31757608, 0.031879228, -0.36792645, 0.42975008, 0.40820053, 0.2482414, 0.07834233, 0.10722084, 0.060524363, 0.06638214, -0.31186154, -0.13064289, -0.08719717, -0.1617494, 0.06707068, -0.05893858, -0.27373907, 0.049279243, -0.099538565, -0.074779056, -0.11787457, -0.003328723, -0.048841085, -0.21324658, -0.17764838, 0.32748446, -0.0425852, -0.03550102, 0.118446164, -0.19544849, 0.11554153, -0.026380602, 0.06886627, 0.060666967, -0.36849916, -0.020623254, 0.037173495, 0.08521863, -0.17968681, -0.04082521, 0.00446196, -0.008872065, 0.010613481, -0.06366701, 0.03118426, 0.0019051615, 0.3186617, 0.11303438, 0.04654278, 0.26632774, -0.19357415, -0.16793677, -0.07953127, 0.17356868, 0.0103903245, -0.003277648, -0.05527926, -0.24152918, -0.15507658, -0.17538498, -0.16338566, -0.04657002, -0.026433937, 0.3351478, -0.00017199546, 0.073555835, 0.0057502543, -0.0660181, -0.061367426, -0.10536037, 0.021335913, -0.07392863, 0.10173411, -0.031334955, 0.0929055, -0.12174734, -0.0369617, -0.047907278, -0.032967433, 0.07841991, 0.014611824, 0.0012833799, 0.016187085, -0.16125794, -0.15718836, -0.03783154, 0.0014074125, 0.111139216, 0.13634998, -0.087891884, 0.1733101, -0.09387613, -0.009640262, 0.13513435, -0.0024286557, 0.20095772, -0.025638003, 0.18816832, 0.020720541, 0.20860234, 0.048322033, 0.08801719, 0.061471753, 0.17359345, -0.07212262, -0.07449649, -0.09333823, 0.04118051, -0.171711, 0.12329577, 0.15606827, 0.12956087, -0.042475842, 0.0769432, -0.08120064, 0.119244725, -0.08003957, -0.0992798, -0.10415658, 0.040814858, 0.111978576, -0.17179403, 0.16690123, -0.19191529, 0.032850392, -0.109363556, 0.07974423, 0.11156359, -0.033884194, 0.22445719, -0.021679886, 0.14582579, -0.45871297, -0.4025705, -0.21955615, -0.7155207, -0.009578693, -0.0133207375, -0.2043174, -0.035262145, -0.07058807, 0.11099489, -0.10768254, 0.22782288, 0.27914986, -0.13998422, 0.34545207, 0.06482031, 0.27414307, -0.07773487, -0.05753229, 0.052851852, -0.2610909, -0.04330337, -0.50934434, 0.4521381, -0.30600944, -0.04629386, -0.23047066, 0.25097492, 0.1879801, 0.1922051, -0.0014282286, -0.01303423, -0.12003632, 0.1340615, -0.052048724, 0.017355083, -0.17843908, -0.31680033, 0.12203157, 0.07723456, 0.13386552, 0.12421019, -0.040261343, -0.17791142, -0.03701673, -0.09719764, -0.07927136, 0.058275267, -0.22993913, 0.12593848, 0.22393632, 0.10798306, 0.011360148, -0.09643018, 0.21892977, 0.015067403, 0.105393164, 0.050013453, -0.20891781, -0.21026026, -0.0423389, 0.07915446, 0.004864243, -0.11258792, -0.17130241, -0.3301148, -0.31279397, 0.8026417, -0.09533603, -0.12276073, 0.2380128, 0.615173, 0.05853154, -0.009042602, 0.030697802, -0.37135026, 0.057018682, -0.08879092, 0.0873754, 0.0041004242, -0.009863267, 0.11457257, -0.0023910792, 0.0273447, -0.05975043, -0.03987015, -0.112410456, -0.010635475, 0.101987354, 0.04227581, 0.116751105, -0.013480569], "bias": [0.037613444, -0.04000992, 0.0762493, -0.001187456]}, "conv2d_7_tf": {"name": "conv2d_7_tf", "type": "conv", "inputs": ["conv2d_tf", "conv2d_1_tf", "conv2d_2_tf", "conv2d_3_tf", "conv2d_4_tf", "conv2d_5_tf", "conv2d_6_tf"], "output": "conv2d_7_tf", "weights": [-0.025048682, -0.024996381, -0.021741541, -0.020119647, 0.08397806, -0.0042661643, 0.030849515, -0.10223495, 0.034394726, 0.0068471255, 0.049103376, 0.03158091, -0.10426614, -0.06736656, -0.05701672, -0.025188515, 0.056957997, 0.02847932, 0.076518245, 0.056727342, -0.022906052, 0.035315245, -0.03993487, 0.039862745, 0.004284264, 0.0102548245, 0.013209558, -0.038664192, 0.124465525, 0.106933855, 0.09459718, 0.08245932, -0.040870976, -0.018693391, 0.011195739, 0.038096182, 0.05453642, 0.058372706, 0.008419945, 0.07737939, -0.005464249, -0.0098818075, -0.030414049, -0.027188482, 0.14841671, 0.15870667, 0.14431675, 0.12510443, 0.009895222, -0.019719683, -0.029657638, -0.061945148, -0.047817066, -0.11341929, -0.07410508, -0.120766014, -0.0075282226, -0.020483555, 0.047300607, 0.008037719, -0.09407347, -0.10641484, -0.104800895, -0.1365021, 0.05114601, 0.019284977, -0.021204455, -0.014507648, 0.025514923, 0.0052817008, 0.011070284, -0.030714985, -0.00022669922, 0.025464332, 0.030162437, 0.04908859, 0.05827796, 0.1082181, 0.08642091, 0.103744626, -0.008985459, -0.0020470165, 0.07722416, 0.041572776, -0.1111987, -0.037118673, -0.021813981, 0.0660537, -0.048210643, -0.053338412, -0.023152038, -0.02327034, -0.09520653, -0.110085525, -0.09746784, -0.103232436, 0.044036604, 0.10260593, 0.015492823, 0.01743774, 0.0016874415, 0.029088398, -0.017624576, 0.021726815, -0.09284064, 0.064801365, -0.03968444, 0.16643177, -0.011157215, -0.018156456, -0.076483734, -0.06530545, -0.047836185, -0.0844061, -0.001145739, -0.013003094, 0.018624831, -0.05150628, 0.09708873, 0.004614097, 0.000703127, -0.019576313, 0.014528924, 0.01656103, -0.053996656, -0.003313822, 0.0046309377, 0.044166796, -0.04859035, -0.06672335, -0.032431662, -0.052621596, 0.045866985, 0.011398218, -0.023941167, -0.028936328, -0.025076253, 0.032938108, -0.00025047138, -0.03205149, -0.02905109, -0.0010798238, -0.020939391, 0.011748648, 0.033381604, 0.062053964, 0.042653855, 0.047042314, -0.017093925, -0.0064930418, 0.007909347, 0.023269633, -0.0040605958, -0.02384114, -0.018137777, -0.038987353, 0.017645568, -0.006722419, 0.010807834, -0.00028913902, -0.058076616, 0.039863452, -0.016807565, 0.12059085, 0.06263372, -0.024952168, -0.036472782, -0.034466237, -0.07859878, -0.0033121537, -0.025836714, 0.024191659, 0.0070511075, 0.0009395678, 0.035890833, -0.06142224, 0.047631923, -0.009924094, -0.037856504, -0.031811904, -0.04685015, -0.016561672, 0.114248805, 0.026492579, 0.044807076, 0.027975235, 0.060520858, -0.040579267, -0.0074535417, -0.0030330052, -0.00028939478, -0.014424581, -0.03434484, -0.027814992, 0.12778786, 0.11545802, -0.032505956, 0.0015733135, -0.021265501, -0.07828263, -0.016954917, 0.110033885, -0.015170357, 0.016178863, -0.08903389, -0.0062238355, 0.0010156684, 0.07643212, 0.061898287, 0.10701143, -0.13694458, -0.0704328, 0.076798104, 0.00921518, 0.06187698, 0.08819018, 0.0679498, -0.13976301, 0.07656997, -0.016379718, 0.16155782, -0.09436794, 0.09167517, -0.1621799], "bias": [0.024939813, 0.029225573, 0.007829266, 0.0014881855]}, "conv2d_7_tf1": {"name": "conv2d_7_tf1", "type": "conv", "inputs": ["conv2d_tf", "conv2d_1_tf", "conv2d_2_tf", "conv2d_3_tf", "conv2d_4_tf", "conv2d_5_tf", "conv2d_6_tf"], "output": "conv2d_7_tf1", "weights": [0.04888284, -0.045320652, 0.023166995, -0.06349977, 0.04769433, 0.09092332, -0.018109318, -0.044925906, -0.01765186, 0.018397788, -0.08967579, -0.048723787, 0.064158395, 0.013812861, 0.0042798705, -0.041388676, -0.07063445, -0.023895064, -0.0556802, -0.0016528256, 0.022273704, -0.05154365, 0.013866401, -0.02450899, 0.033180825, -0.043487098, 0.14151396, 0.011610412, -0.097415715, -0.0655571, -0.062263537, -0.03126217, -0.009889722, -0.033230703, -0.0584887, -0.06384133, -0.106967986, -0.18833351, -0.20277993, -0.2095521, -0.056551605, -0.04597133, -0.07192537, -0.052968208, -0.013459702, -0.048852686, -0.05021725, -0.10931118, -0.006613298, -0.0020310772, 0.029404398, 0.022609998, 0.09732977, 0.12515235, 0.11813806, 0.15774958, 0.04089124, -0.0015961548, 0.056535564, -0.009640133, 0.033754695, 0.056763057, 0.05312249, 0.062943816, 0.04104629, 0.034290258, 0.0031154694, 0.027378168, -0.010114397, -0.024793014, 0.020719549, -0.015226542, 0.03150776, 0.050747707, 0.0397515, 0.050454523, 0.017334947, 0.060967755, 0.0846315, 0.09745152, -0.0042433008, -0.013433411, 0.05800275, 0.011873265, -0.048646245, 0.009665011, -0.002535594, 0.06519336, -0.06081321, -0.06359039, -0.040837653, -0.0373833, -0.04021273, -0.045651376, -0.11121787, -0.10946586, 0.06379132, 0.09009914, 0.041676953, 0.016056176, 0.022679243, 0.04223696, -0.020627534, 0.010717229, -0.10450278, 0.07496098, -0.02290966, 0.21271344, -0.0163546, -0.014063453, -0.06630121, -0.04734608, -0.06480814, -0.08856016, -0.030108241, -0.031100074, -0.0021718259, -0.07788418, 0.08323251, -0.01446519, 0.011701326, -0.028007062, 0.021915866, -0.0009718507, -0.054262836, -0.018622797, 0.017806862, 0.04293351, -0.053012196, -0.07637872, 0.007969308, -0.014915133, 0.045565154, 0.00521554, -0.011147633, -0.022540871, -0.006918367, 0.0405559, 0.0043756403, -0.038385548, -0.02679556, -0.015794344, -0.039582033, -0.024335934, 0.042911407, 0.07035603, -0.0015792759, 0.0011260608, -0.02483792, -0.0057387645, -0.007966134, 0.016779855, -0.0017673558, -0.012728698, -0.016964188, -0.027526058, 0.010569009, 0.008221599, 0.014305826, 0.023361772, -0.07564524, 0.03543082, -0.024322618, 0.12535807, 0.054450903, -0.03427879, -0.01800451, -0.01670812, -0.09223956, -0.015516227, -0.009189992, 0.04072436, 0.008540652, -0.0017955345, 0.029585313, -0.075884916, 0.054442834, -0.011816233, -0.0318895, -0.033092465, -0.044539936, -0.015455495, 0.095600046, 0.0057573784, 0.048560902, 0.031664867, 0.04239376, -0.06023533, -0.015075673, -0.008692771, -0.001425879, -0.013959638, -0.031812068, -0.028167112, 0.11261473, 0.09546865, -0.033920437, 0.0026115314, -0.012341966, -0.069000475, -0.026803855, 0.09724233, -0.025407406, 0.0014897813, -0.086071335, -0.0025674645, 0.00691933, 0.08251429, 0.05864695, 0.104951784, -0.13363527, -0.06586145, 0.08819793, 0.019131256, 0.050233357, 0.07736865, 0.0754614, -0.13544798, 0.08660602, -0.0063572642, 0.17154828, -0.09027309, 0.087425865, -0.17202711], "bias": [0.0120482035, 0.004880307, 0.0076397094, -0.00992872]}, "conv2d_7_tf2": {"name": "conv2d_7_tf2", "type": "conv", "inputs": ["conv2d_tf", "conv2d_1_tf", "conv2d_2_tf", "conv2d_3_tf", "conv2d_4_tf", "conv2d_5_tf", "conv2d_6_tf"], "output": "conv2d_7_tf2", "weights": [0.012475689, -0.022801636, -0.00041396415, -0.03386347, 0.060214117, 0.015948, 0.011702554, -0.088351995, -0.00050572795, 0.0034718106, -0.010279263, 0.001765975, -0.00977418, -0.003963627, -0.01376468, -0.009793518, -0.0057351673, -0.0054969927, 0.01618681, 0.025479114, 0.00675993, 0.012058533, -0.023398422, 0.009271024, 0.015320227, -0.017456112, 0.053613763, -0.035225715, 0.003707067, 0.007675779, 0.006899877, 0.014725635, -0.026162308, -0.0184384, -0.018699735, -0.0011348214, -0.02709723, -0.052485347, -0.09953804, -0.05411797, -0.030794594, -0.02357691, -0.042667896, -0.026302105, 0.055813897, 0.03784442, 0.029773142, -0.012738128, 0.008248224, -0.014869018, -0.0021289522, -0.031144375, 0.02952629, -0.0030704078, 0.025790557, 0.0061569135, 0.023286454, -0.011163773, 0.045045733, -0.014669366, -0.021453716, -0.018578889, -0.016405376, -0.029282048, 0.046837147, 0.026754249, -0.007369015, 0.006798424, 0.011346229, -0.005750886, 0.017139476, -0.020827005, 0.011338851, 0.028936619, 0.03190071, 0.041894957, 0.034558423, 0.081706986, 0.07978952, 0.09701034, -0.0068899854, -0.0072443597, 0.06373293, 0.02350932, -0.08104213, -0.017288135, -0.0140166525, 0.062120598, -0.045647256, -0.047750335, -0.023030408, -0.020287992, -0.06852813, -0.076539814, -0.095944874, -0.09702807, 0.061643656, 0.10270373, 0.031915203, 0.019243916, 0.006482823, 0.030490402, -0.020954035, 0.013692258, -0.104002364, 0.054035723, -0.043708593, 0.16869293, -0.017659344, -0.018950272, -0.07062773, -0.05563038, -0.056898255, -0.08442408, -0.011165735, -0.015645776, 0.012687108, -0.057097364, 0.0884107, -0.002749259, -0.0012061995, -0.03160775, 0.01145629, -0.0016176887, -0.044155292, -0.008268884, 0.010465447, 0.036153283, -0.048118595, -0.0672344, -0.009683646, -0.029835142, 0.050300445, 0.011490803, -0.016251205, -0.02470786, -0.01673018, 0.028687328, -0.0026858824, -0.04828544, -0.020321142, -0.002762304, -0.02414204, -0.0014300281, 0.041485146, 0.06671117, 0.022978416, 0.023460787, -0.019326182, -0.005466836, 0.0040653674, 0.022688631, -0.005503082, -0.015738146, -0.014764594, -0.023008304, 0.010072965, -0.0040013404, 0.009249494, 0.006251814, -0.06854123, 0.03460326, -0.020320732, 0.12190227, 0.06032115, -0.027334157, -0.023541126, -0.023036012, -0.07852047, -0.00857006, -0.019060101, 0.025318956, 0.0020053883, -0.0053740703, 0.02791257, -0.07077392, 0.051574722, -0.010629622, -0.03672852, -0.03616243, -0.04235859, -0.01153877, 0.10559837, 0.020536248, 0.039568946, 0.027234143, 0.05116381, -0.043987826, -0.0052240677, -0.0010898927, 0.0010728163, -0.01314595, -0.028778018, -0.02329643, 0.12129895, 0.10691516, -0.02682315, 0.007040961, -0.010807561, -0.06645023, -0.017301768, 0.105779834, -0.01664021, 0.012688387, -0.0859551, -0.0047029606, 0.0035633633, 0.076940954, 0.06093364, 0.10639396, -0.13251889, -0.065461725, 0.080039464, 0.014157413, 0.055817038, 0.08354942, 0.069181174, -0.13453828, 0.0789596, -0.011141827, 0.15995298, -0.09573932, 0.088461384, -0.16457398], "bias": [0.0158112, 0.014103937, 0.0021640018, -0.009570115]}, "pixel_shuffle": {"name": "pixel_shuffle", "type": "pixel_shuffle", "inputs": ["conv2d_7_tf", "conv2d_7_tf1", "conv2d_7_tf2"], "output": "canvas"}}}