{
  "name": "webgpu-sr2x-28ch",
  "layers": {
    "conv2d_tf": {
      "name": "conv2d_tf",
      "type": "conv",
      "inputs": [
        "input_1_tf"
      ],
      "output": "conv2d_tf",
      "weights": [
        -0.02881159447133541,
        -0.4885942041873932,
        0.03811781108379364,
        0.15550893545150757,
        0.35251927375793457,
        -0.307345449924469,
        -0.01039858814328909,
        0.3640672266483307,
        -0.23388691246509552,
        -0.04719746857881546,
        -0.03249263018369675,
        0.3901156783103943,
        0.0,
        0.0,
        0.0,
        0.0,
        0.44890090823173523,
        -0.08929320424795151,
        0.14107099175453186,
        -0.0511171780526638,
        -0.3979266881942749,
        0.21900975704193115,
        -0.14189305901527405,
        -0.2451028823852539,
        -0.4039669334888458,
        0.009226501919329166,
        -0.022408168762922287,
        0.09781321883201599,
        0.0,
        0.0,
        0.0,
        0.0,
        0.02626567892730236,
        0.2776050567626953,
        0.3654998242855072,
        -0.03388999402523041,
        0.012467476539313793,
        0.1458331197500229,
        0.011953027918934822,
        -0.2600192725658417,
        0.10953690111637115,
        -0.221268892288208,
        -0.15894478559494019,
        -0.07225339114665985,
        0.0,
        0.0,
        0.0,
        0.0,
        -0.1217995285987854,
        -0.34298866987228394,
        0.12314916402101517,
        0.005705011542886496,
        0.25088047981262207,
        -0.0712592601776123,
        -0.28252243995666504,
        -0.25510939955711365,
        0.24441751837730408,
        0.03664093092083931,
        0.08639748394489288,
        -0.30207404494285583,
        0.0,
        0.0,
        0.0,
        0.0,
        0.46219226717948914,
        0.030176281929016113,
        -0.05759039148688316,
        -0.1577116996049881,
        -0.12621092796325684,
        0.31962573528289795,
        -0.5609995722770691,
        -0.06423890590667725,
        0.4664667546749115,
        0.030811771750450134,
        -0.11243125796318054,
        0.07514667510986328,
        0.0,
        0.0,
        0.0,
        0.0,
        -0.08998797088861465,
        0.4619510769844055,
        0.069794200360775,
        -0.08201166987419128,
        -0.3063531219959259,
        -0.010054935701191425,
        0.03016880713403225,
        0.21429544687271118,
        0.07798317074775696,
        -0.23913127183914185,
        0.24143680930137634,
        0.4749680459499359,
        0.0,
        0.0,
        0.0,
        0.0,
        0.01897035539150238,
        0.42218005657196045,
        -0.006637564394623041,
        0.1293625831604004,
        -0.05212271586060524,
        -0.06058806926012039,
        -0.18781913816928864,
        -0.22491079568862915,
        -0.1254441887140274,
        0.3275218605995178,
        -0.013594677671790123,
        -0.1897895783185959,
        0.0,
        0.0,
        0.0,
        0.0,
        0.3483831286430359,
        -0.2014223039150238,
        0.4760594666004181,
        0.26249122619628906,
        -0.12595798075199127,
        -0.0015595017466694117,
        0.11286831647157669,
        -0.51980060338974,
        -0.36087489128112793,
        0.36353954672813416,
        -0.3777616024017334,
        0.18571944534778595,
        0.0,
        0.0,
        0.0,
        0.0,
        -0.3069993555545807,
        -0.1225581020116806,
        -0.099632628262043,
        0.2380029261112213,
        0.15286968648433685,
        -0.22577935457229614,
        -0.21005579829216003,
        -0.08225936442613602,
        0.11805089563131332,
        -0.23589497804641724,
        0.36902740597724915,
        -0.23670633137226105,
        0.0,
        0.0,
        0.0,
        0.0
      ],
      "bias": [
        -0.31553876399993896,
        -0.05841617286205292,
        0.03515543416142464,
        0.11093319207429886
      ]
    },
    "conv2d_tf1": {
      "name": "conv2d_tf1",
      "type": "conv",
      "inputs": [
        "input_1_tf"
      ],
      "output": "conv2d_tf1",
      "weights": [
        0.01724686659872532,
        0.0017607292393222451,
        0.010667609982192516,
        -0.0724533423781395,
        -0.32043540477752686,
        0.16704073548316956,
        -0.28761544823646545,
        -0.04519326239824295,
        -0.5031738877296448,
        0.2296036332845688,
        0.20661471784114838,
        0.25417929887771606,
        0.0,
        0.0,
        0.0,
        0.0,
        -0.11677705496549606,
        0.08587092161178589,
        -0.13154707849025726,
        0.0927562341094017,
        0.2611664831638336,
        -0.30559322237968445,
        0.02430729940533638,
        0.20714271068572998,
        0.25955942273139954,
        0.35426995158195496,
        -0.5501237511634827,
        0.22077219188213348,
        0.0,
        0.0,
        0.0,
        0.0,
        -0.10266956686973572,
        -0.014818207360804081,
        0.2084728479385376,
        0.08800536394119263,
        -0.2609894573688507,
        -0.47724348306655884,
        -0.02067088522017002,
        0.05391710624098778,
        0.3782569169998169,
        -0.1858818680047989,
        0.23664794862270355,
        -0.14508198201656342,
        0.0,
        0.0,
        0.0,
        0.0,
        0.14851579070091248,
        0.0034149927087128162,
        -0.05212215706706047,
        0.2850128412246704,
        0.03753440082073212,
        0.3508148789405823,
        -0.20224717259407043,
        -0.19177256524562836,
        0.3494323492050171,
        -0.48109668493270874,
        0.2878025472164154,
        -0.3167780637741089,
        0.0,
        0.0,
        0.0,
        0.0,
        0.22595925629138947,
        0.13329486548900604,
        0.059144534170627594,
        -0.1210378110408783,
        0.05069717764854431,
        -0.13757380843162537,
        -0.2009584903717041,
        -0.2823237180709839,
        0.40876373648643494,
        0.005794121418148279,
        -0.6139268279075623,
        0.23315030336380005,
        0.0,
        0.0,
        0.0,
        0.0,
        0.12001757323741913,
        -0.3865927755832672,
        -0.10475334525108337,
        0.1704825460910797,
        -0.2732599973678589,
        -0.09880226105451584,
        0.2674029767513275,
        0.1526385396718979,
        -0.008032708428800106,
        0.21145936846733093,
        -0.0902952030301094,
        0.1446394920349121,
        0.0,
        0.0,
        0.0,
        0.0,
        -0.08989250659942627,
        0.192217618227005,
        0.08549626916646957,
        -0.1210251972079277,
        -0.06429871171712875,
        0.5311821103096008,
        0.06745955348014832,
        -0.17551416158676147,
        0.08091607689857483,
        -0.1944505125284195,
        0.0019766460172832012,
        0.10200230777263641,
        0.0,
        0.0,
        0.0,
        0.0,
        -0.4247332215309143,
        -0.11208707839250565,
        -0.44010668992996216,
        0.017625832930207253,
        0.15527001023292542,
        0.3182115852832794,
        0.11750384420156479,
        0.34059637784957886,
        -0.08548569679260254,
        0.15244266390800476,
        0.22368748486042023,
        0.16417373716831207,
        0.0,
        0.0,
        0.0,
        0.0,
        0.13938750326633453,
        0.04903202876448631,
        -0.22604727745056152,
        -0.3304247260093689,
        0.39610764384269714,
        -0.36080947518348694,
        0.21586669981479645,
        -0.14660486578941345,
        0.022971495985984802,
        -0.07879988104104996,
        0.30097684264183044,
        -0.17072023451328278,
        0.0,
        0.0,
        0.0,
        0.0
      ],
      "bias": [
        -0.06229991465806961,
        -0.02791258506476879,
        0.032376281917095184,
        -0.06471668183803558
      ]
    },
    "conv2d_tf2": {
      "name": "conv2d_tf2",
      "type": "conv",
      "inputs": [
        "input_1_tf"
      ],
      "output": "conv2d_tf2",
      "weights": [
        0.05819319933652878,
        0.25004470348358154,
        -0.09193745255470276,
        0.049704138189554214,
        -0.17511385679244995,
        -0.35933709144592285,
        -0.24244630336761475,
        -0.19483500719070435,
        0.17324046790599823,
        0.3867621421813965,
        -0.07420601695775986,
        0.45690593123435974,
        0.0,
        0.0,
        0.0,
        0.0,
        0.2627720534801483,
        -0.5567769408226013,
        0.08164355903863907,
        0.06235650181770325,
        -0.03623250126838684,
        0.3104211091995239,
        0.2991351783275604,
        -0.12400755286216736,
        0.404045432806015,
        -0.3203946650028229,
        -0.35805562138557434,
        0.15641812980175018,
        0.0,
        0.0,
        0.0,
        0.0,
        0.21813246607780457,
        0.06996966898441315,
        -0.4517756700515747,
        -0.1394515335559845,
        0.24466364085674286,
        0.2146213948726654,
        -0.09460986405611038,
        -0.03936249390244484,
        -0.42814427614212036,
        0.10195072740316391,
        -0.07938343286514282,
        0.02565697953104973,
        0.0,
        0.0,
        0.0,
        0.0,
        0.0852440893650055,
        -0.013243311084806919,
        0.3174901604652405,
        -0.23248359560966492,
        -0.10259195417165756,
        -0.20012110471725464,
        0.02977873757481575,
        0.5396563410758972,
        0.2589474022388458,
        -0.12009894102811813,
        -0.11237171292304993,
        -0.5822982788085938,
        0.0,
        0.0,
        0.0,
        0.0,
        -0.3737095594406128,
        0.3185153603553772,
        -0.2272186577320099,
        -0.0019094598246738315,
        -0.49220845103263855,
        0.3731771409511566,
        -0.24281592667102814,
        0.32900500297546387,
        0.00026159838307648897,
        -0.25240492820739746,
        0.12665139138698578,
        -0.46854692697525024,
        0.0,
        0.0,
        0.0,
        0.0,
        -0.2501716911792755,
        0.052427928894758224,
        0.027336519211530685,
        0.07782269269227982,
        0.14866159856319427,
        -0.20959573984146118,
        -0.3789829611778259,
        -0.16164815425872803,
        -0.20804117619991302,
        -0.15767009556293488,
        0.37341445684432983,
        0.3211521506309509,
        0.0,
        0.0,
        0.0,
        0.0,
        -0.3272427022457123,
        0.10687234252691269,
        0.14341942965984344,
        0.37020745873451233,
        0.2268754094839096,
        0.12878075242042542,
        -0.14098457992076874,
        0.10651576519012451,
        -0.07407821714878082,
        -0.2548016905784607,
        -0.16710887849330902,
        0.3302386403083801,
        0.0,
        0.0,
        0.0,
        0.0,
        0.13205352425575256,
        -0.25715702772140503,
        -0.19916243851184845,
        -0.07898815721273422,
        -0.18138745427131653,
        0.527820348739624,
        0.5290829539299011,
        -0.3394855558872223,
        -0.20898014307022095,
        -0.41663551330566406,
        0.2494356483221054,
        0.2925829291343689,
        0.0,
        0.0,
        0.0,
        0.0,
        0.15985767543315887,
        0.03520388528704643,
        0.3520224094390869,
        -0.12144074589014053,
        -0.029634660109877586,
        -0.15925462543964386,
        0.07053060084581375,
        -0.00888180360198021,
        0.09988909214735031,
        0.037776123732328415,
        0.049726396799087524,
        -0.4908624589443207,
        0.0,
        0.0,
        0.0,
        0.0
      ],
      "bias": [
        0.04227243736386299,
        0.18094253540039062,
        -0.031003914773464203,
        0.006586976815015078
      ]
    },
    "conv2d_tf3": {
      "name": "conv2d_tf3",
      "type": "conv",
      "inputs": [
        "input_1_tf"
      ],
      "output": "conv2d_tf3",
      "weights": [
        0.16840580105781555,
        -0.4744572937488556,
        -0.20140157639980316,
        -0.027402587234973907,
        -0.4209204316139221,
        0.21403995156288147,
        0.28090688586235046,
        0.14065280556678772,
        -0.07801857590675354,
        0.4656813144683838,
        0.38781115412712097,
        -0.07091996818780899,
        0.0,
        0.0,
        0.0,
        0.0,
        0.11412593722343445,
        0.18188731372356415,
        -0.013226649723947048,
        0.2201867699623108,
        -0.13865497708320618,
        0.04644583538174629,
        -0.48304447531700134,
        0.034625180065631866,
        -0.05101470649242401,
        0.4338599145412445,
        0.23761585354804993,
        -0.02056427299976349,
        0.0,
        0.0,
        0.0,
        0.0,
        -0.09407684952020645,
        0.007729852572083473,
        -0.08908668905496597,
        -0.2411632537841797,
        -0.08055390417575836,
        0.13099655508995056,
        0.15882068872451782,
        -0.5453047156333923,
        -0.017567109316587448,
        -0.2675878405570984,
        -0.19771689176559448,
        0.5462851524353027,
        0.0,
        0.0,
        0.0,
        0.0,
        0.09334813058376312,
        -0.05058922618627548,
        0.12605248391628265,
        -0.16659881174564362,
        0.21933241188526154,
        0.2346993386745453,
        -0.230775386095047,
        -0.11366154253482819,
        0.20449933409690857,
        0.27661967277526855,
        -0.2542800307273865,
        -0.09859895706176758,
        0.0,
        0.0,
        0.0,
        0.0,
        0.15001583099365234,
        0.008677814155817032,
        -0.0573679618537426,
        0.07720295339822769,
        0.1726045459508896,
        -0.25938332080841064,
        -0.0882900208234787,
        0.4532710015773773,
        -0.07140784710645676,
        -0.3636871576309204,
        -0.09023283421993256,
        0.6344983577728271,
        0.0,
        0.0,
        0.0,
        0.0,
        -0.3064285218715668,
        -0.04410240426659584,
        -0.14823192358016968,
        -0.1325145810842514,
        -0.11172556132078171,
        -0.03804980218410492,
        0.18265320360660553,
        -0.06794152408838272,
        0.31598731875419617,
        -0.02285885065793991,
        0.2802530527114868,
        -0.2628598213195801,
        0.0,
        0.0,
        0.0,
        0.0,
        -0.29427021741867065,
        0.22166021168231964,
        -0.05918372794985771,
        0.044471126049757004,
        0.36869969964027405,
        -0.28296735882759094,
        0.1454247236251831,
        -0.3100876212120056,
        -0.34153708815574646,
        -0.4427112936973572,
        0.04958578571677208,
        -0.10715310275554657,
        0.0,
        0.0,
        0.0,
        0.0,
        0.0020049537997692823,
        0.01510875765234232,
        0.1653979867696762,
        0.07887787371873856,
        0.32579636573791504,
        0.11346129328012466,
        -0.05219046771526337,
        0.14245349168777466,
        0.09375401586294174,
        -0.08657659590244293,
        0.0380668118596077,
        -0.32749995589256287,
        0.0,
        0.0,
        0.0,
        0.0,
        0.23679985105991364,
        0.12974025309085846,
        0.33780911564826965,
        0.13764359056949615,
        -0.5064086318016052,
        -0.15738095343112946,
        0.1429065763950348,
        0.0036442051641643047,
        -0.12071486562490463,
        0.023087486624717712,
        -0.24344319105148315,
        -0.3247213661670685,
        0.0,
        0.0,
        0.0,
        0.0
      ],
      "bias": [
        0.07401498407125473,
        0.026835734024643898,
        -0.05379897356033325,
        0.006286927033215761
      ]
    },
    "conv2d_tf4": {
      "name": "conv2d_tf4",
      "type": "conv",
      "inputs": [
        "input_1_tf"
      ],
      "output": "conv2d_tf4",
      "weights": [
        0.01899062842130661,
        0.07588232308626175,
        0.418412983417511,
        0.3000320792198181,
        -0.16839483380317688,
        0.06731797009706497,
        -0.004478523042052984,
        -0.1511075496673584,
        0.05145246535539627,
        0.0757889375090599,
        -0.38268086314201355,
        -0.3870338201522827,
        0.0,
        0.0,
        0.0,
        0.0,
        -0.2385682463645935,
        0.1440301388502121,
        0.2924986779689789,
        0.23463869094848633,
        -0.4679216742515564,
        0.3609749972820282,
        0.3331456780433655,
        -0.36834946274757385,
        0.29759499430656433,
        -0.1883065104484558,
        -0.18138852715492249,
        0.056351594626903534,
        0.0,
        0.0,
        0.0,
        0.0,
        -0.026647817343473434,
        -0.11408542096614838,
        -0.28036338090896606,
        -0.14383681118488312,
        0.24235208332538605,
        -0.5189157724380493,
        -0.26458021998405457,
        0.16912952065467834,
        0.4189881980419159,
        -0.09339822828769684,
        0.39269471168518066,
        -0.11467494815587997,
        0.0,
        0.0,
        0.0,
        0.0,
        0.393898606300354,
        0.07558578997850418,
        -0.10492309182882309,
        -0.04462419077754021,
        0.059283170849084854,
        -0.08221803605556488,
        0.025229396298527718,
        0.206867516040802,
        0.1428806185722351,
        0.23904740810394287,
        0.10599841922521591,
        -0.5245860815048218,
        0.0,
        0.0,
        0.0,
        0.0,
        0.32404422760009766,
        0.24159550666809082,
        0.11149945110082626,
        0.4505690038204193,
        -0.20531928539276123,
        -0.09117128700017929,
        -0.006328283809125423,
        -0.08098889142274857,
        0.09335239976644516,
        0.3497680425643921,
        0.05973002314567566,
        0.07053506374359131,
        0.0,
        0.0,
        0.0,
        0.0,
        -0.11269216984510422,
        0.29814082384109497,
        -0.45981860160827637,
        -0.12609054148197174,
        -0.28048500418663025,
        0.1280239373445511,
        -0.21121397614479065,
        -0.1308317482471466,
        -0.2518223822116852,
        0.4250853955745697,
        0.37950772047042847,
        0.34027937054634094,
        0.0,
        0.0,
        0.0,
        0.0,
        -0.27274754643440247,
        -0.4992001950740814,
        -0.30912870168685913,
        0.053723063319921494,
        -0.17014938592910767,
        -0.00637766532599926,
        0.18781159818172455,
        -0.03383491188287735,
        0.06774643808603287,
        -0.4813796877861023,
        0.037659335881471634,
        0.16370144486427307,
        0.0,
        0.0,
        0.0,
        0.0,
        0.3540862798690796,
        -0.04915093630552292,
        -0.24234895408153534,
        -0.06296204030513763,
        -0.03189416229724884,
        -0.05803290009498596,
        -0.058360323309898376,
        -0.22175002098083496,
        -0.4663611650466919,
        0.045368682593107224,
        -0.18549969792366028,
        0.34521427750587463,
        0.0,
        0.0,
        0.0,
        0.0,
        0.18161317706108093,
        -0.1642589122056961,
        0.2539813816547394,
        -0.5908873677253723,
        -0.06007871404290199,
        0.18523649871349335,
        0.28332898020744324,
        0.4626346528530121,
        0.021720876917243004,
        -0.3508142828941345,
        -0.04420065879821777,
        -0.18064402043819427,
        0.0,
        0.0,
        0.0,
        0.0
      ],
      "bias": [
        -0.0008214296540245414,
        0.024863921105861664,
        -0.0101627167314291,
        0.17319951951503754
      ]
    },
    "conv2d_tf5": {
      "name": "conv2d_tf5",
      "type": "conv",
      "inputs": [
        "input_1_tf"
      ],
      "output": "conv2d_tf5",
      "weights": [
        0.2791600525379181,
        -0.2895190417766571,
        -0.08422306180000305,
        0.2437473088502884,
        0.1944955289363861,
        0.10814686119556427,
        0.038824427872896194,
        0.12803658843040466,
        -0.21338166296482086,
        -0.2218261957168579,
        0.25583186745643616,
        0.09892046451568604,
        0.0,
        0.0,
        0.0,
        0.0,
        0.11047805100679398,
        0.15907809138298035,
        0.2619626224040985,
        -0.2657264769077301,
        -0.017014753073453903,
        0.053344570100307465,
        0.13283860683441162,
        0.5753281116485596,
        -0.12261215597391129,
        -0.08157506585121155,
        -0.07315880060195923,
        -0.03872917219996452,
        0.0,
        0.0,
        0.0,
        0.0,
        0.5521268844604492,
        -0.16214241087436676,
        -0.1538352370262146,
        -0.17986056208610535,
        0.30200597643852234,
        -0.04629401117563248,
        -0.19518044590950012,
        -0.39040178060531616,
        0.3871694505214691,
        0.10131697356700897,
        -0.1014881506562233,
        -0.2839065194129944,
        0.0,
        0.0,
        0.0,
        0.0,
        -0.25815147161483765,
        0.18948602676391602,
        -0.24943654239177704,
        0.3796316385269165,
        0.1156642735004425,
        0.09410256892442703,
        -0.4818095266819,
        0.3521892726421356,
        -0.3360333740711212,
        0.1586027443408966,
        -0.09596285223960876,
        0.5046700835227966,
        0.0,
        0.0,
        0.0,
        0.0,
        0.16543041169643402,
        0.41578641533851624,
        0.27861157059669495,
        -0.36213332414627075,
        -0.03273162990808487,
        -0.2328820675611496,
        -0.0455964058637619,
        0.03934851288795471,
        0.5887193083763123,
        0.20878785848617554,
        -0.01282845251262188,
        -0.2795434892177582,
        0.0,
        0.0,
        0.0,
        0.0,
        -0.4147804379463196,
        0.3593273460865021,
        0.0789492055773735,
        0.32001951336860657,
        0.3804054856300354,
        -0.12944601476192474,
        -0.26949310302734375,
        0.323930561542511,
        -0.16930872201919556,
        0.030079342424869537,
        0.026244238018989563,
        0.4665389955043793,
        0.0,
        0.0,
        0.0,
        0.0,
        0.012044090777635574,
        -0.04357994347810745,
        -0.12755586206912994,
        0.007653623353689909,
        -0.10634082555770874,
        -0.3690336346626282,
        -0.15316300094127655,
        -0.11824607104063034,
        0.3848969638347626,
        0.1266612559556961,
        -0.013262792490422726,
        -0.11109751462936401,
        0.0,
        0.0,
        0.0,
        0.0,
        -0.3444104492664337,
        0.008674051612615585,
        0.22147423028945923,
        0.05289008095860481,
        -0.20248110592365265,
        0.30497467517852783,
        0.5181512236595154,
        -0.006052615586668253,
        -0.1984710544347763,
        -0.07500831037759781,
        0.021110814064741135,
        -0.13531483709812164,
        0.0,
        0.0,
        0.0,
        0.0,
        -0.1306789368391037,
        0.11005259305238724,
        -0.25992947816848755,
        -0.2123083472251892,
        -0.6276569366455078,
        0.1705014556646347,
        0.4565936028957367,
        0.19128456711769104,
        -0.3232174813747406,
        -0.2690192759037018,
        -0.012884984724223614,
        -0.26826462149620056,
        0.0,
        0.0,
        0.0,
        0.0
      ],
      "bias": [
        -0.03791975975036621,
        -0.033968571573495865,
        -0.022443972527980804,
        -0.07327043265104294
      ]
    },
    "conv2d_tf6": {
      "name": "conv2d_tf6",
      "type": "conv",
      "inputs": [
        "input_1_tf"
      ],
      "output": "conv2d_tf6",
      "weights": [
        0.25356268882751465,
        0.21487849950790405,
        -0.2536238133907318,
        -0.5223669409751892,
        -0.5535925030708313,
        -0.17969295382499695,
        -0.12400924414396286,
        0.25155875086784363,
        0.17452706396579742,
        0.09241053462028503,
        0.13952499628067017,
        0.37862691283226013,
        0.0,
        0.0,
        0.0,
        0.0,
        0.14834493398666382,
        -0.49899595975875854,
        0.0013094302266836166,
        0.4833551347255707,
        0.28783881664276123,
        0.03999830409884453,
        0.4419786036014557,
        -0.5018861889839172,
        -0.18260809779167175,
        0.07748355716466904,
        -0.0017343424260616302,
        -0.4479607045650482,
        0.0,
        0.0,
        0.0,
        0.0,
        0.059706445783376694,
        -0.06562501937150955,
        -0.008602364920079708,
        0.06028718501329422,
        0.3012861907482147,
        0.42957305908203125,
        0.1205243468284607,
        0.19127193093299866,
        -0.259900838136673,
        0.1645234376192093,
        -0.2821251153945923,
        -0.0037767747417092323,
        0.0,
        0.0,
        0.0,
        0.0,
        -0.24604660272598267,
        -0.15937933325767517,
        -0.26941701769828796,
        -0.06170001998543739,
        0.23612122237682343,
        0.18013638257980347,
        -0.5313145518302917,
        -0.16612477600574493,
        -0.23944321274757385,
        -0.24858678877353668,
        -0.06303976476192474,
        -0.013588069006800652,
        0.0,
        0.0,
        0.0,
        0.0,
        -0.18537645041942596,
        0.22031283378601074,
        -0.11156603693962097,
        -0.2338082492351532,
        0.07042047381401062,
        -0.12433058023452759,
        -0.017572665587067604,
        0.3191078305244446,
        0.06141947954893112,
        -0.10262704640626907,
        0.34560608863830566,
        0.5156387686729431,
        0.0,
        0.0,
        0.0,
        0.0,
        0.3283241093158722,
        0.33985525369644165,
        0.29496148228645325,
        -0.11387445777654648,
        0.2586958706378937,
        -0.344302773475647,
        -0.11959076672792435,
        0.31397953629493713,
        0.08212887495756149,
        0.0839935690164566,
        -0.170577272772789,
        -0.31968384981155396,
        0.0,
        0.0,
        0.0,
        0.0,
        0.10913120210170746,
        -0.3825374245643616,
        0.3589504659175873,
        0.036110855638980865,
        0.27169176936149597,
        0.4010086953639984,
        0.22792232036590576,
        -0.170928493142128,
        -0.4989558458328247,
        -0.4018982946872711,
        -0.40521058440208435,
        -0.04126117005944252,
        0.0,
        0.0,
        0.0,
        0.0,
        -0.01243325974792242,
        0.2510404884815216,
        0.304767370223999,
        -0.03005124069750309,
        -0.5494529008865356,
        -0.2744908928871155,
        -0.16401168704032898,
        -0.3076760172843933,
        0.5555786490440369,
        0.15591078996658325,
        -0.27422046661376953,
        0.29488205909729004,
        0.0,
        0.0,
        0.0,
        0.0,
        0.01040900032967329,
        0.06182638555765152,
        -0.32584506273269653,
        -0.453962504863739,
        -0.17913846671581268,
        -0.08272100239992142,
        0.204519122838974,
        0.3787025213241577,
        -0.043531473726034164,
        0.20240621268749237,
        0.25434353947639465,
        0.3110431730747223,
        0.0,
        0.0,
        0.0,
        0.0
      ],
      "bias": [
        -0.06654269248247147,
        0.011756843887269497,
        0.015612618066370487,
        -0.08389239013195038
      ]
    },
    "conv2d_1_tf": {
      "name": "conv2d_1_tf",
      "type": "conv",
      "inputs": [
        "conv2d_tf",
        "conv2d_tf1"
      ],
      "output": "conv2d_1_tf",
      "weights": [
        0.04152553901076317,
        -0.01270841434597969,
        -0.03054329939186573,
        0.005980765447020531,
        -0.00608712388202548,
        -0.008337549865245819,
        0.03121452033519745,
        -0.005804442334920168,
        -0.03012917749583721,
        0.059065286070108414,
        -0.010212179273366928,
        0.024634942412376404,
        -0.002532432321459055,
        -0.010414195246994495,
        -0.046148672699928284,
        0.03168612718582153,
        -0.07118134945631027,
        -0.009091420099139214,
        0.009473748505115509,
        -0.09714537858963013,
        -0.01732567884027958,
        -0.07036370784044266,
        0.08993785828351974,
        0.05516381189227104,
        0.0813826322555542,
        0.07053620368242264,
        -0.007464117370545864,
        -0.02576742134988308,
        0.002017725957557559,
        -0.02260354347527027,
        0.04938540980219841,
        -0.002130247885361314,
        -0.08533446490764618,
        -0.07363269478082657,
        -0.11009522527456284,
        -0.10309012234210968,
        -0.1511724889278412,
        0.040884725749492645,
        0.008331257849931717,
        0.016786836087703705,
        -0.0765455812215805,
        -0.004662030376493931,
        0.029654163867235184,
        -0.031863898038864136,
        -0.07519601285457611,
        -0.003904011333361268,
        0.017307834699749947,
        0.05858958885073662,
        0.12498730421066284,
        0.0448036715388298,
        0.06124250590801239,
        0.011493777856230736,
        -0.04091881960630417,
        -0.06839753687381744,
        -0.00919286347925663,
        0.030105408281087875,
        0.03892458602786064,
        0.04557875543832779,
        0.02915649116039276,
        -0.08527381718158722,
        -0.018689120188355446,
        -0.04682615399360657,
        0.032416608184576035,
        -0.0553300715982914,
        0.01931333728134632,
        0.08335868269205093,
        0.01639985665678978,
        -0.16031500697135925,
        -0.021504897624254227,
        0.028152819722890854,
        0.06826267391443253,
        -0.040939442813396454,
        -0.07951368391513824,
        0.024256674572825432,
        0.08347981423139572,
        0.036635689437389374,
        0.054834239184856415,
        -0.040880441665649414,
        -0.002387411892414093,
        0.044023461639881134,
        0.02964198775589466,
        -0.08254226297140121,
        -0.06446520984172821,
        -0.256498247385025,
        0.015279150567948818,
        -0.22356458008289337,
        0.15691842138767242,
        0.0034527750685811043,
        -0.07156066596508026,
        0.0682760551571846,
        0.05994877964258194,
        0.02598130889236927,
        -0.042614128440618515,
        -0.014062773436307907,
        0.04466318339109421,
        0.03867581486701965,
        0.07058528065681458,
        -0.07653801888227463,
        -0.01381960790604353,
        -0.02296494133770466,
        0.0035659465938806534,
        0.043399132788181305,
        0.14219693839550018,
        0.061885591596364975,
        0.013701900839805603,
        -0.14711518585681915,
        -0.03526388108730316,
        -0.02141696773469448,
        0.013008924201130867,
        0.0052460855804383755,
        0.006701107602566481,
        0.04240093752741814,
        -0.016225703060626984,
        0.1406552642583847,
        -0.11112738400697708,
        -0.05921277403831482,
        0.02663893811404705,
        -0.044202886521816254,
        0.126983180642128,
        -0.09302219748497009,
        -0.040016114711761475,
        0.015911299735307693,
        -0.005757915787398815,
        0.1209656298160553,
        0.05477387458086014,
        -0.030984602868556976,
        -0.005608964245766401,
        0.06096230447292328,
        -0.06202729418873787,
        0.02245347574353218,
        0.12490551173686981,
        -0.0775221660733223,
        -0.08297727257013321,
        0.010926302522420883,
        0.017134398221969604,
        0.05355892702937126,
        0.005224918015301228,
        -0.10253573954105377,
        0.10341031104326248,
        0.09162075817584991,
        0.03052864596247673,
        -0.08380380272865295,
        -0.01189097948372364,
        -0.05738666281104088,
        0.041495732963085175,
        -0.011216326616704464,
        -0.08657615631818771,
        -0.07683832943439484,
        0.04841570556163788,
        0.11777272820472717,
        -0.051323067396879196,
        -0.09589596092700958,
        -0.0832134336233139,
        -0.049067772924900055,
        -0.06831061840057373,
        0.07742848247289658,
        -0.017164330929517746,
        0.0032577000092715025,
        -0.03934185206890106,
        -0.0830826461315155,
        -0.043678220361471176,
        -0.032580602914094925,
        0.034815337508916855,
        -0.03972398117184639,
        -0.0961042046546936,
        0.013287857174873352,
        -0.044421762228012085,
        0.010791710577905178,
        -0.02737424708902836,
        -0.04115058854222298,
        0.01750456541776657,
        0.09160146117210388,
        0.04226557910442352,
        0.04553724825382233,
        0.04435601085424423,
        0.09089673310518265,
        0.018940558657050133,
        0.014717771671712399,
        -0.06868576258420944,
        -0.02192808873951435,
        0.054832372814416885,
        0.018780263140797615,
        -0.1603507399559021,
        0.08048726618289948,
        0.11232347041368484,
        -0.10036186128854752,
        0.039206456393003464,
        -0.004628692287951708,
        0.033249080181121826,
        -0.04196469485759735,
        -0.11092957109212875,
        -0.004763378761708736,
        0.015164995566010475,
        0.023857785388827324,
        0.025719549506902695,
        0.11083418130874634,
        -0.04884954169392586,
        0.12539204955101013,
        0.005374228581786156,
        0.04892246797680855,
        -0.11675611883401871,
        -0.064958855509758,
        0.05944738909602165,
        0.05712055414915085,
        0.13784155249595642,
        -0.03763854503631592,
        0.055766090750694275,
        -0.014696572907269001,
        -0.012072031386196613,
        0.07385294884443283,
        -0.10200463235378265,
        -0.0424579456448555,
        0.03939586505293846,
        -0.0007675796514376998,
        0.014135828241705894,
        -0.015400944277644157,
        -0.033062152564525604,
        -0.06830059736967087,
        0.11908357590436935,
        0.012444090098142624,
        -0.03489215299487114,
        -0.01247313991189003,
        -0.023830704391002655,
        -0.10378905385732651,
        -0.0822838544845581,
        -0.01302364282310009,
        0.14508256316184998,
        0.038869552314281464,
        -0.012502864934504032,
        -0.060738012194633484,
        0.004195747431367636,
        -0.02988823875784874,
        -0.17379166185855865,
        -0.23382100462913513,
        0.0930570662021637,
        0.10866546630859375,
        0.020880265161395073,
        -0.0296226404607296,
        0.042051371186971664,
        -0.04622761905193329,
        0.020226456224918365,
        0.02063305862247944,
        -0.04770234599709511,
        -0.028695501387119293,
        0.09739667922258377,
        0.05920809879899025,
        -0.08555538952350616,
        0.01633533276617527,
        -0.1466614454984665,
        -0.03609181195497513,
        -0.056665513664484024,
        0.06270600855350494,
        0.07985059916973114,
        -0.032176628708839417,
        0.03445037454366684,
        -0.020227806642651558,
        -0.008110188879072666,
        -0.03200986236333847,
        0.056213393807411194,
        -0.0013871551491320133,
        -0.09540016204118729,
        -0.00813085027039051,
        -0.04926053807139397,
        0.12494198977947235,
        -0.22565704584121704,
        -0.01373971626162529,
        0.11147715151309967,
        -0.02868518978357315,
        -0.049182210117578506,
        0.00948349479585886,
        0.07795942574739456,
        -0.0010072279255837202,
        -0.09889405965805054,
        0.006029937881976366,
        0.04845022037625313,
        0.0016249321633949876,
        0.005886654369533062,
        0.02297052927315235,
        0.16048464179039001,
        -0.030741751194000244,
        -0.005667605437338352,
        -0.18614958226680756,
        0.13203521072864532,
        0.05844854936003685,
        0.013864194974303246,
        -0.07908391952514648,
        -0.07336073368787766,
        0.15739992260932922,
        -0.06756551563739777,
        0.12484236806631088,
        0.03818719834089279,
        -0.014233550056815147,
        0.08362828940153122,
        -0.019653573632240295,
        0.1235465556383133,
        0.035322584211826324,
        0.08198680728673935,
        -0.02393571473658085,
        -0.14701753854751587,
        -0.07239464670419693,
        -0.07863979786634445,
        -0.029128624126315117,
        0.04067372903227806,
        0.04591650515794754,
        -0.05306009203195572,
        0.008553659543395042,
        -0.054478347301483154,
        0.11018551141023636,
        -0.026436610147356987,
        -0.09643566608428955,
        0.009442072361707687,
        -0.07305784523487091,
        -0.05969817191362381,
        -0.10060013085603714,
        -0.06657331436872482,
        -0.055751677602529526,
        0.021842999383807182,
        -0.1053314283490181,
        -0.10944705456495285,
        0.034012116491794586,
        0.06455770134925842,
        -0.061106838285923004,
        -0.0021056183613836765,
        -0.06376975029706955,
        0.11678957939147949,
        -0.007757124025374651,
        -0.09584742039442062,
        -0.04864199832081795,
        -0.13529685139656067,
        -0.05002811551094055,
        0.07217689603567123,
        0.05464043840765953,
        0.01194859016686678,
        0.11381252110004425,
        -0.11964865773916245,
        0.07627898454666138,
        -0.10862390697002411,
        0.07953112572431564,
        -0.05076662451028824,
        -0.058447763323783875,
        -0.03076760657131672,
        0.01067943125963211,
        -0.0024288829881697893,
        0.03958818316459656,
        0.00985086802393198,
        -0.06693277508020401,
        -0.010428185574710369,
        0.08866296708583832,
        0.017560651525855064,
        -0.07164788246154785,
        0.09009210020303726,
        0.06557555496692657,
        -0.0958329513669014,
        0.08834473043680191,
        -0.01246802881360054,
        -0.0852961614727974,
        0.008644409477710724,
        -0.012077707797288895,
        0.03564954921603203,
        -0.18741926550865173,
        -0.027392052114009857,
        -0.09852014482021332,
        0.015616162680089474,
        -0.032621391117572784,
        0.013726814649999142,
        -0.07109027355909348,
        -0.10889153927564621,
        0.05093518644571304,
        0.011555632576346397,
        -0.1402614265680313,
        0.037148356437683105,
        -0.09873732924461365,
        -0.05936571955680847,
        0.018125265836715698,
        -0.011196820996701717,
        -0.11813339591026306,
        0.003805175656452775,
        -0.0169626846909523,
        -0.07760431617498398,
        -0.09597592800855637,
        -0.015204252675175667,
        -0.0445537343621254,
        0.06395772844552994,
        -0.12919338047504425,
        0.11012948304414749,
        -0.01278912927955389,
        0.07197227329015732,
        0.12165169417858124,
        0.0057049901224672794,
        -0.057800304144620895,
        -0.025815589353442192,
        0.08381558954715729,
        -0.037243518978357315,
        0.06840574741363525,
        -0.09174370020627975,
        -0.01245744340121746,
        0.033078793436288834,
        0.018474971875548363,
        -0.0036960344295948744,
        0.05790991708636284,
        0.003944746218621731,
        -0.09123850613832474,
        0.07643993198871613,
        -0.012312555685639381,
        -0.00858489703387022,
        0.03949351981282234,
        0.02355249412357807,
        0.026169851422309875,
        0.08330947905778885,
        -0.02252095565199852,
        -0.0991833284497261,
        -0.15235835313796997,
        -0.11352008581161499,
        0.14454127848148346,
        -0.002728653373196721,
        -0.14469973742961884,
        0.041894346475601196,
        -0.055682361125946045,
        0.10695899277925491,
        0.05661827325820923,
        -0.0324997678399086,
        0.005189172457903624,
        -0.048389073461294174,
        -0.026843728497624397,
        0.13929635286331177,
        0.007510033901780844,
        -0.022058846428990364,
        -0.2756557762622833,
        0.05273892357945442,
        0.12810121476650238,
        0.17026686668395996,
        -0.016712553799152374,
        0.061640415340662,
        0.018175801262259483,
        0.08101683109998703,
        0.07910414785146713,
        -0.002868818584829569,
        0.1231803372502327,
        -0.03768767789006233,
        0.07050683349370956,
        0.11224042624235153,
        0.011579377576708794,
        -0.0810597762465477,
        -0.05027078464627266,
        0.04259071871638298,
        0.02465149760246277,
        0.03513415902853012,
        0.14061620831489563,
        -0.12990251183509827,
        -0.040215667337179184,
        -0.08283968269824982,
        -0.0954766497015953,
        -0.038357000797986984,
        -0.03648516908288002,
        0.07975072413682938,
        4.6432334784185514e-05,
        0.0958256945014,
        0.017056850716471672,
        -0.06246441230177879,
        -0.0701354518532753,
        -0.024774128571152687,
        0.0537305548787117,
        -0.01606355607509613,
        0.022677643224596977,
        -0.012334593571722507,
        0.08229564875364304,
        -0.06286595016717911,
        0.00806809589266777,
        -0.06556858867406845,
        -0.1493903547525406,
        0.10671422630548477,
        0.07891630381345749,
        -0.07437743991613388,
        0.15514156222343445,
        0.051318347454071045,
        -0.04839714989066124,
        0.01785019040107727,
        0.035129182040691376,
        -0.0026150376070290804,
        0.05504674091935158,
        0.1133861169219017,
        0.033428918570280075,
        0.06973123550415039,
        0.05854104086756706,
        0.07581952959299088,
        -0.01424010656774044,
        0.024274403229355812,
        0.05249076336622238,
        0.03188178315758705,
        -0.0029080361127853394,
        0.07455861568450928,
        0.05032927170395851,
        0.09363416582345963,
        0.004445502068847418,
        0.060248181223869324,
        0.022263526916503906,
        -0.09289166331291199,
        0.02787814661860466,
        -0.04025983810424805,
        -0.14352849125862122,
        0.09475282579660416,
        -0.04713951423764229,
        -0.08510486781597137,
        0.05357109382748604,
        -0.04679776728153229,
        0.068858802318573,
        0.038626719266176224,
        0.01563590206205845,
        0.04992693290114403,
        -0.06546159088611603,
        -0.01333584263920784,
        -0.12946410477161407,
        -0.1466168314218521,
        0.05321129038929939,
        0.07835129648447037,
        0.017628764733672142,
        0.10246022790670395,
        -0.20459215342998505,
        0.08106368780136108,
        0.08622279018163681,
        0.03586932644248009,
        -0.04349746182560921,
        -0.09819541126489639,
        -0.015818946063518524,
        -0.04430706053972244,
        0.00803276989609003,
        0.06323213875293732,
        -0.055708806961774826,
        0.06056815758347511,
        -0.04057798534631729,
        -0.0017076594522222877,
        0.011947207152843475,
        -0.07345792651176453,
        0.072006955742836,
        0.09190566092729568,
        0.05906428396701813,
        0.03175327554345131,
        -0.02951817400753498,
        -0.0133188022300601,
        0.0023861255031079054,
        -0.16376993060112,
        0.18710504472255707,
        1.0001818736782297e-05,
        -0.05957069247961044,
        0.11303959041833878,
        0.03404626622796059,
        -0.045378152281045914,
        -0.17419752478599548,
        -0.07645515352487564,
        0.05675239488482475,
        -0.030415035784244537,
        0.06243079900741577,
        0.09189638495445251,
        -0.04262406751513481,
        0.1445377618074417,
        0.059885792434215546,
        -0.06094968691468239,
        0.09318503737449646,
        0.03514875844120979,
        -0.0017376275500282645,
        -0.007340583018958569,
        0.08992175757884979,
        -0.030605724081397057,
        -0.06707657128572464,
        -0.06034186854958534,
        -0.08226840943098068,
        -0.05225787311792374,
        0.01699826866388321,
        -0.06488509476184845,
        0.00350670306943357,
        -0.03890498727560043,
        -0.0013971864245831966,
        -0.043910641223192215,
        -0.02744639478623867,
        -0.11988445371389389,
        0.12994907796382904,
        -0.006119795609265566,
        -0.0031928641255944967,
        0.0006511022802442312,
        -0.07798212021589279,
        -0.15191993117332458,
        0.12129569798707962,
        -0.10790272057056427,
        0.09309208393096924,
        -0.007654804736375809,
        0.04547674208879471,
        0.11113861203193665,
        -0.010875729843974113,
        0.08503532409667969,
        0.01972622238099575,
        -0.020704202353954315,
        -0.1460050642490387,
        0.0605216883122921,
        0.11611617356538773,
        -0.03568965569138527,
        -0.045122187584638596,
        -0.16177360713481903,
        -0.01816159300506115,
        -0.05455963686108589,
        0.09189342707395554,
        0.056638531386852264,
        0.0872071161866188,
        0.05669161304831505,
        0.0338900089263916,
        0.032386623322963715,
        0.1380232721567154,
        -0.08524037152528763,
        0.009321634657680988,
        -0.1338551640510559,
        -0.0039041475392878056,
        0.015972239896655083,
        -0.05170753225684166,
        -0.10467348992824554,
        -0.011638331227004528,
        -0.08370421826839447,
        0.08367644250392914,
        0.1100773736834526,
        -0.023334093391895294,
        0.07062728703022003,
        -0.11090533435344696,
        -0.018099725246429443,
        0.007024046964943409,
        -0.007716417778283358,
        0.060755036771297455,
        0.06689830124378204,
        -0.08760716021060944,
        -0.011060554534196854,
        -0.013255462981760502,
        -0.04529092460870743,
        -0.0441688671708107,
        0.048253562301397324,
        0.02903166227042675,
        -0.03089194931089878,
        -0.03551590070128441,
        -0.0006340190302580595,
        0.053594838827848434,
        0.004626556299626827,
        0.02141520008444786,
        -0.08634945750236511,
        -0.008342321962118149,
        0.04053902626037598,
        0.0645325779914856,
        -0.028469346463680267,
        -0.08038941770792007,
        -0.10161007195711136,
        -0.10931406170129776,
        -0.01554419007152319,
        -0.03708310052752495,
        0.026187874376773834,
        -0.06042078137397766,
        -0.03836235776543617,
        0.07957282662391663,
        0.05175819620490074,
        0.03331790491938591,
        0.14419066905975342,
        -0.02079385332763195,
        -0.038240060210227966,
        -0.04189363867044449,
        -0.07214809954166412,
        0.008069752715528011,
        -0.04469240829348564,
        -0.026493379846215248,
        -0.035984158515930176,
        0.12641578912734985,
        -0.025160090997815132,
        0.054733265191316605,
        -0.07996157556772232,
        0.07673615962266922,
        0.03451040759682655,
        0.0027567599900066853,
        -0.025759119540452957,
        0.0943092480301857,
        0.1224617213010788,
        0.011943995952606201,
        -0.054646801203489304,
        -0.011797918006777763,
        0.08909453451633453,
        0.02900819294154644,
        -0.07297295331954956,
        0.03347047418355942,
        -0.10905132442712784,
        0.05267694219946861,
        -0.023090077564120293,
        -0.04385716840624809,
        0.12842872738838196,
        -0.016107682138681412,
        -0.058491747826337814,
        0.05814637616276741,
        0.1316901445388794,
        -0.03299122303724289,
        -0.039484310895204544,
        -0.0059749651700258255,
        -0.029082583263516426,
        -0.03095064125955105,
        0.01598389446735382,
        -0.06202702969312668,
        0.008891459554433823,
        0.08820314705371857,
        -0.054111845791339874,
        0.040277790278196335,
        0.17336632311344147,
        -0.06104695051908493,
        -0.004806275013834238,
        0.012257920578122139,
        0.10390254110097885,
        0.04628781974315643,
        0.020231816917657852,
        0.031897131353616714,
        -0.10166309028863907,
        -0.10151985287666321,
        -0.039352670311927795,
        0.004387447610497475,
        -0.010190732777118683,
        0.012207197025418282,
        -0.046023063361644745,
        0.07038911432027817,
        0.004507257603108883,
        0.11374039202928543,
        -0.03746502473950386,
        -0.12519149482250214,
        0.045769937336444855,
        -0.042455580085515976,
        0.02255852147936821,
        -0.014614957384765148,
        0.012167259119451046,
        0.10598693788051605,
        -0.0039985766634345055,
        -0.01100112684071064,
        0.011707238852977753,
        0.02294866554439068,
        -0.07800702005624771,
        -0.04886281117796898,
        0.0017377061303704977,
        -0.03418533131480217,
        0.06795866042375565,
        0.12477751076221466,
        0.08118033409118652,
        0.02447768673300743,
        0.035724107176065445,
        0.14977693557739258,
        -0.0028301463462412357,
        -0.0077230194583535194,
        -0.15105293691158295,
        -0.006362727377563715,
        0.07093788683414459,
        0.032945290207862854,
        -0.11120390892028809,
        -0.18184678256511688,
        0.06905323266983032,
        -0.042597800493240356,
        0.088719941675663,
        -0.0378911979496479,
        0.017552634701132774,
        -0.01502428948879242,
        -0.012844666838645935,
        0.06843800842761993,
        -0.11236553639173508,
        0.08588911592960358,
        -0.008791000582277775,
        0.07825159281492233,
        -0.02740960381925106,
        0.09075092524290085,
        -0.01842539571225643,
        -0.116163469851017,
        -0.005601690150797367,
        -0.03273683041334152,
        -0.002155267633497715,
        0.024726340547204018,
        0.06836282461881638,
        -0.03571802005171776,
        0.03861330449581146,
        0.03396562114357948,
        0.026185613125562668,
        -0.02834414131939411,
        -0.028046399354934692,
        -0.014684869907796383,
        0.034011125564575195,
        -0.009438208304345608,
        0.09082704037427902,
        -0.03547493368387222,
        0.031393446028232574,
        0.02085629105567932,
        -0.11190159618854523,
        0.03607693687081337,
        0.008454128168523312,
        -0.06590273976325989,
        0.03861230984330177,
        0.0065404269844293594,
        -0.042543377727270126,
        -0.005288055632263422,
        0.0011696727015078068,
        -0.026305707171559334,
        0.09079944342374802,
        0.09788405895233154,
        0.18191877007484436,
        -0.03209098428487778,
        0.10728184133768082,
        0.07621195167303085,
        -0.004008870106190443,
        0.014804507605731487,
        0.058425795286893845,
        -0.04628446698188782,
        0.03582579642534256,
        -0.033496513962745667,
        -0.0807359591126442,
        -0.09127303957939148,
        0.06572704762220383,
        0.044623371213674545,
        -0.14605747163295746,
        -0.051173146814107895,
        -0.004155165981501341,
        -0.014626160264015198,
        -0.046389609575271606,
        0.0593378022313118,
        -0.00602265540510416,
        -0.08805704861879349,
        0.10658106207847595,
        0.020768433809280396,
        0.08991038054227829,
        -0.06385799497365952,
        0.034687016159296036,
        -0.09754589945077896,
        -0.08476003259420395,
        0.032578226178884506,
        0.03577357903122902,
        -0.03408503904938698,
        0.08182526379823685,
        -0.05033006891608238,
        -0.051134806126356125,
        0.0967865064740181,
        0.031087907031178474,
        0.00768628716468811,
        -0.03364759683609009,
        0.0015435811365023255,
        0.13189296424388885,
        -0.0418819934129715,
        -0.014671167358756065,
        0.04679173231124878,
        0.10966683179140091,
        -0.009802228771150112,
        -0.04980853945016861,
        0.08312972635030746,
        0.023756612092256546,
        0.017532039433717728,
        0.03323093801736832,
        0.003951396327465773,
        0.07562033087015152,
        -0.004073244519531727,
        0.04941122606396675,
        -0.01589764654636383,
        -0.007429082877933979,
        0.014595599845051765,
        -0.023569630458950996,
        0.09998123347759247,
        -0.050873249769210815,
        0.03688349574804306,
        -0.11578782647848129,
        -0.024523073807358742,
        0.11191591620445251,
        0.010119087994098663,
        0.1317165046930313,
        -0.03128218650817871,
        0.04815645515918732,
        -0.07325027137994766,
        -0.04484114050865173,
        -0.05316680669784546,
        0.020666947588324547,
        0.09121660888195038,
        -0.05013950914144516,
        -0.037285178899765015,
        -0.09121963381767273,
        -0.04586426168680191,
        0.0893399566411972,
        0.005048322957009077,
        0.08221480250358582,
        0.12087339907884598,
        0.03288935869932175,
        -0.0076210652478039265,
        -0.09634236991405487,
        0.02057584933936596,
        -0.10376355797052383,
        0.05057549104094505,
        -0.0002513661456760019,
        -0.08225496858358383,
        -0.013169467449188232,
        0.09189820289611816,
        -0.029103873297572136,
        -0.024139201268553734,
        -0.030248429626226425,
        -0.03319210931658745,
        -0.10342861711978912,
        0.21786291897296906,
        0.03693808987736702,
        0.022214893251657486,
        0.02573956735432148,
        0.04475642740726471,
        -0.007335647940635681,
        0.07080166041851044,
        -0.011408761143684387,
        -0.005510357208549976,
        -0.11517603695392609,
        -0.011503029614686966,
        0.13537873327732086,
        0.08002688735723495,
        0.004349032882601023,
        0.11771610379219055,
        -0.02856503427028656,
        -0.0877082422375679,
        -0.019471410661935806,
        -0.1440454125404358,
        0.10992519557476044,
        0.05207613855600357,
        -0.0358906164765358,
        -0.035259708762168884,
        -0.08087333291769028,
        -0.008271262980997562,
        -0.1339632272720337,
        -0.0811070129275322,
        -0.10029705613851547,
        0.10836219042539597,
        0.04492657259106636,
        0.08590468764305115,
        0.057064518332481384,
        0.037052735686302185,
        0.0036037820391356945,
        0.12975724041461945,
        -0.06424260139465332,
        -0.05404828488826752,
        -0.09534715116024017,
        0.03142351284623146,
        0.13194434344768524,
        0.007494807243347168,
        -0.06330233067274094,
        0.05900614336133003,
        0.08007302135229111,
        0.0057023316621780396,
        -0.012834856286644936,
        0.019772060215473175,
        0.0705483928322792,
        -0.06779428571462631,
        -0.01265718787908554,
        -0.0629178136587143,
        -0.05236630141735077,
        -0.040672387927770615,
        -0.00964226946234703,
        0.02420523390173912,
        0.03552115336060524,
        -0.032807815819978714,
        -0.02864542417228222,
        -0.1130753681063652,
        0.06996790319681168,
        0.053572382777929306,
        -3.1008636142360047e-05,
        0.07530289888381958,
        -0.017491256818175316,
        -0.042791515588760376,
        -0.04103279858827591,
        -0.09448147565126419,
        0.05057569220662117,
        -0.07406377047300339,
        -0.08236344158649445,
        -0.11896613985300064,
        -0.13471408188343048,
        -0.12293045967817307,
        -0.1454317569732666,
        0.04152876138687134,
        0.04437953606247902,
        -0.08059390634298325,
        -0.12693890929222107,
        0.05471862480044365,
        -0.0306338369846344,
        0.14310775697231293,
        -0.039917975664138794,
        0.0952407717704773,
        0.011355464346706867,
        -0.04617910832166672,
        0.09317168593406677,
        -0.05185466259717941,
        0.059282783418893814,
        0.006384749431163073,
        0.04302174970507622,
        -0.014608819968998432,
        0.18988241255283356,
        0.036270882934331894,
        0.04319644719362259,
        -0.08496709167957306,
        0.1172432228922844,
        -0.04979320988059044,
        0.01704402267932892,
        0.05595354363322258,
        0.11656343191862106,
        0.0003171436837874353,
        -0.0003557933960109949,
        0.0534033328294754,
        -0.04887621849775314,
        0.047518063336610794,
        -0.08823082596063614,
        0.01543100830167532,
        0.010889031924307346,
        0.07216482609510422,
        -0.045096125453710556,
        -0.12282085418701172,
        -0.039682481437921524,
        0.11213130503892899,
        -0.047507334500551224,
        -0.016846157610416412,
        -0.07637438923120499,
        0.06091853976249695,
        -0.07249639928340912,
        -0.08265452831983566,
        0.0413019023835659,
        0.016602948307991028,
        -0.02985478937625885,
        0.008182781748473644,
        0.03617130219936371,
        -0.05687462165951729,
        0.009733130224049091,
        -0.05617387220263481,
        -0.047986771911382675,
        0.09689442813396454,
        -0.0672440379858017,
        -0.04127148538827896,
        0.03657501935958862,
        0.04832199960947037,
        -0.031525127589702606,
        -0.04328417032957077,
        0.09781865775585175,
        -0.04519275203347206,
        0.011936921626329422,
        0.10921522229909897,
        0.033491913229227066,
        -0.040386077016592026,
        0.004259140230715275,
        -0.09180616587400436,
        0.04512858763337135,
        0.0017226587515324354,
        0.07623066753149033,
        0.0022614861372858286,
        -0.04957960173487663,
        -0.01616913266479969,
        0.10186636447906494,
        -0.136891171336174,
        0.07227957993745804,
        0.040731508284807205,
        -0.06264730542898178,
        0.004342871718108654,
        -0.06242091953754425,
        0.08603612333536148,
        0.12247978895902634,
        -0.03805052489042282,
        -0.07048049569129944,
        0.012059769593179226,
        0.06326130777597427,
        0.043415043503046036,
        -0.011069691739976406,
        -0.09185121208429337,
        -0.059212781488895416,
        0.03223615884780884,
        0.016688300296664238,
        -0.03522728383541107,
        0.06334738433361053,
        0.08382749557495117,
        0.04007170349359512,
        -0.011603504419326782,
        -0.008327865973114967,
        -0.11367584764957428,
        -0.002106783678755164,
        0.016360072419047356,
        -0.04714018106460571,
        0.008792340755462646,
        0.03840084746479988,
        -0.005615661386400461,
        0.029584113508462906,
        0.08028095215559006,
        -0.07529989629983902,
        0.058898329734802246,
        0.014089769683778286,
        -0.06482585519552231,
        0.06585799157619476,
        -0.10183896869421005,
        -0.015892690047621727,
        -0.03467263653874397,
        0.007644695229828358,
        -0.04118316248059273,
        -0.07171858102083206,
        0.08022565394639969,
        -0.028277626261115074,
        0.07676918804645538,
        0.10523267835378647,
        -0.03882462903857231,
        -0.11928244680166245,
        -0.2108522653579712,
        0.08628199994564056,
        0.017725763842463493,
        -0.07178767770528793,
        -0.13637091219425201,
        -0.1022411361336708,
        -0.0486275814473629,
        -0.06903661787509918,
        -0.0017985221929848194,
        0.052082695066928864,
        0.015058052726089954,
        -0.06781797111034393,
        0.015118801966309547,
        0.021635759621858597,
        -0.03225106745958328,
        0.038642894476652145,
        0.008141009137034416,
        0.11425969749689102,
        -0.037471987307071686,
        -0.006658557802438736,
        -0.033911529928445816,
        -0.02786639705300331,
        0.15327727794647217,
        0.028624238446354866,
        -0.08893506973981857,
        -0.04142911732196808,
        0.0546504482626915,
        0.00974995456635952,
        -0.057934537529945374,
        -0.07247831672430038,
        0.15871262550354004,
        0.06594142317771912,
        0.00465642474591732,
        0.07554155588150024,
        -0.05571549013257027,
        -0.0003602922079153359,
        0.06233154982328415,
        0.09228992462158203,
        0.03605720028281212,
        -0.057715632021427155,
        0.041981153190135956,
        0.010642505250871181,
        0.02336086332798004,
        0.021600328385829926,
        -0.038665544241666794,
        0.06759978830814362,
        0.10945188999176025,
        -0.10981644690036774,
        -0.032566823065280914,
        0.14158910512924194,
        -0.10612858831882477,
        -0.17705009877681732,
        0.04097039997577667,
        0.07070548832416534,
        0.05944257974624634,
        -0.05991733446717262,
        -0.03569094464182854,
        -0.10334387421607971,
        0.09084060788154602,
        0.051112137734889984,
        -0.008612613193690777,
        0.007502024993300438,
        0.04509922116994858,
        0.040385518223047256,
        -0.14841341972351074,
        -0.07313760370016098,
        0.022053098306059837,
        -0.040103208273649216,
        0.016659382730722427,
        0.13380961120128632,
        -0.03210705146193504,
        0.10543521493673325,
        -0.014966272749006748,
        -0.13150013983249664,
        -0.0038771105464547873,
        0.07726118713617325,
        0.05588075518608093,
        0.03299838304519653,
        -0.04609668254852295,
        -0.0759001076221466,
        0.16510902345180511,
        -0.06836356967687607,
        0.07197793573141098,
        0.014557557180523872,
        0.05448972061276436,
        0.06476536393165588,
        -0.07934537529945374,
        -0.035539790987968445,
        0.03211205452680588,
        0.08527867496013641,
        -0.05087844282388687,
        -0.015297256410121918,
        0.054711420089006424,
        -0.07234174758195877,
        0.023463863879442215,
        -0.049966439604759216,
        0.10535421967506409,
        -0.07535052299499512,
        0.07653671503067017,
        0.0038627784233540297,
        -0.07302165776491165,
        0.014690111391246319,
        -0.018346838653087616,
        0.05242851749062538,
        0.006642870604991913,
        -0.01737765595316887,
        -0.031261738389730453,
        0.0007135480991564691,
        0.040620412677526474,
        -0.014248589053750038,
        -0.11411428451538086,
        0.08120858669281006,
        -0.20416675508022308,
        -0.007446077652275562,
        -0.10697290301322937,
        -0.007114560808986425,
        0.019368285313248634,
        0.038668788969516754,
        0.05640246719121933,
        -0.040740761905908585,
        -0.04849712923169136,
        -0.13006336987018585,
        -0.024057436734437943,
        -0.04939284175634384,
        0.10042482614517212,
        0.028180764988064766,
        -0.06617267429828644,
        0.0939895436167717,
        -0.13929018378257751,
        -0.024050820618867874,
        0.09283865988254547,
        -0.014452374540269375,
        0.02086072787642479,
        -0.007881708443164825,
        -0.03770442679524422,
        -0.03433499485254288,
        0.04453548789024353,
        0.06529532372951508,
        -0.14551034569740295,
        -0.005229009315371513,
        0.08108440041542053,
        0.03790983930230141,
        -0.037019774317741394,
        -0.1336946189403534,
        0.07637128978967667,
        -0.03696110099554062,
        0.13850241899490356,
        0.016055023297667503,
        0.02911180630326271,
        0.03846127912402153,
        0.047066476196050644,
        -0.02785792388021946,
        -0.08130864799022675,
        -0.0646165981888771,
        0.03810546174645424,
        0.07705694437026978,
        0.1723378598690033,
        -0.03414640203118324,
        0.04924927279353142,
        -0.00955898780375719,
        -0.09959499537944794,
        -0.09002058953046799,
        -0.016006920486688614,
        -0.04033885896205902,
        -0.005897960625588894,
        -0.006035353522747755,
        -0.047678593546152115,
        -0.0027002468705177307,
        0.03199262544512749,
        -0.08774949610233307,
        0.17577287554740906,
        0.1003701239824295,
        -0.12495633214712143,
        0.12700657546520233,
        -0.09404778480529785,
        -0.05184008926153183,
        0.12197329849004745,
        0.08231517672538757,
        -0.1457401067018509,
        0.1094837412238121,
        -0.03145493566989899,
        0.08101212233304977,
        0.03531350567936897,
        -0.032103173434734344,
        0.03487047180533409,
        0.07175663113594055,
        -0.02070695161819458,
        -0.03873618319630623,
        -0.13059478998184204,
        0.0017948083113878965,
        0.10296587646007538,
        -0.21760053932666779,
        0.17181120812892914,
        -0.006205445155501366,
        -0.016296405345201492,
        -0.07929366081953049,
        0.06453848630189896,
        -0.06648595631122589,
        -0.0677579939365387,
        0.09837387502193451,
        -0.04494711384177208,
        -0.008123951032757759,
        0.1273181289434433,
        -0.04038291424512863,
        0.014487490989267826,
        0.019541438668966293,
        -0.009348852559924126,
        -0.08748319745063782,
        -0.05280248448252678,
        -0.02192503772675991,
        -0.02266944944858551,
        0.007161236368119717,
        0.018839674070477486,
        0.04176167771220207,
        -0.036209430545568466,
        0.02921111136674881,
        0.07308489829301834,
        0.14188726246356964,
        0.04263808950781822,
        -0.005395582877099514,
        -0.05997728556394577,
        0.09927358478307724,
        -0.056609198451042175,
        0.02640952169895172,
        0.04148628190159798,
        0.023058032616972923,
        0.027764182537794113,
        0.005789844319224358,
        -0.017797604203224182,
        -0.04800567030906677,
        0.02080359123647213,
        -0.11979136615991592,
        0.06241404265165329,
        -0.01650201342999935,
        -0.052695535123348236,
        -0.09166652709245682,
        -0.007686813361942768,
        0.07845430076122284,
        -0.017437024042010307,
        0.0180167518556118,
        0.06036858260631561,
        -0.047547705471515656,
        -0.06771808862686157,
        0.031079204753041267,
        -0.025197364389896393,
        -0.0005401416565291584,
        -0.006935905199497938,
        -0.08842290192842484,
        -0.015580771490931511,
        -0.04027349874377251,
        -0.06686978042125702,
        -0.042895883321762085,
        -0.09846610575914383,
        0.01815907284617424,
        0.011057157069444656,
        -0.01508906576782465,
        -0.04338230937719345,
        -0.01830269582569599,
        0.07983168959617615,
        0.0459035225212574,
        -0.030806640163064003,
        -0.056123435497283936,
        0.06459862738847733,
        -0.01595407724380493,
        0.0007623553974553943,
        0.08622309565544128,
        0.01848524436354637,
        -0.044655997306108475,
        -0.09095228463411331,
        0.021806351840496063,
        -0.10343018919229507,
        0.020928090438246727,
        -0.07499655336141586,
        0.032883305102586746,
        0.08833648264408112,
        -0.01510854996740818,
        0.07192973047494888,
        -0.08538419008255005,
        -0.006071162410080433,
        -0.0845557451248169,
        -0.00546305812895298,
        -0.026468265801668167,
        0.04094298556447029,
        -0.03760186582803726,
        -0.05290750414133072,
        0.0095860306173563,
        -0.02176508679986,
        -0.01101656910032034,
        0.07131341099739075,
        0.03767737001180649,
        0.006903926841914654,
        0.010683754459023476,
        -0.011095247231423855,
        -0.008387571200728416,
        0.03919307142496109,
        0.13013321161270142,
        0.10119666159152985,
        0.04739365726709366,
        0.10654023289680481,
        -0.15223833918571472,
        -0.0388205386698246,
        -0.016174916177988052,
        -0.03110269270837307,
        0.03993913531303406,
        0.0053212596103549,
        0.011827025562524796,
        -0.02950718067586422,
        -0.09956583380699158,
        0.013940789736807346,
        0.00191132677718997,
        -0.03310474008321762,
        -0.08556708693504333,
        -0.0324813649058342,
        0.06145770475268364,
        0.031647905707359314,
        0.03825715556740761,
        0.09344673901796341,
        -0.035557083785533905,
        0.061241257935762405,
        -0.028572404757142067,
        0.046145595610141754,
        -0.02982187643647194,
        0.06395254284143448,
        -0.03092353604733944,
        0.005617804825305939,
        -0.11487390846014023,
        0.04746353626251221,
        -0.05417894944548607,
        -0.05026724562048912,
        0.038772840052843094,
        0.03554427623748779,
        0.008797002024948597,
        0.08711952716112137,
        -0.00829453393816948,
        0.05523167550563812,
        0.06157218664884567,
        -0.02909817360341549,
        -0.009562716819345951,
        0.02256767265498638,
        0.019432682543992996,
        -0.04810703173279762,
        -0.05172281339764595,
        -0.05972561612725258,
        0.09915266185998917,
        0.07014267891645432,
        0.043880704790353775,
        -0.1463436484336853,
        0.020580977201461792,
        -0.040457889437675476,
        -0.10417161136865616,
        -0.0067687006667256355,
        -0.16490501165390015,
        -0.13200511038303375,
        0.0597657710313797,
        0.020962931215763092,
        0.036442652344703674,
        0.08310431241989136,
        -0.036050885915756226,
        0.08657065033912659,
        -0.012838147580623627,
        -0.01980063132941723,
        -0.05504151061177254,
        0.017384059727191925,
        -0.034676436334848404,
        -0.14175744354724884,
        0.007771914359182119,
        -0.0029772280249744654,
        -0.02139100432395935,
        -0.04435403645038605,
        0.023853275924921036,
        0.06854509562253952,
        0.025200651958584785,
        -0.030724240466952324,
        -0.12096678465604782,
        0.003684317460283637,
        -0.0920000746846199,
        0.11693108081817627,
        -0.03467559069395065,
        0.03581627085804939,
        -0.043564219027757645,
        -0.004057642538100481,
        0.10446461290121078,
        -0.027322014793753624,
        0.012566483579576015,
        -0.023019008338451385,
        0.049124203622341156,
        0.02080705016851425,
        -0.03073960915207863,
        0.02023584023118019,
        -0.07011798024177551,
        -0.06869207322597504,
        -0.1268889158964157,
        0.13744612038135529,
        0.06518891453742981,
        -0.08361440151929855,
        -0.027945969253778458,
        -0.05798385292291641,
        -0.1660601645708084,
        -0.022781288251280785,
        -0.0010061265202239156,
        -0.10072857141494751,
        0.053361523896455765,
        0.06290129572153091,
        0.1149328425526619,
        0.0034945744555443525,
        -0.02619270607829094,
        -0.01023145206272602,
        -0.037953656166791916,
        -0.21898634731769562,
        0.006990991998463869,
        -0.019568033516407013,
        -0.05359497666358948,
        -0.01985151134431362,
        0.021860219538211823,
        -0.013834851793944836,
        0.08832044899463654,
        -0.028086990118026733,
        0.006067460868507624,
        -0.11167637258768082,
        0.11949284374713898,
        0.023906607180833817,
        0.009975554421544075,
        -0.09372971951961517,
        -0.13455478847026825,
        -0.23591306805610657,
        -0.04337537661194801,
        0.09242692589759827,
        -0.03144975006580353,
        0.01925007812678814,
        0.034954626113176346,
        -0.04293081536889076,
        0.014985408633947372,
        -0.07935099303722382,
        -0.06090910732746124,
        -0.12869524955749512,
        0.015184097923338413,
        -0.009377097710967064,
        0.07413425296545029,
        -0.20849698781967163,
        0.03447664529085159,
        -0.15420159697532654,
        0.0003466579655651003,
        -0.06448341906070709,
        0.0717221274971962,
        0.051298364996910095,
        -0.038721732795238495,
        0.0075333015993237495,
        -0.08757328242063522,
        -0.06550439447164536,
        0.010395114310085773,
        -0.016713155433535576,
        0.06265269964933395,
        0.05019553750753403,
        -0.05257299914956093,
        0.1866331249475479,
        -0.09388743340969086,
        0.07755670696496964,
        0.04185333102941513,
        -0.05304938182234764,
        -0.027938170358538628,
        0.010044676251709461,
        -0.022448865696787834,
        -0.16045796871185303,
        0.05562577024102211,
        0.07231589406728745,
        0.13795427978038788,
        -0.09682820737361908,
        0.016762584447860718,
        0.14352427423000336,
        -0.1131683960556984,
        0.05190495401620865,
        -0.06441850960254669,
        0.10936500877141953,
        0.11973503977060318,
        0.008547364734113216,
        -0.005344331730157137,
        0.0052637867629528046,
        0.0718715563416481,
        -0.1859101504087448,
        -0.08931377530097961,
        0.08970868587493896,
        0.13741043210029602,
        -0.008407551795244217,
        -0.10461118072271347,
        0.043268509209156036,
        0.10582389682531357,
        -0.07895110547542572,
        -0.0009720257949084044,
        0.02611745335161686,
        -0.030671756714582443,
        0.049922503530979156,
        -0.02338637411594391,
        0.007179861422628164,
        -0.04864906147122383,
        -0.041578974574804306,
        0.024315694347023964,
        0.05709115415811539,
        0.09528344869613647,
        0.012203746475279331,
        -0.13279740512371063,
        0.04023239016532898,
        0.036453742533922195,
        -0.03236179053783417,
        -0.09643509238958359,
        0.014829814434051514,
        -0.046922147274017334,
        0.01974644511938095,
        0.013645420782268047,
        -0.04955018684267998,
        0.066468246281147,
        -0.09763417392969131,
        0.004271578975021839,
        0.0403725765645504,
        0.13180461525917053,
        -0.027809912338852882,
        -0.005982182454317808,
        0.07923076301813126,
        -0.02851533517241478,
        -0.04994639754295349,
        -0.07599189132452011,
        -0.03301609680056572,
        -0.12735174596309662,
        0.011034741066396236,
        0.015957061201334,
        0.07342849671840668,
        0.08991377055644989,
        -0.1183205395936966,
        -0.07709509879350662,
        0.02344938926398754,
        -0.06645146757364273,
        -0.08668717741966248,
        -0.18843290209770203,
        -0.011567287147045135,
        -0.13079658150672913,
        0.07239650189876556,
        -0.08873072266578674,
        0.0744081437587738,
        0.1034703329205513,
        -0.09611826390028,
        -0.0033977909479290247,
        -0.07539534568786621,
        -0.0694933831691742,
        -0.015647735446691513,
        0.09291961789131165,
        0.1063777282834053,
        -0.05273739621043205,
        -0.06888378411531448,
        -0.1872023046016693,
        0.03766443207859993,
        0.14529649913311005,
        0.12372885644435883,
        0.024684015661478043,
        -0.06380601227283478,
        -0.12775518000125885,
        -0.030191531404852867,
        0.06255988031625748,
        -0.16931480169296265,
        -0.04258422181010246,
        0.08046238124370575,
        -0.013700452633202076,
        0.10879907011985779,
        0.013741509988904,
        -0.15394744277000427,
        -0.024564240127801895,
        -0.09316273033618927,
        0.014239661395549774,
        -0.04093058034777641,
        0.057003527879714966,
        -0.06622374802827835,
        -0.0054864222183823586,
        -0.04524332284927368,
        -0.022214727476239204,
        0.04485412687063217,
        -0.014097197912633419,
        0.016882823780179024,
        0.04182223975658417,
        -0.05381202697753906,
        0.023952532559633255,
        -0.11593697965145111,
        0.0067029185593128204,
        -0.1301211416721344,
        0.06052609905600548,
        -0.02630811184644699,
        0.11784263700246811,
        -0.04938593879342079,
        0.07031083106994629,
        -0.10781870037317276,
        0.011050188913941383,
        -0.10513415932655334,
        -0.10287664085626602,
        0.013381310738623142,
        0.05108819529414177,
        -0.017672760412096977,
        0.005324343219399452,
        -0.048363618552684784,
        -0.09918205440044403,
        -0.015998274087905884,
        -0.08375480771064758,
        0.019952302798628807,
        -0.044507984071969986,
        -0.17693932354450226,
        -0.19578340649604797,
        -0.02844153344631195,
        0.07469509541988373,
        -0.11259234696626663,
        -0.09818817675113678,
        0.01548045128583908,
        -0.041071221232414246,
        0.06710130721330643,
        0.03592981398105621,
        -0.1538492888212204,
        0.01794784516096115,
        0.08057031780481339,
        -0.09239669889211655,
        -0.08935561776161194,
        0.06438148021697998,
        0.006843109615147114,
        -0.1521153599023819,
        -0.06513170152902603,
        0.1722823828458786,
        -0.028000984340906143,
        -0.08009245246648788,
        0.04793509095907211,
        0.01153805386275053,
        -0.005317270290106535,
        0.013093983754515648,
        -0.05970821529626846,
        -0.13761399686336517,
        0.07568629086017609,
        -0.007275045849382877,
        -0.07717617601156235,
        0.011551281437277794,
        -0.13528276979923248,
        -0.0754261463880539,
        0.01769406720995903,
        -0.06065661460161209,
        -0.0333375446498394,
        0.07189956307411194,
        0.1375603973865509,
        -0.024926528334617615,
        -0.06018754094839096,
        0.25108602643013,
        0.008052065037190914,
        -0.037508122622966766,
        -0.062260180711746216,
        0.0022647937294095755,
        -0.013540969230234623,
        0.08681745082139969,
        0.14115594327449799,
        0.00969711784273386,
        0.05550335347652435,
        -0.05443662032485008,
        -0.035459648817777634,
        0.03097144514322281,
        0.1308979094028473,
        0.03258337080478668,
        -0.012268520891666412,
        0.05212875083088875,
        -0.0892665758728981,
        -0.04306020587682724,
        -0.003705956507474184,
        -0.08375557512044907,
        -0.06739649176597595,
        -0.0931621864438057,
        0.10997886955738068,
        -0.1289064884185791,
        0.03163198009133339,
        -0.056641433387994766,
        0.01968063972890377,
        -0.04247504472732544,
        0.025566738098859787,
        0.007806603331118822,
        -0.04878976568579674,
        0.08196272701025009,
        -0.2296920120716095,
        0.19199085235595703,
        -0.03374822437763214,
        -0.030515989288687706,
        0.031448040157556534,
        -0.04877203702926636,
        0.10769759863615036,
        0.010739447548985481,
        0.10000188648700714,
        0.07193009555339813,
        0.057280026376247406,
        -0.08798468858003616,
        0.08566825091838837,
        -0.010171479545533657,
        -0.11202086508274078,
        0.18121154606342316,
        0.08142763376235962,
        -0.1525840163230896,
        -0.1777830570936203,
        -0.021130796521902084,
        -0.12142245471477509,
        0.13133087754249573,
        -0.02701188437640667,
        0.013796386308968067,
        -0.007667952682822943,
        0.03303607553243637,
        0.07736267894506454,
        0.002630261005833745,
        0.02688760496675968,
        0.16187824308872223,
        -0.030160099267959595,
        -0.004806703422218561,
        0.0056380340829491615,
        0.010407963767647743,
        -0.23536361753940582,
        0.022049706429243088,
        -0.060760170221328735,
        -0.07187040150165558,
        -0.06275985389947891,
        -0.09984582662582397,
        0.04870390519499779,
        0.00711051793769002,
        -0.028892861679196358,
        -0.03384466841816902,
        0.06891141086816788,
        0.04376421496272087,
        0.023374982178211212,
        0.020541638135910034,
        0.0725451335310936,
        0.0803220346570015,
        -0.12958234548568726,
        0.015089146792888641,
        -0.1006845086812973,
        -0.09620863944292068,
        0.04289965331554413,
        -0.005139788147062063,
        -0.03125884011387825,
        0.02139902301132679,
        -0.023919058963656425,
        0.08332745730876923,
        -0.08161783218383789,
        0.08501525223255157,
        -0.04109356552362442,
        0.05911608785390854,
        0.04559087008237839,
        0.01186209637671709,
        -0.09877661615610123,
        0.006624365691095591,
        -0.016504989936947823,
        -0.05331021547317505,
        -0.09399974346160889,
        0.05419297516345978,
        0.011706936173141003,
        0.006613064091652632,
        0.059764716774225235,
        0.057755351066589355,
        -0.07425826042890549,
        0.037445418536663055,
        0.14896909892559052,
        -0.024296699091792107,
        -0.08176998049020767,
        -0.16844895482063293,
        -0.06264330446720123,
        -0.03430056944489479,
        -0.13349980115890503,
        0.06468313187360764,
        0.018763216212391853,
        -0.03091728873550892,
        -0.0006437514675781131,
        -0.006834771484136581,
        0.0029621117282658815,
        -0.02976640686392784,
        0.021686602383852005,
        -0.049979016184806824,
        0.029080085456371307,
        0.1197621077299118,
        -0.18633092939853668,
        -0.045262955129146576,
        -0.020822128280997276,
        0.07660452276468277,
        -0.01013180986046791,
        -0.06085265800356865,
        0.01369334477931261,
        -0.13185426592826843,
        -0.05116287246346474,
        -0.014558408409357071,
        -0.0004644222790375352,
        0.048770684748888016,
        -0.006421819794923067,
        0.07537791132926941,
        -0.003345082513988018,
        -0.0034480206668376923,
        -0.03344881534576416,
        0.25063657760620117,
        0.07868406921625137,
        0.05116600915789604,
        -0.03591596335172653,
        -0.054299745708703995,
        0.004254120402038097,
        0.014504718594253063,
        -0.05875984579324722,
        0.11078976094722748,
        0.02924683690071106,
        0.07764175534248352,
        -0.14869703352451324,
        -0.09898899495601654,
        0.06452148407697678,
        0.05022796615958214,
        -0.0462803989648819,
        0.10782543569803238,
        0.16146717965602875,
        -0.12959399819374084,
        0.04841339960694313,
        -0.018029170110821724,
        -0.06728675216436386,
        -0.04962402582168579,
        0.02391568385064602,
        -0.06755498051643372,
        -0.06325410306453705,
        0.08534082770347595,
        -0.10842422395944595,
        -0.12291768938302994,
        0.054949186742305756,
        -0.022704651579260826,
        0.10488644987344742,
        -0.17285653948783875,
        -0.0366184301674366,
        0.0937609151005745,
        0.015561839565634727,
        0.019869929179549217,
        -0.039495088160037994,
        0.04521569237112999,
        0.07009492069482803,
        -0.09615341573953629,
        -0.0964406281709671,
        0.05413777753710747,
        0.05128652602434158,
        -0.08220276981592178,
        0.036011189222335815,
        0.0375114381313324,
        0.00967207457870245,
        0.13002027571201324,
        0.11751400679349899,
        0.005667439196258783,
        -0.06181494519114494,
        -0.0259843897074461,
        0.03179101273417473,
        -0.02368919923901558,
        -0.01766481064260006,
        0.020058000460267067,
        0.04062853008508682,
        0.06559357047080994,
        -0.030364656820893288,
        0.02208629809319973,
        0.003751251148059964,
        -0.0021282066591084003,
        0.0015724193071946502,
        -0.012608869932591915,
        -0.09217161685228348,
        0.0018442770233377814,
        0.11237107217311859,
        0.010533393360674381,
        -0.06404784321784973,
        -0.0028452614787966013,
        0.04872046783566475,
        0.06920976936817169,
        0.11683249473571777,
        0.05722308158874512,
        0.012990239076316357,
        0.05603952333331108,
        0.11085472255945206,
        -0.02690495178103447,
        -0.015974203124642372,
        0.1788245588541031,
        0.06512238085269928,
        0.050500400364398956,
        -0.07827792316675186,
        -0.01828589104115963,
        -0.05558319017291069,
        0.011753126978874207,
        0.04917822778224945,
        -0.018281755968928337,
        0.04652281478047371,
        0.0206737257540226,
        0.15781322121620178,
        0.03892070800065994,
        0.027732450515031815,
        0.006228690035641193,
        0.02860317938029766,
        0.05834444612264633,
        0.0967593714594841,
        0.008006300777196884,
        -0.06983047723770142,
        0.054239992052316666,
        0.0054059638641774654,
        -0.0033841091208159924,
        -0.022646460682153702,
        -0.03965618833899498,
        0.053967371582984924,
        -0.03569747880101204,
        -0.0030631544068455696,
        -0.00716814212501049,
        -0.0933111160993576,
        -0.01634388044476509,
        0.04088582843542099,
        0.023614509031176567,
        -0.04132050648331642,
        -0.05530139058828354,
        0.08400095254182816,
        -0.10080859810113907,
        0.05942496657371521,
        0.0876828283071518,
        0.017418086528778076,
        -0.04301772639155388,
        0.029751256108283997,
        -0.060830287635326385,
        -0.06166428327560425,
        0.032821450382471085,
        -0.03866710141301155,
        0.08108008652925491,
        0.0023972722701728344,
        0.11118260025978088,
        0.08035064488649368,
        -0.09173129498958588,
        0.1085585355758667,
        0.029277609661221504,
        0.020696008577942848,
        -0.004384844563901424,
        0.03339003771543503,
        0.05331968888640404,
        0.09754291921854019
      ],
      "bias": [
        -0.05198267474770546,
        0.0036257102619856596,
        -0.023669809103012085,
        0.08682005107402802
      ]
    },
    "conv2d_1_tf1": {
      "name": "conv2d_1_tf1",
      "type": "conv",
      "inputs": [
        "conv2d_tf",
        "conv2d_tf1"
      ],
      "output": "conv2d_1_tf1",
      "weights": [
        -0.07260769605636597,
        -0.027302449569106102,
        -0.09144482761621475,
        -0.05074397847056389,
        0.09014878422021866,
        -0.04237394407391548,
        -0.035654306411743164,
        -0.0050553674809634686,
        -0.14639067649841309,
        0.010593786835670471,
        0.01185949519276619,
        0.07233486324548721,
        0.013493337668478489,
        0.08342619240283966,
        -0.05893203243613243,
        0.010495919734239578,
        0.01450404617935419,
        0.13144537806510925,
        -0.029765989631414413,
        -0.04532131552696228,
        0.04563140496611595,
        0.04203251376748085,
        -0.06345777958631516,
        -0.017396116629242897,
        0.07265359163284302,
        -0.04030964523553848,
        0.002628042595461011,
        0.04539524391293526,
        -0.05160756781697273,
        0.0184928011149168,
        0.04651361331343651,
        0.08332482725381851,
        0.10076677799224854,
        0.127397820353508,
        -0.04492023214697838,
        -0.06374374032020569,
        -0.08516671508550644,
        0.09161239117383957,
        0.01266568060964346,
        0.000763819960411638,
        0.0025277151726186275,
        0.05155203491449356,
        0.04012838378548622,
        0.035410813987255096,
        0.0078906724229455,
        -0.02474917471408844,
        -0.06407798826694489,
        0.03439417853951454,
        -0.023148635402321815,
        0.057943202555179596,
        0.01881484128534794,
        -0.01710188016295433,
        0.00406033918261528,
        -0.04658786579966545,
        -0.025165775790810585,
        0.022481769323349,
        0.07076684385538101,
        0.08887632936239243,
        -0.06033096835017204,
        -0.05614694580435753,
        -0.08687236160039902,
        -0.13526473939418793,
        -0.01752743311226368,
        -0.06266134977340698,
        0.06489995121955872,
        -0.1097344160079956,
        0.2178526520729065,
        0.13072137534618378,
        -0.02642158791422844,
        0.12602345645427704,
        -0.04158144071698189,
        0.0461152009665966,
        -0.09468948841094971,
        0.04769724979996681,
        0.08110356330871582,
        0.06771578639745712,
        -0.012825939804315567,
        2.201144707214553e-05,
        0.0037965811789035797,
        0.04282281920313835,
        0.09398066997528076,
        -0.029282087460160255,
        0.02829595096409321,
        -0.0027390948962420225,
        -0.09231539070606232,
        -0.06747815012931824,
        0.04992738738656044,
        -0.009840480983257294,
        -0.10951642692089081,
        0.04365390166640282,
        -0.025256088003516197,
        -0.008373203687369823,
        0.026805421337485313,
        0.14079737663269043,
        -0.03179147467017174,
        0.003053935943171382,
        -0.00750050088390708,
        0.004132713656872511,
        0.06071888282895088,
        -0.027613703161478043,
        0.13288676738739014,
        -0.07957131415605545,
        -0.14278878271579742,
        -0.08870788663625717,
        -0.07845114171504974,
        -0.0325489267706871,
        -0.08424226194620132,
        -0.024328522384166718,
        0.009272212162613869,
        0.07014589756727219,
        -0.0821366086602211,
        0.041296619921922684,
        0.0700431764125824,
        -0.02078288421034813,
        0.053224217146635056,
        0.07925717532634735,
        0.018010148778557777,
        0.048003535717725754,
        -0.013169203884899616,
        -0.09279928356409073,
        -0.10241473466157913,
        0.006247316487133503,
        0.08582022041082382,
        -0.09409283101558685,
        -0.009670964442193508,
        -0.033585332334041595,
        -0.047920092940330505,
        0.00039229958201758564,
        0.16515380144119263,
        -0.03135659545660019,
        -0.02935636416077614,
        0.059426773339509964,
        0.057962581515312195,
        -0.021513402462005615,
        0.06767923384904861,
        0.0022176001220941544,
        0.005101726856082678,
        -0.05525782331824303,
        -0.0010529900901019573,
        -0.11966206133365631,
        0.026414379477500916,
        -0.12811222672462463,
        0.0223299041390419,
        -0.05257495865225792,
        0.029117723926901817,
        0.010313966311514378,
        -0.04796171933412552,
        -0.032353002578020096,
        0.04203231260180473,
        -0.0899929404258728,
        0.08103698492050171,
        0.01600276492536068,
        -0.0660606399178505,
        0.15500351786613464,
        -0.023205365985631943,
        0.1967725306749344,
        -0.00806501880288124,
        0.09502489864826202,
        -0.058311108499765396,
        0.004631536081433296,
        -0.0021135492715984583,
        0.03939538076519966,
        0.06912416219711304,
        0.10108340531587601,
        -0.09111381322145462,
        0.02068239450454712,
        -0.008833218365907669,
        0.0048806448467075825,
        0.06228630989789963,
        -0.19583173096179962,
        -0.03792417794466019,
        0.01630040816962719,
        -0.06629268825054169,
        -0.0884777382016182,
        0.06075211986899376,
        -0.08454503118991852,
        0.006312991958111525,
        -0.008487745188176632,
        0.05988726392388344,
        -0.00026413259911350906,
        -0.1532963216304779,
        -0.15829460322856903,
        -0.007798491977155209,
        0.15322551131248474,
        -0.036653295159339905,
        0.048833027482032776,
        0.05344613268971443,
        0.06049586459994316,
        0.035513028502464294,
        -0.08018839359283447,
        -0.0032473010942339897,
        0.039109017699956894,
        0.0007694911328144372,
        -0.009492680430412292,
        0.021379875019192696,
        -0.05947700887918472,
        -0.027912400662899017,
        0.02842528745532036,
        -0.0056114476174116135,
        -0.1233389675617218,
        -0.08367664366960526,
        0.09001728892326355,
        0.11361663043498993,
        0.15029679238796234,
        0.025668863207101822,
        -0.009822074323892593,
        -0.05496867746114731,
        -0.028003204613924026,
        -0.028381062671542168,
        -0.03313338756561279,
        -0.11162339150905609,
        0.02948174439370632,
        -0.060405850410461426,
        -0.04814770072698593,
        -0.040384691208601,
        0.054079171270132065,
        0.0036226860247552395,
        0.010446332395076752,
        0.05036512389779091,
        0.12195316702127457,
        -0.04171319305896759,
        -0.032031137496232986,
        0.046060629189014435,
        -0.03828471526503563,
        0.015177536755800247,
        -0.055785514414310455,
        -0.02257179282605648,
        -0.030087411403656006,
        -0.19410710036754608,
        -0.007481012959033251,
        -0.003165098372846842,
        0.008085323497653008,
        -0.016669075936079025,
        -0.03229570388793945,
        0.0021408398170024157,
        0.037753861397504807,
        0.003127661533653736,
        -0.01512980554252863,
        -0.03649123013019562,
        -0.06591629236936569,
        0.11929473280906677,
        0.07829543203115463,
        -0.09167927503585815,
        0.10899803787469864,
        0.06021646782755852,
        0.03065551444888115,
        0.13594315946102142,
        0.057296834886074066,
        0.13816073536872864,
        0.09421467781066895,
        0.04915880039334297,
        0.05991508439183235,
        0.0005073062493465841,
        0.030809571966528893,
        0.050396330654621124,
        -0.027371425181627274,
        -0.10372365266084671,
        -0.09801902621984482,
        0.07763518393039703,
        0.03063814528286457,
        0.0948152169585228,
        -0.02612144872546196,
        -0.055636655539274216,
        -0.016815003007650375,
        0.1868574172258377,
        0.07043107599020004,
        0.05813267081975937,
        0.0019627786241471767,
        -0.026411710307002068,
        -0.013226310722529888,
        0.10992494970560074,
        -0.10649041086435318,
        0.08527360111474991,
        0.03697752207517624,
        0.0346439965069294,
        0.08418014645576477,
        -0.05442041903734207,
        0.004899220075458288,
        0.10802427679300308,
        0.004803750663995743,
        0.14689621329307556,
        -0.06957554817199707,
        0.15664149820804596,
        0.051475416868925095,
        0.0016067534452304244,
        0.04305342957377434,
        -0.02410387247800827,
        -0.0031506845261901617,
        0.0765351876616478,
        0.07143992930650711,
        -0.06538232415914536,
        -0.15072864294052124,
        0.00581554789096117,
        0.025293586775660515,
        0.07430010288953781,
        0.008448085747659206,
        0.09522449225187302,
        -0.13454505801200867,
        -0.09139743447303772,
        0.11408966779708862,
        0.07856227457523346,
        0.1949649155139923,
        -0.08457741886377335,
        0.02667349949479103,
        -0.03587210550904274,
        -0.152668759226799,
        -0.022627729922533035,
        0.03727385774254799,
        -0.06697174161672592,
        0.0376933328807354,
        0.1557949036359787,
        0.006548953242599964,
        -0.04286341369152069,
        -0.07098054885864258,
        0.0018792060436680913,
        -0.022741196677088737,
        0.09333664178848267,
        -0.020586010068655014,
        -0.04621792212128639,
        -0.03053520992398262,
        0.03377184271812439,
        -0.08567497134208679,
        -0.06940187513828278,
        -0.03564957156777382,
        0.030535485595464706,
        0.05650460720062256,
        -0.13314804434776306,
        -0.008356821723282337,
        -0.014094818383455276,
        0.0902620255947113,
        -0.08191674947738647,
        0.008507732301950455,
        0.11904124170541763,
        -0.10953091084957123,
        -0.002087573753669858,
        -0.01891685090959072,
        -0.017852749675512314,
        0.0949893370270729,
        0.06447312235832214,
        -0.03900609910488129,
        -0.00016547694394830614,
        0.010796855203807354,
        0.06709526479244232,
        -0.023971054702997208,
        -0.03806033357977867,
        -0.034268975257873535,
        0.15060845017433167,
        -0.07810098677873611,
        -0.009656968526542187,
        -0.13292016088962555,
        0.1634211540222168,
        -0.044359803199768066,
        0.026777174323797226,
        0.0741843432188034,
        -0.011217902414500713,
        0.15322259068489075,
        -0.09321331977844238,
        -0.18851390480995178,
        0.07218021899461746,
        0.05223735794425011,
        -0.03291621431708336,
        0.12562412023544312,
        0.01746542751789093,
        0.04276281222701073,
        -0.053392194211483,
        0.036888960748910904,
        -0.07897309213876724,
        -0.04219174385070801,
        0.037420209497213364,
        0.15712063014507294,
        0.035540372133255005,
        0.046664249151945114,
        0.003245886182412505,
        0.03447294235229492,
        -0.014418276026844978,
        0.10509707778692245,
        -0.018052488565444946,
        0.014903423376381397,
        -0.016256818547844887,
        0.1207704097032547,
        -0.023546382784843445,
        0.08014535158872604,
        -0.010520479641854763,
        0.11466547101736069,
        -0.01719733141362667,
        -0.09134604781866074,
        0.08937742561101913,
        -0.23983123898506165,
        -0.004043859895318747,
        0.020413894206285477,
        0.024990776553750038,
