{
  "name": "webgpu-sr2x-16ch",
  "layers": {
    "conv2d_tf": {
      "name": "conv2d_tf",
      "type": "conv",
      "inputs": [
        "input_1_tf"
      ],
      "output": "conv2d_tf",
      "weights": [
        -0.05786006152629852,
        -0.3840601146221161,
        0.029560858383774757,
        0.1351957619190216,
        0.054258376359939575,
        0.12113256752490997,
        0.257719486951828,
        0.30690518021583557,
        -0.2541821002960205,
        0.10237656533718109,
        -0.33457574248313904,
        -0.15737295150756836,
        0.0,
        0.0,
        0.0,
        0.0,
        0.46599701046943665,
        -0.4454289674758911,
        0.3350457549095154,
        -0.301455557346344,
        -0.5398886203765869,
        0.28671517968177795,
        -0.17383667826652527,
        0.41929635405540466,
        -0.3459051251411438,
        -0.019761160016059875,
        0.1978251338005066,
        0.2633973956108093,
        0.0,
        0.0,
        0.0,
        0.0,
        -0.1875179558992386,
        0.35699015855789185,
        0.13748227059841156,
        0.08507920801639557,
        0.2305586338043213,
        0.017791641876101494,
        0.30506810545921326,
        -0.46718889474868774,
        -0.12082507461309433,
        0.20205000042915344,
        0.22758853435516357,
        0.005480047315359116,
        0.0,
        0.0,
        0.0,
        0.0,
        0.20991303026676178,
        0.059449560940265656,
        0.010770452208817005,
        0.1134319007396698,
        0.1674228459596634,
        0.29865559935569763,
        -0.2793656289577484,
        0.6187760829925537,
        0.11589641869068146,
        0.07882469147443771,
        0.007541550323367119,
        0.3625568449497223,
        0.0,
        0.0,
        0.0,
        0.0,
        0.05039045214653015,
        -0.4367307722568512,
        0.2879144847393036,
        -0.12084630131721497,
        0.2622162103652954,
        -0.1617313027381897,
        0.24050448834896088,
        -0.48513808846473694,
        -0.13338349759578705,
        0.3226470649242401,
        -0.11649248003959656,
        -0.3455674946308136,
        0.0,
        0.0,
        0.0,
        0.0,
        0.3244912028312683,
        -0.012386338785290718,
        -0.03121297061443329,
        -0.004642233718186617,
        0.21758729219436646,
        0.1865682750940323,
        0.09023544192314148,
        0.48161059617996216,
        0.07463148981332779,
        -0.1609690636396408,
        -0.21878443658351898,
        -0.29937583208084106,
        0.0,
        0.0,
        0.0,
        0.0,
        0.11269348859786987,
        -0.0016051864949986339,
        0.24173690378665924,
        -0.20820100605487823,
        0.1837444305419922,
        0.004024162422865629,
        -0.3027447760105133,
        -0.2851848602294922,
        -0.030005810782313347,
        -0.16499300301074982,
        0.08272457867860794,
        0.1770835816860199,
        0.0,
        0.0,
        0.0,
        0.0,
        0.004365566652268171,
        -0.4654373824596405,
        0.04047287628054619,
        0.18075427412986755,
        -0.1678658276796341,
        0.15145735442638397,
        -0.10669228434562683,
        0.0679595097899437,
        0.13213656842708588,
        0.07007593661546707,
        0.04609397053718567,
        -0.3363010585308075,
        0.0,
        0.0,
        0.0,
        0.0,
        -0.06269726902246475,
        -0.16918431222438812,
        -0.04411233216524124,
        0.09885060787200928,
        -0.0020071477629244328,
        -0.22032923996448517,
        -0.03745044395327568,
        -0.461835652589798,
        0.02530537359416485,
        -0.03315788507461548,
        0.09104403108358383,
        0.41173821687698364,
        0.0,
        0.0,
        0.0,
        0.0
      ],
      "bias": [
        -0.0801086500287056,
        0.25563672184944153,
        -0.06045794486999512,
        -0.0732199177145958
      ]
    },
    "conv2d_tf1": {
      "name": "conv2d_tf1",
      "type": "conv",
      "inputs": [
        "input_1_tf"
      ],
      "output": "conv2d_tf1",
      "weights": [
        -0.08999642729759216,
        0.09023692458868027,
        0.14363421499729156,
        0.039637524634599686,
        0.3322872817516327,
        -0.3026043474674225,
        -0.2142316699028015,
        0.2462034821510315,
        -0.24415060877799988,
        -0.09196115285158157,
        -0.25555363297462463,
        -0.20967347919940948,
        0.0,
        0.0,
        0.0,
        0.0,
        0.2518964111804962,
        -0.35313546657562256,
        -0.16630877554416656,
        -0.37785783410072327,
        -0.23403793573379517,
        -0.16535690426826477,
        -0.22854526340961456,
        0.019968193024396896,
        -0.15960338711738586,
        0.18670596182346344,
        0.044713094830513,
        -0.014553092420101166,
        0.0,
        0.0,
        0.0,
        0.0,
        -0.08902048319578171,
        0.03996336832642555,
        -0.31713131070137024,
        0.07708147168159485,
        -0.3387534022331238,
        0.049963921308517456,
        -0.03424679860472679,
        0.08140690624713898,
        0.3640936017036438,
        -0.12008292227983475,
        -0.03485289588570595,
        0.03049793466925621,
        0.0,
        0.0,
        0.0,
        0.0,
        -0.6116939187049866,
        -0.040090832859277725,
        -0.06990791857242584,
        0.27913495898246765,
        -0.1328861117362976,
        0.36260196566581726,
        0.39899417757987976,
        -0.10713835060596466,
        -0.0949411392211914,
        -0.2762449383735657,
        0.13430671393871307,
        -0.05224021151661873,
        0.0,
        0.0,
        0.0,
        0.0,
        -0.19500021636486053,
        -0.07747219502925873,
        -0.31080010533332825,
        -0.3381231725215912,
        -0.36476701498031616,
        0.023973120376467705,
        0.28077465295791626,
        0.010179365985095501,
        0.13994689285755157,
        -0.08615229278802872,
        0.09268812090158463,
        0.13809119164943695,
        0.0,
        0.0,
        0.0,
        0.0,
        0.19331379234790802,
        0.15641911327838898,
        0.10940103977918625,
        -0.176424041390419,
        0.21527694165706635,
        0.4976351857185364,
        0.2906858026981354,
        -0.3782508373260498,
        -0.5050219893455505,
        0.5297622680664062,
        -0.3094426989555359,
        0.243319571018219,
        0.0,
        0.0,
        0.0,
        0.0,
        0.27647167444229126,
        0.08401498198509216,
        0.023714181035757065,
        -0.008300945162773132,
        0.1623498946428299,
        0.31704264879226685,
        -0.3173534572124481,
        -0.27300772070884705,
        0.1042771190404892,
        0.2704126834869385,
        -0.22638005018234253,
        0.2465086430311203,
        0.0,
        0.0,
        0.0,
        0.0,
        0.3054107129573822,
        0.15160295367240906,
        9.868905908660963e-05,
        -0.1644182801246643,
        0.33410778641700745,
        -0.556732177734375,
        0.10510828346014023,
        -0.008747081272304058,
        0.19538119435310364,
        -0.4537274241447449,
        0.01823355443775654,
        0.344724178314209,
        0.0,
        0.0,
        0.0,
        0.0,
        0.011721262708306313,
        -0.05475921928882599,
        -0.012145111337304115,
        0.19078467786312103,
        -0.07550065219402313,
        -0.363465279340744,
        -0.009287315420806408,
        0.48333054780960083,
        0.23902341723442078,
        -0.07106421142816544,
        0.4554656445980072,
        0.19854041934013367,
        0.0,
        0.0,
        0.0,
        0.0
      ],
      "bias": [
        0.051944706588983536,
        -0.003930575679987669,
        0.13835333287715912,
        -0.10711058974266052
      ]
    },
    "conv2d_tf2": {
      "name": "conv2d_tf2",
      "type": "conv",
      "inputs": [
        "input_1_tf"
      ],
      "output": "conv2d_tf2",
      "weights": [
        0.08927983790636063,
        0.1511334925889969,
        -0.03396891802549362,
        0.11227759718894958,
        0.2693713307380676,
        0.0690608024597168,
        -0.26352575421333313,
        -0.45188185572624207,
        -0.41014134883880615,
        0.2139226496219635,
        0.4554838538169861,
        0.13539141416549683,
        0.0,
        0.0,
        0.0,
        0.0,
        0.2961345911026001,
        0.15721821784973145,
        0.005701134447008371,
        -0.21717976033687592,
        0.027983272448182106,
        0.32748234272003174,
        0.10313600301742554,
        0.15118539333343506,
        -0.24923063814640045,
        -0.47993576526641846,
        -0.19745829701423645,
        0.02689199335873127,
        0.0,
        0.0,
        0.0,
        0.0,
        -0.3565465211868286,
        0.3075304329395294,
        0.5465881824493408,
        -0.43591776490211487,
        0.3907054364681244,
        0.23500953614711761,
        -0.45084360241889954,
        0.3503479063510895,
        -0.08381222188472748,
        -0.07680874317884445,
        -0.003940223250538111,
        -0.180318683385849,
        0.0,
        0.0,
        0.0,
        0.0,
        -0.22990229725837708,
        -0.2138306051492691,
        0.004816047381609678,
        0.514075756072998,
        0.07709850370883942,
        0.05157361179590225,
        -0.2067846655845642,
        -0.420325368642807,
        0.17572849988937378,
        0.023925162851810455,
        0.0035010373685508966,
        0.20431123673915863,
        0.0,
        0.0,
        0.0,
        0.0,
        0.16318650543689728,
        0.39627817273139954,
        -0.0052874269895255566,
        -0.1905703842639923,
        -0.05412367358803749,
        -0.4354187548160553,
        -0.11854369193315506,
        -0.021585630252957344,
        -0.07788598537445068,
        -0.46318063139915466,
        -0.20715130865573883,
        0.34284651279449463,
        0.0,
        0.0,
        0.0,
        0.0,
        -0.21883326768875122,
        0.2050866335630417,
        -0.1524207442998886,
        -0.15732543170452118,
        -0.15403203666210175,
        0.06360521912574768,
        -0.0551622211933136,
        -0.23971588909626007,
        0.17654775083065033,
        -0.17767730355262756,
        0.11619260162115097,
        0.23669584095478058,
        0.0,
        0.0,
        0.0,
        0.0,
        -0.11257708072662354,
        0.1399768590927124,
        -0.07658587396144867,
        0.41206100583076477,
        -0.14439216256141663,
        -0.24690958857536316,
        0.04908674582839012,
        0.4501590132713318,
        0.2954600751399994,
        0.22069482505321503,
        -0.32075756788253784,
        -0.33406028151512146,
        0.0,
        0.0,
        0.0,
        0.0,
        -0.39760199189186096,
        -0.3765181005001068,
        -0.47425612807273865,
        -0.013627322390675545,
        0.12055335938930511,
        0.264635294675827,
        0.022459670901298523,
        0.16978706419467926,
        -0.3792576789855957,
        0.19805675745010376,
        -0.14991526305675507,
        -0.41024458408355713,
        0.0,
        0.0,
        0.0,
        0.0,
        0.5324381589889526,
        -0.12663359940052032,
        -0.038976021111011505,
        0.014900504611432552,
        0.03789692372083664,
        0.23511365056037903,
        0.18746204674243927,
        0.011611690744757652,
        -0.42156773805618286,
        -0.17810019850730896,
        -0.34382137656211853,
        -0.030372772365808487,
        0.0,
        0.0,
        0.0,
        0.0
      ],
      "bias": [
        0.08315513283014297,
        -0.0867212563753128,
        0.10842941701412201,
        0.008075579069554806
      ]
    },
    "conv2d_tf3": {
      "name": "conv2d_tf3",
      "type": "conv",
      "inputs": [
        "input_1_tf"
      ],
      "output": "conv2d_tf3",
      "weights": [
        0.10260111838579178,
        -0.42955315113067627,
        -0.1358652114868164,
        -0.08631294220685959,
        0.2824491262435913,
        -0.3627207577228546,
        -0.13862143456935883,
        0.19412434101104736,
        -0.16663230955600739,
        0.1809757500886917,
        0.060318466275930405,
        -0.15145084261894226,
        0.0,
        0.0,
        0.0,
        0.0,
        0.056772563606500626,
        0.26717492938041687,
        0.27469953894615173,
        -0.546373724937439,
        -0.11928579956293106,
        0.22180312871932983,
        0.07798819988965988,
        -0.20018386840820312,
        0.08138176053762436,
        0.11946260184049606,
        -0.13490892946720123,
        0.09703917801380157,
        0.0,
        0.0,
        0.0,
        0.0,
        -0.1175856962800026,
        0.08867248892784119,
        0.20545589923858643,
        0.503121554851532,
        0.34628522396087646,
        -0.4725255072116852,
        -0.37563028931617737,
        0.3071364164352417,
        -0.0825437679886818,
        0.1990145593881607,
        -0.09309817105531693,
        -0.4044767916202545,
        0.0,
        0.0,
        0.0,
        0.0,
        -0.5673369765281677,
        0.22514165937900543,
        0.18777808547019958,
        0.17854374647140503,
        -0.3326393961906433,
        -0.2981898784637451,
        0.19978179037570953,
        0.05885505676269531,
        0.059750933200120926,
        -0.02443825453519821,
        0.2078733742237091,
        -0.3422849476337433,
        0.0,
        0.0,
        0.0,
        0.0,
        -0.02671738900244236,
        0.05626654997467995,
        -0.141977459192276,
        0.025093404576182365,
        0.15780390799045563,
        0.572572648525238,
        0.243214949965477,
        -0.3472451865673065,
        -0.2406097948551178,
        -0.3718281686306,
        0.18206514418125153,
        -0.3798428773880005,
        0.0,
        0.0,
        0.0,
        0.0,
        0.12241145968437195,
        0.007578474935144186,
        0.04232095181941986,
        -0.08928123116493225,
        -0.2815994322299957,
        0.27696722745895386,
        -0.6180868744850159,
        -0.030578242614865303,
        -0.2137441635131836,
        -0.04320979118347168,
        0.00013370187662076205,
        -0.038256704807281494,
        0.0,
        0.0,
        0.0,
        0.0,
        -0.35822874307632446,
        -0.2526949644088745,
        -0.27242758870124817,
        -0.004238350782543421,
        0.03163706883788109,
        0.3031347095966339,
        -0.028807278722524643,
        0.06158509477972984,
        0.13420964777469635,
        0.07619427144527435,
        -0.009500095620751381,
        -0.11587091535329819,
        0.0,
        0.0,
        0.0,
        0.0,
        0.40376415848731995,
        -0.11442094296216965,
        0.23108308017253876,
        -0.13344480097293854,
        -0.22235393524169922,
        0.16099593043327332,
        0.4240777790546417,
        0.26835277676582336,
        0.330812931060791,
        -0.19384121894836426,
        0.0032910993322730064,
        0.13490484654903412,
        0.0,
        0.0,
        0.0,
        0.0,
        0.4049947261810303,
        -0.07109268009662628,
        -0.4511079788208008,
        0.2208593189716339,
        0.3688098192214966,
        0.16821613907814026,
        0.0475677028298378,
        -0.13593542575836182,
        0.03920203074812889,
        -0.14246533811092377,
        -0.16225720942020416,
        -0.07498066872358322,
        0.0,
        0.0,
        0.0,
        0.0
      ],
      "bias": [
        0.07682974636554718,
        -0.16832517087459564,
        -0.0698961392045021,
        0.11731518059968948
      ]
    },
    "conv2d_1_tf": {
      "name": "conv2d_1_tf",
      "type": "conv",
      "inputs": [
        "conv2d_tf",
        "conv2d_tf1"
      ],
      "output": "conv2d_1_tf",
      "weights": [
        -0.025012647733092308,
        -0.12268008291721344,
        0.05550025776028633,
        -0.006007799878716469,
        0.034361857920885086,
        -0.009092028252780437,
        0.0021583863999694586,
        0.033776454627513885,
        -0.10229100286960602,
        0.06584491580724716,
        -0.1538664996623993,
        -0.03196505457162857,
        0.03229594975709915,
        0.07347531616687775,
        -0.008357022888958454,
        0.1378125548362732,
        -0.0482543520629406,
        -0.032768405973911285,
        0.08730192482471466,
        -0.03149087727069855,
        0.08891672641038895,
        -0.029473328962922096,
        -0.04650035873055458,
        0.04647781327366829,
        0.09739533811807632,
        -0.0018351690378040075,
        0.07685252279043198,
        0.03703683987259865,
        0.08757895231246948,
        -0.009774000383913517,
        -0.07704687863588333,
        -0.023887313902378082,
        -0.02363334409892559,
        0.03281877562403679,
        0.11205733567476273,
        -0.026907984167337418,
        0.07087069004774094,
        -0.07178148627281189,
        0.0568857379257679,
        0.049180250614881516,
        0.011367886327207088,
        0.013728565536439419,
        -0.06349355727434158,
        -0.1111215278506279,
        -0.10308700054883957,
        0.08549728989601135,
        -0.04379516467452049,
        0.07841968536376953,
        0.014508900232613087,
        0.06749844551086426,
        -0.13335958123207092,
        -0.11907489597797394,
        -0.021299004554748535,
        0.04503408074378967,
        -0.03196290507912636,
        0.010201132856309414,
        -0.05296628922224045,
        0.0734826847910881,
        0.07920155674219131,
        -0.14873647689819336,
        0.004214170854538679,
        0.007417746353894472,
        -0.1140051782131195,
        -0.09776277840137482,
        -0.1307010054588318,
        -0.08369985222816467,
        -0.041950538754463196,
        -0.04368790239095688,
        -0.059712812304496765,
        0.01699974201619625,
        0.10218697041273117,
        -0.007072578649967909,
        -0.03735700249671936,
        -0.10164069384336472,
        0.12612563371658325,
        0.07157005369663239,
        0.09070896357297897,
        0.010464685969054699,
        -0.07594077289104462,
        -0.03693358227610588,
        0.030079785734415054,
        0.16615141928195953,
        -0.03011627495288849,
        0.050372980535030365,
        0.10637567192316055,
        -0.08712494373321533,
        0.012276138179004192,
        0.027228685095906258,
        -0.0031274680513888597,
        0.15621718764305115,
        -0.09514336287975311,
        -0.02438797801733017,
        -0.042144112288951874,
        0.029202155768871307,
        0.007247105706483126,
        0.2356167882680893,
        0.042650073766708374,
        0.019599391147494316,
        -0.0884367823600769,
        -0.0540752075612545,
        -0.1655558943748474,
        0.14490611851215363,
        -0.030011847615242004,
        -0.06433913111686707,
        0.11079186946153641,
        -0.014107746072113514,
        -0.1535375565290451,
        0.0008915920043364167,
        -0.02871939353644848,
        -0.06438423693180084,
        -0.08660341054201126,
        -0.04733291640877724,
        -0.04081999883055687,
        0.031238103285431862,
        0.0007950600702315569,
        -0.07570511847734451,
        -0.03481380268931389,
        0.04756934568285942,
        -0.0621291920542717,
        -0.09189523756504059,
        0.11223126202821732,
        -0.07975591719150543,
        0.024201970547437668,
        0.04392971843481064,
        -0.06880085170269012,
        0.11587662249803543,
        0.08203792572021484,
        0.1760811060667038,
        0.06436476111412048,
        -0.0457833856344223,
        -0.029927339404821396,
        0.031191179528832436,
        0.052266813814640045,
        -0.0244706142693758,
        0.010601570829749107,
        -0.012655777856707573,
        -0.05847958102822304,
        -0.05111180618405342,
        0.0283820703625679,
        0.014376237988471985,
        0.0690872073173523,
        -0.03823404759168625,
        -0.04916293919086456,
        -0.03580485284328461,
        0.07506101578474045,
        -0.0834842324256897,
        -0.011103074997663498,
        0.04448622465133667,
        -0.03118305094540119,
        0.1367487758398056,
        -0.054036155343055725,
        0.011904358863830566,
        0.03784409910440445,
        -0.009989640675485134,
        0.041623279452323914,
        -0.09468414634466171,
        0.11487377434968948,
        0.010014942847192287,
        -0.12241163849830627,
        -0.07452619820833206,
        -0.06353255361318588,
        -0.1444268524646759,
        -0.09382567554712296,
        -0.019589561969041824,
        0.19838567078113556,
        0.10519140213727951,
        -0.010586225427687168,
        0.18742936849594116,
        -0.08652409166097641,
        0.006108015775680542,
        -0.16118840873241425,
        0.00021978907170705497,
        -0.08650467544794083,
        0.05210462585091591,
        -0.085205078125,
        -0.07319195568561554,
        -0.07367365807294846,
        -0.004649519920349121,
        -0.04559767618775368,
        -0.11650282144546509,
        0.039239950478076935,
        0.019381998106837273,
        -0.07395334541797638,
        0.026953598484396935,
        0.22454363107681274,
        0.034852124750614166,
        0.12333272397518158,
        0.08899978548288345,
        0.024023324251174927,
        -0.047205857932567596,
        0.051532257348299026,
        0.03589368239045143,
        0.11039930582046509,
        0.009772613644599915,
        0.10751742869615555,
        -0.09850195050239563,
        -0.2222306877374649,
        -0.01585911028087139,
        0.15681450068950653,
        0.13472916185855865,
        -0.05984419956803322,
        -0.004955796059221029,
        0.11517468094825745,
        0.048896439373493195,
        0.03443244472146034,
        -0.032106250524520874,
        -0.08050775527954102,
        -0.030172856524586678,
        0.012361378408968449,
        -0.20536009967327118,
        0.011540169827640057,
        -0.12165619432926178,
        -0.11346431076526642,
        0.14510944485664368,
        -0.025666922330856323,
        0.12552110850811005,
        0.10960658639669418,
        -0.041308704763650894,
        -0.11022797226905823,
        -0.08110653609037399,
        0.062334634363651276,
        -0.00809225719422102,
        0.12581762671470642,
        -0.013536096550524235,
        -0.0850137248635292,
        -0.020894614979624748,
        0.07225210964679718,
        -0.04515591636300087,
        -0.10292815417051315,
        0.13572905957698822,
        0.07178675383329391,
        -0.001868035993538797,
        -0.17491920292377472,
        -0.010743617080152035,
        0.03474292904138565,
        -0.19313979148864746,
        -0.09178476780653,
        0.02942998707294464,
        0.05499124899506569,
        0.01647200807929039,
        -0.02766992338001728,
        -0.037400390952825546,
        0.02050427347421646,
        -0.10836855322122574,
        0.12172675877809525,
        0.08776750415563583,
        0.009736689738929272,
        -0.06848268955945969,
        0.0277642160654068,
        -0.06009414792060852,
        -0.14626270532608032,
        -0.1785600185394287,
        -0.21786631643772125,
        -0.07947075366973877,
        -0.058578405529260635,
        0.0568540021777153,
        -0.04441867396235466,
        0.1716938018798828,
        0.12166153639554977,
        -0.029524166136980057,
        -0.0732077956199646,
        0.1163761168718338,
        -0.030318481847643852,
        -0.018310081213712692,
        0.12974171340465546,
        -0.13201330602169037,
        0.05376875400543213,
        0.00245061912573874,
        0.05143176019191742,
        0.0350460410118103,
        -0.04185088351368904,
        -0.0028620148077607155,
        -0.02145998366177082,
        -0.1062982901930809,
        0.0021207346580922604,
        -0.05588886886835098,
        0.1474951207637787,
        0.04826893284916878,
        -0.10851497948169708,
        0.08002204447984695,
        0.11503536254167557,
        0.0012700369115918875,
        -0.030091481283307076,
        0.008210140280425549,
        0.07016769051551819,
        -0.10871603339910507,
        0.008872106671333313,
        -0.05264582857489586,
        0.10107686370611191,
        0.15674923360347748,
        -0.03136755898594856,
        0.10828312486410141,
        0.07035017013549805,
        -0.13903063535690308,
        0.13372422754764557,
        -0.05840829014778137,
        0.056420858949422836,
        0.3382411003112793,
        0.06451012194156647,
        -0.18656902015209198,
        -0.0010740901343524456,
        -0.08127858489751816,
        -0.10097435861825943,
        -0.008253759704530239,
        -0.05217059329152107,
        0.2969105839729309,
        -0.07413319498300552,
        -0.0438348725438118,
        0.03024114854633808,
        0.020812513306736946,
        0.027538934722542763,
        0.11181268095970154,
        -0.1850595325231552,
        -0.04020346328616142,
        0.08965431153774261,
        -0.19554349780082703,
        -0.16209720075130463,
        0.00010772023961180821,
        -0.09992285817861557,
        -0.0627911165356636,
        -0.032778140157461166,
        -0.08724936097860336,
        -0.029341034591197968,
        0.16579052805900574,
        -0.024980511516332626,
        0.04366477206349373,
        -0.03413067385554314,
        -0.1346563696861267,
        -0.05518302321434021,
        0.05462191626429558,
        0.05915273353457451,
        -0.1908065676689148,
        -0.07412393391132355,
        0.0615113340318203,
        -0.009285303764045238,
        -0.1877782940864563,
        0.08269916474819183,
        -0.07643631100654602,
        0.022062521427869797,
        0.1009959727525711,
        -0.00863744504749775,
        -0.0011697710724547505,
        0.10364378243684769,
        -0.11298570781946182,
        -0.16928619146347046,
        0.13735179603099823,
        -0.07236658781766891,
        -0.09338098764419556,
        0.12338712811470032,
        -0.09304285049438477,
        0.15837308764457703,
        -0.02880103513598442,
        -0.037539396435022354,
        0.06425584107637405,
        -0.07340972125530243,
        0.015373105183243752,
        -0.1011585220694542,
        -0.025796646252274513,
        0.14740246534347534,
        -0.05809503421187401,
        0.04974674433469772,
        0.007902903482317924,
        0.09343696385622025,
        0.04607641324400902,
        -0.08753655105829239,
        -0.0103374058380723,
        0.04246782884001732,
        -0.0717422217130661,
        -0.20174890756607056,
        -0.14519481360912323,
        -0.029215408489108086,
        -0.06214199215173721,
        0.09854315221309662,
        -0.048826124519109726,
        0.10213501006364822,
        0.07961677014827728,
        -0.07108557224273682,
        0.09869236499071121,
        -0.024295449256896973,
        0.2575148344039917,
        0.19022385776042938,
        -0.05892607942223549,
        -0.024123523384332657,
        -0.06606318056583405,
        0.05807116627693176,
        -0.10369405895471573,
        0.02264998108148575,
        0.01999511942267418,
        -0.041243571788072586,
        -0.0678059309720993,
        -0.08868186920881271,
        0.1159796342253685,
        -0.11542526632547379,
        -0.11183299124240875,
        -0.036982934921979904,
        0.01648961566388607,
        -0.14523430168628693,
        -0.18143916130065918,
        -0.0364920012652874,
        0.08180404454469681,
        -0.05962248519062996,
        -0.060479212552309036,
        -0.07097750902175903,
        -0.04143809527158737,
        -0.0920613631606102,
        -0.010316244326531887,
        -0.11092814803123474,
        0.0061685373075306416,
        -0.18481209874153137,
        0.20928573608398438,
        0.028924308717250824,
        0.13000334799289703,
        0.004468814004212618,
        -0.030313950031995773,
        -0.11810746788978577,
        0.025624189525842667,
        0.0922350138425827,
        -0.24775807559490204,
        0.0385260246694088,
        -0.007078961003571749,
        0.047179266810417175,
        0.04152395576238632,
        -0.09761910885572433,
        -0.02919072099030018,
        0.0001182667474495247,
        0.02382916957139969,
        0.2465018481016159,
        0.08436398953199387,
        -0.0037915329448878765,
        0.09046095609664917,
        0.0560709610581398,
        -0.018267067149281502,
        -0.026440924033522606,
        -0.08960842341184616,
        0.04743526875972748,
        -0.002089738380163908,
        0.0009730319143272936,
        -0.1317586898803711,
        0.051035914570093155,
        -0.03138524666428566,
        -0.018667399883270264,
        -0.003268032567575574,
        -0.10391125082969666,
        -0.10075481981039047,
        -0.018989240750670433,
        -0.22284884750843048,
        0.009573422372341156,
        0.07773876935243607,
        -0.06646561622619629,
        -0.011182759888470173,
        -0.1831960380077362,
        -0.078810915350914,
        -0.12799115478992462,
        -0.15462878346443176,
        0.13368673622608185,
        -0.08326070010662079,
        0.05356463044881821,
        0.12914159893989563,
        -0.1370258927345276,
        0.03830099105834961,
        -0.025751613080501556,
        -0.13936810195446014,
        0.004344864282757044,
        -0.05480094999074936,
        0.06635240465402603,
        0.024470048025250435,
        -0.04061131924390793,
        0.0076929242350161076,
        -0.027494236826896667,
        -0.12175492942333221,
        -0.08726450800895691,
        -0.05009206756949425,
        0.09572219103574753,
        0.1831762194633484,
        -0.016707271337509155,
        0.07471010088920593,
        0.006249980069696903,
        -0.1770361363887787,
        0.05837751179933548,
        0.10771901905536652,
        0.08971071988344193,
        -0.0917767882347107,
        0.04191706329584122,
        -0.013872059062123299,
        -0.05636318773031235,
        0.09535513073205948,
        0.1796654611825943,
        0.02960359863936901,
        0.06768574565649033,
        -0.049308788031339645,
        0.13659845292568207,
        -0.3001757860183716,
        -0.004093238618224859,
        0.09442006796598434,
        0.14183861017227173,
        0.1172141507267952,
        -0.1303320676088333,
        0.0064221895299851894,
        -0.07223577052354813,
        -0.03533807024359703,
        -0.08668972551822662,
        -0.0320194736123085,
        -0.0006402689614333212,
        -0.13188526034355164,
        0.15033474564552307,
        0.10523822158575058,
        0.10883937031030655,
        -0.02362927980720997,
        0.06691626459360123,
        -0.05686715245246887,
        -0.14110225439071655,
        -0.1598517894744873,
        -0.06829602271318436,
        0.048873171210289,
        0.012329657562077045,
        -0.01889910362660885,
        0.09054528921842575,
        -0.13384999334812164,
        0.11011991649866104,
        -0.1935896873474121,
        -0.003745756112039089,
        -0.009450308047235012,
        -0.20028245449066162,
        -0.2843360900878906,
        -0.03156738728284836,
        -0.03395766019821167,
        -0.02819988876581192,
        -0.007107482757419348,
        -0.0314762219786644,
        -0.07318276911973953,
        0.032118383795022964,
        0.13262811303138733,
        -0.024715090170502663,
        0.12285353243350983,
        -0.19062569737434387,
        -0.08050201088190079,
        0.020911820232868195,
        -0.06412620842456818,
        0.01782306283712387,
        -0.028440279886126518,
        -0.113395556807518,
        -0.16840092837810516,
        0.09259505569934845,
        0.18787100911140442,
        0.0485219769179821,
        -0.08012572675943375,
        0.04367931932210922,
        -0.03574129566550255,
        0.18020249903202057,
        -0.09723664075136185,
        0.09192032366991043,
        -0.020966751500964165,
        0.16186831891536713,
        -0.04293502867221832,
        -0.12403492629528046,
        -0.25638434290885925,
        0.14633731544017792,
        0.28424158692359924,
        0.044677671045064926,
        -0.1548813283443451,
        -0.051170799881219864,
        0.12699368596076965,
        0.03249967843294144,
        0.05229923129081726,
        0.0821373388171196,
        0.2947857677936554,
        0.1486137956380844,
        0.07883895933628082,
        0.0635824054479599,
        0.1391756236553192,
        0.06036224588751793,
        0.08011960983276367,
        0.011153661645948887,
        0.08504832535982132,
        -0.1164780929684639,
        -0.08625787496566772,
        -0.05544857680797577,
        0.09089777618646622,
        -0.07092229276895523,
        0.09689999371767044,
        0.001126691815443337,
        0.10992507636547089,
        0.10786551237106323,
        -0.053739551454782486,
        0.06513678282499313,
        -0.043385203927755356,
        -0.050522830337285995,
        -0.11227356642484665,
        0.013903957791626453,
        -0.040447816252708435,
        -0.060193777084350586,
        -0.15229658782482147,
        0.16247516870498657,
        0.07256101816892624,
        -0.002120278077200055,
        0.14163535833358765,
        0.013932392001152039,
        -0.016747547313570976,
        -0.03583608567714691,
        -0.015570856630802155,
        -0.11640585958957672,
        -0.0024309635628014803,
        -0.21861855685710907,
        0.16730642318725586,
        -0.10789128392934799,
        0.041133154183626175,
        0.11143660545349121,
        -0.02789798378944397,
        -0.006614958867430687,
        -0.06530547142028809,
        -0.06943591684103012,
        0.0848788172006607,
        -0.04073702543973923,
        0.02656777761876583,
        -0.13287340104579926,
        -0.06564241647720337,
        -0.0294476430863142,
        -0.20254173874855042,
        0.006057115271687508,
        0.0936608612537384,
        -0.05354948341846466,
        -0.11826504021883011,
        0.12676803767681122,
        0.024810440838336945,
        0.05679592862725258,
        0.010549170896410942,
        0.1631140112876892,
        0.06616666167974472,
        0.0641450509428978,
        -0.0008765125530771911,
        0.0708465725183487,
        -0.06769710779190063,
        0.0750230997800827,
        0.048143208026885986,
        -0.03252451494336128,
        0.13033241033554077,
        -0.0013966317055746913,
        0.04836820438504219,
        0.026367684826254845,
        0.15981730818748474,
        0.0029635715764015913,
        -0.1062791496515274,
        0.12818863987922668,
        0.143561452627182,
        -0.0772598534822464,
        -0.04613659530878067,
        -0.10350175946950912,
        -0.10378289967775345,
        0.09882951527833939,
        0.06588435918092728,
        0.005503594875335693,
        -0.05466476455330849,
        0.03393993154168129,
        -0.03888104110956192,
        -0.04803667962551117,
        0.11994412541389465,
        0.012592331506311893,
        -0.1434623897075653,
        0.04418718442320824,
        -0.18722958862781525,
        -0.1725083887577057,
        -0.02048856019973755,
        -0.024879204109311104,
        -0.03423192724585533,
        0.010094884783029556,
        -0.055665500462055206,
        -0.17665976285934448,
        0.007581851910799742,
        -0.025182057172060013,
        0.2526966333389282,
        0.009839922189712524,
        -0.37572160363197327,
        0.027081087231636047,
        0.12326298654079437,
        0.02348203957080841,
        0.06008252128958702,
        0.08551304787397385,
        -0.08627552539110184,
        0.020079955458641052,
        0.1802704632282257,
        0.08395633101463318,
        -0.0037560882046818733,
        0.19646501541137695,
        0.04306283965706825,
        -0.01255215797573328,
        0.013194983825087547,
        -0.036738473922014236,
        0.16278384625911713,
        -0.03662571683526039,
        0.013320507481694221,
        0.008124045096337795,
        0.029136084020137787,
        0.10414659976959229,
        -0.03993271291255951,
        0.023943843320012093,
        0.07024378329515457,
        -0.1373676359653473,
        -0.19148123264312744,
        -0.22898158431053162,
        0.25796884298324585,
        0.11208145320415497,
        0.09080903977155685,
        -0.12626244127750397,
        -0.17679119110107422,
        0.019532671198248863,
        -0.025822961702942848,
        -0.0687849298119545,
        -0.10440795123577118,
        0.02949598990380764,
        0.05526081845164299,
        0.016606265679001808,
        0.0685877650976181,
        0.06501153111457825,
        0.06241482496261597,
        -0.2524193227291107,
        -0.02996288426220417,
        0.02976883202791214,
        0.009252920746803284,
        -0.08188512176275253,
        0.03562531620264053,
        -0.13931182026863098,
        -0.08955924212932587,
        0.1608719676733017,
        0.03551441803574562,
        0.07412600517272949,
        0.016254311427474022,
        -0.06540866941213608,
        -0.032010361552238464,
        0.03601621091365814,
        -0.016305575147271156,
        0.07152062654495239,
        0.1107301190495491,
        0.01370356697589159,
        0.036119647324085236,
        0.14513589441776276,
        -0.09756725281476974,
        0.07065623253583908,
        0.0021884217858314514,
        0.15621313452720642,
        0.1570061892271042,
        -0.1835060715675354,
        -0.054989561438560486,
        -0.1899155080318451,
        -0.1603602170944214,
        -0.03589773550629616,
        0.057801906019449234,
        0.12930168211460114,
        -0.06371637433767319,
        0.020138144493103027,
        0.009108256548643112,
        0.1565144807100296,
        0.09537729620933533,
        0.03620225191116333,
        0.1842852085828781,
        0.19666752219200134,
        0.09525184333324432,
        -0.005889418534934521,
        -0.02016870491206646,
        -0.01570209674537182,
        0.01055088359862566,
        -0.012918868102133274,
        -0.052181992679834366,
        -0.15519361197948456,
        -0.004784035962074995,
        -0.005935598164796829,
        -0.06090075895190239,
        -0.05477948486804962,
        -0.0553450807929039,
        -0.006009140983223915,
        -0.14054609835147858,
        0.024597514420747757,
        0.16993355751037598,
        0.04290826618671417,
        -0.0153247881680727,
        -0.09611470252275467,
        -0.16983890533447266,
        0.004113300237804651,
        0.002931637456640601,
        0.06779605895280838,
        0.01949002593755722,
        -0.02038213051855564,
        -0.0029876581393182278,
        0.012507444247603416,
        -0.02993060275912285,
        0.005430992227047682,
        -0.19969876110553741,
        -0.0051186359487473965,
        -0.006553234066814184,
        0.08482338488101959,
        -0.0646076574921608,
        0.1995457410812378,
        0.008592559024691582,
        -0.0020345812663435936,
        -0.0425766296684742,
        -0.012984822504222393,
        0.08431269228458405,
        0.015451475977897644,
        0.055763356387615204,
        -0.1304430067539215,
        0.04965994134545326,
        -0.1000286340713501,
        -0.07262751460075378,
        -0.005432470235973597,
        -0.07889154553413391,
        -0.027947546914219856,
        -0.028846513479948044,
        0.0896136686205864,
        0.020238904282450676,
        0.1248675212264061,
        -0.025401301681995392,
        -0.015924649313092232,
        0.1775520294904709,
        0.05631638690829277,
        -0.0810573548078537,
        -0.032766323536634445,
        -0.02842695824801922,
        0.11571310460567474,
        -0.07998573780059814,
        0.02279050461947918,
        -0.011908656917512417,
        -0.0018452508375048637,
        -0.02444901317358017,
        -0.04613260552287102,
        0.06422839313745499,
        0.017742550000548363,
        0.1036636009812355,
        0.11162649840116501,
        0.1111965924501419,
        0.1476498693227768,
        0.0011467445874586701,
        0.04608806222677231,
        0.05501227825880051,
        0.13296931982040405,
        -0.1584610491991043,
        -0.07451710850000381,
        -0.0050104944966733456,
        0.09638234227895737,
        0.05699798837304115,
        -0.10349588096141815,
        -0.001899754861369729,
        -0.14997653663158417,
        0.08190935850143433,
        -0.1658686250448227,
        -0.00986711960285902,
        -0.03658146411180496,
        -0.1254076212644577,
        -0.035490963608026505,
        -0.028748031705617905,
        -0.0058850389905273914,
        -0.04168406128883362,
        0.05053751543164253,
        -0.06679274886846542,
        -0.15678495168685913,
        0.08829891681671143,
        0.12245529145002365,
        -0.043352313339710236,
        -0.07857527583837509,
        -0.0009712277096696198,
        -0.06553731113672256,
        0.04884679988026619,
        0.01332241203635931,
        0.05368994548916817,
        0.0642467513680458,
        0.09651614725589752,
        0.05722691863775253,
        -0.08141987770795822,
        -0.004035356920212507,
        -0.020289631560444832,
        0.06273181736469269,
        0.11675582826137543,
        -0.14968258142471313,
        -0.023948727175593376,
        0.004817421082407236,
        0.0007018992328085005,
        0.05125894024968147,
        0.13987021148204803,
        -0.05227189138531685,
        -0.008446695283055305,
        0.09159884601831436,
        0.008294537663459778,
        -0.11207655072212219,
        -0.09806468337774277,
        -0.012856118381023407,
        0.08116715401411057,
        -0.017464710399508476,
        0.11934694647789001,
        -0.09343007951974869,
        0.042061854153871536,
        -0.11486992985010147,
        -0.09367422759532928,
        -0.20337963104248047,
        0.09681040048599243,
        0.017939012497663498,
        -0.03245339170098305,
        0.16150601208209991,
        0.037605028599500656,
        -0.00016660820983815938,
        0.012608649209141731,
        0.0495288223028183,
        -0.11470050364732742,
        -0.00021194087457843125,
        -0.11144755035638809,
        0.02902151644229889,
        0.07972526550292969,
        0.025961080566048622,
        0.13212893903255463,
        0.05486687272787094,
        0.04366643726825714,
        -0.043124355375766754,
        0.12029522657394409,
        0.159635990858078,
        0.18347276747226715,
        0.0876351147890091,
        -0.051811810582876205,
        0.054980240762233734,
        -0.18889039754867554,
        -0.05328100919723511,
        0.028134766966104507,
        -0.007818556390702724,
        -0.06365228444337845,
        0.0440484993159771,
        0.09476986527442932,
        0.12309825420379639,
        0.099386066198349,
        -0.10859832912683487,
        -0.0099876644089818,
        -0.13175474107265472,
        -0.005553574301302433,
        0.07903064042329788,
        0.07509792596101761,
        -0.01295505277812481,
        -0.03607279434800148,
        -0.04841893911361694,
        -0.09746025502681732,
        -0.058791421353816986,
        -0.0126353669911623,
        0.08555559813976288,
        -0.10225999355316162,
        0.08942494541406631,
        -0.051653869450092316,
        0.03652896359562874,
        0.028050091117620468,
        0.05286833643913269,
        0.03004150278866291,
        0.03676362708210945,
        0.06398050487041473,
        0.019945461302995682,
        0.053525716066360474,
        -0.06884564459323883,
        0.01765395887196064,
        -0.12930800020694733,
        0.013077127747237682,
        0.14129666984081268,
        -0.009117208421230316,
        -0.05307318642735481,
        -0.012543131597340107,
        -0.09375055879354477,
        -0.00014002641546539962,
        0.002309274859726429,
        0.026877310127019882,
        -0.12678605318069458,
        0.07730018347501755,
        -0.0385928750038147,
        0.07223865389823914,
        0.05003047361969948,
        0.11010041832923889,
        0.05667666718363762,
        -0.07247944921255112,
        0.036846671253442764,
        0.00974536594003439,
        0.02008659578859806,
        -0.024226820096373558,
        0.06937107443809509,
        0.0943039208650589,
        0.14110679924488068,
        0.002271984936669469,
        -0.01891506277024746,
        0.03842151537537575,
        0.1114862784743309,
        0.05447732284665108,
        -0.027214104309678078,
        -0.010689551010727882,
        0.069839708507061,
        -0.045934583991765976,
        0.15906813740730286,
        -0.033631954342126846,
        0.014507929794490337,
        -0.12045034021139145,
        0.13788777589797974,
        0.018732881173491478,
        0.05176353454589844,
        0.027152137830853462,
        0.08205222338438034,
        -0.026489827781915665,
        -0.021777747198939323,
        -0.08341312408447266,
        -0.04619814082980156,
        -0.011201462708413601,
        -0.019769294187426567,
        0.09512664377689362,
        -0.05387372896075249,
        -0.04198802262544632,
        -0.10018706321716309,
        0.042134612798690796,
        -0.09514814615249634,
        -0.19294039905071259,
        0.0757274329662323,
        0.04270995035767555,
        0.026474524289369583,
        0.13863329589366913,
        -0.04354691132903099,
        -0.09803888946771622,
        -0.02808038704097271,
        0.06127702444791794,
        -0.01891344040632248,
        -0.025899946689605713,
        -0.03144030272960663,
        0.05218018218874931,
        0.017681701108813286,
        0.17375069856643677,
        -0.11339907348155975,
        -0.08277905732393265,
        0.06280869245529175,
        -0.046779852360486984,
        0.007873107679188251,
        0.06775868684053421,
        0.2587607502937317,
        -0.045044515281915665,
        0.0036313412711024284,
        0.18402041494846344,
        -0.10100237280130386,
        -0.10945417732000351,
        -0.02514154277741909,
        0.09087371826171875,
        0.061034854501485825,
        -0.02939371019601822,
        0.054820407181978226,
        0.04365331679582596,
        0.1371580809354782,
        0.14771094918251038,
        -0.1673058122396469,
        -0.02146626077592373,
        -0.04104622080922127,
        0.08579552173614502,
        -0.04023965820670128,
        -0.05823094770312309,
        -0.013548854738473892,
        -0.060206636786460876,
        -0.05405912175774574,
        -0.05602210387587547,
        -0.061835967004299164,
        -0.021735558286309242,
        0.014741086401045322,
        -0.059831518679857254,
        0.04026715084910393,
        -0.11707189679145813,
        -0.17413872480392456,
        0.14607247710227966,
        0.09046922624111176,
        0.029019208624958992,
        0.17670972645282745,
        0.03205538168549538,
        -0.025622939690947533,
        0.008838606998324394,
        -0.06652683764696121,
        -0.06692660599946976,
        -0.1401614397764206,
        0.15326648950576782,
        0.11728895455598831,
        0.006643412634730339,
        -0.07917419821023941,
        -0.013066721148788929,
        -0.031955525279045105,
        0.014529175125062466,
        0.1834825575351715,
        0.01674272119998932,
        0.09075779467821121,
        -0.028789930045604706,
        0.06369716674089432,
        0.06831663101911545,
        -0.07506618648767471,
        0.035477470606565475,
        -0.08544298261404037,
        0.14132371544837952,
        -0.17699579894542694,
        -0.04174455255270004,
        0.04452067241072655,
        0.01305732224136591,
        -0.01100977510213852,
        -0.06633709371089935,
        0.11543260514736176,
        0.11515004187822342,
        -0.03964536637067795,
        -0.11816045641899109,
        0.030202824622392654,
        0.1505921632051468,
        -0.044779930263757706,
        0.0842619389295578,
        0.00513096246868372,
        0.015325038693845272,
        -0.03557439148426056,
        0.1996365189552307,
        -0.06040541082620621,
        -0.11318080872297287,
        -0.04548924043774605,
        0.11798785626888275,
        -0.06549656391143799,
        -0.1173524260520935,
        0.03469834849238396,
        0.023023610934615135,
        0.06270689517259598,
        0.07327837496995926,
        -0.06190051510930061,
        0.024380885064601898,
        -0.050485968589782715,
        -0.03431553766131401,
        0.007245199754834175,
        -0.15477120876312256,
        -0.03372489660978317,
        -0.11524496227502823,
        -0.02124622091650963,
        -0.04465680941939354,
        -0.09744301438331604,
        0.12707434594631195,
        0.04158005118370056,
        -0.03263436257839203,
        -0.15560510754585266,
        0.13910707831382751,
        0.09951160103082657,
        0.04081481322646141,
        -0.11982470750808716,
        0.08085691183805466,
        0.07219786196947098,
        0.013391202315688133,
        -0.0036234662402421236,
        0.12024478614330292,
        0.07003729790449142,
        -0.04724430292844772,
        0.04285826161503792,
        -0.009169691242277622,
        -0.14146505296230316,
        -0.07536766678094864,
        -0.08328362554311752,
        0.14697813987731934,
        0.028569042682647705,
        0.0027045300230383873,
        0.015275401063263416,
        0.06690239161252975,
        -0.14081694185733795,
        -0.03817759081721306,
        0.04764711484313011,
        0.04662226140499115
      ],
      "bias": [
        -0.0011959236580878496,
        0.017128251492977142,
        0.03069993108510971,
        -0.07201716303825378
      ]
    },
    "conv2d_1_tf1": {
      "name": "conv2d_1_tf1",
      "type": "conv",
      "inputs": [
        "conv2d_tf",
        "conv2d_tf1"
      ],
      "output": "conv2d_1_tf1",
      "weights": [
        0.019657393917441368,
        0.03264539688825607,
        0.006374888122081757,
        -0.06908224523067474,
        -0.032859716564416885,
        0.033566392958164215,
        -0.017376119270920753,
        0.04021143913269043,
        -0.08088666945695877,
        -0.033628251403570175,
        -0.07273827493190765,
        -0.05741159990429878,
        -0.1340213268995285,
        -0.066875159740448,
        -0.022006165236234665,
        0.041150689125061035,
        0.05877324193716049,
        -0.07031414657831192,
        0.1251489222049713,
        -0.013403788208961487,
        -0.07071059942245483,
        -0.08675889670848846,
        -0.018587451428174973,
        -0.010732322931289673,
        -0.024271730333566666,
        -0.0001651360362302512,
        0.08116130530834198,
        0.07405070215463638,
        -0.04035065323114395,
        -0.03691817447543144,
        0.06738352030515671,
        0.09646233916282654,
        -0.07973478734493256,
        -0.034140732139348984,
        0.027196770533919334,
        -0.20182132720947266,
        0.02547324448823929,
        -0.046009693294763565,
        0.0422975979745388,
        0.020352281630039215,
        0.024694202467799187,
        -0.033855460584163666,
        -0.011600101366639137,
        -0.04780030623078346,
        0.051149290055036545,
        -0.10721062123775482,
        -0.0195145346224308,
        0.15850785374641418,
        0.009240992367267609,
        0.0041053821332752705,
        0.010895981453359127,
        -0.08695509284734726,
        -0.07486765086650848,
        -0.02023719623684883,
        -0.04258272424340248,
        -0.033392492681741714,
        0.0877646952867508,
        -0.12351403385400772,
        -0.023487580940127373,
        0.019383598119020462,
        0.08862902969121933,
        -0.07170235365629196,
        0.00584425451233983,
        -0.07148947566747665,
        -0.011778385378420353,
        0.0042959158308804035,
        -0.07378849387168884,
        -0.0812709629535675,
        0.057002779096364975,
        -0.024645665660500526,
        0.00844012200832367,
        0.09099134802818298,
        -0.16690665483474731,
        0.11094880849123001,
        0.04979037493467331,
        0.10083801299333572,
        0.022927887737751007,
        -0.07205308973789215,
        -0.0870659127831459,
        -0.031280022114515305,
        0.08632460236549377,
        -0.0784449651837349,
        0.01956910267472267,
        0.06381111592054367,
        -0.02259950339794159,
        0.10865595191717148,
        0.06990539282560349,
        -0.049230340868234634,
        -0.07669059932231903,
        0.128107950091362,
        -0.03470935299992561,
        0.10535749047994614,
        0.21894793212413788,
        -0.29886171221733093,
        0.03371251001954079,
        0.016726262867450714,
        -0.03383698686957359,
        -0.024987028911709785,
        -0.0011967903701588511,
        -0.07978512346744537,
        -0.04438772425055504,
        -0.08516798913478851,
        -0.09201095253229141,
        -0.09085609763860703,
        0.1867685467004776,
        0.018215421587228775,
        -0.020397190004587173,
        -0.11177653074264526,
        -0.022453943267464638,
        0.062345653772354126,
        0.008534428663551807,
        0.01603975147008896,
        -0.08878768980503082,
        -0.033768367022275925,
        -0.02336660400032997,
        0.12442046403884888,
        -0.007534851785749197,
        -0.1009814590215683,
        -0.016132229939103127,
        -0.1027204692363739,
        -0.04327469691634178,
        0.08328952640295029,
        0.030725767835974693,
        -0.01015610620379448,
        0.11883584409952164,
        -0.10819578915834427,
        -0.2364237904548645,
        -0.04407670721411705,
        0.026029124855995178,
        -0.09933510422706604,
        -0.060973577201366425,
        -0.06019606068730354,
        -0.08802778273820877,
        -0.020356228575110435,
        0.22004985809326172,
        -0.07642650604248047,
        0.027718760073184967,
        -0.1269514411687851,
        -0.05571162328124046,
        -0.03296804428100586,
        0.007636536378413439,
        -0.048643335700035095,
        0.04660925641655922,
        0.06693515181541443,
        -0.035294923931360245,
        0.09589344263076782,
        0.1802062839269638,
        -0.014067918993532658,
        -0.03101971745491028,
        0.031204108148813248,
        0.07440515607595444,
        -0.02185792475938797,
        0.13767756521701813,
        -0.11400856077671051,
        -0.19998079538345337,
        0.05741817131638527,
        0.16783054172992706,
        0.04008287563920021,
        -0.11320061981678009,
        -0.041812963783741,
        0.013175299391150475,
        -0.13185063004493713,
        -0.0034845531918108463,
        -0.02901463583111763,
        0.055280767381191254,
        0.06044302508234978,
        0.01044575497508049,
        0.028713081032037735,
        -0.004014263395220041,
        0.04106209799647331,
        0.0724974274635315,
        0.11932222545146942,
        -0.006660958752036095,
        0.019940795376896858,
        0.023208215832710266,
        -0.04724857956171036,
        -0.03014746680855751,
        -0.04115542396903038,
        0.005087681580334902,
        -0.1951199173927307,
        0.0398770347237587,
        -0.00659886933863163,
        0.023303864523768425,
        0.022187793627381325,
        -0.08685526996850967,
        0.10535368323326111,
        -0.005521861370652914,
        0.021808987483382225,
        0.07432912290096283,
        0.08403701335191727,
        0.03215007856488228,
        0.006163021549582481,
        0.03182561323046684,
        0.07956164330244064,
        -0.02281145378947258,
        -0.062282152473926544,
        0.1195133849978447,
        0.07628696411848068,
        -0.007766887545585632,
        -0.07629633694887161,
        0.17606793344020844,
        -0.0025893563870340586,
        -0.021057212725281715,
        0.04579642415046692,
        -0.06379485875368118,
        -0.015662090852856636,
        -0.009187698364257812,
        0.0006328030722215772,
        0.026951609179377556,
        -0.08738812059164047,
        0.05705506354570389,
        -0.23952990770339966,
        -0.010898098349571228,
        0.2599841356277466,
        -0.026399822905659676,
        0.06917084008455276,
        -0.0488654226064682,
        0.14900556206703186,
        0.021620407700538635,
        -0.1650552898645401,
        0.047681231051683426,
        -0.14553223550319672,
        -0.1479545533657074,
        0.012722217477858067,
        0.057108860462903976,
        -0.004269858822226524,
        -0.2855064272880554,
        -0.146383136510849,
        0.12746360898017883,
        -0.04246799647808075,
        0.025048337876796722,
        0.08690398931503296,
        -0.05452787131071091,
        -0.027100561186671257,
        0.0702514573931694,
        -0.05481968820095062,
        0.12137163430452347,
        -0.06855933368206024,
        0.03427029028534889,
        -0.0683821439743042,
        0.03671541064977646,
        0.043541502207517624,
        0.06523044407367706,
        -0.028119344264268875,
        -0.0175867211073637,
        0.0189789067953825,
        0.05288684368133545,
        0.10160087049007416,
        -0.11584093421697617,
        0.08146452903747559,
        -0.046140071004629135,
        -0.03053843416273594,
        -0.08815973252058029,
        0.043086446821689606,
        0.06596501171588898,
        0.025653894990682602,
        0.07504433393478394,
        -0.13450558483600616,
        -0.090208038687706,
        -0.07925478368997574,
        -0.053297702223062515,
        0.036256998777389526,
        -0.16939426958560944,
        -0.0033203312195837498,
        -0.0095911780372262,
        0.07760776579380035,
        -0.045242417603731155,
        0.02804471179842949,
        0.008077994920313358,
        0.09676871448755264,
        -0.048511672765016556,
        0.027806943282485008,
        0.020106801763176918,
        -0.027473218739032745,
        -0.022025711834430695,
        0.0017664966871961951,
        0.07372384518384933,
        -0.027580492198467255,
        0.13151414692401886,
        0.05356518179178238,
        0.07525451481342316,
        0.0206580962985754,
        0.2073228508234024,
        0.05287345498800278,
        -0.0025462056510150433,
        -0.04293397441506386,
        0.051216982305049896,
        0.010936245322227478,
        -0.042022839188575745,
        0.07219985872507095,
        -0.13679221272468567,
        0.01198546402156353,
        0.11213592439889908,
        -0.05060642212629318,
        -0.04570304974913597,
        -0.1539876013994217,
        0.05975659191608429,
        -0.15352043509483337,
        -0.1385611742734909,
        -0.002044502878561616,
        -0.07755432277917862,
        -0.033295631408691406,
        -0.04187135025858879,
        -0.10856485366821289,
        0.12379056215286255,
        0.06525956094264984,
        -0.01732102781534195,
        0.03674450144171715,
        0.01911257766187191,
        0.025115668773651123,
        0.078885518014431,
        -0.10067243129014969,
        0.08448397368192673,
        0.10069822520017624,
        0.14853832125663757,
        -0.015933740884065628,
        -0.04240524768829346,
        0.03252148628234863,
        -0.014912782236933708,
        -0.10082319378852844,
        -0.0016173477051779628,
        -0.06562848389148712,
        -0.13446947932243347,
        0.061472952365875244,
        0.10763835161924362,
        0.06308402121067047,
        0.036137185990810394,
        0.1079048290848732,
        -0.021508488804101944,
        0.01494083646684885,
        -0.0425516776740551,
        -0.1071213111281395,
        0.06768838316202164,
        0.05765903741121292,
        0.07491950690746307,
        -0.01534881442785263,
        0.011064615100622177,
        -0.06449965387582779,
        -0.04217371717095375,
        0.11413230746984482,
        -0.08138319849967957,
        0.1719333976507187,
        0.170034721493721,
        0.06925421208143234,
        -0.0076448386535048485,
        0.0027306389529258013,
        -0.26372596621513367,
        -0.03337228670716286,
        0.09990119189023972,
        0.06902424991130829,
        -0.08305040746927261,
        0.023080600425601006,
        0.03565128892660141,
        0.061687618494033813,
        0.008055446669459343,
        0.03465096279978752,
        -0.12300373613834381,
        0.12789100408554077,
        0.06002304330468178,
        -0.032385747879743576,
        -0.056600093841552734,
        0.3054291009902954,
        0.014385288581252098,
        0.03403180092573166,
        -0.06315064430236816,
        -0.05007096379995346,
        0.09751293063163757,
        0.014399710111320019,
        0.05741288512945175,
        0.000499028479680419,
        0.04609245806932449,
        -0.11831575632095337,
        0.09936672449111938,
        -0.03915150836110115,
        0.024190694093704224,
        -0.09345617145299911,
        0.041680704802274704,
        -0.13836732506752014,
        0.010480488650500774,
        0.11358087509870529,
        0.03942571580410004,
        0.02889392152428627,
        0.1511114239692688,
        0.09886571019887924,
        0.06442312896251678,
        0.03637215122580528,
        -0.11340397596359253,
        -0.042880937457084656,
        -0.030128801241517067,
        -0.019048253074288368,
        0.04435231536626816,
        -0.10016746073961258,
        0.025809671729803085,
        -0.10794556885957718,
        -0.139556422829628,
        -0.0909651443362236,
        0.027091501280665398,
        -0.013184244744479656,
        -0.021415339782834053,
        -0.06799757480621338,
        -0.005662769079208374,
        -0.02562261000275612,
        0.01956956274807453,
        0.05361291393637657,
        -0.03479955717921257,
        -0.08716924488544464,
        -0.0682402104139328,
        -0.032947614789009094,
        0.01788257621228695,
        0.14503918588161469,
        0.084990955889225,
        0.04211799055337906,
        -0.047746967524290085,
        -0.011566887609660625,
        -0.13427239656448364,
        0.032188378274440765,
        0.08730272203683853,
        -0.03191002458333969,
        0.13657915592193604,
        -0.07916619628667831,
        -0.08740979433059692,
        -0.01856776513159275,
        0.03902130946516991,
        0.13150976598262787,
        0.11168871819972992,
        -0.13045497238636017,
        -0.1285477876663208,
        0.023472895845770836,
        -0.03795349970459938,
        -0.08529699593782425,
        0.09599108248949051,
        0.03616560995578766,
        -0.009121921844780445,
        -0.019334208220243454,
        -0.07449020445346832,
        -0.047994181513786316,
        0.06937001645565033,
        -0.00040817950502969325,
        -0.03860729932785034,
        0.035445984452962875,
        0.07476144284009933,
        0.018653472885489464,
        -0.0332501046359539,
        -0.15930555760860443,
        -0.24952930212020874,
        -0.01244206354022026,
        -0.011937201023101807,
        -0.05311042070388794,
        -0.1324707567691803,
        -0.04948960617184639,
        0.0013423976488411427,
        0.1501546949148178,
        0.07074982672929764,
        0.027112681418657303,
        -0.00986037589609623,
        0.10293494164943695,
        0.11899615079164505,
        -0.1537664830684662,
        -0.0665639340877533,
        -0.21759964525699615,
        -0.1967412382364273,
        0.0322718508541584,
        0.054354120045900345,
        -0.13472728431224823,
        -0.0173315592110157,
        0.09914646297693253,
        -0.09313951432704926,
        -0.018629472702741623,
        0.07030662149190903,
        0.15828150510787964,
        -0.0494491271674633,
        0.05502380058169365,
        0.02236088365316391,
        -0.013060984201729298,
        0.11789759993553162,
        0.21978913247585297,
        -0.061660587787628174,
        0.01792818307876587,
        -0.16841016709804535,
        0.03457827866077423,
        -0.049318425357341766,
        -0.07002057880163193,
        0.008592776954174042,
        0.03989341855049133,
        0.17629267275333405,
        -0.05228898301720619,
        0.03939814493060112,
        0.06411462277173996,
        -0.013684248551726341,
        0.03361305966973305,
        -0.04277576133608818,
        0.12366622686386108,
        0.05057865381240845,
        -0.03966305032372475,
        0.004274783190339804,
        0.10375365614891052,
        -0.1501343697309494,
        0.04294275864958763,
        -0.07875072211027145,
        -0.06864000111818314,
        0.10952677577733994,
        -0.047858577221632004,
        0.15845395624637604,
        -0.03722572326660156,
        -0.03366869315505028,
        -0.032308198511600494,
        -0.19172434508800507,
        -0.12055662274360657,
        0.07091600447893143,
        -0.038192104548215866,
        0.05786034092307091,
        -0.006640523672103882,
        -0.07850585132837296,
        0.10540498048067093,
        -0.017070863395929337,
        -0.013166546821594238,
        -0.06173815205693245,
        0.1369250863790512,
        0.06196209788322449,
        -0.061522502452135086,
        0.001870185835286975,
        0.03577934205532074,
        0.03003290295600891,
        -0.09126292169094086,
        0.14011439681053162,
        -0.03132465109229088,
        0.053256530314683914,
        0.06723155081272125,
        0.013126292265951633,
        -0.037667516618967056,
        -0.10517213493585587,
        0.03248709812760353,
        -0.009716465137898922,
        -0.10107257217168808,
        -0.05956828221678734,
        -0.06516322493553162,
        0.15349942445755005,
        0.017588889226317406,
        0.162382110953331,
        0.07753423601388931,
        -0.10640788078308105,
        0.024943439289927483,
        -0.005778531078249216,
        0.07417338341474533,
        -0.046419527381658554,
        0.010881917551159859,
        -0.06727049499750137,
        -0.06691775470972061,
        -0.00019808372599072754,
        0.17226232588291168,
        0.08388719707727432,
        -0.1534864902496338,
        0.04721422865986824,
        0.04122348502278328,
        -0.0874229222536087,
        -0.0791696086525917,
        -0.027243629097938538,
        0.024470005184412003,
        0.12152142822742462,
        0.07387068122625351,
        -0.06579748541116714,
        -0.06577346473932266,
        -0.06253950297832489,
        0.09023819118738174,
        0.09597314894199371,
        -0.05794438719749451,
        -0.21531234681606293,
        -0.018931850790977478,
        0.15008699893951416,
        -0.02098868042230606,
        -0.07131556421518326,
        -0.001224697451107204,
        0.137404665350914,
        -0.048396896570920944,
        -0.09028702974319458,
        -0.1235974133014679,
        -0.06672144681215286,
        -0.10726038366556168,
        -0.07326903939247131,
        0.12254291772842407,
        0.11198229342699051,
        -0.15350262820720673,
        0.016954749822616577,
        0.07627593725919724,
        -0.07655441761016846,
        0.045314494520425797,
        0.06085246801376343,
        0.02607574872672558,
        0.058939993381500244,
        0.09471416473388672,
        0.04252155125141144,
        -0.08142499625682831,
        -0.04034939780831337,
        0.06119810789823532,
        -0.13174299895763397,
        0.018763164058327675,
        0.025024352595210075,
        0.17283029854297638,
        0.07374051958322525,
        0.08963804692029953,
        0.015169142745435238,
        -0.08793498575687408,
        0.06712111830711365,
        -0.05211520567536354,
        -0.0015361923724412918,
        -0.026369227096438408,
        -0.034134868532419205,
        -0.1066097766160965,
        -0.009949345141649246,
        0.06168784946203232,
        -0.03520294651389122,
        0.03468625620007515,
        -0.017060954123735428,
        -0.012380932457745075,
        -0.014328384771943092,
        -0.10965093225240707,
        0.058480650186538696,
        0.002161817392334342,
        0.05089941248297691,
        0.26147791743278503,
        -0.05649236962199211,
        0.012531336396932602,
        0.08379842340946198,
        -0.1979743093252182,
        -0.02825220860540867,
        0.06795820593833923,
        -0.07663901895284653,
        0.030824942514300346,
        0.015374548733234406,
        0.08525636792182922,
        0.07337415963411331,
        -0.11708326637744904,
        0.08791487663984299,
        -0.011513621546328068,
        -0.010788274928927422,
        -0.024361910298466682,
        -0.14518296718597412,
        0.04940670728683472,
        0.09497255086898804,
        0.02231687679886818,
        0.04191039130091667,
        0.09172409772872925,
        0.11270296573638916,
        0.11150675266981125,
        -0.002441725227981806,
        0.09306784719228745,
        -0.007653094362467527,
        -0.04537876322865486,
        0.14517313241958618,
        -0.02923342026770115,
        -0.0018102775793522596,
        0.07904615998268127,
        0.18699069321155548,
        0.023286422714591026,
        0.03268265351653099,
        -0.04304369166493416,
        0.08731983602046967,
        0.11601725220680237,
        -0.10137791931629181,
        0.07580433785915375,
        -0.0818900614976883,
        -0.10224020481109619,
        -0.029940450564026833,
        0.0325847826898098,
        0.2543659806251526,
        -0.12069795280694962,
        0.038416288793087006,
        -0.046767327934503555,
        -0.028114331886172295,
        0.08629160374403,
        0.08983273059129715,
        -0.06285633146762848,
        0.13554994761943817,
        -0.002936161123216152,
        0.05559201538562775,
        0.09054408967494965,
        0.010363776236772537,
        0.06547948718070984,
        0.022349359467625618,
        0.07329273968935013,
        0.030597172677516937,
        0.16953112185001373,
        0.05089105665683746,
        0.07731198519468307,
        0.10666412115097046,
        -0.01909784972667694,
        -0.0056776381097733974,
        -0.04353180155158043,
        0.05390416830778122,
        -0.12958066165447235,
        0.07658963650465012,
        -0.10587538033723831,
        0.004573758225888014,
        0.09141054004430771,
        -0.024914642795920372,
        0.10878292471170425,
        0.07851555198431015,
        0.16587680578231812,
        0.20480187237262726,
        0.026194563135504723,
        0.00554340286180377,
        0.030773531645536423,
        0.11723533272743225,
        0.03261010721325874,
        -0.03263143077492714,
        0.16199223697185516,
        0.11913758516311646,
        0.02091408148407936,
        0.08365536481142044,
        0.007539312820881605,
        -0.11538716405630112,
        0.037163205444812775,
        0.11150912940502167,
        -0.00974680483341217,
        0.23458921909332275,
        0.0390290692448616,
        0.12006013840436935,
        0.15142951905727386,
        -0.09473451972007751,
        0.08303996175527573,
        0.11542323231697083,
        0.0374000146985054,
        -0.041086938232183456,
        0.021540794521570206,
        0.04244452714920044,
        0.009507985785603523,
        0.018371785059571266,
        -0.051343780010938644,
        -0.052143096923828125,
        0.17685054242610931,
        0.1058279350399971,
        -0.08099924027919769,
        0.0554695762693882,
        0.06111421063542366,
        0.029388561844825745,
        0.14564843475818634,
        -0.14330130815505981,
        0.04464743286371231,
        0.02903609909117222,
        -0.13990016281604767,
        0.011586262844502926,
        0.012246234342455864,
        0.13400529325008392,
        0.00986544881016016,
        -0.07191456854343414,
        -0.14087502658367157,
        -0.07117822766304016,
        -0.0031794686801731586,
        0.030454890802502632,
        0.07407999783754349,
        0.06998790055513382,
        0.10279417037963867,
        0.17202867567539215,
        -0.05382238328456879,
        -0.001595613663084805,
        -0.32821759581565857,
        -0.018922818824648857,
        0.14683721959590912,
        -0.1020583063364029,
        -0.011817406862974167,
        0.07628856599330902,
        -0.10716338455677032,
        0.0015058332355692983,
        0.03426232933998108,
        -0.025617172941565514,
        -0.05573557689785957,
        -0.0956747978925705,
        0.004406796768307686,
        0.036353208124637604,
        0.0412028543651104,
        0.036564912647008896,
        0.026265481486916542,
        -0.07192794233560562,
        -0.0032359145116060972,
        0.07021396607160568,
        0.0021420218981802464,
        -0.07074545323848724,
        -0.02247503027319908,
        0.016835268586874008,
        0.032909803092479706,
        0.029987504705786705,
        -0.01636487804353237,
        0.07728762924671173,
        -0.03088351897895336,
        0.07470870018005371,
        0.09483007341623306,
        -0.1287689357995987,
        -0.10099738836288452,
        0.18399038910865784,
        -0.1588038057088852,
        0.05887354910373688,
        -0.19949910044670105,
        -0.024275392293930054,
        -0.10212922841310501,
        -0.037151530385017395,
        0.06972572207450867,
        -0.12542782723903656,
        -0.09916236251592636,
        0.16047903895378113,
        0.032866135239601135,
        0.10914620012044907,
        -0.004328935407102108,
        0.14809900522232056,
        -0.14561273157596588,
        -0.02769138664007187,
        0.07892569899559021,
        0.03186164051294327,
        -0.07332798093557358,
        0.09214261919260025,
        0.03085736371576786,
        -0.07124681770801544,
        0.040082722902297974,
        -0.17709846794605255,
        0.08964961767196655,
        -0.1244598850607872,
        0.05922838672995567,
        -0.01047553587704897,
        -0.016967346891760826,
        0.043571215122938156,
        0.1381940245628357,
        -0.006192763336002827,
        0.0151662677526474,
        0.03493526577949524,
        -0.06912179291248322,
        0.023202436044812202,
        -0.012284648604691029,
        -0.015056677162647247,
        -0.003408882999792695,
        0.13508999347686768,
        -0.03244546428322792,
        -0.03482950106263161,
        0.021075090393424034,
        -0.11300338059663773,
        0.10849560797214508,
        0.07407045364379883,
        -0.10201326757669449,
        -0.03803834691643715,
        -0.045418694615364075,
        0.18134383857250214,
        -0.08553255349397659,
        0.11978160589933395,
        0.0066952332854270935,
        0.1822320520877838,
        0.058316513895988464,
        -0.08769980072975159,
        0.08207081258296967,
        0.03779340907931328,
        -0.10772276669740677,
        0.0015211591962724924,
        0.07918702065944672,
        -0.08529844880104065,
        0.13466905057430267,
        -0.003002994926646352,
        0.011667979881167412,
        -0.015445994213223457,
        -0.02631901204586029,
        0.005306459031999111,
        -0.12402204424142838,
        -0.14610286056995392,
        0.014664653688669205,
        -0.00017579601262696087,
        -0.026061667129397392,
        -0.1574515849351883,
        0.034691356122493744,
        0.020558103919029236,
        -0.04517332464456558,
        0.01398423220962286,
        0.0423087552189827,
        -0.18126744031906128,
        0.024430200457572937,
        -0.028884530067443848,
        0.14573775231838226,
        0.1104235053062439,
        -0.053762078285217285,
        0.17289812862873077,
        0.08087317645549774,
        0.05767735093832016,
        0.10366407036781311,
        0.07117313146591187,
        0.06744304299354553,
        -0.12504476308822632,
        -0.09289038181304932,
        0.17306876182556152,
        -0.2183353751897812,
        0.015411896631121635,
        -0.06014196202158928,
        -0.07546267658472061,
        0.030569851398468018,
        -0.02000001072883606,
        0.07114259153604507,
        -0.05836767330765724,
        0.04357627034187317,
        0.01257240679115057,
        -0.030078522861003876,
        0.14586053788661957,
        0.0430779829621315,
        -0.05415469780564308,
        0.08929044008255005,
        -0.03346334397792816,
        -0.06785853952169418,
        -0.16433905065059662,
        -0.10371150076389313,
        -0.07448461651802063,
        -0.010205375961959362,
        0.10884281992912292,
        0.16624926030635834,
        -0.02832670323550701,
        0.09749910980463028,
        -0.029629124328494072,
        -0.028847191482782364,
        0.05555376783013344,
        0.030684202909469604,
        -0.05595017224550247,
        -0.12512336671352386,
        0.09877371788024902,
        -0.005679037421941757,
        0.0006280888337641954,
        -0.1411496102809906,
        -0.13987790048122406,
        0.06131944805383682,
        0.018676595762372017,
        -0.16481348872184753,
        0.029461504891514778,
        -0.056863848119974136,
        0.07363542169332504,
        -0.0623202845454216,
        0.05573336407542229,
        -0.04271816462278366,
        -0.03465939313173294,
        0.00993731152266264,
        0.06711369752883911,
        -0.07126480340957642,
        0.05048030614852905,
        -0.0454227589070797,
        -0.04785104840993881,
        -0.03527272865176201,
        -0.037077896296978,
        -0.03944425284862518,
        -0.041378896683454514,
        0.16629087924957275,
        0.08353592455387115,
        0.1471056193113327,
        -0.08528964966535568,
        0.09637340903282166,
        0.04336530342698097,
        0.005648583173751831,
        -0.11345025897026062,
        0.1369708776473999,
        -0.06921076774597168,
        -0.09503445029258728,
        0.03782660886645317,
        -0.011499598622322083,
        0.0453360341489315,
        0.12429007142782211,
        -0.05685928463935852,
        -0.08900320529937744,
        0.16617794334888458,
        0.0066236332058906555,
        -0.08200390636920929,
        -0.05990099906921387,
        -0.05260098725557327,
        -0.032180625945329666,
        0.06964074075222015,
        0.005821724887937307,
        0.10713165253400803,
        0.06318697333335876,
        -0.005909825675189495,
        -0.028207408264279366,
        -0.009902743622660637,
        0.03452584147453308,
        -0.05538870021700859,
        0.07635299116373062,
        -0.11089061945676804,
        -0.024088256061077118,
        0.1383122056722641,
        -0.04005661979317665,
        0.037639450281858444,
        0.12520982325077057,
        0.05630454048514366,
        -0.05997127667069435,
        0.13471238315105438,
        0.12594641745090485,
        0.05282968282699585,
        0.16263696551322937,
        -0.038054145872592926,
        -0.05894612520933151,
        0.0014245122438296676,
        0.07307060807943344,
        0.18352778255939484,
        -0.113324373960495,
        -0.03732716664671898,
        0.051986973732709885,
        -0.15140077471733093,
        -0.04152855649590492,
        -0.015611238777637482,
        0.11067439615726471,
        0.06016081944108009,
        0.03674007207155228,
        0.01091153547167778,
        -0.09302164614200592,
        0.19251833856105804,
        0.021135274320840836,
        -0.07725665718317032,
        -0.046108826994895935,
        0.08079274743795395,
        0.03900798410177231,
        -0.08220118284225464,
        0.009244542568922043,
        0.07833493500947952,
        -0.05637172982096672,
        0.0002864172274712473,
        0.12930423021316528,
        -0.007552188355475664,
        0.08112593740224838,
        0.08921115100383759,
        0.07268516719341278,
        -0.010591916739940643,
        -0.09786102175712585,
        0.12303102761507034,
        0.17860697209835052,
        0.11491616070270538,
        0.04938599094748497,
        -0.13556228578090668,
        0.10250182449817657,
        0.02263171784579754,
        -0.0026878095231950283,
        0.12626279890537262,
        0.11914730072021484,
        -0.17888309061527252,
        0.011452496983110905,
        -0.035951562225818634,
        -0.07769442349672318,
        -0.18570531904697418,
        0.09095277637243271,
        -0.019521303474903107,
        0.17387686669826508,
        0.03922612965106964,
        0.11915798485279083,
        -0.02691357582807541,
        0.03159686177968979,
        0.006357057951390743,
        -0.16474831104278564,
        -0.1162465363740921,
        -0.07621865719556808,
        -0.178005188703537,
        -0.17490944266319275,
        0.01962265558540821,
        0.048001978546381,
        0.10164390504360199,
        -0.06123553588986397,
        -0.01390666514635086,
        -0.10007332265377045,
        -0.0006836800603196025,
        -0.06273501366376877,
        0.09837547689676285,
        -0.20463797450065613,
        -0.059533294290304184,
        -0.13036157190799713,
        -0.1397593468427658,
        0.056502994149923325,
        -0.17314720153808594,
        -0.038283079862594604,
        0.030384209007024765,
        0.07520385086536407,
        0.003263110527768731,
        -0.03929077833890915,
        0.1477382332086563,
        -0.03579966351389885,
        -0.012970034033060074,
        -0.02261873334646225,
        0.08663193136453629,
        -0.05586174502968788,
        0.1470109075307846,
        0.0066101811826229095,
        -0.18256527185440063,
        0.009578397497534752,
        0.03316595032811165,
        0.09230729937553406,
        -0.0676957368850708,
        0.06666023284196854,
        0.022929688915610313,
        0.01648608036339283,
        -0.028667660430073738,
        0.11881561577320099,
        0.006949486210942268,
        -0.05678320676088333,
        -0.11780376732349396,
        0.12348966300487518,
        -0.07940622419118881,
        0.033584173768758774,
        -0.28550392389297485,
        0.015842003747820854,
        0.07582038640975952,
        -0.19386930763721466,
        -0.13830037415027618,
        0.01927754655480385,
        -0.025804242119193077,
        0.13149535655975342,
        -0.11465233564376831,
        0.055034469813108444,
        0.04626069217920303,
        -0.07270194590091705,
        0.017546463757753372,
        -0.006263182498514652,
        0.05568481236696243,
        -0.020844269543886185,
        0.12334595620632172,
        0.055881042033433914,
        0.07127346843481064,
        0.09876307845115662,
        -0.09021761268377304,
        0.012438904494047165,
        -0.07598327100276947,
        0.10726786404848099,
        0.016153374686837196,
        -0.07490723580121994,
        -0.10328973829746246,
        0.08446209132671356,
        0.00418046722188592,
        -0.05440080538392067,
        0.07335945218801498,
        -0.13309895992279053,
        -0.016678163781762123,
        0.06750597804784775,
        0.04169540852308273,
        0.037953924387693405,
        0.009736038744449615,
        0.1178349032998085,
        -0.11551632732152939,
        0.03667110204696655,
        -0.1237378939986229,
        0.14247748255729675,
        0.006191288586705923,
        0.09054673463106155,
        -0.01599021628499031,
        -0.15639035403728485,
        0.0039291116409003735,
        0.04644453153014183,
        -0.15902914106845856,
        -0.05479322001338005,
        -0.18278522789478302,
        -0.0015111357206478715,
        0.046614691615104675,
        -0.18530912697315216,
        0.05711425468325615,
        0.09080405533313751,
        -0.04987376928329468,
        -0.001365763833746314,
        -0.09014234691858292,
        0.07587485760450363,
        0.11626133322715759,
        0.0019254465587437153
      ],
      "bias": [
        -0.26607123017311096,
        0.02934887446463108,
        0.08620523661375046,
        0.05347803980112076
      ]
    },
    "conv2d_1_tf2": {
      "name": "conv2d_1_tf2",
      "type": "conv",
      "inputs": [
        "conv2d_tf",
        "conv2d_tf1"
      ],
      "output": "conv2d_1_tf2",
      "weights": [
        0.01348673552274704,
        0.10024087131023407,
        -0.013429887592792511,
        -0.00928744301199913,
        0.09613116830587387,
        0.07207460701465607,
        -0.07654549181461334,
        0.04153788462281227,
        -0.11738990247249603,
        0.09289834648370743,
        0.12240760773420334,
        0.027920987457036972,
        0.0037542928475886583,
        -0.015559399500489235,
        0.03653215616941452,
        0.06848210096359253,
        0.037692464888095856,
        -0.10647472739219666,
        0.124117910861969,
        0.06474123150110245,
        0.03141985088586807,
        -0.06227029114961624,
        0.03756266087293625,
        0.01735544018447399,
        0.03633762523531914,
        -0.019477710127830505,
        -0.0847940742969513,
        0.04799104109406471,
        0.04566178470849991,
        0.045527033507823944,
        0.06085655093193054,
        0.021560633555054665,
        -0.009690993465483189,
        -0.04429537430405617,
        -0.029878119006752968,
        -0.01391512993723154,
        0.15729543566703796,
        -0.015990689396858215,
        0.012198586948215961,
        -0.019773351028561592,
        0.0220197644084692,
        0.03427813947200775,
        0.057206425815820694,
        -0.020028453320264816,
        -0.03677627816796303,
        -0.06545785814523697,
        -0.009545971639454365,
        -0.07137431204319,
        0.04419737309217453,
        0.025231411680579185,
        -0.07563706487417221,
        0.07312224060297012,
        -0.03708033263683319,
        0.027625927701592445,
        -0.13669787347316742,
        0.08032079041004181,
        0.09332020580768585,
        -0.0050668250769376755,
        -0.05542623624205589,
        -0.16237352788448334,
        -0.07531467825174332,
        0.03178830072283745,
        0.007970072329044342,
        -0.004658855032175779,
        0.0659911185503006,
        -0.029026448726654053,
        -0.12164346873760223,
        -0.010521664284169674,
        0.04442020133137703,
        -0.03877837210893631,
        -0.066683828830719,
        0.02233710139989853,
        0.029832150787115097,
        0.10776809602975845,
        -0.10377223789691925,
        0.1437467485666275,
        0.058200180530548096,
        -0.15717631578445435,
        -0.015944646671414375,
        -0.1672789454460144,
        -0.06191078945994377,
        0.051974449306726456,
        -0.02141411229968071,
        0.045911651104688644,
        -0.018824251368641853,
        0.06388115137815475,
        0.033811405301094055,
        0.0786585882306099,
        0.034692052751779556,
        -0.03367074579000473,
        -0.018843067809939384,
        -0.03186291456222534,
        -0.20916509628295898,
        0.12263133376836777,
        -0.02934441901743412,
        -0.002095163334161043,
        0.005213433876633644,
        -0.09379161149263382,
        -0.08140105754137039,
        0.03931223601102829,
        0.11646449565887451,
        0.14903485774993896,
        0.028689568862318993,
        0.006028420757502317,
        -0.06301813572645187,
        -0.02488420344889164,
        0.10285809636116028,
        0.07304693758487701,
        -0.012145270593464375,
        0.18821077048778534,
        0.03796875476837158,
        -0.01744774356484413,
        0.11753680557012558,
        -0.05442295968532562,
        0.023831821978092194,
        -0.07816606014966965,
        0.015053008683025837,
        -0.15359850227832794,
        -0.13840538263320923,
        0.024771567434072495,
        0.048722513020038605,
        0.05823380500078201,
        0.09300512820482254,
        0.11762886494398117,
        -0.0389958992600441,
        0.023272061720490456,
        -0.06280969828367233,
        0.005886836908757687,
        0.02047145925462246,
        0.00958301778882742,
        -0.06643830984830856,
        0.019844844937324524,
        0.0724811926484108,
        0.062452446669340134,
        0.012325873598456383,
        -0.03645586967468262,
        -0.08306587487459183,
        -0.058146074414253235,
        -0.13402415812015533,
        -0.0008825746481306851,
        -0.013835236430168152,
        -0.019179049879312515,
        -0.024761924520134926,
        0.10730291157960892,
        0.04753183573484421,
        -0.05182186886668205,
        -0.056307852268218994,
        -0.035562317818403244,
        0.043778304010629654,
        0.1263730227947235,
        0.11964340507984161,
        0.05498455464839935,
        0.07255584001541138,
        -0.022372474893927574,
        0.019430145621299744,
        0.05323343724012375,
        -0.07170973718166351,
        0.01649690791964531,
        -0.018959050998091698,
        0.11590999364852905,
        -0.06043349951505661,
        0.11099265515804291,
        0.03755185380578041,
        -0.020021939650177956,
        0.006795548368245363,
        0.07998128980398178,
        0.09357370436191559,
        -0.08986930549144745,
        -0.044940266758203506,
        0.0079431077465415,
        -0.009933763183653355,
        -0.07728497684001923,
        -0.0235870573669672,
        -0.18836313486099243,
        0.0014562745345756412,
        -0.12882962822914124,
        0.08155549317598343,
        -0.03815418481826782,
        -0.015561972744762897,
        0.07845862209796906,
        -0.1277119368314743,
        0.2013915330171585,
        0.022730819880962372,
        0.07119240611791611,
        0.18760056793689728,
        -0.03366154432296753,
        0.03590290993452072,
        0.004976246505975723,
        -0.019246898591518402,
        -0.10209415853023529,
        -0.018672095611691475,
        -0.033001236617565155,
        0.049465931951999664,
        0.03773622214794159,
        -0.10559073090553284,
        -0.00471256161108613,
        -0.09056179225444794,
        -0.009165939874947071,
        -0.029334882274270058,
        0.02836558036506176,
        -0.0087970532476902,
        0.033947382122278214,
        -0.017101213335990906,
        0.08551075309515,
        -0.08735430240631104,
        -0.015555189922451973,
        -0.0353049635887146,
        -0.058052364736795425,
        0.11498056352138519,
        0.004330622032284737,
        0.18068437278270721,
        0.04734473675489426,
        -0.033489812165498734,
        -0.01596028171479702,
        0.08748362213373184,
        -0.038779906928539276,
        -0.08710315823554993,
        0.13025614619255066,
        0.008077207952737808,
        -0.057785097509622574,
        0.02689114212989807,
        0.05185814946889877,
        0.07385377585887909,
        0.0606875866651535,
        0.11168831586837769,
        -0.16233788430690765,
        0.08042583614587784,
        -0.008303557522594929,
        -0.019259195774793625,
        0.1786879003047943,
        0.1757662147283554,
        0.04703211039304733,
        0.03587422892451286,
        0.07981386035680771,
        -0.008034002967178822,
        0.1230984702706337,
        -0.030421486124396324,
        0.09541017562150955,
        0.029813172295689583,
        -0.030688593164086342,
        0.06735540181398392,
        0.07615933567285538,
        -0.0546339713037014,
        -0.002705363556742668,
        -0.032982487231492996,
        0.03963218256831169,
        0.0029304323252290487,
        -0.08015009760856628,
        -0.017986228689551353,
        -0.05628059804439545,
        -0.1252288669347763,
        0.15204453468322754,
        0.030100269243121147,
        0.07149095833301544,
        -0.07751511037349701,
        0.03363523632287979,
        0.003269683802500367,
        0.15086966753005981,
        0.04526738449931145,
        0.014427494257688522,
        -0.1281658113002777,
        0.07870995253324509,
        0.16514331102371216,
        0.044792719185352325,
        -0.1915912926197052,
        0.006514739710837603,
        0.2161565124988556,
        -0.03593786060810089,
        0.05349421128630638,
        -0.016573382541537285,
        -0.022363770753145218,
        0.02143259532749653,
        0.0274188369512558,
        -0.06625989079475403,
        -0.05141325294971466,
        0.23562091588974,
        -0.04112600162625313,
        0.28041431307792664,
        0.20952202379703522,
        0.0008926527225412428,
        -0.1638093888759613,
        -0.09551702439785004,
        0.008731703273952007,
        -0.14965221285820007,
        -0.04720798507332802,
        0.1257837414741516,
        0.06215761974453926,
        -0.019620666280388832,
        0.007615788374096155,
        0.13442128896713257,
        -0.06586872041225433,
        0.0070894332602620125,
        0.08705374598503113,
        0.07354875653982162,
        -0.018597623333334923,
        -0.003271472407504916,
        0.0845099464058876,
        -0.07912158221006393,
        0.125787615776062,
        -0.12201377004384995,
        0.00948243122547865,
        -0.046823933720588684,
        -0.08677593618631363,
        -0.012919267639517784,
        0.11350615322589874,
        -0.32674774527549744,
        0.06627187132835388,
        0.09586970508098602,
        0.1256812959909439,
        0.10064585506916046,
        -0.005362692754715681,
        -0.057776786386966705,
        0.08739779889583588,
        -0.26138827204704285,
        0.23835310339927673,
        0.043229784816503525,
        -0.2217257022857666,
        -0.07925540953874588,
        -0.07224276661872864,
        -0.09842077642679214,
        -0.008411131799221039,
        0.10207702964544296,
        0.12892000377178192,
        -0.01555351447314024,
        -0.06314921379089355,
        -0.12106650322675705,
        -0.06197576969861984,
        0.09561373293399811,
        0.10975532233715057,
        -0.0010300857247784734,
        0.24346153438091278,
        -0.32307660579681396,
        0.12866979837417603,
        0.2847953140735626,
        0.003608293365687132,
        -0.1850694864988327,
        0.0539579838514328,
        -0.03293484076857567,
        0.07889237999916077,
        0.07522431761026382,
        -0.04595138505101204,
        0.03985796123743057,
        0.012882360257208347,
        0.11917653679847717,
        0.1389554888010025,
        0.07594954967498779,
        0.05265342444181442,
        0.025964856147766113,
        0.10349895060062408,
        0.009834198281168938,
        -0.08838654309511185,
        -0.014023266732692719,
        -0.204115629196167,
        -0.21552568674087524,
        -0.01732531562447548,
        -0.014835023321211338,
        0.03659653663635254,
        -0.14843031764030457,
        0.09187127649784088,
        -0.05827073007822037,
        -0.31675541400909424,
        0.07545249164104462,
        0.05206694081425667,
        0.059204310178756714,
        0.002003726549446583,
        0.13716787099838257,
        0.05316726490855217,
        -0.05624432861804962,
        -0.10524185001850128,
        -0.022071095183491707,
        0.0174663495272398,
        0.04358964413404465,
        -0.03528439626097679,
        -0.012779314070940018,
        0.01686779595911503,
        -0.03360750153660774,
        -0.0958012193441391,
        0.030291372910141945,
        0.12562967836856842,
        -0.28157737851142883,
        0.07330940663814545,
        -0.029285861179232597,
        -0.009575332514941692,
        -0.02305881306529045,
        -0.04466748982667923,
        -0.03924158960580826,
        -0.1313645839691162,
        -0.045551929622888565,
        -0.04926491901278496,
        0.17679962515830994,
        -0.1114654690027237,
        -0.026226066052913666,
        0.01461365818977356,
        0.10162390023469925,
        -0.052232686430215836,
        -0.08576782792806625,
        0.07475505769252777,
        0.02196653187274933,
        -0.026518957689404488,
        -0.0356411449611187,
        -0.009890840388834476,
        0.015836168080568314,
        -0.11507503688335419,
        -0.11390604078769684,
        -0.11843471974134445,
        0.03761790320277214,
        -0.07757655531167984,
        0.1620204895734787,
        -0.02867925353348255,
        0.06724359095096588,
        -0.019388066604733467,
        -0.04040822759270668,
        0.20516623556613922,
        0.062198951840400696,
        -0.09425288438796997,
        0.06291839480400085,
        -0.09937440603971481,
        0.08052808046340942,
        -0.033406294882297516,
        -0.0527903251349926,
        0.024271292611956596,
        0.1127716600894928,
        0.1316571682691574,
        0.03550562262535095,
        0.12144270539283752,
        0.022516226395964622,
        0.02738140895962715,
        0.11575420200824738,
        0.1366492062807083,
        -0.04867960140109062,
        0.006761526223272085,
        -0.03807596489787102,
        0.026534823700785637,
        0.18528053164482117,
        -0.003957757726311684,
        -0.015554473735392094,
        0.04269213601946831,
        0.1396324187517166,
        -0.06848632544279099,
        0.05936107784509659,
        -0.06473640352487564,
        -0.017718572169542313,
        0.024034803733229637,
        -0.11439541727304459,
        -0.1582394540309906,
        0.11912499368190765,
        -0.09364700317382812,
        -0.1503056287765503,
        0.010704904794692993,
        0.04999891296029091,
        0.1093720942735672,
        0.03312043100595474,
        -0.05673227086663246,
        -0.06271059811115265,
        -0.10560457408428192,
        -0.14609557390213013,
        0.022903552278876305,
        -0.015707233920693398,
        -0.15545739233493805,
        0.13295745849609375,
        -0.08615399152040482,
        0.14768053591251373,
        -0.127572163939476,
        -0.09404689818620682,
        0.0008091225754469633,
        -0.04395219311118126,
        -0.1320458948612213,
        -0.07145130634307861,
        0.15263402462005615,
        -0.02878984622657299,
        -0.02299666777253151,
        -0.005581328179687262,
        -0.06506429612636566,
        0.07945400476455688,
        -0.0034188965801149607,
        -0.02724381722509861,
        -0.0024268741253763437,
        0.13840191066265106,
        -0.04013471305370331,
        -0.12111631780862808,
        -0.14717471599578857,
        -0.14071883261203766,
        0.07481561601161957,
        -0.00821754615753889,
        -0.1343994140625,
        -0.008490384556353092,
        -0.010820627212524414,
        0.07912731915712357,
        0.1745515763759613,
        -0.10608035326004028,
        0.08959279954433441,
        -0.287600576877594,
        0.07097579538822174,
        -0.1315368115901947,
        -0.001059086760506034,
        -0.06969881057739258,
        0.02780069038271904,
        0.12346060574054718,
        -0.08643777668476105,
